<?xml version="1.0"?>
<opencv_storage>
<my_svm type_id="opencv-ml-svm">
  <svm_type>C_SVC</svm_type>
  <kernel><type>RBF</type>
    <gamma>5.0625000000000009e-01</gamma></kernel>
  <C>3.1250000000000000e+02</C>
  <term_criteria><epsilon>9.9999999747524271e-07</epsilon>
    <iterations>1000</iterations></term_criteria>
  <var_all>1000</var_all>
  <var_count>1000</var_count>
  <class_count>2</class_count>
  <class_labels type_id="opencv-matrix">
    <rows>1</rows>
    <cols>2</cols>
    <dt>i</dt>
    <data>
      -1 1</data></class_labels>
  <sv_total>105</sv_total>
  <support_vectors>
    <_>
      0. 0. 0. 0. 0. 0. 0. 0. 4.69483575e-03 0. 4.69483575e-03 0. 0.
      4.69483575e-03 4.69483575e-03 0. 0. 4.69483575e-03 0.
      4.69483575e-03 0. 0. 0. 0. 4.69483575e-03 0. 0. 0. 0. 0. 0.
      4.69483575e-03 0. 4.69483575e-03 4.69483575e-03 0. 0. 0. 0.
      4.69483575e-03 0. 0. 0. 0. 0. 0. 0. 0. 0. 0. 9.38967150e-03 0. 0.
      0. 0. 0. 0. 4.69483575e-03 0. 0. 0. 0. 0. 0. 0. 0. 0. 0.
      4.69483575e-03 0. 0. 0. 4.69483575e-03 4.69483575e-03 0. 0.
      4.69483575e-03 0. 4.69483575e-03 0. 0. 0. 0. 4.69483575e-03
      4.69483575e-03 0. 0. 0. 0. 0. 0. 0. 2.81690136e-02 0. 0. 0. 0. 0.
      0. 0. 4.69483575e-03 0. 0. 0. 0. 4.69483575e-03 0. 0. 0.
      9.38967150e-03 0. 0. 0. 0. 0. 0. 4.69483575e-03 4.69483575e-03
      1.40845068e-02 0. 4.69483575e-03 0. 0. 0. 0. 0. 0. 0.
      9.38967150e-03 0. 0. 0. 4.69483575e-03 0. 0. 0. 4.69483575e-03 0.
      0. 0. 0. 0. 9.38967150e-03 0. 0. 0. 4.69483575e-03 0. 0. 0. 0. 0.
      0. 4.69483575e-03 0. 0. 0. 0. 0. 0. 0. 0. 0. 0. 4.69483575e-03 0.
      0. 0. 0. 0. 0. 0. 0. 0. 0. 0. 0. 0. 0. 0. 0. 0. 0. 0. 0.
      4.69483575e-03 9.38967150e-03 4.69483575e-03 4.69483575e-03
      9.38967150e-03 0. 0. 0. 0. 0. 0. 0. 0. 0. 0. 0. 0. 0. 0.
      4.69483575e-03 0. 0. 0. 0. 0. 0. 0. 0. 4.69483575e-03 0. 0. 0. 0.
      0. 0. 4.69483575e-03 0. 0. 0. 0. 0. 4.69483575e-03 0. 0. 0.
      4.69483575e-03 0. 0. 4.69483575e-03 0. 0. 0. 4.69483575e-03 0. 0.
      0. 0. 4.69483575e-03 0. 0. 0. 0. 0. 4.69483575e-03 0. 0.
      4.69483575e-03 0. 0. 0. 0. 0. 0. 9.38967150e-03 0. 0. 0. 0. 0. 0.
      0. 0. 0. 0. 0. 0. 0. 9.38967150e-03 0. 4.69483575e-03 0.
      1.40845068e-02 0. 0. 4.69483575e-03 0. 0. 0. 0. 0. 0. 0. 0. 0. 0.
      0. 0. 0. 0. 0. 4.69483575e-03 0. 0. 0. 0. 0. 4.69483575e-03
      9.38967150e-03 0. 0. 0. 0. 0. 0. 0. 4.69483575e-03 0. 0. 0. 0. 0.
      0. 0. 0. 0. 0. 0. 0. 0. 0. 0. 0. 4.69483575e-03 4.69483575e-03 0.
      0. 0. 0. 4.69483575e-03 0. 0. 9.38967150e-03 0. 0. 4.69483575e-03
      9.38967150e-03 0. 0. 0. 0. 0. 0. 0. 4.69483575e-03 0. 0. 0. 0. 0.
      4.69483575e-03 0. 0. 4.69483575e-03 0. 0. 4.69483575e-03 0. 0. 0.
      0. 9.38967150e-03 0. 0. 0. 0. 0. 0. 0. 0. 0. 0. 0. 0. 0. 0. 0. 0.
      0. 0. 0. 0. 0. 0. 0. 0. 0. 0. 4.69483575e-03 0. 0. 0. 0. 0.
      4.69483575e-03 0. 0. 0. 4.69483575e-03 0. 0. 0. 0. 0. 0. 0.
      9.38967150e-03 0. 0. 0. 0. 4.69483575e-03 0. 0. 0. 0. 0. 0. 0. 0.
      0. 0. 0. 0. 0. 4.69483575e-03 0. 4.69483575e-03 4.69483575e-03 0.
      0. 0. 0. 0. 0. 4.69483575e-03 4.69483575e-03 0. 0. 0. 0. 0. 0. 0.
      0. 0. 0. 0. 4.69483575e-03 0. 0. 9.38967150e-03 0. 0. 0.
      4.69483575e-03 0. 4.69483575e-03 0. 0. 4.69483575e-03 0.
      4.69483575e-03 4.69483575e-03 0. 0. 0. 0. 0. 0. 0. 0. 0. 0. 0. 0.
      0. 0. 0. 0. 9.38967150e-03 0. 0. 0. 0. 0. 0. 0. 0. 0. 0. 0. 0.
      9.38967150e-03 0. 4.69483575e-03 0. 0. 9.38967150e-03 0. 0. 0. 0.
      0. 0. 0. 0. 0. 0. 0. 0. 4.69483575e-03 1.40845068e-02 0. 0. 0.
      4.69483575e-03 0. 0. 0. 4.69483575e-03 0. 0. 0. 0. 0. 0. 0.
      4.69483575e-03 4.69483575e-03 0. 0. 0. 0. 0. 4.69483575e-03 0. 0.
      0. 0. 0. 0. 0. 0. 4.69483575e-03 0. 0. 0. 0. 4.69483575e-03 0. 0.
      0. 4.69483575e-03 4.69483575e-03 0. 0. 0. 0. 0. 0. 0. 0.
      4.69483575e-03 0. 0. 0. 4.69483575e-03 0. 0. 0. 0. 0. 0. 0. 0. 0.
      0. 4.69483575e-03 4.69483575e-03 0. 0. 4.69483575e-03 0. 0. 0. 0.
      0. 0. 0. 0. 0. 0. 0. 0. 0. 0. 0. 0. 0. 0. 0. 0. 0. 0. 0. 0. 0. 0.
      4.69483575e-03 0. 0. 0. 0. 4.69483575e-03 4.69483575e-03 0. 0.
      4.69483575e-03 0. 0. 4.69483575e-03 0. 0. 0. 0. 0. 0. 0. 0. 0. 0.
      4.69483575e-03 0. 0. 0. 0. 0. 0. 0. 0. 0. 4.69483575e-03
      4.69483575e-03 4.69483575e-03 0. 0. 0. 4.69483575e-03 0. 0. 0. 0.
      0. 4.69483575e-03 0. 4.69483575e-03 4.69483575e-03 0. 0. 0. 0. 0.
      0. 0. 4.69483575e-03 0. 4.69483575e-03 0. 0. 0. 0. 0. 0. 0. 0. 0.
      0. 0. 0. 0. 0. 0. 0. 0. 0. 0. 0. 0. 4.69483575e-03 4.69483575e-03
      0. 0. 0. 0. 0. 0. 0. 0. 0. 0. 0. 0. 0. 0. 0. 0. 0. 0. 0. 0.
      9.38967150e-03 0. 0. 4.69483575e-03 0. 0. 0. 0. 0. 4.69483575e-03
      0. 0. 4.69483575e-03 0. 0. 4.69483575e-03 4.69483575e-03 0. 0. 0.
      0. 0. 0. 0. 0. 4.69483575e-03 0. 0. 0. 0. 4.69483575e-03 0. 0. 0.
      0. 9.38967150e-03 0. 9.38967150e-03 0. 0. 0. 0. 0. 0. 0. 0. 0. 0.
      0. 0. 0. 0. 0. 0. 9.38967150e-03 0. 0. 0. 0. 0. 0. 0. 0. 0. 0.
      4.69483575e-03 0. 0. 0. 4.69483575e-03 0. 0. 0. 0. 0. 0. 0.
      4.69483575e-03 9.38967150e-03 4.69483575e-03 0. 0. 0. 0. 0. 0.
      4.69483575e-03 0. 0. 0. 0. 0. 0. 0. 0. 0. 0. 0. 0. 0.
      4.69483575e-03 1.87793430e-02 0. 0. 4.69483575e-03 0. 0. 0. 0. 0.
      0. 0. 4.69483575e-03 0. 0. 0. 4.69483575e-03 0. 0. 0. 0. 0. 0. 0.
      0. 0. 0. 0. 0. 0. 0. 0. 0. 0. 0. 0. 0. 0. 0. 0. 0. 0. 0. 0. 0. 0.
      0. 0. 0. 4.69483575e-03 0. 0. 0. 9.38967150e-03 0. 9.38967150e-03
      0. 0. 0. 0. 1.40845068e-02 0. 0. 0. 0. 0. 0. 4.69483575e-03 0. 0.
      0. 0. 0. 0. 0. 0. 0. 0. 0. 0. 0. 0. 4.69483575e-03 0. 0. 0. 0. 0.
      0. 0. 0. 0. 0. 0. 0. 0. 0. 4.69483575e-03 0. 9.38967150e-03 0. 0.
      0. 0. 0. 0. 4.69483575e-03 0. 0. 0. 0. 0. 0. 0. 0. 0. 0.
      9.38967150e-03 0. 0. 0. 0. 4.69483575e-03 0. 0. 0. 0. 0.
      4.69483575e-03 0. 0. 4.69483575e-03 4.69483575e-03 0. 0.
      9.38967150e-03 4.69483575e-03 0. 0. 4.69483575e-03 0. 0. 0. 0. 0.
      0. 0. 0. 0. 0. 0. 0. 0. 9.38967150e-03 0. 0. 0. 0. 4.69483575e-03
      0. 0. 0. 0. 0. 0. 0. 0. 0. 0. 0. 9.38967150e-03 0. 9.38967150e-03
      0. 0. 0. 0. 0. 0. 0. 0. 0. 0. 0. 0.</_>
    <_>
      0. 0. 1.82149361e-03 3.64298723e-03 1.82149361e-03 1.09289614e-02
      0. 0. 0. 1.82149361e-03 0. 1.82149361e-03 1.82149361e-03 0. 0.
      3.64298723e-03 0. 0. 0. 7.28597445e-03 0. 0. 1.09289614e-02
      3.64298723e-03 0. 0. 0. 0. 0. 0. 0. 1.82149361e-03 1.82149361e-03
      0. 0. 0. 0. 0. 1.82149361e-03 0. 0. 1.82149361e-03 0.
      1.82149361e-03 1.82149361e-03 1.82149361e-03 7.28597445e-03
      1.82149361e-03 1.82149361e-03 7.28597445e-03 3.64298723e-03 0. 0.
      0. 1.82149361e-03 0. 0. 1.82149361e-03 0. 0. 1.82149361e-03
      1.82149361e-03 0. 0. 0. 0. 1.82149361e-03 0. 1.82149361e-03
      7.28597445e-03 0. 0. 3.64298723e-03 0. 1.82149361e-03 0. 0. 0.
      1.82149361e-03 1.82149361e-03 0. 1.82149361e-03 0. 0. 0.
      3.64298723e-03 0. 1.82149361e-03 3.64298723e-03 0. 0.
      3.64298723e-03 0. 0. 1.82149361e-03 0. 0. 0. 0. 0. 0.
      1.82149361e-03 1.82149361e-03 0. 0. 0. 0. 0. 0. 0. 3.64298723e-03
      0. 0. 0. 0. 0. 0. 3.64298723e-03 0. 0. 5.46448072e-03 0. 0. 0. 0.
      3.64298723e-03 1.82149361e-03 1.82149361e-03 0. 3.64298723e-03 0.
      0. 7.28597445e-03 0. 1.82149361e-03 0. 0. 1.82149361e-03 0. 0. 0.
      0. 3.64298723e-03 1.82149361e-03 1.82149361e-03 3.64298723e-03 0.
      1.82149361e-03 0. 1.82149361e-03 1.82149361e-03 0. 3.64298723e-03
      1.82149361e-03 0. 0. 1.82149361e-03 5.46448072e-03 0. 0. 0. 0. 0.
      0. 1.82149361e-03 0. 1.82149361e-03 0. 0. 1.82149361e-03 0. 0. 0.
      0. 1.82149361e-03 0. 1.82149361e-03 0. 0. 1.82149361e-03 0.
      1.82149361e-03 1.82149361e-03 5.46448072e-03 1.82149361e-03
      1.82149361e-03 0. 0. 0. 0. 0. 0. 3.64298723e-03 0. 3.64298723e-03
      0. 0. 1.82149361e-03 0. 1.82149361e-03 1.82149361e-03 0. 0.
      1.82149361e-03 0. 0. 1.82149361e-03 0. 1.82149361e-03 0. 0. 0.
      7.28597445e-03 0. 1.82149361e-03 1.82149361e-03 0. 1.82149361e-03
      3.64298723e-03 0. 0. 1.82149361e-03 0. 0. 0. 0. 1.82149361e-03 0.
      0. 0. 1.82149361e-03 0. 0. 0. 0. 0. 0. 0. 0. 1.82149361e-03 0.
      1.82149361e-03 0. 0. 0. 1.82149361e-03 0. 0. 0. 0. 0. 0. 0.
      1.82149361e-03 0. 1.82149361e-03 0. 0. 1.82149361e-03
      1.82149361e-03 1.82149361e-03 1.82149361e-03 0. 0. 0.
      3.64298723e-03 0. 0. 0. 0. 0. 0. 1.82149361e-03 0. 0. 0. 0. 0.
      5.46448072e-03 0. 0. 0. 0. 0. 0. 0. 0. 1.82149361e-03 0.
      1.82149361e-03 0. 0. 0. 0. 0. 1.82149361e-03 0. 0. 0.
      1.82149361e-03 3.64298723e-03 0. 0. 7.28597445e-03 0. 0. 0. 0. 0.
      1.82149361e-03 1.82149361e-03 0. 0. 0. 0. 0. 0. 0. 0. 0. 0. 0.
      1.82149361e-03 1.82149361e-03 0. 0. 0. 5.46448072e-03 0.
      3.64298723e-03 0. 9.10746772e-03 1.82149361e-03 0. 0. 0. 0.
      1.82149361e-03 0. 0. 0. 5.46448072e-03 1.82149361e-03 0.
      1.82149361e-03 1.82149361e-03 1.82149361e-03 0. 0. 0. 0. 0. 0. 0.
      1.82149361e-03 9.10746772e-03 1.82149361e-03 5.46448072e-03 0. 0.
      1.82149361e-03 0. 1.82149361e-03 0. 0. 1.82149361e-03
      1.27504552e-02 0. 1.82149361e-03 0. 0. 0. 0. 3.64298723e-03 0. 0.
      0. 1.45719489e-02 0. 1.82149361e-03 0. 0. 0. 3.64298723e-03 0. 0.
      0. 0. 1.82149361e-03 5.46448072e-03 0. 0. 0. 0. 0. 1.82149361e-03
      0. 1.82149361e-03 0. 0. 1.82149361e-03 0. 1.82149361e-03
      1.82149361e-03 1.82149361e-03 0. 0. 0. 3.64298723e-03 0. 0. 0.
      3.64298723e-03 0. 3.64298723e-03 0. 0. 0. 0. 3.64298723e-03 0. 0.
      0. 0. 1.82149361e-03 0. 0. 0. 1.82149361e-03 0. 0. 0. 0. 0.
      1.82149361e-03 7.28597445e-03 1.82149361e-03 0. 1.82149361e-03 0.
      1.82149361e-03 0. 0. 0. 0. 0. 3.64298723e-03 1.82149361e-03
      3.64298723e-03 0. 0. 0. 0. 0. 3.64298723e-03 0. 0. 0. 0. 0.
      1.82149361e-03 0. 0. 0. 0. 5.46448072e-03 0. 1.82149361e-03 0.
      1.82149361e-03 0. 1.82149361e-03 0. 0. 1.82149361e-03 0.
      1.82149361e-03 0. 3.64298723e-03 0. 0. 0. 0. 0. 3.64298723e-03 0.
      0. 0. 1.82149361e-03 1.82149361e-03 0. 5.46448072e-03 0.
      3.64298723e-03 1.82149361e-03 0. 0. 0. 0. 1.82149361e-03 0. 0.
      1.82149361e-03 1.82149361e-03 0. 5.46448072e-03 0. 0. 0.
      1.82149361e-03 3.64298723e-03 3.64298723e-03 0. 0. 5.46448072e-03
      0. 0. 0. 0. 0. 1.82149361e-03 3.64298723e-03 1.82149361e-03
      1.82149361e-03 3.64298723e-03 0. 1.82149361e-03 0. 0. 0.
      1.82149361e-03 0. 1.82149361e-03 0. 0. 1.82149361e-03 0. 0.
      9.10746772e-03 0. 1.82149361e-03 3.64298723e-03 0. 0. 0. 0.
      1.82149361e-03 1.82149361e-03 0. 0. 0. 3.64298723e-03 0. 0.
      1.82149361e-03 0. 1.82149361e-03 7.28597445e-03 3.64298723e-03 0.
      1.82149361e-03 1.82149361e-03 0. 0. 1.82149361e-03 0. 0. 0.
      5.46448072e-03 0. 1.82149361e-03 0. 0. 0. 1.82149361e-03
      1.82149361e-03 0. 1.82149361e-03 1.82149361e-03 1.82149361e-03 0.
      0. 1.82149361e-03 0. 0. 1.82149361e-03 1.82149361e-03
      3.64298723e-03 5.46448072e-03 0. 1.82149361e-03 0. 1.82149361e-03
      0. 0. 0. 0. 0. 7.28597445e-03 0. 1.82149361e-03 0. 0.
      1.82149361e-03 0. 3.64298723e-03 0. 0. 1.82149361e-03
      1.82149361e-03 0. 0. 0. 0. 0. 1.82149361e-03 1.82149361e-03 0. 0.
      0. 0. 0. 1.82149361e-03 1.82149361e-03 1.82149361e-03 0. 0. 0.
      1.82149361e-03 0. 0. 1.82149361e-03 0. 1.82149361e-03
      1.82149361e-03 0. 3.64298723e-03 3.64298723e-03 1.82149361e-03 0.
      0. 0. 1.82149361e-03 5.46448072e-03 0. 7.28597445e-03 0. 0. 0. 0.
      0. 0. 1.82149361e-03 0. 3.64298723e-03 0. 0. 0. 0. 0. 0. 0. 0. 0.
      0. 1.82149361e-03 1.82149361e-03 1.82149361e-03 0. 7.28597445e-03
      0. 0. 0. 0. 0. 0. 3.64298723e-03 0. 0. 0. 0. 0. 0. 0.
      3.64298723e-03 7.28597445e-03 0. 1.82149361e-03 3.64298723e-03
      1.82149361e-03 0. 0. 1.82149361e-03 0. 0. 0. 0. 1.82149361e-03 0.
      1.82149361e-03 3.64298723e-03 0. 0. 0. 0. 1.82149361e-03 0. 0. 0.
      1.82149361e-03 1.82149361e-03 0. 0. 0. 1.82149361e-03 0. 0. 0. 0.
      0. 3.64298723e-03 1.82149361e-03 3.64298723e-03 0. 1.82149361e-03
      1.82149361e-03 0. 0. 0. 0. 1.82149361e-03 0. 0. 3.64298723e-03
      3.64298723e-03 0. 0. 0. 0. 1.82149361e-03 1.82149361e-03 0. 0. 0.
      0. 1.82149361e-03 0. 0. 0. 0. 0. 0. 0. 0. 0. 3.64298723e-03 0. 0.
      0. 3.64298723e-03 1.82149361e-03 0. 0. 0. 3.64298723e-03 0.
      1.82149361e-03 0. 1.82149361e-03 5.46448072e-03 0. 0. 0.
      1.82149361e-03 0. 0. 1.82149361e-03 1.82149361e-03 0.
      5.46448072e-03 0. 0. 1.82149361e-03 1.82149361e-03 0. 0.
      3.64298723e-03 3.64298723e-03 0. 0. 0. 0. 1.82149361e-03
      1.82149361e-03 0. 0. 0. 0. 0. 0. 1.82149361e-03 0. 0. 0. 0. 0. 0.
      1.82149361e-03 0. 0. 0. 0. 0. 0. 1.82149361e-03 1.82149361e-03
      3.64298723e-03 0. 0. 0. 0. 0. 0. 0. 0. 0. 0. 0. 9.10746772e-03 0.
      0. 7.28597445e-03 0. 0. 0. 0. 1.82149361e-03 0. 0. 0. 0.
      3.64298723e-03 0. 0. 0. 3.64298723e-03 0. 0. 1.09289614e-02 0.
      1.82149361e-03 0. 0. 0. 0. 0. 0. 1.82149361e-03 1.82149361e-03
      1.82149361e-03 0. 0. 0. 0. 0. 0. 1.82149361e-03 5.46448072e-03
      3.64298723e-03 0. 0. 1.82149361e-03 0. 1.82149361e-03 0.
      1.82149361e-03 0. 0. 3.64298723e-03 0. 3.64298723e-03
      5.46448072e-03 3.64298723e-03 1.82149361e-03 1.82149361e-03 0. 0.
      0. 1.82149361e-03 1.82149361e-03 0. 0. 1.82149361e-03 0. 0. 0. 0.
      0. 0. 0. 0. 0. 5.46448072e-03 5.46448072e-03 0. 0. 0. 0. 0.
      1.82149361e-03 0. 0. 0. 0. 0. 1.82149361e-03 1.82149361e-03 0. 0.
      0. 0. 0. 1.82149361e-03 5.46448072e-03 1.82149361e-03 0.
      9.10746772e-03 0. 0. 1.82149361e-03 0. 1.82149361e-03
      1.82149361e-03 1.82149361e-03 0. 1.82149361e-03 0. 0.
      3.64298723e-03 0. 1.82149361e-03 0. 0. 1.82149361e-03 0. 0. 0. 0.
      0. 1.82149361e-03 1.82149361e-03 0. 0. 0. 0. 0. 0. 0. 0.
      1.82149361e-03 0. 3.64298723e-03 0. 1.82149361e-03 0. 0. 0. 0. 0.
      3.64298723e-03 0. 1.82149361e-03 3.64298723e-03 1.82149361e-03
      1.82149361e-03 0. 0. 0. 1.82149361e-03 1.82149361e-03 0. 0. 0. 0.
      0. 0. 0. 0. 1.82149361e-03 0. 0. 0. 0. 0. 0. 0. 0. 0.
      1.82149361e-03 0.</_>
    <_>
      0. 0. 0. 2.15982716e-03 0. 2.15982716e-03 0. 6.47948124e-03 0.
      2.15982716e-03 0. 4.31965431e-03 0. 4.31965431e-03 2.15982716e-03
      6.47948124e-03 4.31965431e-03 6.47948124e-03 0. 0. 2.15982716e-03
      2.15982716e-03 0. 0. 0. 0. 6.47948124e-03 4.31965431e-03
      4.31965431e-03 0. 0. 0. 0. 2.15982716e-03 2.15982716e-03 0.
      2.15982716e-03 0. 0. 0. 2.15982716e-03 0. 2.15982716e-03
      2.15982716e-03 2.15982716e-03 0. 0. 0. 4.31965431e-03 0.
      2.15982716e-03 0. 4.31965431e-03 0. 2.15982716e-03 2.15982716e-03
      0. 2.15982716e-03 2.15982716e-03 2.15982716e-03 0. 2.15982716e-03
      0. 0. 0. 0. 0. 2.15982716e-03 2.15982716e-03 0. 0. 0.
      2.15982716e-03 0. 0. 0. 2.15982716e-03 0. 4.31965431e-03 0.
      4.31965431e-03 0. 2.15982716e-03 0. 2.15982716e-03 2.15982716e-03
      2.15982716e-03 2.15982716e-03 2.15982716e-03 2.15982716e-03 0. 0.
      0. 0. 0. 2.15982716e-03 2.15982716e-03 0. 2.15982716e-03 0.
      2.15982716e-03 0. 0. 0. 0. 0. 0. 2.15982716e-03 0. 0. 0. 0.
      6.47948124e-03 2.15982716e-03 2.15982716e-03 0. 2.15982716e-03 0.
      2.15982716e-03 0. 4.31965431e-03 0. 0. 0. 0. 2.15982716e-03 0. 0.
      0. 2.15982716e-03 2.15982716e-03 2.15982716e-03 0. 0. 0. 0.
      2.15982716e-03 0. 2.15982716e-03 0. 0. 0. 2.15982716e-03 0.
      4.31965431e-03 0. 4.31965431e-03 4.31965431e-03 0. 0. 0.
      2.15982716e-03 0. 4.31965431e-03 0. 2.15982716e-03 0.
      8.63930862e-03 0. 0. 2.15982716e-03 0. 2.15982716e-03
      4.31965431e-03 2.15982716e-03 2.15982716e-03 0. 0. 0.
      2.15982716e-03 0. 2.15982716e-03 2.15982716e-03 0. 0. 0. 0. 0. 0.
      0. 0. 2.15982716e-03 0. 2.15982716e-03 0. 2.15982716e-03 0. 0. 0.
      2.15982716e-03 0. 0. 2.15982716e-03 0. 0. 0. 2.15982716e-03
      2.15982716e-03 0. 0. 0. 2.15982716e-03 0. 2.15982716e-03 0.
      2.15982716e-03 0. 0. 2.15982716e-03 0. 4.31965431e-03 0. 0. 0. 0.
      0. 0. 0. 2.15982716e-03 2.15982716e-03 0. 0. 0. 0. 0.
      2.15982716e-03 2.15982716e-03 0. 2.15982716e-03 0. 2.15982716e-03
      0. 0. 0. 2.15982716e-03 0. 2.15982716e-03 0. 0. 0. 2.15982716e-03
      2.15982716e-03 0. 0. 0. 0. 2.15982716e-03 0. 6.47948124e-03
      2.15982716e-03 2.15982716e-03 0. 0. 2.15982716e-03 0. 0. 0. 0. 0.
      0. 0. 6.47948124e-03 0. 2.15982716e-03 0. 2.15982716e-03 0. 0. 0.
      0. 0. 0. 0. 0. 0. 0. 0. 0. 0. 2.15982716e-03 2.15982716e-03 0. 0.
      0. 0. 0. 1.07991360e-02 0. 2.15982716e-03 0. 0. 0. 6.47948124e-03
      6.47948124e-03 0. 0. 0. 0. 0. 0. 4.31965431e-03 0. 0. 0. 0. 0. 0.
      0. 2.15982716e-03 0. 2.15982716e-03 0. 4.31965431e-03 0. 0. 0. 0.
      0. 0. 4.31965431e-03 0. 0. 4.31965431e-03 0. 0. 0. 0.
      2.15982716e-03 0. 0. 2.15982716e-03 0. 4.31965431e-03 0.
      2.15982716e-03 0. 0. 4.31965431e-03 0. 0. 0. 2.15982716e-03 0. 0.
      2.15982716e-03 0. 0. 0. 2.15982716e-03 2.15982716e-03
      4.31965431e-03 0. 2.15982716e-03 0. 2.15982716e-03 0. 0.
      2.15982716e-03 0. 2.15982716e-03 0. 0. 0. 0. 0. 0. 0.
      2.15982716e-03 0. 2.15982716e-03 0. 0. 0. 2.15982716e-03 0. 0. 0.
      4.31965431e-03 0. 0. 0. 2.15982716e-03 0. 4.31965431e-03
      2.15982716e-03 2.15982716e-03 0. 0. 0. 0. 0. 4.31965431e-03
      6.47948124e-03 0. 2.15982716e-03 0. 0. 0. 0. 0. 0. 0. 0.
      4.31965431e-03 4.31965431e-03 0. 0. 0. 0. 0. 2.15982716e-03 0. 0.
      2.15982716e-03 8.63930862e-03 2.15982716e-03 0. 0. 6.47948124e-03
      0. 0. 0. 2.15982716e-03 0. 0. 0. 0. 0. 0. 0. 0. 2.15982716e-03 0.
      0. 8.63930862e-03 0. 0. 0. 2.15982716e-03 4.31965431e-03 0.
      2.15982716e-03 0. 0. 0. 2.15982716e-03 0. 0. 4.31965431e-03
      2.15982716e-03 0. 2.15982716e-03 2.15982716e-03 2.15982716e-03 0.
      2.15982716e-03 2.15982716e-03 0. 0. 2.15982716e-03 2.15982716e-03
      0. 0. 2.15982716e-03 0. 0. 2.15982716e-03 0. 0. 0. 2.15982716e-03
      0. 0. 0. 0. 0. 2.15982716e-03 4.31965431e-03 2.15982716e-03
      2.15982716e-03 2.15982716e-03 0. 0. 0. 4.31965431e-03 0.
      2.15982716e-03 0. 2.15982716e-03 0. 0. 0. 0. 0. 2.15982716e-03
      2.15982716e-03 2.15982716e-03 0. 0. 2.15982716e-03 0. 0. 0. 0.
      2.15982716e-03 0. 0. 2.15982716e-03 0. 2.15982716e-03
      2.15982716e-03 2.15982716e-03 0. 2.15982716e-03 0. 0.
      2.15982716e-03 0. 0. 4.31965431e-03 2.15982716e-03 4.31965431e-03
      0. 0. 0. 4.31965431e-03 0. 4.31965431e-03 0. 0. 2.15982716e-03 0.
      0. 0. 0. 0. 0. 0. 0. 0. 2.15982716e-03 0. 2.15982716e-03 0. 0. 0.
      0. 4.31965431e-03 0. 0. 0. 4.31965431e-03 0. 0. 0. 0. 0.
      4.31965431e-03 2.15982716e-03 0. 0. 0. 0. 0. 4.31965431e-03 0.
      2.15982716e-03 2.15982716e-03 4.31965431e-03 0. 0. 0. 0. 0.
      2.15982716e-03 0. 2.15982716e-03 0. 4.31965431e-03 0.
      2.15982716e-03 0. 8.63930862e-03 2.15982716e-03 0. 0.
      2.15982716e-03 0. 0. 0. 0. 0. 0. 0. 0. 0. 0. 0. 0. 0.
      2.15982716e-03 0. 0. 2.15982716e-03 0. 8.63930862e-03 0. 0. 0. 0.
      0. 0. 0. 0. 0. 0. 0. 0. 4.31965431e-03 0. 0. 4.31965431e-03 0.
      2.15982716e-03 0. 0. 0. 0. 2.15982716e-03 0. 0. 0. 0. 0. 0. 0. 0.
      0. 8.63930862e-03 0. 0. 0. 4.31965431e-03 0. 4.31965431e-03 0.
      4.31965431e-03 0. 0. 2.15982716e-03 0. 2.15982716e-03
      2.15982716e-03 0. 0. 0. 2.15982716e-03 0. 0. 2.15982716e-03 0. 0.
      0. 2.15982716e-03 0. 2.15982716e-03 0. 2.15982716e-03 0. 0.
      2.15982716e-03 2.15982716e-03 0. 4.31965431e-03 2.15982716e-03
      2.15982716e-03 6.47948124e-03 0. 0. 0. 0. 0. 0. 0. 0. 0. 0. 0.
      2.15982716e-03 4.31965431e-03 0. 2.15982716e-03 0. 2.15982716e-03
      0. 0. 0. 0. 0. 0. 0. 2.15982716e-03 2.15982716e-03 0. 0. 0. 0. 0.
      0. 0. 0. 0. 0. 0. 8.63930862e-03 2.15982716e-03 0. 0. 0. 0.
      2.15982716e-03 2.15982716e-03 0. 2.15982716e-03 0. 2.15982716e-03
      0. 0. 0. 2.15982716e-03 0. 2.15982716e-03 0. 2.15982716e-03 0. 0.
      0. 0. 4.31965431e-03 0. 2.15982716e-03 2.15982716e-03
      2.15982716e-03 2.15982716e-03 0. 0. 0. 0. 4.31965431e-03
      2.15982716e-03 2.15982716e-03 4.31965431e-03 0. 2.15982716e-03 0.
      0. 2.15982716e-03 2.15982716e-03 2.15982716e-03 0. 0. 0. 0. 0. 0.
      0. 0. 4.31965431e-03 2.15982716e-03 4.31965431e-03 6.47948124e-03
      0. 2.15982716e-03 0. 2.15982716e-03 2.15982716e-03 0. 0. 0. 0.
      2.15982716e-03 0. 2.15982716e-03 6.47948124e-03 0. 0. 0. 0. 0. 0.
      0. 0. 0. 0. 6.47948124e-03 0. 4.31965431e-03 0. 2.15982716e-03 0.
      0. 4.31965431e-03 0. 0. 0. 0. 4.31965431e-03 0. 0. 4.31965431e-03
      0. 0. 0. 0. 0. 0. 0. 6.47948124e-03 0. 0. 0. 2.15982716e-03 0. 0.
      0. 0. 0. 2.15982716e-03 0. 4.31965431e-03 2.15982716e-03 0.
      2.15982716e-03 0. 0. 0. 0. 0. 0. 0. 0. 0. 2.15982716e-03
      2.15982716e-03 0. 0. 2.15982716e-03 0. 2.15982716e-03
      2.15982716e-03 4.31965431e-03 2.15982716e-03 0. 0. 8.63930862e-03
      0. 0. 0. 0. 0. 0. 0. 0. 0. 2.15982716e-03 2.15982716e-03
      2.15982716e-03 2.15982716e-03 0. 0. 0. 0. 0. 0. 0. 0. 0. 0. 0. 0.
      0. 2.15982716e-03 0. 0. 0. 0. 0. 0. 2.15982716e-03 0.
      2.15982716e-03 2.15982716e-03 0. 0. 2.15982716e-03 2.15982716e-03
      0. 0. 2.15982716e-03 0. 0. 2.15982716e-03 0. 4.31965431e-03 0. 0.
      0. 0. 0. 0. 0. 0. 2.15982716e-03 0. 0. 2.15982716e-03
      2.15982716e-03 2.15982716e-03 0. 0. 0. 0. 2.15982716e-03
      2.15982716e-03 0. 0. 0. 2.15982716e-03 0. 0. 0. 0. 0.
      2.15982716e-03 0. 0. 0. 0. 2.15982716e-03 2.15982716e-03
      6.47948124e-03 0. 0. 0. 0. 0. 2.15982716e-03 6.47948124e-03 0. 0.
      2.15982716e-03 2.15982716e-03 0. 0. 4.31965431e-03 4.31965431e-03
      0. 0. 2.15982716e-03 0. 0. 2.15982716e-03 0. 0. 0. 0. 0. 0. 0. 0.
      0. 0. 0. 0. 0. 0. 0. 2.15982716e-03 0. 0. 2.15982716e-03 0.
      2.15982716e-03 0. 0. 2.15982716e-03 0. 0. 0. 0. 2.15982716e-03 0.
      0. 4.31965431e-03 2.15982716e-03 0. 0. 0. 0. 2.15982716e-03</_>
    <_>
      3.32225906e-03 3.32225906e-03 0. 0. 0. 0. 0. 0. 0. 3.32225906e-03
      0. 0. 0. 0. 0. 0. 0. 0. 0. 0. 0. 0. 6.64451811e-03 3.32225906e-03
      0. 0. 0. 0. 0. 0. 0. 0. 0. 0. 0. 0. 0. 0. 0. 0. 3.32225906e-03 0.
      0. 0. 0. 6.64451811e-03 3.32225906e-03 0. 0. 0. 3.32225906e-03 0.
      0. 0. 0. 0. 0. 0. 0. 3.32225906e-03 3.32225906e-03 0. 0. 0. 0.
      3.32225906e-03 0. 6.64451811e-03 0. 0. 0. 3.32225906e-03
      3.32225906e-03 0. 0. 0. 0. 3.32225906e-03 0. 0. 0. 0. 0. 0. 0. 0.
      0. 0. 0. 0. 0. 3.32225906e-03 3.32225906e-03 0. 0. 0. 0. 0. 0. 0.
      0. 0. 0. 3.32225906e-03 0. 0. 6.64451811e-03 0. 0. 0. 0. 0. 0. 0.
      0. 0. 0. 0. 0. 0. 0. 0. 0. 0. 3.32225906e-03 0. 0. 0. 0. 0. 0.
      3.32225906e-03 0. 0. 0. 3.32225906e-03 0. 0. 0. 0. 0. 0. 0.
      3.32225906e-03 0. 0. 0. 0. 0. 0. 0. 6.64451811e-03 0. 0. 0.
      3.32225906e-03 6.64451811e-03 0. 3.32225906e-03 0. 0. 0. 0.
      6.64451811e-03 6.64451811e-03 3.32225906e-03 3.32225906e-03 0.
      6.64451811e-03 6.64451811e-03 0. 0. 0. 0. 0. 0. 0. 0. 0. 0. 0. 0.
      0. 3.32225906e-03 0. 0. 0. 0. 0. 0. 3.32225906e-03 0. 0. 0. 0.
      3.32225906e-03 3.32225906e-03 0. 0. 0. 0. 3.32225906e-03 0. 0.
      3.32225906e-03 0. 0. 0. 0. 6.64451811e-03 3.32225906e-03
      6.64451811e-03 0. 0. 3.32225906e-03 0. 0. 0. 0. 3.32225906e-03 0.
      0. 0. 0. 0. 0. 0. 3.32225906e-03 0. 0. 0. 0. 3.32225906e-03 0. 0.
      3.32225906e-03 3.32225906e-03 3.32225906e-03 9.96677764e-03 0. 0.
      0. 0. 9.96677764e-03 3.32225906e-03 0. 0. 0. 3.32225906e-03 0. 0.
      6.64451811e-03 0. 0. 0. 0. 0. 0. 0. 6.64451811e-03 0.
      3.32225906e-03 3.32225906e-03 0. 0. 0. 0. 3.32225906e-03 0. 0. 0.
      6.64451811e-03 0. 0. 0. 0. 3.32225906e-03 0. 0. 0. 0.
      6.64451811e-03 0. 0. 0. 0. 3.32225906e-03 0. 3.32225906e-03
      9.96677764e-03 0. 0. 0. 0. 0. 0. 3.32225906e-03 3.32225906e-03 0.
      3.32225906e-03 0. 0. 0. 6.64451811e-03 0. 0. 0. 3.32225906e-03 0.
      0. 0. 0. 0. 0. 0. 3.32225906e-03 0. 3.32225906e-03 0. 0.
      3.32225906e-03 0. 0. 9.96677764e-03 3.32225906e-03 0. 0. 0. 0. 0.
      0. 0. 0. 3.32225906e-03 0. 6.64451811e-03 0. 3.32225906e-03 0. 0.
      0. 0. 0. 3.32225906e-03 0. 0. 0. 0. 0. 0. 0. 3.32225906e-03 0. 0.
      0. 0. 0. 0. 0. 0. 0. 0. 0. 0. 0. 3.32225906e-03 0. 0. 0.
      3.32225906e-03 3.32225906e-03 0. 0. 0. 0. 0. 0. 6.64451811e-03 0.
      0. 0. 0. 0. 0. 0. 3.32225906e-03 0. 0. 0. 0. 0. 3.32225906e-03 0.
      0. 0. 0. 0. 0. 9.96677764e-03 0. 0. 0. 0. 0. 6.64451811e-03 0. 0.
      0. 9.96677764e-03 3.32225906e-03 0. 0. 0. 3.32225906e-03
      6.64451811e-03 6.64451811e-03 3.32225906e-03 0. 0. 3.32225906e-03
      0. 3.32225906e-03 0. 0. 0. 0. 0. 0. 3.32225906e-03 3.32225906e-03
      6.64451811e-03 0. 0. 0. 0. 0. 0. 1.66112948e-02 0. 0. 0. 0. 0. 0.
      0. 0. 3.32225906e-03 0. 0. 0. 3.32225906e-03 0. 3.32225906e-03 0.
      3.32225906e-03 0. 3.32225906e-03 0. 3.32225906e-03 6.64451811e-03
      0. 0. 0. 0. 0. 0. 0. 0. 3.32225906e-03 0. 0. 0. 0. 0.
      3.32225906e-03 0. 3.32225906e-03 3.32225906e-03 0. 0. 0.
      3.32225906e-03 0. 0. 0. 0. 0. 0. 0. 0. 0. 0. 3.32225906e-03 0.
      6.64451811e-03 0. 0. 3.32225906e-03 0. 3.32225906e-03 0. 0. 0. 0.
      0. 0. 9.96677764e-03 3.32225906e-03 3.32225906e-03 0. 0.
      3.32225906e-03 0. 6.64451811e-03 0. 0. 0. 0. 0. 0. 0. 0. 0. 0.
      3.32225906e-03 0. 0. 0. 3.32225906e-03 0. 0. 0. 0. 0. 0.
      3.32225906e-03 0. 0. 0. 0. 0. 0. 0. 0. 0. 0. 0. 0. 0.
      3.32225906e-03 0. 0. 0. 0. 0. 0. 0. 0. 0. 0. 0. 0. 0. 0. 0. 0. 0.
      0. 0. 0. 0. 9.96677764e-03 3.32225906e-03 0. 0. 0. 0. 0.
      3.32225906e-03 3.32225906e-03 0. 3.32225906e-03 3.32225906e-03
      3.32225906e-03 0. 3.32225906e-03 0. 0. 0. 6.64451811e-03 0. 0. 0.
      0. 3.32225906e-03 6.64451811e-03 0. 0. 0. 3.32225906e-03 0. 0. 0.
      3.32225906e-03 0. 0. 0. 3.32225906e-03 0. 0. 0. 3.32225906e-03 0.
      0. 0. 0. 0. 0. 0. 3.32225906e-03 3.32225906e-03 0. 3.32225906e-03
      0. 0. 0. 0. 0. 0. 0. 0. 0. 0. 0. 0. 0. 0. 0. 3.32225906e-03 0.
      3.32225906e-03 0. 0. 0. 0. 0. 6.64451811e-03 3.32225906e-03 0.
      3.32225906e-03 3.32225906e-03 0. 0. 0. 0. 0. 0. 3.32225906e-03
      3.32225906e-03 0. 3.32225906e-03 0. 0. 0. 3.32225906e-03
      3.32225906e-03 0. 0. 0. 0. 3.32225906e-03 0. 0. 0. 0. 0. 0. 0. 0.
      3.32225906e-03 3.32225906e-03 0. 0. 3.32225906e-03 0. 0. 0.
      3.32225906e-03 0. 0. 0. 0. 0. 0. 0. 3.32225906e-03 0.
      3.32225906e-03 3.32225906e-03 0. 0. 0. 3.32225906e-03 0. 0.
      6.64451811e-03 3.32225906e-03 6.64451811e-03 0. 0. 0. 0. 0. 0. 0.
      0. 0. 0. 0. 0. 0. 3.32225906e-03 0. 0. 0. 3.32225906e-03 0. 0. 0.
      3.32225906e-03 0. 0. 3.32225906e-03 6.64451811e-03 0. 0.
      6.64451811e-03 0. 0. 0. 0. 0. 0. 3.32225906e-03 0. 0. 0. 0. 0. 0.
      0. 0. 0. 0. 0. 0. 0. 3.32225906e-03 0. 0. 0. 0. 0. 0. 0.
      3.32225906e-03 3.32225906e-03 0. 0. 0. 0. 0. 3.32225906e-03 0.
      6.64451811e-03 0. 3.32225906e-03 3.32225906e-03 9.96677764e-03 0.
      0. 0. 0. 0. 0. 0. 0. 0. 3.32225906e-03 0. 0. 0. 0. 0. 0. 0. 0. 0.
      3.32225906e-03 0. 0. 0. 3.32225906e-03 0. 3.32225906e-03
      3.32225906e-03 0. 0. 3.32225906e-03 3.32225906e-03 0.
      3.32225906e-03 0. 0. 0. 0. 0. 0. 0. 0. 0. 0. 0. 0. 0.
      3.32225906e-03 0. 0. 0. 0. 0. 0. 0. 3.32225906e-03 1.32890362e-02
      3.32225906e-03 0. 0. 3.32225906e-03 3.32225906e-03 0. 0. 0. 0. 0.
      0. 0. 0. 0. 0. 0. 6.64451811e-03 0. 0. 0. 0. 0. 0. 6.64451811e-03
      3.32225906e-03 0. 3.32225906e-03 0. 3.32225906e-03 0. 0. 0.
      3.32225906e-03 0. 3.32225906e-03 0. 6.64451811e-03 0. 0. 0. 0.
      3.32225906e-03 0. 3.32225906e-03 3.32225906e-03 0. 3.32225906e-03
      0. 3.32225906e-03 3.32225906e-03 0. 0. 3.32225906e-03
      3.32225906e-03 3.32225906e-03 0. 0. 0. 0. 0. 0. 3.32225906e-03 0.
      3.32225906e-03 0. 0. 0. 0. 0. 0. 0. 3.32225906e-03 3.32225906e-03
      0. 0. 0. 0. 0. 0. 0. 0. 0. 0. 0. 0. 9.96677764e-03 0. 0.
      6.64451811e-03 3.32225906e-03 3.32225906e-03 0. 0. 0. 0. 0.
      3.32225906e-03 0. 0. 3.32225906e-03 0. 0. 0. 0. 0. 3.32225906e-03
      0. 0. 0. 0. 0. 0. 0. 0. 0. 0. 0. 0. 0. 0. 0. 0. 0. 0. 0.
      6.64451811e-03 0. 3.32225906e-03 0. 3.32225906e-03 0. 0. 0. 0. 0.
      0. 0. 0. 0. 0. 3.32225906e-03 3.32225906e-03 3.32225906e-03 0. 0.
      0. 0. 0. 3.32225906e-03 9.96677764e-03 0. 0. 0. 0. 0. 0. 0. 0. 0.
      0. 0. 0. 0. 6.64451811e-03 0.</_>
    <_>
      0. 2.12765951e-03 0. 1.06382975e-03 0. 0. 1.06382975e-03
      1.06382975e-03 1.06382975e-03 0. 0. 0. 0. 0. 0. 0. 0.
      1.06382975e-03 5.31914877e-03 0. 1.06382975e-03 0. 0. 0. 0. 0. 0.
      0. 2.12765951e-03 0. 0. 0. 0. 0. 2.12765951e-03 0. 1.06382975e-03
      0. 0. 0. 0. 3.19148926e-03 0. 1.06382975e-03 2.65957434e-02
      1.06382975e-03 2.12765951e-03 0. 2.12765951e-03 1.06382975e-03 0.
      2.12765951e-03 2.12765951e-03 0. 0. 0. 0. 0. 1.06382975e-03 0. 0.
      1.06382975e-03 3.19148926e-03 0. 4.25531901e-03 0. 0.
      6.38297852e-03 0. 0. 1.06382975e-03 1.06382975e-03 0. 0.
      1.06382975e-03 1.06382975e-03 1.06382975e-03 4.25531901e-03 0. 0.
      0. 1.06382975e-03 0. 1.06382975e-03 0. 1.06382975e-03
      1.06382975e-03 0. 0. 0. 4.25531901e-03 0. 0. 0. 0. 1.06382975e-03
      0. 1.06382975e-03 0. 2.12765951e-03 2.12765951e-03 3.19148926e-03
      0. 1.06382975e-03 0. 1.06382975e-03 0. 1.06382975e-03 0. 0. 0.
      1.06382975e-03 0. 2.12765951e-03 3.19148926e-03 0. 0. 0. 0. 0. 0.
      1.06382975e-03 0. 1.06382975e-03 0. 0. 0. 0. 1.06382975e-03 0. 0.
      1.06382975e-03 2.12765951e-03 0. 0. 1.06382975e-03 1.06382975e-03
      1.06382975e-03 0. 0. 0. 2.12765951e-03 0. 1.06382975e-03
      2.12765951e-03 6.38297852e-03 0. 2.12765951e-03 0. 0.
      3.19148926e-03 0. 1.06382975e-03 1.06382975e-03 0. 0. 0. 0. 0.
      1.06382975e-03 0. 0. 2.12765951e-03 4.25531901e-03 1.06382975e-03
      1.06382975e-03 0. 0. 2.23404244e-02 0. 0. 1.06382975e-03
      1.06382975e-03 0. 1.06382975e-03 1.06382975e-03 0. 1.06382975e-03
      0. 1.06382975e-03 1.06382975e-03 0. 0. 0. 1.06382975e-03 0. 0. 0.
      0. 1.06382975e-03 0. 0. 1.06382975e-03 0. 0. 0. 2.12765951e-03 0.
      2.12765951e-03 0. 2.12765951e-03 0. 0. 0. 1.06382975e-03 0. 0.
      1.06382975e-03 0. 0. 0. 2.12765951e-03 1.06382975e-03
      1.06382975e-03 0. 0. 0. 0. 0. 1.06382975e-03 0. 0. 0.
      1.06382975e-03 0. 1.06382975e-03 1.06382975e-03 1.06382975e-03
      1.06382975e-03 0. 0. 2.12765951e-03 1.17021278e-02 0. 0.
      3.19148926e-03 2.12765951e-03 1.06382975e-03 0. 0. 0. 0.
      1.06382975e-03 3.19148926e-03 5.31914877e-03 0. 0. 2.12765951e-03
      1.06382975e-03 1.06382975e-03 0. 1.06382975e-03 0. 0.
      1.06382975e-03 0. 0. 6.38297852e-03 1.06382975e-03 1.06382975e-03
      3.19148926e-03 0. 0. 1.06382975e-03 0. 0. 1.06382975e-03
      1.06382975e-03 0. 3.19148926e-03 1.06382975e-03 1.06382975e-03 0.
      1.06382975e-03 1.06382975e-03 2.12765951e-03 2.12765951e-03
      1.06382975e-03 1.06382975e-03 0. 0. 3.19148926e-03 1.06382975e-03
      1.06382975e-03 0. 0. 0. 0. 1.06382975e-03 2.12765951e-03 0. 0.
      1.06382975e-03 0. 0. 1.06382975e-03 0. 2.12765951e-03 0. 0. 0. 0.
      1.06382975e-03 2.12765951e-03 1.06382975e-03 0. 0. 1.06382975e-03
      0. 3.19148926e-03 0. 4.25531901e-03 0. 0. 0. 1.06382975e-03 0. 0.
      0. 1.06382975e-03 1.06382975e-03 0. 1.06382975e-03 0.
      1.06382975e-03 1.06382975e-03 0. 0. 3.19148926e-03 1.06382975e-03
      0. 0. 0. 0. 0. 1.06382975e-03 0. 0. 3.19148926e-03 1.06382975e-03
      1.06382975e-03 0. 1.06382975e-03 9.57446732e-03 0. 3.19148926e-03
      1.06382975e-03 0. 1.06382975e-03 0. 0. 0. 1.06382975e-03
      1.06382975e-03 0. 0. 0. 1.06382975e-03 0. 0. 0. 0. 0. 0.
      2.76595727e-02 0. 0. 0. 6.38297852e-03 1.06382975e-03 0. 0.
      2.12765951e-03 0. 0. 1.06382975e-03 2.12765951e-03 2.12765951e-03
      0. 0. 3.19148926e-03 2.12765951e-03 0. 1.06382975e-03
      1.06382975e-03 0. 1.06382975e-03 0. 1.06382975e-03 0.
      1.06382975e-03 1.06382975e-03 0. 0. 1.06382975e-03 0.
      2.12765951e-03 2.12765951e-03 0. 0. 1.06382975e-03 0.
      2.12765951e-03 0. 1.06382975e-03 0. 0. 0. 0. 7.44680827e-03
      1.06382975e-03 3.19148926e-03 0. 1.06382975e-03 1.06382975e-03
      1.06382975e-03 0. 1.06382975e-03 1.06382975e-03 0. 1.06382975e-03
      0. 1.06382975e-03 0. 4.25531901e-03 0. 2.12765951e-03 0. 0. 0.
      3.19148926e-03 0. 0. 0. 0. 4.25531901e-03 0. 1.06382975e-03 0.
      2.12765951e-03 0. 0. 1.06382975e-03 1.06382975e-03 0. 0. 0.
      2.12765951e-03 0. 1.06382975e-03 1.06382975e-03 0. 0. 0.
      2.12765951e-03 0. 3.19148926e-03 0. 1.06382975e-03 0. 0.
      1.06382975e-03 0. 0. 1.06382975e-03 1.06382975e-03 1.06382975e-03
      1.06382975e-03 0. 1.06382975e-03 2.12765951e-03 0. 1.06382975e-03
      3.19148926e-03 0. 1.06382975e-03 0. 0. 1.06382975e-03
      1.06382975e-03 2.12765951e-03 1.06382975e-03 0. 2.12765951e-03 0.
      2.12765951e-03 0. 0. 1.06382975e-03 2.12765951e-03 0.
      1.06382975e-03 0. 0. 1.06382975e-03 1.06382975e-03 2.12765951e-03
      0. 2.12765951e-03 1.06382975e-03 1.06382975e-03 0. 0.
      1.06382975e-03 0. 0. 0. 0. 6.38297852e-03 2.12765951e-03
      1.06382975e-03 1.06382975e-03 9.57446732e-03 2.12765951e-03
      1.06382975e-03 0. 2.12765951e-03 1.06382975e-03 0. 0. 0.
      1.06382975e-03 5.31914877e-03 0. 2.12765951e-03 1.06382975e-03
      2.12765951e-03 0. 0. 3.19148926e-03 0. 0. 5.31914877e-03
      1.06382975e-03 0. 0. 0. 4.25531901e-03 0. 2.12765951e-03
      2.12765951e-03 2.12765951e-03 1.06382975e-03 0. 0. 2.12765951e-03
      1.06382975e-03 0. 0. 2.12765951e-03 2.12765951e-03 0.
      2.12765951e-03 0. 2.12765951e-03 1.06382975e-03 0. 0. 0.
      6.38297852e-03 0. 0. 0. 1.06382975e-03 2.12765951e-03 0.
      2.12765951e-03 2.12765951e-03 1.06382975e-03 0. 1.06382975e-03
      1.06382975e-03 1.06382975e-03 2.12765951e-03 0. 0. 0.
      1.06382975e-03 1.06382975e-03 8.51063803e-03 1.06382975e-03
      1.06382975e-03 0. 1.06382975e-03 1.06382975e-03 2.12765951e-03 0.
      0. 0. 1.06382975e-03 0. 0. 1.06382975e-03 1.06382975e-03
      2.12765951e-03 1.17021278e-02 2.12765951e-03 2.12765951e-03
      2.12765951e-03 2.55319141e-02 0. 1.06382975e-03 0. 0. 0. 0. 0.
      1.06382975e-03 1.06382975e-03 1.06382975e-03 0. 1.06382975e-03 0.
      2.12765951e-03 1.27659570e-02 1.06382975e-03 1.06382975e-03
      1.06382975e-03 0. 2.12765951e-03 0. 1.06382975e-03 0. 0. 0. 0. 0.
      0. 2.12765951e-03 0. 0. 1.06382975e-03 0. 1.06382975e-03
      2.12765951e-03 0. 0. 0. 1.06382975e-03 3.19148926e-03
      4.25531901e-03 1.06382975e-03 1.06382975e-03 0. 0. 0.
      3.19148926e-03 0. 1.06382975e-03 0. 0. 0. 0. 3.19148926e-03 0. 0.
      1.06382975e-03 0. 0. 0. 1.06382975e-03 1.06382975e-03 0. 0.
      1.06382975e-03 0. 0. 1.06382975e-03 0. 0. 0. 0. 2.12765951e-03
      1.06382975e-03 6.38297852e-03 3.19148926e-03 0. 0. 0. 0. 0. 0. 0.
      2.12765951e-03 0. 1.06382975e-03 0. 1.06382975e-03 0. 0.
      2.12765951e-03 1.06382975e-03 1.06382975e-03 0. 1.06382975e-03
      4.25531901e-03 1.06382975e-03 0. 0. 0. 1.06382975e-03 0.
      3.19148926e-03 1.06382975e-03 0. 2.12765951e-03 0. 0.
      4.25531901e-03 1.80851053e-02 1.06382975e-03 0. 1.06382975e-03
      1.06382975e-03 0. 1.06382975e-03 0. 1.06382975e-03 0. 0.
      3.19148926e-03 0. 2.12765951e-03 2.12765951e-03 0. 0.
      1.06382975e-03 0. 3.19148926e-03 3.19148926e-03 1.06382975e-03
      1.06382975e-03 0. 0. 2.12765951e-03 1.06382975e-03 1.06382975e-03
      0. 3.19148926e-03 2.12765951e-03 0. 1.06382975e-03 0. 0. 0. 0.
      2.12765951e-03 0. 1.06382975e-03 0. 0. 1.06382975e-03 0. 0. 0.
      2.12765951e-03 0. 0. 0. 0. 0. 2.12765951e-03 0. 0. 1.06382975e-03
      0. 1.06382975e-03 1.06382975e-03 3.19148926e-03 0. 0. 0. 0.
      1.06382975e-03 0. 0. 1.06382975e-03 0. 3.19148926e-03 0. 0.
      1.06382975e-03 0. 0. 0. 0. 0. 5.31914877e-03 1.06382975e-03 0. 0.
      1.06382975e-03 2.12765951e-03 2.12765951e-03 0. 0. 2.12765951e-03
      0. 0. 0. 1.06382975e-03 3.19148926e-03 1.06382975e-03
      1.06382975e-03 1.06382975e-03 0. 0. 0. 0. 2.12765951e-03 0.
      4.25531901e-03 2.12765951e-03 0. 0. 0. 0. 0. 0. 0. 1.06382975e-03
      1.06382975e-03 0. 1.06382975e-03 0. 1.06382975e-03 0. 0. 0. 0. 0.
      0. 0. 0. 0. 0. 0. 1.06382975e-03 2.12765951e-03 9.57446732e-03
      3.19148926e-03 1.06382975e-03 2.12765951e-03 0. 0. 0. 0.
      2.12765951e-03 0. 0. 1.06382975e-03 0. 1.06382975e-03 0. 0. 0.
      1.38297863e-02 0. 0. 0. 0. 1.06382975e-03 0. 4.25531901e-03 0. 0.
      0. 0. 1.06382975e-03 1.06382975e-03 1.06382975e-03 4.25531901e-03
      0. 0. 0. 0. 1.06382975e-03 2.12765951e-03 0. 0. 0. 0. 0.
      2.12765951e-03 0. 2.12765951e-03 1.06382975e-03 1.06382975e-03
      2.12765951e-03 1.06382975e-03 2.12765951e-03 1.06382975e-03 0. 0.
      0. 0. 0. 0. 0. 1.06382975e-03 0. 0. 0. 2.12765951e-03 0.
      2.12765951e-03 1.06382975e-03 0. 1.06382975e-03 2.12765951e-03
      2.12765951e-03 3.19148926e-03 0. 1.06382975e-03 0. 0.
      1.06382975e-03 2.12765951e-03 2.12765951e-03 0. 0. 0. 0. 0. 0. 0.
      5.31914877e-03 1.06382975e-03 0. 0. 0. 0. 1.06382975e-03
      1.06382975e-03 0. 0. 1.06382975e-03 0. 1.06382975e-03 0.
      2.12765951e-03 0. 0. 0. 1.06382975e-03 1.06382975e-03
      1.06382975e-03 8.51063803e-03 1.06382975e-03 1.06382975e-03 0.
      2.12765951e-03 1.06382975e-03 0. 0. 1.06382975e-03 3.19148926e-03
      1.06382975e-03 0. 0. 2.12765951e-03 0. 0. 0. 3.19148926e-03 0. 0.
      1.06382975e-03 0. 0. 1.06382975e-03 0. 0. 3.19148926e-03
      3.19148926e-03 0. 4.25531901e-03 1.06382975e-03 1.06382975e-03 0.
      0. 1.06382975e-03 0. 0. 0. 0. 0. 1.06382975e-03 1.06382975e-03 0.
      2.12765951e-03 0. 0. 0. 0. 1.06382975e-03 2.12765951e-03
      2.12765951e-03 5.31914877e-03 0.</_>
    <_>
      1.31752307e-03 0. 0. 1.31752307e-03 0. 0. 2.63504614e-03
      1.31752305e-02 0. 0. 0. 2.63504614e-03 9.22266115e-03 0. 0.
      1.31752307e-03 1.31752307e-03 1.31752307e-03 0. 2.63504614e-03 0.
      0. 3.95256933e-03 0. 0. 0. 0. 1.31752307e-03 1.31752307e-03 0. 0.
      0. 1.31752307e-03 1.31752307e-03 1.31752307e-03 0. 0. 0. 0. 0.
      1.31752307e-03 0. 0. 1.31752307e-03 0. 0. 0. 2.63504614e-03
      1.31752307e-03 1.05401846e-02 0. 2.63504614e-03 1.31752307e-03
      1.31752307e-03 1.31752307e-03 0. 2.63504614e-03 0. 0. 0. 0. 0. 0.
      0. 0. 2.10803691e-02 0. 3.95256933e-03 0. 9.22266115e-03 0. 0. 0.
      2.63504614e-03 0. 0. 0. 0. 5.27009228e-03 0. 1.31752307e-03 0. 0.
      0. 0. 0. 0. 0. 0. 3.95256933e-03 0. 0. 0. 1.31752307e-03
      1.31752307e-03 0. 0. 0. 0. 1.31752307e-03 1.31752307e-03
      6.58761524e-03 1.31752307e-03 0. 6.58761524e-03 1.31752307e-03 0.
      0. 1.31752307e-03 0. 0. 0. 1.31752307e-03 0. 0. 0. 0. 0. 0. 0. 0.
      0. 1.31752307e-03 1.31752307e-03 0. 3.95256933e-03 0. 0.
      1.31752307e-03 1.31752307e-03 1.31752307e-03 0. 2.63504614e-03 0.
      0. 0. 0. 2.63504614e-03 1.31752307e-03 1.31752307e-03 0.
      1.31752307e-03 0. 0. 0. 7.90513866e-03 0. 0. 0. 2.63504614e-03 0.
      0. 0. 0. 1.31752307e-03 0. 0. 1.31752307e-03 0. 0. 3.95256933e-03
      0. 0. 0. 1.31752307e-03 0. 3.95256933e-03 0. 1.31752307e-03 0. 0.
      0. 0. 0. 0. 0. 3.95256933e-03 0. 1.31752307e-03 0. 0.
      1.31752307e-03 2.63504614e-03 1.31752307e-03 0. 0. 0. 0.
      1.31752307e-03 0. 0. 1.31752307e-03 1.31752307e-03 0. 0. 0. 0. 0.
      3.95256933e-03 0. 0. 0. 2.63504614e-03 0. 1.31752307e-03
      1.31752307e-03 1.31752307e-03 1.31752307e-03 0. 0. 0.
      1.31752307e-03 1.31752307e-03 0. 0. 0. 0. 1.31752307e-03
      1.31752307e-03 0. 0. 1.31752307e-03 0. 1.31752307e-03 0. 0. 0.
      2.63504614e-03 0. 6.58761524e-03 0. 0. 0. 1.31752307e-03 0.
      1.31752307e-03 5.27009228e-03 0. 0. 0. 0. 0. 0. 0. 1.31752307e-03
      0. 0. 5.27009228e-03 0. 2.63504614e-03 5.27009228e-03 0.
      1.31752307e-03 2.63504614e-03 0. 0. 0. 3.95256933e-03 0.
      2.63504614e-03 0. 1.31752307e-03 0. 0. 0. 3.95256933e-03 0.
      1.31752307e-03 0. 2.63504614e-03 1.31752307e-03 0. 0. 0. 0. 0. 0.
      0. 0. 0. 0. 0. 2.10803691e-02 1.31752307e-03 0. 2.63504614e-03 0.
      3.95256933e-03 1.31752307e-03 1.31752307e-03 0. 0. 0. 0. 0. 0.
      2.63504614e-03 2.63504614e-03 0. 1.31752307e-03 1.31752307e-03
      1.31752307e-03 0. 1.31752307e-03 1.31752307e-03 0. 0. 0. 0.
      1.31752307e-03 0. 2.63504614e-03 0. 0. 0. 0. 0. 0. 5.27009228e-03
      0. 1.31752307e-03 0. 0. 0. 2.63504614e-03 0. 1.31752307e-03
      1.31752307e-03 1.31752307e-03 5.27009228e-03 1.31752307e-03
      1.31752307e-03 0. 0. 1.31752307e-03 1.31752307e-03 0.
      2.63504614e-03 1.31752307e-03 1.31752307e-03 0. 0. 0.
      3.95256933e-03 0. 5.27009228e-03 0. 0. 1.31752307e-03 0. 0. 0.
      2.63504614e-03 0. 0. 0. 0. 1.31752307e-03 0. 0. 0. 0. 0. 0. 0. 0.
      1.31752307e-03 1.31752307e-03 2.63504614e-03 0. 0. 0. 0.
      3.95256933e-03 0. 0. 1.31752307e-03 6.58761524e-03 0. 0.
      1.31752305e-02 0. 0. 2.63504614e-03 1.31752307e-03 1.31752307e-03
      5.27009228e-03 0. 0. 1.31752307e-03 0. 3.95256933e-03
      1.31752307e-03 0. 1.31752307e-03 0. 0. 0. 0. 0. 0. 0. 0. 0.
      3.95256933e-03 3.95256933e-03 0. 0. 1.31752307e-03 9.22266115e-03
      0. 0. 0. 0. 3.95256933e-03 1.31752307e-03 0. 0. 0. 0. 0. 0.
      5.27009228e-03 0. 1.31752307e-03 0. 1.31752307e-03 2.63504614e-03
      0. 0. 0. 0. 0. 0. 0. 1.31752305e-02 0. 1.31752307e-03 0. 0. 0. 0.
      0. 0. 0. 0. 2.63504614e-03 2.63504614e-03 1.31752307e-03 0.
      1.31752307e-03 1.31752307e-03 0. 0. 6.58761524e-03 2.63504614e-03
      0. 0. 1.31752307e-03 0. 1.31752307e-03 5.27009228e-03 0. 0. 0.
      3.95256933e-03 0. 1.31752307e-03 0. 0. 0. 0. 0. 1.31752307e-03
      2.63504614e-03 0. 0. 0. 0. 0. 1.31752307e-03 3.95256933e-03 0.
      1.31752307e-03 1.31752307e-03 0. 1.31752307e-03 1.31752307e-03
      1.31752307e-03 0. 0. 5.27009228e-03 0. 1.31752307e-03 0. 0. 0.
      1.31752307e-03 1.31752307e-03 0. 1.18577080e-02 0. 0. 0. 0.
      9.22266115e-03 0. 0. 0. 0. 1.31752307e-03 1.31752307e-03
      1.31752307e-03 0. 1.31752307e-03 0. 1.31752307e-03 0.
      1.31752307e-03 0. 0. 2.63504614e-03 0. 0. 1.31752307e-03
      2.63504614e-03 0. 0. 0. 2.63504614e-03 0. 0. 1.31752307e-03 0.
      5.27009228e-03 7.90513866e-03 0. 2.63504614e-03 1.31752307e-03
      1.31752307e-03 1.31752307e-03 1.31752307e-03 0. 0. 5.27009228e-03
      0. 2.63504614e-03 1.31752307e-03 0. 1.31752307e-03 1.31752307e-03
      1.31752307e-03 5.27009228e-03 0. 2.63504614e-03 1.31752307e-03 0.
      3.95256933e-03 3.95256933e-03 0. 0. 0. 0. 0. 0. 1.31752307e-03
      1.31752307e-03 0. 1.31752307e-03 0. 2.63504614e-03 0. 0.
      5.27009228e-03 0. 0. 1.31752307e-03 0. 3.95256933e-03 0. 0.
      1.31752307e-03 0. 0. 0. 1.31752307e-03 1.31752307e-03 0.
      6.58761524e-03 1.31752307e-03 0. 0. 0. 0. 2.63504614e-03 0. 0. 0.
      2.63504614e-03 0. 0. 2.63504614e-03 0. 1.31752307e-03 0.
      3.95256933e-03 0. 0. 0. 0. 1.31752307e-03 2.63504614e-03
      2.63504614e-03 0. 0. 2.63504614e-03 2.63504614e-03 0.
      1.31752307e-03 0. 0. 1.31752307e-03 0. 0. 2.63504614e-03 0. 0. 0.
      0. 0. 0. 0. 1.31752307e-03 1.31752307e-03 3.95256933e-03 0. 0.
      6.58761524e-03 1.31752307e-03 3.95256933e-03 0. 0. 0.
      1.31752307e-03 0. 1.31752307e-03 0. 0. 0. 1.31752307e-03 0. 0. 0.
      5.27009228e-03 0. 1.31752307e-03 0. 0. 0. 0. 0. 0. 1.31752307e-03
      0. 0. 1.31752307e-03 1.31752307e-03 0. 0. 1.31752307e-03 0. 0. 0.
      1.31752307e-03 0. 0. 0. 0. 0. 0. 1.31752307e-03 0. 0. 0.
      1.31752307e-03 1.31752307e-03 1.31752307e-03 0. 0. 0. 0.
      1.31752307e-03 0. 1.31752307e-03 0. 2.63504614e-03 0.
      1.31752307e-03 0. 0. 2.63504614e-03 2.63504614e-03 2.63504614e-03
      0. 0. 0. 0. 2.63504614e-03 2.63504614e-03 0. 1.31752307e-03 0. 0.
      0. 1.31752307e-03 2.63504614e-03 0. 0. 0. 0. 0. 3.95256933e-03
      2.63504614e-03 3.95256933e-03 0. 0. 0. 1.31752307e-03 0.
      1.31752307e-03 0. 0. 0. 0. 1.31752307e-03 1.31752307e-03 0. 0.
      1.31752307e-03 1.31752307e-03 1.31752307e-03 1.31752307e-03
      2.63504614e-03 0. 0. 2.63504614e-03 0. 0. 0. 0. 0. 2.63504614e-03
      0. 0. 2.63504614e-03 6.58761524e-03 2.63504614e-03 1.31752307e-03
      0. 0. 1.31752307e-03 1.31752307e-03 0. 1.31752307e-03
      1.31752307e-03 0. 1.31752307e-03 1.31752307e-03 0. 3.95256933e-03
      0. 1.31752307e-03 1.31752307e-03 1.31752307e-03 1.31752307e-03
      1.31752307e-03 5.27009228e-03 0. 0. 2.63504614e-03 0.
      1.31752307e-03 0. 0. 0. 0. 2.63504614e-03 5.27009228e-03
      2.63504614e-03 0. 1.31752307e-03 0. 1.18577080e-02 0. 0.
      1.31752307e-03 0. 0. 0. 0. 0. 5.27009228e-03 0. 0. 0.
      2.63504614e-03 0. 1.31752307e-03 0. 1.31752307e-03 0. 0. 0. 0.
      1.31752307e-03 0. 1.31752307e-03 0. 0. 0. 1.31752307e-03
      2.63504614e-03 1.31752307e-03 0. 0. 5.27009228e-03 0.
      1.31752307e-03 6.58761524e-03 0. 0. 0. 0. 0. 0. 9.22266115e-03
      1.31752307e-03 0. 0. 0. 1.31752307e-03 0. 0. 0. 0. 1.31752307e-03
      0. 1.31752307e-03 0. 0. 0. 0. 0. 2.63504614e-03 0. 1.31752307e-03
      0. 0. 0. 0. 0. 0. 0. 0. 0. 0. 0. 3.95256933e-03 0. 1.31752307e-03
      0. 1.31752305e-02 2.63504614e-03 1.44927539e-02 0. 0.
      2.63504614e-03 0. 2.63504614e-03 0. 3.95256933e-03 0. 0.
      5.27009228e-03 1.31752307e-03 0. 1.31752307e-03 0. 0. 0.
      2.63504614e-03 0. 0. 0. 0. 0. 1.31752307e-03 0. 0. 0.
      2.63504614e-03 0. 0. 1.31752307e-03 0. 2.63504614e-03 0. 0. 0.
      1.31752307e-03 0. 1.31752307e-03 0. 0. 0. 1.31752307e-03 0. 0.
      1.31752307e-03 0. 0. 0. 0. 1.31752307e-03 1.31752307e-03 0.
      5.27009228e-03 2.63504614e-03 1.31752307e-03 1.31752307e-03 0.
      1.31752307e-03 0. 0. 0. 0. 0. 0. 0. 0. 0. 0. 0. 0. 0. 0. 0.
      1.31752307e-03 1.31752307e-03 1.31752307e-03 0. 0. 0. 0. 0. 0. 0.
      0. 1.31752307e-03 3.95256933e-03 0. 0. 0. 0. 0. 0. 0. 0. 0.
      1.31752307e-03 0. 0. 1.31752307e-03 0. 0. 1.31752307e-03
      1.31752307e-03 0. 2.63504614e-03 1.31752307e-03 2.63504614e-03 0.
      0. 0. 0. 0. 0. 0. 1.31752307e-03 0. 0. 1.31752307e-03 0.
      1.31752307e-03 0. 0. 1.31752307e-03 1.31752307e-03 7.90513866e-03
      0.</_>
    <_>
      0. 9.68054228e-04 1.93610846e-03 1.93610846e-03 0. 0. 0. 0.
      1.93610846e-03 0. 9.68054228e-04 0. 0. 9.68054228e-04 0.
      9.68054228e-04 4.84027108e-03 0. 9.68054228e-04 1.93610846e-03
      1.93610846e-03 9.68054228e-04 0. 0. 1.93610846e-03 0. 0.
      3.87221691e-03 9.68054228e-04 0. 9.68054228e-04 9.68054228e-04
      2.90416274e-03 2.90416274e-03 2.90416274e-03 9.68054228e-04
      9.68054228e-04 2.90416274e-03 9.68054228e-04 1.93610846e-03 0.
      1.93610846e-03 9.68054228e-04 9.68054228e-04 0. 0. 0. 0. 0. 0.
      9.68054228e-04 0. 9.68054228e-04 1.93610846e-03 0. 9.68054228e-04
      0. 1.93610846e-03 0. 9.68054228e-04 1.93610846e-03 0.
      9.68054228e-04 0. 9.68054228e-04 0. 9.68054228e-04 9.68054228e-04
      0. 0. 0. 9.68054228e-04 0. 0. 2.90416274e-03 0. 0. 0. 0.
      9.68054228e-04 0. 1.93610846e-03 0. 0. 9.68054228e-04
      9.68054228e-04 3.87221691e-03 0. 2.90416274e-03 9.68054228e-04
      9.68054228e-04 9.68054228e-04 1.93610846e-03 3.87221691e-03 0.
      9.68054228e-04 1.93610846e-03 2.90416274e-03 2.90416274e-03
      9.68054228e-04 9.68054228e-04 0. 0. 0. 0. 3.87221691e-03
      2.90416274e-03 0. 0. 0. 0. 0. 2.90416274e-03 3.87221691e-03
      9.68054228e-04 1.93610846e-03 9.68054228e-04 0. 2.90416274e-03
      9.68054228e-04 0. 0. 0. 6.77637942e-03 0. 1.93610846e-03 0.
      1.93610846e-03 9.68054228e-04 1.93610846e-03 0. 0. 9.68054228e-04
      9.68054228e-04 1.93610846e-03 9.68054228e-04 3.87221691e-03
      2.90416274e-03 9.68054228e-04 9.68054228e-04 9.68054228e-04 0.
      9.68054228e-04 9.68054228e-04 9.68054228e-04 0. 0. 3.87221691e-03
      6.77637942e-03 0. 0. 1.93610846e-03 9.68054228e-04 9.68054228e-04
      0. 1.93610846e-03 0. 9.68054228e-04 2.90416274e-03 9.68054228e-04
      1.93610846e-03 0. 2.90416274e-03 0. 9.68054228e-04 0. 0.
      1.93610846e-03 9.68054228e-04 0. 9.68054228e-04 9.68054228e-04
      9.68054228e-04 9.68054228e-04 1.93610846e-03 0. 1.93610846e-03 0.
      9.68054228e-04 9.68054228e-04 0. 2.90416274e-03 9.68054228e-04
      1.93610846e-03 9.68054228e-04 1.93610846e-03 2.90416274e-03
      1.93610846e-03 9.68054228e-04 0. 9.68054228e-04 1.93610846e-03
      1.93610846e-03 9.68054228e-04 0. 9.68054228e-04 0. 0. 0. 0.
      9.68054228e-04 1.93610846e-03 9.68054228e-04 9.68054228e-04
      2.90416274e-03 0. 0. 0. 1.93610846e-03 9.68054228e-04
      1.93610846e-03 0. 0. 1.93610846e-03 0. 0. 0. 9.68054228e-04 0.
      9.68054228e-04 1.93610846e-03 9.68054228e-04 9.68054228e-04
      3.87221691e-03 2.90416274e-03 0. 9.68054228e-04 0. 0. 0.
      1.93610846e-03 9.68054228e-04 2.90416274e-03 0. 3.87221691e-03 0.
      0. 1.93610846e-03 0. 0. 0. 9.68054228e-04 1.93610846e-03 0. 0. 0.
      9.68054228e-04 0. 0. 0. 0. 0. 0. 9.68054228e-04 3.87221691e-03 0.
      9.68054228e-04 9.68054228e-04 9.68054228e-04 0. 0. 9.68054228e-04
      1.93610846e-03 1.93610846e-03 1.93610846e-03 0. 9.68054228e-04
      9.68054228e-04 0. 2.90416274e-03 9.68054228e-04 0. 1.93610846e-03
      2.90416274e-03 1.93610846e-03 1.93610846e-03 0. 0. 0.
      2.90416274e-03 9.68054228e-04 9.68054228e-04 0. 0. 9.68054228e-04
      0. 9.68054228e-04 1.93610846e-03 0. 9.68054228e-04 0.
      9.68054228e-04 1.93610846e-03 9.68054228e-04 0. 9.68054228e-04
      1.93610846e-03 1.93610846e-03 9.68054228e-04 0. 0. 1.93610846e-03
      0. 9.68054228e-04 0. 1.93610846e-03 0. 9.68054228e-04 0.
      9.68054228e-04 2.90416274e-03 1.93610846e-03 1.93610846e-03
      9.68054228e-04 1.93610846e-03 9.68054228e-04 1.93610846e-03
      9.68054228e-04 0. 2.90416274e-03 9.68054228e-04 0. 1.93610846e-03
      0. 0. 9.68054228e-04 0. 0. 0. 0. 0. 0. 3.87221691e-03 0.
      9.68054228e-04 0. 2.90416274e-03 2.90416274e-03 9.68054228e-04
      9.68054228e-04 3.87221691e-03 0. 0. 0. 0. 0. 1.93610846e-03
      9.68054228e-04 1.93610846e-03 9.68054228e-04 9.68054228e-04
      1.93610846e-03 1.93610846e-03 9.68054228e-04 9.68054228e-04
      9.68054228e-04 9.68054228e-04 3.87221691e-03 0. 1.93610846e-03 0.
      9.68054228e-04 2.90416274e-03 0. 1.93610846e-03 1.93610846e-03 0.
      9.68054228e-04 9.68054228e-04 1.93610846e-03 0. 1.93610846e-03 0.
      0. 0. 1.93610846e-03 9.68054228e-04 1.93610846e-03 0.
      1.93610846e-03 0. 9.68054228e-04 2.90416274e-03 2.90416274e-03 0.
      9.68054228e-04 0. 2.90416274e-03 0. 0. 0. 0. 9.68054228e-04 0.
      9.68054228e-04 1.93610846e-03 3.87221691e-03 0. 2.90416274e-03
      9.68054228e-04 0. 9.68054228e-04 0. 0. 0. 1.93610846e-03
      9.68054228e-04 0. 9.68054228e-04 0. 1.93610846e-03 1.93610846e-03
      0. 9.68054228e-04 1.93610846e-03 9.68054228e-04 3.87221691e-03 0.
      1.93610846e-03 9.68054228e-04 0. 1.93610846e-03 9.68054228e-04 0.
      0. 3.87221691e-03 1.93610846e-03 1.93610846e-03 1.93610846e-03 0.
      9.68054228e-04 9.68054228e-04 2.90416274e-03 1.93610846e-03
      1.93610846e-03 9.68054228e-04 0. 0. 9.68054228e-04 9.68054228e-04
      3.87221691e-03 9.68054228e-04 9.68054228e-04 9.68054228e-04
      9.68054228e-04 9.68054228e-04 1.93610846e-03 0. 1.93610846e-03
      1.93610846e-03 0. 3.87221691e-03 2.90416274e-03 1.93610846e-03
      3.87221691e-03 9.68054228e-04 0. 0. 0. 0. 4.84027108e-03
      2.90416274e-03 0. 1.93610846e-03 2.90416274e-03 0. 1.93610846e-03
      0. 1.93610846e-03 0. 1.93610846e-03 9.68054228e-04 9.68054228e-04
      0. 0. 9.68054228e-04 0. 1.93610846e-03 9.68054228e-04
      9.68054228e-04 9.68054228e-04 9.68054228e-04 9.68054228e-04
      9.68054228e-04 9.68054228e-04 9.68054228e-04 9.68054228e-04
      9.68054228e-04 0. 9.68054228e-04 9.68054228e-04 0. 9.68054228e-04
      9.68054228e-04 9.68054228e-04 0. 1.93610846e-03 0. 9.68054228e-04
      1.93610846e-03 0. 2.90416274e-03 0. 2.90416274e-03 9.68054228e-04
      0. 0. 0. 0. 2.90416274e-03 1.93610846e-03 1.93610846e-03 0.
      2.90416274e-03 0. 9.68054228e-04 7.74443382e-03 0. 0. 0.
      9.68054228e-04 0. 0. 9.68054228e-04 0. 1.93610846e-03
      2.90416274e-03 0. 1.93610846e-03 9.68054228e-04 9.68054228e-04
      9.68054228e-04 0. 3.87221691e-03 0. 0. 9.68054228e-04 0.
      9.68054228e-04 1.93610846e-03 1.93610846e-03 9.68054228e-04
      1.93610846e-03 0. 9.68054228e-04 1.93610846e-03 9.68054228e-04 0.
      1.93610846e-03 3.87221691e-03 0. 0. 9.68054228e-04 0. 0. 0.
      1.93610846e-03 9.68054228e-04 9.68054228e-04 9.68054228e-04
      9.68054228e-04 0. 1.93610846e-03 5.80832548e-03 0. 2.90416274e-03
      0. 9.68054228e-04 9.68054228e-04 9.68054228e-04 0. 0.
      9.68054228e-04 0. 1.93610846e-03 0. 9.68054228e-04 3.87221691e-03
      1.93610846e-03 0. 2.90416274e-03 0. 6.77637942e-03 0. 0. 0. 0. 0.
      1.93610846e-03 0. 0. 2.90416274e-03 1.93610846e-03 0.
      9.68054228e-04 0. 0. 0. 0. 1.93610846e-03 9.68054228e-04 0.
      9.68054228e-04 9.68054228e-04 0. 9.68054228e-04 9.68054228e-04
      9.68054228e-04 9.68054228e-04 9.68054228e-04 9.68054228e-04
      9.68054228e-04 0. 0. 0. 9.68054228e-04 9.68054228e-04
      1.93610846e-03 9.68054228e-04 0. 1.93610846e-03 1.93610846e-03
      1.93610846e-03 0. 9.68054228e-04 0. 9.68054228e-04 2.90416274e-03
      0. 2.90416274e-03 1.93610846e-03 0. 9.68054228e-04 9.68054228e-04
      0. 9.68054228e-04 0. 0. 1.93610846e-03 9.68054228e-04
      9.68054228e-04 9.68054228e-04 9.68054228e-04 9.68054228e-04 0. 0.
      1.93610846e-03 9.68054228e-04 0. 9.68054228e-04 9.68054228e-04
      1.93610846e-03 9.68054228e-04 1.93610846e-03 0. 0. 2.90416274e-03
      9.68054228e-04 0. 1.93610846e-03 0. 1.93610846e-03 9.68054228e-04
      0. 0. 9.68054228e-04 1.93610846e-03 9.68054228e-04 0. 0. 0. 0. 0.
      9.68054228e-04 9.68054228e-04 0. 9.68054228e-04 0. 0.
      9.68054228e-04 9.68054228e-04 9.68054228e-04 0. 4.84027108e-03 0.
      1.93610846e-03 9.68054228e-04 9.68054228e-04 0. 1.93610846e-03
      9.68054228e-04 9.68054228e-04 0. 9.68054228e-04 0. 0.
      9.68054228e-04 0. 0. 9.68054228e-04 9.68054228e-04 1.93610846e-03
      0. 9.68054228e-04 3.87221691e-03 0. 0. 0. 1.93610846e-03
      1.93610846e-03 0. 3.87221691e-03 1.93610846e-03 0. 0.
      8.71248823e-03 9.68054228e-04 0. 2.90416274e-03 0. 0. 0. 0. 0.
      1.93610846e-03 0. 2.90416274e-03 1.93610846e-03 1.93610846e-03 0.
      2.90416274e-03 1.93610846e-03 3.87221691e-03 1.93610846e-03
      9.68054228e-04 9.68054228e-04 0. 0. 1.93610846e-03 0.
      9.68054228e-04 0. 1.93610846e-03 0. 2.90416274e-03 1.93610846e-03
      1.93610846e-03 0. 9.68054228e-04 0. 0. 3.87221691e-03 0. 0. 0.
      2.90416274e-03 9.68054228e-04 0. 0. 0. 9.68054228e-04
      1.93610846e-03 0. 1.93610846e-03 2.90416274e-03 0. 1.93610846e-03
      9.68054228e-04 9.68054228e-04 0. 3.87221691e-03 2.90416274e-03
      9.68054228e-04 2.90416274e-03 0. 0. 9.68054228e-04 0.
      9.68054228e-04 9.68054228e-04 0. 2.90416274e-03 0. 9.68054228e-04
      0. 1.93610846e-03 0. 0. 1.93610846e-03 0. 0. 2.90416274e-03 0.
      1.93610846e-03 1.93610846e-03 0. 9.68054228e-04 1.93610846e-03
      1.93610846e-03 0. 9.68054228e-04 9.68054228e-04 0. 9.68054228e-04
      9.68054228e-04 0. 9.68054228e-04 1.93610846e-03 0. 0.
      9.68054228e-04 0. 1.93610846e-03 9.68054228e-04 0. 9.68054228e-04
      3.87221691e-03 1.93610846e-03 0. 9.68054228e-04 0. 9.68054228e-04
      0. 9.68054228e-04 0. 0. 2.90416274e-03 9.68054228e-04 0.
      4.84027108e-03 1.93610846e-03 1.93610846e-03 0. 9.68054228e-04 0.
      0. 9.68054228e-04 0. 9.68054228e-04 0. 2.90416274e-03 0. 0.
      9.68054228e-04 0. 1.93610846e-03 9.68054228e-04 0. 1.93610846e-03
      0. 0. 0. 0. 0. 9.68054228e-04 9.68054228e-04 0. 1.93610846e-03
      1.93610846e-03 9.68054228e-04 0. 9.68054228e-04 1.93610846e-03
      1.93610846e-03 9.68054228e-04 9.68054228e-04 0. 0. 9.68054228e-04
      0. 9.68054228e-04 0. 9.68054228e-04 0. 9.68054228e-04
      1.93610846e-03 0. 0. 0. 1.93610846e-03 0. 9.68054228e-04
      9.68054228e-04 0. 9.68054228e-04 9.68054228e-04 9.68054228e-04
      9.68054228e-04 9.68054228e-04 9.68054228e-04 9.68054228e-04 0. 0.
      1.93610846e-03 0. 9.68054228e-04 9.68054228e-04 0. 9.68054228e-04
      0. 9.68054228e-04 0. 0. 0. 1.93610846e-03 1.93610846e-03
      1.93610846e-03 0. 9.68054228e-04 2.90416274e-03 1.93610846e-03
      9.68054228e-04 0. 0. 0. 2.90416274e-03 9.68054228e-04 0.
      1.93610846e-03 9.68054228e-04 0. 9.68054228e-04 0. 0.
      9.68054228e-04 0. 0. 9.68054228e-04 0. 0. 9.68054228e-04
      1.93610846e-03 0. 1.93610846e-03 3.87221691e-03 1.93610846e-03
      9.68054228e-04 9.68054228e-04 9.68054228e-04 0. 0. 0.
      9.68054228e-04 2.90416274e-03 9.68054228e-04 0. 1.93610846e-03
      1.93610846e-03 0. 0. 2.90416274e-03 9.68054228e-04 9.68054228e-04
      0. 9.68054228e-04 9.68054228e-04 0. 9.68054228e-04 0.
      2.90416274e-03 9.68054228e-04 0. 9.68054228e-04 9.68054228e-04 0.
      0. 0. 0. 2.90416274e-03 9.68054228e-04 9.68054228e-04
      9.68054228e-04 9.68054228e-04 1.93610846e-03 0. 0. 0.
      2.90416274e-03 0. 0. 9.68054228e-04 1.93610846e-03 0. 0.
      1.93610846e-03 2.90416274e-03 9.68054228e-04 9.68054228e-04 0.
      2.90416274e-03 1.93610846e-03 9.68054228e-04 0. 0. 0. 0.
      1.93610846e-03 9.68054228e-04 0. 0.</_>
    <_>
      0. 0. 0. 0. 0. 0. 0. 3.41296918e-03 0. 0. 0. 6.82593836e-03 0.
      6.82593836e-03 0. 0. 0. 0. 0. 0. 0. 3.41296918e-03 0. 0. 0.
      3.41296918e-03 6.82593836e-03 3.41296918e-03 3.41296918e-03
      3.41296918e-03 0. 3.41296918e-03 6.82593836e-03 3.41296918e-03
      3.41296918e-03 0. 0. 0. 3.41296918e-03 0. 0. 0. 0. 0. 0. 0.
      3.41296918e-03 0. 0. 0. 0. 3.41296918e-03 3.41296918e-03 0. 0. 0.
      0. 0. 0. 0. 0. 0. 0. 0. 0. 6.82593836e-03 0. 6.82593836e-03 0.
      3.41296918e-03 0. 0. 0. 0. 3.41296918e-03 1.02389073e-02
      3.41296918e-03 0. 0. 0. 0. 3.41296918e-03 0. 3.41296918e-03 0. 0.
      0. 0. 3.41296918e-03 6.82593836e-03 0. 0. 0. 6.82593836e-03 0. 0.
      6.82593836e-03 0. 0. 0. 0. 0. 3.41296918e-03 3.41296918e-03 0. 0.
      0. 3.41296918e-03 0. 0. 3.41296918e-03 0. 0. 1.02389073e-02 0. 0.
      0. 0. 0. 3.41296918e-03 3.41296918e-03 0. 0. 0. 0. 0.
      3.41296918e-03 0. 0. 0. 0. 0. 0. 0. 0. 3.41296918e-03 0.
      3.41296918e-03 0. 0. 0. 0. 0. 0. 0. 3.41296918e-03 6.82593836e-03
      0. 0. 0. 0. 0. 0. 0. 0. 0. 0. 0. 0. 0. 0. 0. 0. 3.41296918e-03
      3.41296918e-03 0. 0. 0. 0. 0. 0. 0. 0. 0. 0. 0. 0. 0. 0.
      3.41296918e-03 0. 0. 0. 0. 0. 3.41296918e-03 0. 0. 3.41296918e-03
      0. 0. 3.41296918e-03 0. 0. 0. 0. 0. 0. 0. 0. 0. 0. 0. 0. 0. 0. 0.
      0. 0. 0. 0. 0. 0. 0. 0. 0. 0. 0. 0. 0. 0. 0. 0. 0. 3.41296918e-03
      3.41296918e-03 0. 0. 0. 0. 0. 0. 0. 0. 0. 6.82593836e-03 0. 0. 0.
      6.82593836e-03 0. 3.41296918e-03 0. 0. 3.41296918e-03 0. 0. 0. 0.
      0. 3.41296918e-03 0. 3.41296918e-03 6.82593836e-03 6.82593836e-03
      3.41296918e-03 0. 0. 6.82593836e-03 0. 0. 0. 3.41296918e-03 0. 0.
      0. 0. 0. 0. 3.41296918e-03 3.41296918e-03 0. 0. 3.41296918e-03 0.
      6.82593836e-03 0. 3.41296918e-03 0. 0. 0. 0. 0. 0. 0. 0. 0. 0.
      1.36518767e-02 3.41296918e-03 3.41296918e-03 0. 0. 3.41296918e-03
      0. 0. 0. 0. 0. 0. 0. 0. 1.36518767e-02 0. 0. 6.82593836e-03 0. 0.
      0. 0. 0. 3.41296918e-03 0. 0. 0. 0. 0. 0. 0. 0. 0. 3.41296918e-03
      3.41296918e-03 0. 0. 0. 0. 3.41296918e-03 0. 0. 0. 0.
      3.41296918e-03 0. 0. 0. 0. 0. 6.82593836e-03 0. 0. 0. 0. 0. 0. 0.
      0. 3.41296918e-03 6.82593836e-03 0. 3.41296918e-03 0. 0. 0. 0. 0.
      3.41296918e-03 0. 0. 0. 0. 0. 0. 3.41296918e-03 0. 3.41296918e-03
      0. 0. 0. 0. 0. 0. 0. 3.41296918e-03 0. 0. 0. 0. 0. 0.
      6.82593836e-03 0. 6.82593836e-03 0. 0. 3.41296918e-03 0. 0. 0.
      3.41296918e-03 0. 0. 0. 1.02389073e-02 0. 0. 3.41296918e-03 0. 0.
      0. 0. 3.41296918e-03 0. 0. 0. 0. 0. 0. 0. 0. 3.41296918e-03 0. 0.
      0. 0. 0. 0. 0. 3.41296918e-03 0. 0. 0. 0. 0. 0. 0. 0. 0. 0.
      3.41296918e-03 3.41296918e-03 0. 0. 0. 0. 0. 0. 0. 6.82593836e-03
      0. 0. 0. 3.41296918e-03 0. 3.41296918e-03 0. 0. 0. 0.
      3.41296918e-03 0. 0. 0. 0. 0. 0. 0. 0. 3.41296918e-03 0. 0.
      3.41296918e-03 0. 6.82593836e-03 0. 3.41296918e-03 6.82593836e-03
      0. 0. 0. 0. 0. 0. 0. 0. 0. 0. 0. 0. 0. 3.41296918e-03 0. 0.
      1.02389073e-02 0. 3.41296918e-03 3.41296918e-03 0. 0. 0. 0. 0. 0.
      0. 0. 0. 0. 0. 6.82593836e-03 6.82593836e-03 6.82593836e-03 0.
      3.41296918e-03 0. 0. 0. 0. 0. 0. 0. 3.41296918e-03 3.41296918e-03
      3.41296918e-03 0. 0. 0. 0. 0. 0. 0. 0. 3.41296918e-03 0. 0. 0. 0.
      1.36518767e-02 0. 0. 0. 0. 0. 0. 0. 0. 3.41296918e-03 0.
      3.41296918e-03 0. 0. 0. 0. 0. 3.41296918e-03 0. 0. 0. 0. 0.
      3.41296918e-03 0. 0. 0. 0. 0. 0. 0. 0. 3.41296918e-03 0. 0.
      3.41296918e-03 0. 0. 3.41296918e-03 0. 0. 3.41296918e-03 0. 0. 0.
      6.82593836e-03 0. 0. 3.41296918e-03 0. 0. 0. 0. 3.41296918e-03 0.
      0. 0. 0. 0. 3.41296918e-03 0. 0. 0. 0. 3.41296918e-03 0. 0.
      3.41296918e-03 0. 3.41296918e-03 0. 0. 6.82593836e-03 0. 0. 0. 0.
      0. 0. 0. 3.41296918e-03 0. 3.41296918e-03 0. 0. 3.41296918e-03
      3.41296918e-03 0. 0. 0. 6.82593836e-03 3.41296918e-03 0. 0. 0. 0.
      0. 0. 0. 0. 0. 0. 0. 0. 0. 0. 0. 0. 0. 3.41296918e-03
      6.82593836e-03 0. 0. 0. 0. 0. 0. 0. 0. 0. 0. 0. 6.82593836e-03 0.
      0. 3.41296918e-03 0. 0. 0. 0. 0. 0. 0. 0. 3.41296918e-03 0. 0. 0.
      0. 0. 0. 0. 0. 0. 0. 0. 3.41296918e-03 0. 0. 0. 0. 0. 0. 0. 0. 0.
      0. 0. 3.41296918e-03 0. 0. 3.41296918e-03 0. 0. 3.41296918e-03 0.
      0. 0. 3.41296918e-03 1.36518767e-02 0. 3.41296918e-03 0.
      3.41296918e-03 0. 0. 3.41296918e-03 0. 0. 0. 0. 0. 0. 0.
      6.82593836e-03 0. 0. 0. 3.41296918e-03 0. 0. 0. 0. 0.
      3.41296918e-03 0. 0. 0. 0. 0. 0. 0. 0. 3.41296918e-03
      3.41296918e-03 0. 3.41296918e-03 0. 0. 0. 3.41296918e-03 0. 0. 0.
      0. 0. 0. 0. 0. 0. 0. 3.41296918e-03 0. 0. 0. 0. 3.41296918e-03 0.
      6.82593836e-03 3.41296918e-03 3.41296918e-03 3.41296918e-03 0. 0.
      3.41296918e-03 0. 0. 3.41296918e-03 3.41296918e-03 0.
      3.41296918e-03 0. 0. 0. 0. 0. 0. 0. 0. 0. 3.41296918e-03 0. 0. 0.
      3.41296918e-03 3.41296918e-03 1.36518767e-02 0. 0. 0. 0. 0. 0.
      3.41296918e-03 3.41296918e-03 0. 0. 3.41296918e-03 0. 0. 0. 0. 0.
      0. 0. 0. 0. 3.41296918e-03 0. 3.41296918e-03 0. 0. 0. 0. 0. 0. 0.
      0. 3.41296918e-03 0. 0. 0. 3.41296918e-03 0. 0. 0. 0. 0. 0. 0. 0.
      0. 0. 0. 0. 0. 0. 0. 0. 6.82593836e-03 0. 0. 0. 3.41296918e-03 0.
      3.41296918e-03 1.02389073e-02 0. 0. 0. 0. 1.36518767e-02 0. 0. 0.
      0. 0. 3.41296918e-03 0. 3.41296918e-03 0. 3.41296918e-03
      3.41296918e-03 0. 3.41296918e-03 0. 0. 0. 0. 0. 6.82593836e-03 0.
      3.41296918e-03 0. 0. 0. 0. 6.82593836e-03 0. 0. 3.41296918e-03
      6.82593836e-03 3.41296918e-03 0. 0. 0. 0. 0. 0. 0. 0. 0. 0. 0. 0.
      0. 1.02389073e-02 0. 0. 0. 0. 0. 0. 0. 0. 0. 3.41296918e-03
      3.41296918e-03 0. 0. 3.41296918e-03 3.41296918e-03 0. 0. 0. 0. 0.
      0. 0. 0. 3.41296918e-03 0. 6.82593836e-03 0. 0. 0. 3.41296918e-03
      0. 3.41296918e-03 0. 0. 6.82593836e-03 0. 0. 0. 0. 0. 0. 0. 0. 0.
      0. 3.41296918e-03 0. 3.41296918e-03 0. 0. 0. 0. 0. 0.
      3.41296918e-03 0. 0. 0. 0. 0. 0. 0. 0. 0. 0. 0. 0. 0. 0. 0.
      3.41296918e-03 0. 3.41296918e-03 0. 0. 0. 0. 6.82593836e-03 0. 0.
      0. 0. 0. 3.41296918e-03 0. 3.41296918e-03 0. 0. 0. 0. 0. 0. 0. 0.
      0. 3.41296918e-03 3.41296918e-03 0. 3.41296918e-03 3.41296918e-03
      0. 6.82593836e-03 0. 0. 3.41296918e-03 0. 0.</_>
    <_>
      0. 0. 0. 1.41342757e-02 1.76678449e-02 3.53356893e-03 0. 0. 0. 0.
      7.06713786e-03 3.53356893e-03 0. 0. 0. 0. 0. 0. 0. 0. 0. 0. 0.
      3.53356893e-03 0. 0. 0. 0. 0. 0. 3.53356893e-03 3.53356893e-03
      3.53356893e-03 0. 7.06713786e-03 0. 3.53356893e-03 0. 0. 0. 0. 0.
      0. 0. 0. 0. 0. 0. 0. 0. 0. 0. 0. 0. 0. 0. 0. 0. 3.53356893e-03 0.
      0. 0. 0. 0. 0. 0. 0. 3.53356893e-03 7.06713786e-03 0. 0. 0. 0. 0.
      0. 0. 0. 0. 0. 0. 0. 0. 0. 0. 0. 0. 0. 0. 0. 0. 7.06713786e-03 0.
      0. 0. 0. 0. 7.06713786e-03 0. 0. 0. 0. 3.53356893e-03 0.
      3.53356893e-03 0. 0. 0. 0. 0. 0. 0. 1.06007066e-02 0. 0.
      7.06713786e-03 0. 0. 3.53356893e-03 0. 0. 0. 0. 0. 3.53356893e-03
      0. 0. 0. 0. 0. 0. 0. 0. 0. 0. 0. 7.06713786e-03 0. 0. 0.
      3.53356893e-03 0. 0. 3.53356893e-03 0. 3.53356893e-03 0. 0. 0.
      3.53356893e-03 0. 0. 0. 0. 0. 0. 0. 0. 0. 0. 3.53356893e-03 0. 0.
      0. 3.53356893e-03 0. 0. 0. 3.53356893e-03 3.53356893e-03 0. 0.
      3.53356893e-03 0. 7.06713786e-03 3.53356893e-03 0. 0. 0. 0. 0. 0.
      0. 0. 3.53356893e-03 0. 0. 0. 3.53356893e-03 0. 0. 0.
      3.53356893e-03 0. 0. 0. 0. 0. 0. 0. 0. 0. 0. 0. 0. 0. 0. 0. 0. 0.
      0. 0. 3.53356893e-03 3.53356893e-03 0. 0. 0. 0. 0. 0. 0.
      7.06713786e-03 0. 0. 0. 1.41342757e-02 3.53356893e-03 0.
      3.53356893e-03 0. 0. 0. 0. 0. 3.53356893e-03 0. 0. 0. 0. 0.
      7.06713786e-03 0. 0. 0. 0. 0. 0. 3.53356893e-03 0. 0. 0. 0. 0.
      3.53356893e-03 0. 0. 0. 0. 0. 0. 0. 3.53356893e-03 0. 0. 0. 0. 0.
      7.06713786e-03 0. 0. 0. 0. 0. 0. 3.53356893e-03 0. 0. 0. 0. 0.
      3.53356893e-03 0. 0. 0. 0. 0. 0. 0. 0. 0. 3.53356893e-03 0. 0.
      3.53356893e-03 0. 0. 0. 0. 0. 0. 0. 3.53356893e-03 0.
      1.41342757e-02 0. 0. 3.53356893e-03 0. 0. 7.06713786e-03 0. 0. 0.
      0. 0. 0. 0. 0. 0. 0. 0. 0. 3.53356893e-03 0. 0. 0. 0. 0.
      3.53356893e-03 0. 0. 0. 0. 0. 0. 0. 0. 0. 0. 0. 0. 0. 0. 0. 0. 0.
      0. 1.41342757e-02 0. 3.53356893e-03 0. 0. 0. 0. 0. 0. 0. 0. 0. 0.
      0. 3.53356893e-03 0. 3.53356893e-03 0. 3.53356893e-03
      7.06713786e-03 0. 3.53356893e-03 7.06713786e-03 0. 3.53356893e-03
      1.06007066e-02 0. 0. 0. 3.53356893e-03 0. 0. 0. 0. 3.53356893e-03
      0. 0. 0. 0. 0. 0. 0. 0. 0. 0. 0. 0. 3.53356893e-03 7.06713786e-03
      0. 1.06007066e-02 0. 3.53356893e-03 0. 0. 0. 0. 0. 0. 0. 0.
      3.53356893e-03 3.53356893e-03 3.53356893e-03 0. 0. 0. 0. 0. 0.
      3.53356893e-03 0. 0. 0. 0. 0. 0. 3.53356893e-03 0. 0. 0. 0. 0.
      3.53356893e-03 0. 0. 0. 1.06007066e-02 0. 0. 0. 0. 3.53356893e-03
      0. 0. 0. 0. 0. 0. 0. 0. 0. 0. 0. 0. 0. 0. 0. 3.53356893e-03 0. 0.
      0. 0. 3.53356893e-03 7.06713786e-03 3.53356893e-03 0. 0.
      3.53356893e-03 0. 0. 3.53356893e-03 3.53356893e-03 0. 0. 0. 0. 0.
      0. 0. 0. 0. 0. 0. 0. 0. 0. 0. 0. 0. 0. 0. 0. 0. 7.06713786e-03 0.
      0. 0. 0. 0. 0. 3.53356893e-03 0. 0. 0. 0. 0. 0. 3.53356893e-03 0.
      0. 0. 0. 0. 0. 3.53356893e-03 0. 0. 3.53356893e-03 0. 0. 0. 0.
      3.53356893e-03 0. 0. 0. 0. 3.53356893e-03 0. 0. 3.53356893e-03
      3.53356893e-03 0. 0. 0. 0. 0. 0. 3.53356893e-03 3.53356893e-03 0.
      0. 0. 0. 0. 0. 0. 0. 0. 0. 0. 0. 0. 0. 0. 0. 0. 0. 3.53356893e-03
      0. 3.53356893e-03 0. 0. 0. 0. 3.53356893e-03 3.53356893e-03
      7.06713786e-03 0. 0. 0. 0. 0. 0. 0. 3.53356893e-03 0.
      3.53356893e-03 0. 0. 0. 0. 3.53356893e-03 0. 0. 0. 0. 0. 0. 0. 0.
      0. 0. 0. 3.53356893e-03 0. 0. 0. 0. 0. 0. 0. 3.53356893e-03 0. 0.
      0. 0. 0. 0. 3.53356893e-03 0. 0. 0. 0. 0. 0. 3.53356893e-03
      7.06713786e-03 0. 0. 0. 0. 0. 0. 0. 0. 0. 3.53356893e-03 0. 0. 0.
      0. 0. 0. 0. 0. 0. 0. 0. 3.53356893e-03 3.53356893e-03
      7.06713786e-03 0. 0. 0. 0. 0. 0. 0. 0. 0. 0. 3.53356893e-03 0. 0.
      0. 0. 3.53356893e-03 7.06713786e-03 3.53356893e-03 0. 0.
      3.53356893e-03 0. 0. 1.06007066e-02 0. 0. 0. 0. 0. 0. 0. 0.
      3.53356893e-03 0. 0. 0. 0. 0. 3.53356893e-03 0. 0. 0. 0. 0. 0.
      3.53356893e-03 0. 0. 0. 0. 0. 0. 3.53356893e-03 0. 0. 0.
      3.53356893e-03 0. 0. 3.53356893e-03 3.53356893e-03 0. 0.
      3.53356893e-03 0. 0. 0. 3.53356893e-03 0. 0. 0. 0. 0.
      3.53356893e-03 0. 0. 3.53356898e-02 3.53356893e-03 0. 0. 0. 0. 0.
      0. 0. 3.53356893e-03 0. 0. 0. 0. 0. 3.53356893e-03 0.
      3.53356893e-03 0. 3.53356893e-03 0. 0. 3.53356893e-03 0. 0. 0.
      3.53356893e-03 0. 3.53356893e-03 0. 0. 3.53356893e-03 0. 0.
      7.06713786e-03 0. 3.53356893e-03 3.53356893e-03 0. 0. 0. 0. 0. 0.
      0. 0. 0. 0. 0. 0. 0. 0. 0. 3.53356893e-03 0. 7.06713786e-03
      3.53356893e-03 0. 0. 0. 0. 0. 0. 0. 0. 0. 2.47349832e-02 0. 0.
      3.53356893e-03 0. 0. 0. 0. 3.53356893e-03 0. 0. 0. 1.76678449e-02
      0. 0. 0. 0. 0. 0. 3.53356893e-03 0. 0. 0. 3.53356893e-03 0. 0. 0.
      3.53356893e-03 0. 0. 0. 0. 3.53356893e-03 0. 0. 0. 0. 0.
      1.76678449e-02 0. 0. 0. 0. 0. 0. 7.06713786e-03 0. 0. 0.
      1.76678449e-02 0. 0. 0. 0. 0. 0. 0. 3.53356893e-03 0. 0.
      3.53356893e-03 3.53356893e-03 3.53356893e-03 3.53356893e-03 0.
      1.06007066e-02 0. 0. 0. 0. 3.53356893e-03 0. 0. 0. 0. 0. 0. 0.
      7.06713786e-03 1.06007066e-02 0. 3.53356893e-03 0. 0.
      3.53356893e-03 0. 0. 0. 0. 0. 0. 0. 0. 3.53356893e-03 0. 0.
      7.06713786e-03 0. 0. 0. 0. 3.53356893e-03 0. 0. 0. 0. 0. 0. 0. 0.
      3.53356893e-03 3.53356893e-03 7.06713786e-03 0. 0. 0. 0. 0. 0. 0.
      3.53356893e-03 0. 0. 0. 0. 3.53356893e-03 0. 0. 3.53356893e-03 0.
      0. 0. 0. 0. 0. 0. 0. 0. 0. 0. 0. 0. 0. 0. 0. 0. 0. 0. 0. 0. 0. 0.
      0. 0. 3.53356893e-03 3.53356893e-03 3.53356893e-03 3.53356893e-03
      0. 3.53356893e-03 0. 3.53356893e-03 0. 3.53356893e-03 0.
      3.53356893e-03 0. 0. 0. 0. 0. 0. 0. 0. 0. 0. 0. 0. 0. 0. 0. 0. 0.
      0. 0. 0. 0. 7.06713786e-03 3.53356893e-03 0. 0. 0. 0.
      3.53356893e-03 0. 0. 0. 0. 0. 0. 3.53356893e-03 0. 0. 0.
      7.06713786e-03 0. 0. 3.53356893e-03 0. 0. 0. 0. 0. 7.06713786e-03
      0. 0. 0. 0. 0.</_>
    <_>
      0. 0. 0. 2.11864407e-03 2.11864407e-03 0. 2.11864407e-03 0. 0. 0.
      0. 0. 0. 0. 0. 0. 2.11864407e-03 0. 0. 2.11864407e-03
      2.11864407e-03 2.11864407e-03 2.11864407e-03 0. 2.11864407e-03 0.
      2.11864407e-03 2.11864407e-03 0. 0. 0. 0. 0. 0. 2.11864407e-03 0.
      0. 2.11864407e-03 2.11864407e-03 2.11864407e-03 0. 0. 0. 0.
      2.11864407e-03 2.11864407e-03 2.11864407e-03 0. 0. 0. 0.
      1.27118640e-02 2.11864407e-03 0. 0. 0. 0. 0. 0. 0. 2.11864407e-03
      2.11864407e-03 2.11864407e-03 0. 6.35593198e-03 4.23728814e-03 0.
      0. 2.11864407e-03 2.11864407e-03 0. 0. 0. 0. 0. 0. 2.11864407e-03
      0. 0. 0. 0. 2.11864407e-03 0. 0. 2.11864407e-03 0. 0.
      2.11864407e-03 0. 0. 8.47457629e-03 0. 0. 0. 0. 0. 0.
      2.11864407e-03 0. 4.23728814e-03 0. 4.23728814e-03 0. 0. 0. 0. 0.
      2.11864407e-03 2.11864407e-03 2.11864407e-03 4.23728814e-03 0. 0.
      6.35593198e-03 0. 0. 0. 0. 0. 0. 0. 2.11864407e-03 0.
      6.35593198e-03 0. 0. 0. 2.11864407e-03 0. 0. 0. 4.23728814e-03 0.
      0. 0. 0. 4.23728814e-03 2.11864407e-03 2.11864407e-03 0. 0.
      2.11864407e-03 0. 0. 0. 0. 0. 0. 2.11864407e-03 0. 0. 0.
      2.11864407e-03 0. 0. 0. 0. 0. 2.11864407e-03 0. 2.11864407e-03 0.
      2.11864407e-03 0. 4.23728814e-03 0. 0. 0. 0. 2.11864407e-03
      4.23728814e-03 0. 0. 0. 2.11864407e-03 0. 2.11864407e-03
      2.11864407e-03 0. 0. 0. 0. 2.11864407e-03 2.11864407e-03 0. 0. 0.
      0. 0. 0. 2.11864407e-03 0. 0. 0. 0. 0. 6.35593198e-03
      2.11864407e-03 0. 0. 0. 4.23728814e-03 0. 0. 2.11864407e-03 0.
      2.11864407e-03 0. 2.11864407e-03 0. 0. 0. 0. 0. 0. 0.
      2.11864407e-03 0. 0. 0. 4.23728814e-03 0. 2.11864407e-03 0.
      1.05932206e-02 0. 0. 0. 0. 0. 0. 0. 2.11864407e-03 0. 0. 0.
      2.11864407e-03 0. 0. 0. 0. 0. 0. 0. 0. 0. 0. 0. 0. 2.11864407e-03
      2.11864407e-03 0. 4.23728814e-03 0. 2.11864407e-03 0.
      4.23728814e-03 4.23728814e-03 2.11864407e-03 0. 2.11864407e-03
      2.11864407e-03 0. 0. 0. 0. 2.11864407e-03 0. 2.11864407e-03 0. 0.
      4.23728814e-03 2.11864407e-03 6.35593198e-03 2.11864407e-03
      2.11864407e-03 0. 0. 0. 0. 0. 0. 0. 6.35593198e-03 0. 0. 0. 0.
      2.11864407e-03 0. 0. 0. 6.35593198e-03 1.05932206e-02 0. 0. 0. 0.
      0. 2.11864407e-03 0. 0. 0. 2.11864407e-03 4.23728814e-03
      2.11864407e-03 0. 0. 0. 4.23728814e-03 0. 2.11864407e-03 0.
      2.11864407e-03 0. 0. 6.35593198e-03 2.11864407e-03 0.
      4.23728814e-03 0. 0. 0. 2.11864407e-03 2.11864407e-03
      2.11864407e-03 0. 2.11864407e-03 2.11864407e-03 0. 0. 0.
      4.23728814e-03 0. 0. 0. 2.11864407e-03 0. 2.11864407e-03 0.
      4.23728814e-03 0. 0. 0. 0. 2.11864407e-03 6.35593198e-03
      4.23728814e-03 0. 0. 0. 2.11864407e-03 0. 0. 0. 0. 0. 0. 0. 0.
      2.11864407e-03 0. 0. 4.23728814e-03 0. 0. 0. 0. 0. 2.11864407e-03
      0. 1.05932206e-02 0. 0. 2.11864407e-03 0. 2.11864407e-03 0. 0.
      2.11864407e-03 2.11864407e-03 8.47457629e-03 0. 0. 2.11864407e-03
      2.11864407e-03 0. 0. 0. 0. 0. 0. 0. 0. 0. 0. 6.35593198e-03
      2.11864407e-03 0. 0. 0. 2.11864407e-03 6.35593198e-03 0. 0. 0. 0.
      0. 0. 2.11864407e-03 0. 4.23728814e-03 2.11864407e-03 0. 0.
      2.11864407e-03 0. 0. 0. 0. 4.23728814e-03 0. 0. 0. 2.11864407e-03
      0. 0. 4.23728814e-03 0. 0. 0. 0. 2.11864407e-03 2.11864407e-03 0.
      0. 2.11864407e-03 2.11864407e-03 0. 2.11864407e-03 2.11864407e-03
      0. 0. 0. 0. 2.11864407e-03 0. 0. 0. 0. 0. 0. 4.23728814e-03
      4.23728814e-03 6.35593198e-03 0. 2.11864407e-03 2.11864407e-03
      2.11864407e-03 0. 0. 6.35593198e-03 0. 0. 2.11864407e-03 0. 0.
      4.23728814e-03 0. 0. 0. 0. 0. 0. 0. 0. 0. 0. 0. 0. 4.23728814e-03
      0. 0. 0. 0. 2.11864407e-03 0. 0. 2.11864407e-03 0. 0. 0. 0. 0.
      4.23728814e-03 0. 2.11864407e-03 2.11864407e-03 0. 0. 0. 0. 0.
      2.11864407e-03 0. 0. 0. 4.23728814e-03 0. 4.23728814e-03 0.
      4.23728814e-03 0. 0. 0. 2.11864407e-03 1.90677959e-02 0.
      2.11864407e-03 2.11864407e-03 0. 0. 2.11864407e-03 2.11864407e-03
      0. 0. 2.11864407e-03 0. 0. 2.11864407e-03 2.11864407e-03
      2.11864407e-03 2.11864407e-03 0. 0. 0. 0. 2.11864407e-03
      2.11864407e-03 2.11864407e-03 0. 0. 0. 0. 0. 0. 0. 2.11864407e-03
      4.23728814e-03 2.11864407e-03 0. 2.11864407e-03 0. 0. 0. 0.
      2.11864407e-03 0. 0. 2.11864407e-03 0. 0. 0. 0. 0. 0. 0. 0. 0. 0.
      0. 0. 0. 2.11864407e-03 0. 0. 0. 4.23728814e-03 6.35593198e-03
      2.11864407e-03 2.11864407e-03 0. 0. 0. 2.11864407e-03
      4.23728814e-03 0. 0. 4.23728814e-03 0. 0. 0. 2.11864407e-03 0. 0.
      0. 0. 0. 0. 0. 0. 0. 0. 0. 0. 0. 2.11864407e-03 0. 2.11864407e-03
      0. 0. 4.23728814e-03 0. 0. 2.11864407e-03 0. 2.11864407e-03 0. 0.
      2.11864407e-03 0. 0. 6.35593198e-03 2.11864407e-03 2.11864407e-03
      0. 0. 0. 4.23728814e-03 0. 0. 0. 0. 0. 0. 0. 0. 2.11864407e-03 0.
      0. 0. 4.23728814e-03 0. 0. 0. 0. 0. 0. 0. 0. 0. 4.23728814e-03
      2.11864407e-03 0. 0. 0. 2.11864407e-03 0. 0. 0. 0. 0. 0. 0.
      4.23728814e-03 0. 0. 0. 0. 0. 2.11864407e-03 0. 0. 0. 0. 0. 0. 0.
      0. 0. 0. 4.23728814e-03 2.11864407e-03 0. 0. 0. 0. 0. 0. 0. 0. 0.
      4.23728814e-03 0. 4.23728814e-03 6.35593198e-03 0. 0.
      8.47457629e-03 0. 0. 4.23728814e-03 4.23728814e-03 0.
      2.11864407e-03 0. 0. 2.11864407e-03 0. 0. 0. 4.23728814e-03
      2.11864407e-03 0. 0. 6.35593198e-03 0. 0. 4.23728814e-03 0.
      2.11864407e-03 0. 0. 0. 2.11864407e-03 0. 2.11864407e-03 0.
      6.35593198e-03 2.11864407e-03 4.23728814e-03 0. 6.35593198e-03 0.
      2.11864407e-03 0. 0. 0. 0. 2.11864407e-03 0. 4.23728814e-03 0.
      2.11864407e-03 0. 2.11864407e-03 0. 0. 0. 2.11864407e-03 0.
      2.11864407e-03 0. 0. 2.11864407e-03 0. 0. 0. 0. 0. 2.11864407e-03
      0. 0. 0. 2.11864407e-03 2.11864407e-03 0. 0. 0. 0. 2.11864407e-03
      4.23728814e-03 2.11864407e-03 8.47457629e-03 0. 0. 0. 0.
      2.11864407e-03 0. 0. 0. 0. 0. 0. 4.23728814e-03 0. 0.
      2.11864407e-03 2.11864407e-03 0. 0. 0. 2.11864407e-03 0. 0.
      2.11864407e-03 0. 0. 0. 0. 2.11864407e-03 0. 0. 2.11864407e-03
      2.11864407e-03 0. 2.11864407e-03 0. 0. 4.23728814e-03 0.
      2.11864407e-03 0. 2.11864407e-03 0. 8.47457629e-03 0. 0. 0. 0. 0.
      4.23728814e-03 0. 2.11864407e-03 0. 0. 0. 2.11864407e-03 0. 0. 0.
      0. 0. 0. 0. 0. 0. 0. 2.11864407e-03 2.11864407e-03 0. 0.
      2.11864407e-03 0. 0. 2.11864407e-03 2.11864407e-03 0. 0. 0. 0.
      2.11864407e-03 0. 2.11864407e-03 2.11864407e-03 2.11864407e-03
      2.11864407e-03 0. 2.11864407e-03 0. 2.11864407e-03 2.11864407e-03
      0. 0. 0. 0. 0. 0. 2.11864407e-03 4.23728814e-03 0. 2.11864407e-03
      0. 0. 0. 2.11864407e-03 0. 2.11864407e-03 0. 4.23728814e-03
      4.23728814e-03 0. 2.11864407e-03 0. 0. 0. 2.11864407e-03 0.
      2.11864407e-03 2.11864407e-03 4.23728814e-03 0. 0. 0. 0. 0. 0. 0.
      0. 0. 2.11864407e-03 4.23728814e-03 2.11864407e-03 4.23728814e-03
      2.11864407e-03 0. 0. 2.11864407e-03 0. 0. 0. 6.35593198e-03
      2.11864407e-03 0. 0. 2.11864407e-03 0. 0. 0. 0. 0. 0. 0. 0.
      2.11864407e-03 0. 0. 2.11864407e-03 0. 0. 2.11864407e-03 0.
      2.11864407e-03 2.11864407e-03 4.23728814e-03 2.11864407e-03 0. 0.
      2.11864407e-03 0. 2.11864407e-03 8.47457629e-03 0. 2.11864407e-03
      2.11864407e-03 2.11864407e-03 0. 2.11864407e-03 2.11864407e-03 0.
      0. 0. 0. 0. 0. 0. 0. 0. 0. 0. 0. 2.11864407e-03 2.11864407e-03 0.
      0. 4.23728814e-03 2.11864407e-03 2.11864407e-03 2.11864407e-03 0.
      0. 0. 0. 0. 0. 0. 0. 2.11864407e-03 0. 0. 0. 0. 2.11864407e-03 0.
      0. 0. 0. 0. 0. 0. 0. 0. 0. 0. 0. 2.11864407e-03 2.11864407e-03
      8.47457629e-03 0.</_>
    <_>
      1.62601622e-03 1.62601622e-03 1.62601622e-03 1.62601622e-03
      1.62601622e-03 1.62601622e-03 0. 1.62601622e-03 0. 1.62601622e-03
      1.62601622e-03 0. 0. 0. 3.25203245e-03 0. 3.25203245e-03 0. 0.
      1.62601622e-03 1.62601622e-03 1.62601622e-03 0. 0. 0. 0.
      1.62601622e-03 1.62601622e-03 0. 3.25203245e-03 0. 1.62601622e-03
      1.62601622e-03 1.62601622e-03 1.62601622e-03 0. 1.62601622e-03 0.
      0. 0. 0. 1.62601622e-03 0. 1.62601622e-03 0. 0. 0. 6.50406489e-03
      0. 0. 1.62601622e-03 1.62601622e-03 4.87804879e-03 0. 0.
      3.25203245e-03 0. 4.87804879e-03 1.62601622e-03 0. 0.
      3.25203245e-03 4.87804879e-03 0. 1.62601622e-03 0. 0. 0. 0. 0.
      1.62601622e-03 3.25203245e-03 1.62601622e-03 0. 0. 0. 0. 0.
      4.87804879e-03 0. 0. 3.25203245e-03 3.25203245e-03 1.62601622e-03
      0. 0. 3.25203245e-03 0. 0. 0. 9.75609757e-03 0. 0. 0.
      3.25203245e-03 0. 0. 0. 0. 1.62601622e-03 1.62601622e-03 0. 0. 0.
      0. 1.62601622e-03 0. 1.62601622e-03 3.25203245e-03 0. 0.
      1.62601622e-03 0. 0. 6.50406489e-03 0. 0. 1.62601622e-03
      1.62601622e-03 1.62601622e-03 0. 0. 0. 6.50406489e-03
      1.62601622e-03 0. 0. 1.62601622e-03 0. 1.62601622e-03 0. 0.
      1.62601622e-03 1.62601622e-03 1.62601622e-03 1.62601622e-03
      8.13008100e-03 0. 0. 1.62601622e-03 1.62601622e-03 3.25203245e-03
      0. 0. 3.25203245e-03 1.62601622e-03 3.25203245e-03 0. 0. 0. 0.
      1.62601622e-03 3.25203245e-03 1.62601622e-03 0. 1.62601622e-03 0.
      3.25203245e-03 1.62601622e-03 0. 1.62601622e-03 0. 0. 0.
      1.62601622e-03 0. 1.62601622e-03 0. 0. 1.62601622e-03 0. 0.
      1.62601622e-03 0. 1.62601622e-03 0. 1.62601622e-03 0.
      1.62601622e-03 3.25203245e-03 0. 0. 0. 4.87804879e-03
      1.62601622e-03 0. 4.87804879e-03 0. 6.50406489e-03 1.62601622e-03
      0. 3.25203245e-03 3.25203245e-03 0. 0. 0. 0. 0. 1.62601622e-03
      1.62601622e-03 4.87804879e-03 0. 1.62601622e-03 0. 0. 0. 0.
      1.62601622e-03 0. 0. 0. 0. 0. 1.62601622e-03 0. 0. 0. 0. 0. 0.
      1.62601622e-03 1.62601622e-03 1.62601622e-03 1.62601622e-03 0. 0.
      1.62601622e-03 0. 0. 0. 0. 1.62601622e-03 0. 1.62601622e-03 0. 0.
      1.62601622e-03 0. 0. 0. 0. 1.62601622e-03 4.87804879e-03 0.
      1.62601622e-03 4.87804879e-03 1.62601622e-03 1.62601622e-03
      1.62601622e-03 3.25203245e-03 0. 0. 0. 0. 0. 0. 3.25203245e-03
      6.50406489e-03 1.62601622e-03 0. 0. 0. 0. 1.62601622e-03 0.
      1.62601622e-03 1.62601622e-03 1.62601622e-03 1.62601622e-03 0. 0.
      0. 0. 0. 0. 1.62601622e-03 6.50406489e-03 0. 0. 0. 0. 0. 0. 0. 0.
      1.62601622e-03 4.87804879e-03 0. 0. 0. 0. 3.25203245e-03
      1.62601622e-03 1.62601622e-03 0. 1.62601622e-03 0. 0.
      1.62601622e-03 1.62601622e-03 0. 0. 0. 0. 1.62601622e-03
      1.62601622e-03 0. 0. 3.25203245e-03 0. 1.62601622e-03 0.
      1.62601622e-03 0. 1.62601622e-03 0. 0. 0. 1.62601622e-03
      3.25203245e-03 1.62601622e-03 3.25203245e-03 3.25203245e-03 0. 0.
      0. 1.62601622e-03 0. 1.62601622e-03 0. 0. 1.62601622e-03
      1.62601622e-03 0. 4.87804879e-03 0. 1.62601622e-03 1.62601622e-03
      0. 0. 3.25203245e-03 0. 0. 0. 1.62601622e-03 0. 1.62601622e-03 0.
      0. 1.62601622e-03 1.62601622e-03 0. 0. 0. 1.62601622e-03
      1.62601622e-03 0. 1.62601622e-03 0. 1.62601622e-03 0. 0. 0. 0. 0.
      1.62601622e-03 0. 0. 1.62601622e-03 0. 1.62601622e-03 0.
      1.62601622e-03 0. 0. 1.62601622e-03 1.62601622e-03 0.
      1.62601622e-03 1.62601622e-03 0. 0. 0. 1.62601622e-03 0. 0. 0.
      4.87804879e-03 0. 0. 0. 0. 0. 0. 0. 1.62601622e-03 1.62601622e-03
      0. 0. 0. 0. 0. 0. 0. 0. 4.87804879e-03 0. 0. 0. 1.62601622e-03
      1.62601622e-03 0. 3.25203245e-03 1.62601622e-03 0. 1.62601622e-03
      1.62601622e-03 0. 3.25203245e-03 0. 1.62601622e-03 3.25203245e-03
      0. 4.87804879e-03 0. 0. 3.25203245e-03 1.62601622e-03 0. 0. 0. 0.
      1.62601622e-03 1.62601622e-03 3.25203245e-03 0. 0. 1.62601622e-03
      3.25203245e-03 0. 1.62601622e-03 1.62601622e-03 0. 0.
      1.62601622e-03 4.87804879e-03 1.62601622e-03 0. 1.62601622e-03
      3.25203245e-03 0. 3.25203245e-03 0. 3.25203245e-03 0.
      4.87804879e-03 0. 1.62601622e-03 0. 0. 1.62601622e-03
      1.62601622e-03 0. 0. 0. 0. 0. 0. 3.25203245e-03 0. 0. 0.
      3.25203245e-03 0. 0. 1.62601622e-03 0. 3.25203245e-03
      3.25203245e-03 0. 1.62601622e-03 1.62601622e-03 0. 4.87804879e-03
      0. 0. 3.25203245e-03 0. 8.13008100e-03 0. 0. 3.25203245e-03
      1.62601622e-03 0. 1.62601622e-03 1.62601622e-03 3.25203245e-03
      1.62601622e-03 0. 1.62601622e-03 0. 3.25203245e-03 0.
      1.62601622e-03 0. 1.62601622e-03 0. 3.25203245e-03 0.
      8.13008100e-03 3.25203245e-03 0. 1.62601622e-03 1.62601622e-03 0.
      0. 0. 0. 1.62601622e-03 0. 1.62601622e-03 0. 0. 0. 0.
      1.62601622e-03 0. 1.62601622e-03 0. 0. 1.62601622e-03
      1.62601622e-03 0. 0. 0. 0. 1.62601622e-03 1.62601622e-03
      3.25203245e-03 0. 1.62601622e-03 0. 1.62601622e-03 1.62601622e-03
      0. 0. 1.62601622e-03 9.75609757e-03 1.62601622e-03 4.87804879e-03
      6.50406489e-03 1.62601622e-03 0. 0. 0. 0. 0. 3.25203245e-03 0. 0.
      1.62601622e-03 0. 1.62601622e-03 0. 3.25203245e-03 1.62601622e-03
      0. 0. 0. 0. 0. 0. 1.62601622e-03 1.62601622e-03 0. 0.
      4.87804879e-03 0. 1.62601622e-03 1.62601622e-03 8.13008100e-03 0.
      1.62601622e-03 0. 0. 1.62601622e-03 1.62601622e-03 0.
      1.62601622e-03 0. 0. 0. 0. 0. 0. 0. 0. 0. 1.62601622e-03 0. 0. 0.
      0. 0. 0. 0. 0. 0. 6.50406489e-03 1.62601622e-03 0. 0. 0. 0. 0. 0.
      0. 1.62601622e-03 3.25203245e-03 1.62601622e-03 0. 1.62601622e-03
      1.62601622e-03 3.25203245e-03 0. 0. 0. 1.62601622e-03
      1.62601622e-03 1.62601622e-03 0. 0. 0. 0. 1.62601622e-03 0.
      1.62601622e-03 0. 0. 0. 0. 1.62601622e-03 0. 1.62601622e-03 0. 0.
      0. 1.62601622e-03 0. 3.25203245e-03 0. 0. 3.25203245e-03 0.
      1.62601622e-03 0. 3.25203245e-03 0. 0. 0. 0. 0. 0. 1.62601622e-03
      3.25203245e-03 0. 0. 0. 1.62601622e-03 0. 0. 0. 0. 6.50406489e-03
      1.62601622e-03 1.62601622e-03 1.62601622e-03 0. 0. 0.
      3.25203245e-03 1.62601622e-03 0. 0. 0. 0. 3.25203245e-03
      1.62601622e-03 0. 1.62601622e-03 0. 1.62601622e-03 3.25203245e-03
      0. 1.62601622e-03 0. 0. 0. 0. 1.62601622e-03 1.62601622e-03 0. 0.
      0. 1.62601622e-03 0. 4.87804879e-03 0. 0. 0. 0. 0. 4.87804879e-03
      0. 0. 8.13008100e-03 0. 0. 3.25203245e-03 0. 0. 1.62601622e-03 0.
      0. 1.62601622e-03 0. 0. 0. 3.25203245e-03 0. 6.50406489e-03
      3.25203245e-03 1.62601622e-03 0. 3.25203245e-03 3.25203245e-03 0.
      1.62601622e-03 0. 0. 0. 4.87804879e-03 1.62601622e-03 0.
      1.62601622e-03 1.62601622e-03 0. 0. 1.62601622e-03 3.25203245e-03
      1.62601622e-03 0. 0. 3.25203245e-03 0. 1.62601622e-03
      3.25203245e-03 0. 0. 0. 0. 0. 1.62601622e-03 0. 8.13008100e-03 0.
      3.25203245e-03 0. 0. 3.25203245e-03 0. 0. 4.87804879e-03 0. 0. 0.
      0. 0. 1.62601622e-03 1.62601622e-03 0. 3.25203245e-03 0. 0. 0.
      1.62601622e-03 1.62601622e-03 0. 0. 0. 0. 0. 0. 0. 1.62601622e-03
      0. 0. 0. 0. 0. 0. 6.50406489e-03 0. 0. 0. 0. 0. 1.62601622e-03 0.
      1.62601622e-03 0. 0. 3.25203245e-03 0. 0. 1.62601622e-03
      1.62601622e-03 4.87804879e-03 1.62601622e-03 1.62601622e-03
      1.62601622e-03 1.62601622e-03 0. 4.87804879e-03 0. 0.
      3.25203245e-03 0. 0. 1.62601622e-03 1.62601622e-03 0.
      1.62601622e-03 0. 0. 0. 0. 0. 0. 0. 1.62601622e-03 0. 0. 0. 0.
      3.25203245e-03 4.87804879e-03 0. 1.62601622e-03 0. 0.
      1.62601622e-03 0. 0. 0. 0. 0. 0. 0. 0. 0. 0. 1.62601622e-03 0. 0.
      4.87804879e-03 0. 1.62601622e-03 0. 1.62601622e-03 1.62601622e-03
      0. 0. 0. 0. 0. 0. 0. 0. 1.62601622e-03 1.62601622e-03
      1.62601622e-03 3.25203245e-03 4.87804879e-03 0. 0. 0. 0. 0. 0. 0.
      1.62601622e-03 0. 0. 1.62601622e-03 1.62601622e-03 0. 0.
      4.87804879e-03 4.87804879e-03 0. 0. 0. 0. 1.62601622e-03 0.
      1.62601622e-03 1.62601622e-03 0. 3.25203245e-03 0. 1.62601622e-03
      0. 0. 0. 3.25203245e-03 0. 0. 0. 8.13008100e-03 0. 1.62601622e-03
      0. 0. 3.25203245e-03 0. 0. 0. 0. 0. 1.62601622e-03 0. 0. 0. 0.
      3.25203245e-03 0. 0. 0. 0. 0. 0. 1.62601622e-03 1.62601622e-03 0.
      0. 0. 1.62601622e-03 0. 0. 0. 0. 0. 0. 1.62601622e-03 0. 0.
      3.25203245e-03 0. 1.62601622e-03 0. 1.62601622e-03 0.
      3.25203245e-03 0. 1.62601622e-03 0. 0. 0. 0. 0. 1.62601622e-03 0.
      1.62601622e-03 0. 3.25203245e-03 0. 1.62601622e-03 0.
      1.62601622e-03 0. 1.62601622e-03 0. 4.87804879e-03 1.62601622e-03
      0. 0. 0. 0. 1.62601622e-03 1.62601622e-03 1.62601622e-03 0. 0.
      1.62601622e-03 0. 1.62601622e-03 0. 0. 1.62601622e-03</_>
    <_>
      0. 0. 0. 0. 0. 2.88184430e-03 0. 0. 2.88184430e-03 2.88184430e-03
      0. 0. 0. 0. 0. 0. 2.88184430e-03 0. 0. 2.88184430e-03
      5.76368859e-03 2.88184430e-03 0. 2.88184430e-03 2.88184430e-03 0.
      2.88184430e-03 0. 5.76368859e-03 0. 0. 0. 0. 0. 5.76368859e-03 0.
      0. 2.88184430e-03 0. 0. 0. 2.88184430e-03 0. 0. 0. 2.88184430e-03
      0. 0. 0. 8.64553265e-03 0. 0. 0. 0. 0. 0. 0. 0. 0. 0. 0. 0.
      2.88184430e-03 2.88184430e-03 0. 0. 8.64553265e-03 2.88184430e-03
      0. 5.76368859e-03 0. 0. 0. 0. 0. 0. 0. 0. 0. 2.88184430e-03 0. 0.
      2.88184430e-03 0. 0. 0. 2.88184430e-03 0. 0. 0. 5.76368859e-03 0.
      0. 0. 0. 0. 0. 0. 0. 0. 0. 0. 0. 0. 0. 2.88184430e-03 0. 0. 0. 0.
      0. 0. 2.88184430e-03 0. 0. 0. 0. 0. 0. 0. 0. 2.88184430e-03
      2.88184430e-03 0. 0. 0. 0. 0. 0. 0. 0. 8.64553265e-03
      2.88184430e-03 0. 2.88184430e-03 2.88184430e-03 1.15273772e-02 0.
      2.88184430e-03 0. 0. 0. 2.88184430e-03 0. 0. 2.88184430e-03 0. 0.
      0. 0. 0. 0. 8.64553265e-03 0. 0. 2.88184430e-03 0. 0. 0. 0. 0. 0.
      0. 0. 0. 0. 0. 0. 0. 0. 2.88184430e-03 2.88184430e-03 0. 0.
      2.88184430e-03 0. 0. 0. 0. 0. 0. 2.88184430e-03 2.88184430e-03
      2.88184430e-03 0. 2.88184430e-03 5.76368859e-03 2.88184430e-03 0.
      0. 0. 0. 2.88184430e-03 2.88184430e-03 0. 0. 0. 0. 0. 0.
      1.15273772e-02 0. 0. 2.88184430e-03 0. 0. 0. 0. 0. 2.88184430e-03
      0. 0. 0. 2.88184430e-03 0. 0. 0. 0. 0. 0. 0. 0. 2.88184430e-03 0.
      0. 2.88184430e-03 0. 0. 0. 0. 0. 0. 5.76368859e-03 0. 0. 0. 0.
      2.88184430e-03 0. 0. 0. 0. 2.88184430e-03 0. 0. 0. 2.88184430e-03
      0. 5.76368859e-03 2.88184430e-03 0. 0. 0. 0. 0. 0. 0.
      2.88184430e-03 0. 2.88184430e-03 2.88184430e-03 0. 8.64553265e-03
      5.76368859e-03 0. 0. 0. 0. 0. 0. 0. 0. 0. 5.76368859e-03 0. 0. 0.
      0. 2.88184430e-03 0. 0. 2.88184430e-03 0. 0. 0. 0. 0. 0.
      2.88184430e-03 2.88184430e-03 0. 0. 8.64553265e-03 0. 0.
      2.88184430e-03 0. 0. 0. 0. 0. 0. 0. 5.76368859e-03 0. 0.
      2.88184430e-03 2.88184430e-03 0. 2.88184430e-03 2.88184430e-03 0.
      2.88184430e-03 0. 0. 0. 8.64553265e-03 2.88184430e-03
      2.88184430e-03 0. 0. 2.88184430e-03 0. 0. 0. 0. 0. 0. 0. 0. 0.
      2.88184430e-03 2.88184430e-03 0. 0. 0. 0. 0. 2.88184430e-03 0.
      1.15273772e-02 0. 0. 2.88184430e-03 0. 5.76368859e-03 0. 0. 0. 0.
      0. 0. 0. 0. 0. 0. 0. 0. 2.88184430e-03 0. 0. 0. 0. 0. 0. 0. 0. 0.
      5.76368859e-03 0. 5.76368859e-03 0. 0. 0. 2.88184430e-03 0. 0. 0.
      2.88184430e-03 0. 1.44092217e-02 0. 0. 0. 2.88184430e-03 0. 0. 0.
      0. 0. 0. 0. 0. 0. 0. 0. 2.88184430e-03 0. 0. 2.88184430e-03 0. 0.
      5.76368859e-03 2.88184430e-03 0. 0. 0. 0. 8.64553265e-03
      2.88184430e-03 0. 2.88184430e-03 0. 0. 0. 0. 2.88184430e-03 0. 0.
      0. 0. 0. 2.88184430e-03 0. 5.76368859e-03 0. 0. 0. 0. 0.
      2.88184430e-03 0. 2.88184430e-03 0. 0. 2.88184430e-03 0. 0. 0.
      5.76368859e-03 0. 0. 0. 0. 5.76368859e-03 0. 0. 5.76368859e-03 0.
      0. 0. 5.76368859e-03 0. 2.88184430e-03 8.64553265e-03 0. 0. 0. 0.
      2.88184430e-03 2.88184430e-03 0. 0. 2.88184430e-03 0.
      2.88184430e-03 0. 2.88184430e-03 0. 2.88184430e-03 0. 0. 0. 0.
      2.88184430e-03 0. 0. 0. 5.76368859e-03 0. 2.88184430e-03
      5.76368859e-03 0. 2.88184430e-03 0. 0. 0. 0. 2.88184430e-03
      2.88184430e-03 0. 0. 0. 0. 0. 2.88184430e-03 2.88184430e-03 0.
      2.88184430e-03 0. 0. 0. 0. 0. 0. 0. 0. 0. 0. 0. 0. 2.88184430e-03
      2.88184430e-03 2.88184430e-03 0. 2.88184430e-03 2.88184430e-03
      2.88184430e-03 0. 0. 0. 0. 2.88184430e-03 0. 2.88184430e-03 0.
      8.64553265e-03 0. 2.88184430e-03 0. 0. 2.88184430e-03 0. 0.
      2.88184430e-03 0. 0. 5.76368859e-03 0. 0. 0. 2.88184430e-03
      2.88184430e-03 0. 0. 2.88184430e-03 0. 2.88184430e-03 0.
      2.88184430e-03 2.88184430e-03 0. 0. 0. 2.88184430e-03 0. 0. 0. 0.
      0. 0. 0. 2.88184430e-03 0. 0. 0. 0. 0. 0. 0. 0. 0. 0.
      2.88184430e-03 0. 0. 2.88184430e-03 0. 0. 0. 2.88184430e-03 0. 0.
      2.88184430e-03 0. 0. 0. 0. 0. 0. 0. 0. 2.88184430e-03 0.
      2.88184430e-03 0. 0. 0. 0. 0. 0. 0. 0. 0. 0. 0. 2.88184430e-03 0.
      0. 0. 0. 0. 0. 0. 0. 0. 0. 0. 2.88184430e-03 0. 0. 5.76368859e-03
      0. 5.76368859e-03 0. 0. 0. 2.88184430e-03 0. 2.88184430e-03 0. 0.
      2.88184430e-03 0. 1.15273772e-02 0. 0. 0. 0. 5.76368859e-03 0. 0.
      2.88184430e-03 0. 0. 0. 0. 0. 0. 0. 2.88184430e-03 0.
      2.88184430e-03 2.88184430e-03 2.88184430e-03 0. 0. 0. 0. 0. 0. 0.
      0. 0. 0. 2.88184430e-03 2.88184430e-03 0. 0. 0. 0. 2.88184430e-03
      5.76368859e-03 0. 2.88184430e-03 2.88184430e-03 0. 0. 0. 0.
      2.88184430e-03 0. 0. 0. 0. 0. 2.88184430e-03 5.76368859e-03 0.
      2.88184430e-03 0. 0. 0. 0. 0. 2.88184430e-03 0. 0. 0. 0.
      5.76368859e-03 0. 0. 0. 2.88184430e-03 5.76368859e-03 0. 0. 0. 0.
      2.88184430e-03 0. 2.88184430e-03 0. 0. 0. 0. 0. 2.88184430e-03 0.
      0. 0. 0. 0. 0. 0. 0. 0. 2.88184430e-03 0. 2.88184430e-03 0.
      2.88184430e-03 0. 0. 2.88184430e-03 0. 2.88184430e-03 0. 0. 0.
      2.88184430e-03 2.88184430e-03 0. 0. 0. 2.88184430e-03 0. 0. 0. 0.
      2.88184430e-03 2.88184430e-03 0. 0. 5.76368859e-03 0. 0.
      2.88184430e-03 0. 2.88184430e-03 2.88184430e-03 0. 2.88184430e-03
      0. 0. 0. 2.88184430e-03 0. 0. 2.88184430e-03 0. 2.88184430e-03
      2.88184430e-03 0. 0. 5.76368859e-03 0. 2.88184430e-03 0.
      2.88184430e-03 2.88184430e-03 0. 0. 2.88184430e-03 0.
      5.76368859e-03 0. 0. 5.76368859e-03 0. 0. 0. 2.88184430e-03 0. 0.
      0. 5.76368859e-03 0. 0. 0. 0. 0. 0. 0. 2.88184430e-03 0.
      5.76368859e-03 0. 0. 5.76368859e-03 2.88184430e-03 0. 0. 0. 0.
      2.88184430e-03 2.88184430e-03 0. 0. 0. 0. 0. 0. 2.88184430e-03
      8.64553265e-03 0. 0. 0. 0. 0. 0. 2.88184430e-03 0. 5.76368859e-03
      0. 0. 0. 0. 0. 5.76368859e-03 0. 0. 0. 2.88184430e-03 0. 0. 0. 0.
      0. 0. 0. 0. 0. 0. 0. 0. 0. 0. 2.88184430e-03 0. 0. 2.88184430e-03
      0. 0. 2.88184430e-03 0. 0. 0. 0. 0. 0. 0. 0. 0. 0. 0. 0. 0. 0. 0.
      2.88184430e-03 0. 2.88184430e-03 0. 2.88184430e-03 0. 0. 0. 0. 0.
      0. 0. 2.88184430e-03 2.88184430e-03 0. 2.88184430e-03 0. 0. 0. 0.
      0. 0. 2.88184430e-03 0. 2.88184430e-03 0. 2.88184430e-03 0.
      2.88184430e-03 0. 0. 0. 0. 0. 0. 0. 0. 0. 0. 0. 0. 0. 0. 0.
      2.88184430e-03 2.88184430e-03 2.88184430e-03 0. 2.88184430e-03
      5.76368859e-03 0. 0. 0. 2.88184430e-03 0. 2.88184430e-03 0. 0. 0.
      0. 0. 2.88184430e-03 0. 0. 0. 0. 0. 0. 2.88184430e-03 0. 0.
      2.88184430e-03 0. 0. 0. 0. 0. 0. 0. 0. 5.76368859e-03 0.
      2.88184430e-03 2.88184430e-03 0. 0. 0. 0. 0. 0. 0. 2.88184430e-03
      5.76368859e-03 0. 0. 2.88184430e-03 2.88184430e-03 0. 0. 0.
      2.88184430e-03 0. 2.88184430e-03 0. 0. 0. 0. 2.88184430e-03 0.
      2.88184430e-03 0. 0. 0. 0. 0. 0. 2.88184430e-03 5.76368859e-03 0.</_>
    <_>
      0. 0. 0. 2.89435592e-03 1.44717796e-03 0. 1.44717796e-03
      1.44717796e-03 0. 1.44717796e-03 0. 0. 2.89435592e-03 0. 0.
      1.44717796e-03 0. 0. 0. 1.44717796e-03 1.44717796e-03 0.
      2.89435592e-03 0. 4.34153387e-03 0. 0. 1.44717796e-03
      1.44717796e-03 0. 0. 1.44717796e-03 0. 2.89435592e-03 0.
      1.44717796e-03 0. 0. 0. 0. 0. 1.44717796e-03 0. 1.44717796e-03 0.
      0. 4.34153387e-03 0. 1.44717796e-03 1.44717796e-03 0. 0. 0.
      1.44717796e-03 0. 1.44717796e-03 0. 0. 0. 1.44717796e-03 0. 0. 0.
      1.44717796e-03 2.89435592e-03 0. 0. 1.44717796e-03 1.44717796e-03
      2.89435592e-03 1.44717796e-03 1.44717796e-03 1.44717796e-03 0. 0.
      0. 0. 1.44717796e-03 0. 1.44717796e-03 0. 1.44717796e-03 0. 0. 0.
      0. 4.34153387e-03 2.89435592e-03 0. 0. 2.89435592e-03 0. 0. 0.
      1.44717796e-03 0. 2.89435592e-03 1.44717796e-03 0. 2.89435592e-03
      1.44717796e-03 1.44717796e-03 0. 2.89435592e-03 0. 0.
      1.44717796e-03 0. 0. 0. 0. 0. 0. 0. 2.89435592e-03 2.89435592e-03
      0. 1.44717796e-03 1.44717796e-03 0. 0. 0. 0. 4.34153387e-03 0. 0.
      1.44717796e-03 0. 0. 4.34153387e-03 0. 1.44717796e-03
      1.44717796e-03 1.44717796e-03 1.44717796e-03 0. 4.34153387e-03 0.
      0. 1.44717796e-03 2.89435592e-03 0. 0. 0. 1.44717796e-03 0. 0.
      1.44717796e-03 0. 0. 0. 1.44717796e-03 1.44717796e-03
      1.44717796e-03 1.44717796e-03 0. 1.44717796e-03 0. 0. 0. 0. 0.
      1.44717796e-03 1.44717796e-03 4.34153387e-03 1.44717796e-03 0. 0.
      1.44717796e-03 1.44717796e-03 0. 0. 0. 1.44717796e-03 0. 0.
      1.44717796e-03 1.44717796e-03 1.44717796e-03 0. 0. 0. 0.
      1.44717796e-03 1.44717796e-03 0. 1.44717796e-03 1.44717796e-03
      1.44717796e-03 2.89435592e-03 0. 1.44717796e-03 0. 5.78871183e-03
      0. 0. 1.44717796e-03 1.44717796e-03 0. 1.44717796e-03
      1.44717796e-03 1.44717796e-03 0. 1.44717796e-03 1.44717796e-03
      1.44717796e-03 0. 1.44717796e-03 0. 0. 1.44717796e-03 0. 0. 0.
      1.44717796e-03 0. 1.44717796e-03 1.44717796e-03 1.44717796e-03
      1.44717796e-03 1.44717796e-03 1.44717796e-03 0. 1.44717796e-03 0.
      0. 0. 1.44717796e-03 0. 0. 0. 4.34153387e-03 0. 2.89435592e-03
      1.44717796e-03 0. 0. 1.44717796e-03 1.44717796e-03 0. 0. 0. 0.
      1.44717796e-03 0. 0. 0. 1.44717796e-03 0. 7.23588979e-03 0.
      2.89435592e-03 0. 0. 1.44717796e-03 0. 1.44717796e-03 0. 0. 0.
      1.44717796e-03 1.44717796e-03 5.78871183e-03 1.44717796e-03
      1.44717796e-03 0. 0. 2.89435592e-03 1.44717796e-03 0. 0.
      1.44717796e-03 0. 1.44717796e-03 2.89435592e-03 0. 1.44717796e-03
      1.44717796e-03 0. 0. 1.44717796e-03 0. 1.44717796e-03 0. 0.
      1.44717796e-03 1.44717796e-03 0. 0. 1.44717796e-03 0. 0.
      1.44717796e-03 0. 1.44717796e-03 1.44717796e-03 1.44717796e-03 0.
      0. 1.44717796e-03 0. 0. 0. 2.89435592e-03 0. 0. 2.89435592e-03
      4.34153387e-03 2.89435592e-03 0. 1.44717796e-03 0. 1.44717796e-03
      1.44717796e-03 0. 0. 0. 4.34153387e-03 0. 0. 1.44717796e-03 0. 0.
      1.44717796e-03 0. 1.44717796e-03 0. 1.44717796e-03 1.44717796e-03
      0. 0. 1.44717796e-03 0. 1.44717796e-03 0. 0. 1.44717796e-03 0. 0.
      1.44717796e-03 1.44717796e-03 4.34153387e-03 0. 0. 4.34153387e-03
      0. 1.44717796e-03 0. 1.44717796e-03 2.89435592e-03 0.
      1.44717796e-03 1.44717796e-03 2.89435592e-03 0. 0. 0.
      1.44717796e-03 0. 0. 0. 2.89435592e-03 0. 0. 0. 4.34153387e-03 0.
      0. 0. 2.89435592e-03 0. 2.89435592e-03 1.44717796e-03 0.
      4.34153387e-03 2.89435592e-03 0. 2.89435592e-03 1.44717796e-03
      1.44717796e-03 1.44717796e-03 1.44717796e-03 0. 0. 1.44717796e-03
      1.44717796e-03 4.34153387e-03 0. 1.44717796e-03 0. 0.
      1.44717796e-03 0. 1.44717796e-03 0. 1.44717796e-03 1.44717796e-03
      0. 2.89435592e-03 1.44717796e-03 0. 2.89435592e-03 1.44717796e-03
      1.44717796e-03 0. 1.44717796e-03 0. 1.44717796e-03 0.
      2.89435592e-03 2.89435592e-03 0. 1.44717796e-03 1.44717796e-03 0.
      1.44717796e-03 4.34153387e-03 1.44717796e-03 1.44717796e-03
      1.44717796e-03 0. 0. 1.44717796e-03 0. 4.34153387e-03 0. 0.
      2.89435592e-03 0. 1.44717796e-03 0. 0. 0. 0. 2.89435592e-03
      1.44717796e-03 0. 1.44717796e-03 1.44717796e-03 1.44717796e-03 0.
      0. 0. 0. 1.44717796e-03 0. 1.44717796e-03 1.44717796e-03 0. 0.
      1.44717796e-03 0. 0. 2.89435592e-03 1.44717796e-03 0. 0. 0.
      1.44717796e-03 0. 1.44717796e-03 0. 0. 1.44717796e-03 0. 0. 0. 0.
      0. 1.44717796e-03 0. 0. 2.89435592e-03 0. 0. 2.89435592e-03 0. 0.
      0. 0. 0. 0. 0. 5.78871183e-03 1.44717796e-03 0. 0. 0.
      2.89435592e-03 1.44717796e-03 0. 1.44717796e-03 0. 0.
      1.44717796e-03 1.44717796e-03 1.44717796e-03 0. 0. 0. 0.
      1.44717796e-03 0. 5.78871183e-03 0. 1.44717796e-03 2.89435592e-03
      1.44717796e-03 0. 0. 0. 1.44717796e-03 0. 0. 0. 4.34153387e-03 0.
      0. 1.44717796e-03 0. 0. 0. 0. 1.44717796e-03 1.44717796e-03
      2.89435592e-03 1.44717796e-03 0. 0. 1.44717796e-03 0.
      2.89435592e-03 0. 0. 0. 0. 2.89435592e-03 1.44717796e-03 0.
      2.89435592e-03 1.44717796e-03 0. 0. 0. 1.44717796e-03
      1.44717796e-03 1.44717796e-03 0. 2.89435592e-03 0. 7.23588979e-03
      1.44717796e-03 0. 0. 0. 1.44717796e-03 0. 0. 1.44717796e-03 0. 0.
      0. 2.89435592e-03 0. 0. 0. 0. 0. 0. 0. 0. 1.44717796e-03 0.
      1.44717796e-03 1.44717796e-03 2.89435592e-03 4.34153387e-03
      2.89435592e-03 0. 1.44717796e-03 0. 1.44717796e-03 0.
      4.34153387e-03 1.44717796e-03 1.44717796e-03 0. 0. 0.
      1.44717796e-03 0. 0. 0. 0. 0. 0. 0. 1.44717796e-03 0. 0.
      2.89435592e-03 1.44717796e-03 1.44717796e-03 1.44717796e-03 0. 0.
      2.89435592e-03 4.34153387e-03 0. 1.44717796e-03 2.89435592e-03 0.
      0. 0. 0. 0. 0. 0. 1.44717796e-03 0. 0. 1.44717796e-03 0.
      2.89435592e-03 1.44717796e-03 0. 1.44717796e-03 0. 0.
      2.89435592e-03 0. 0. 0. 2.89435592e-03 2.89435592e-03 0. 0.
      1.44717796e-03 0. 0. 0. 0. 0. 1.44717796e-03 0. 0. 2.89435592e-03
      0. 0. 0. 7.23588979e-03 2.89435592e-03 0. 0. 1.44717796e-03 0. 0.
      2.89435592e-03 0. 0. 1.44717796e-03 0. 1.44717796e-03 0.
      1.44717796e-03 1.44717796e-03 4.34153387e-03 0. 1.44717796e-03 0.
      2.89435592e-03 0. 0. 0. 0. 2.89435592e-03 0. 0. 2.89435592e-03
      2.89435592e-03 2.89435592e-03 4.34153387e-03 1.44717796e-03
      2.89435592e-03 0. 0. 2.89435592e-03 0. 0. 1.44717796e-03
      1.44717796e-03 0. 1.44717796e-03 1.44717796e-03 0. 0.
      1.44717796e-03 0. 0. 0. 0. 1.44717796e-03 0. 0. 2.89435592e-03 0.
      2.89435592e-03 0. 0. 1.44717796e-03 0. 0. 0. 1.44717796e-03 0. 0.
      0. 0. 0. 2.89435592e-03 0. 1.44717796e-03 0. 0. 1.44717796e-03
      1.44717796e-03 0. 2.89435592e-03 2.89435592e-03 0. 1.44717796e-03
      0. 1.44717796e-03 1.44717796e-03 1.44717796e-03 4.34153387e-03
      1.44717796e-03 0. 1.44717796e-03 0. 0. 1.44717796e-03 0.
      2.89435592e-03 4.34153387e-03 0. 0. 0. 1.44717796e-03
      1.44717796e-03 1.44717796e-03 0. 2.89435592e-03 1.44717796e-03 0.
      0. 0. 2.89435592e-03 2.89435592e-03 4.34153387e-03 1.44717796e-03
      1.44717796e-03 0. 0. 1.44717796e-03 0. 1.44717796e-03
      4.34153387e-03 0. 1.44717796e-03 1.44717796e-03 0. 2.89435592e-03
      4.34153387e-03 1.44717796e-03 0. 2.89435592e-03 0. 2.89435592e-03
      1.44717796e-03 2.89435592e-03 4.34153387e-03 0. 1.44717796e-03 0.
      0. 1.44717796e-03 1.44717796e-03 4.34153387e-03 0. 0.
      2.89435592e-03 1.44717796e-03 0. 0. 0. 1.44717796e-03 0.
      4.34153387e-03 0. 1.44717796e-03 0. 0. 1.44717796e-03 0. 0.
      1.44717796e-03 4.34153387e-03 1.44717796e-03 4.34153387e-03 0.
      1.44717796e-03 2.89435592e-03 0. 1.44717796e-03 1.44717796e-03 0.
      0. 0. 1.44717796e-03 4.34153387e-03 1.44717796e-03 1.44717796e-03
      1.44717796e-03 1.44717796e-03 0. 0. 0. 2.89435592e-03
      1.44717796e-03 1.44717796e-03 1.44717796e-03 1.44717796e-03 0. 0.
      0. 1.44717796e-03 0. 0. 2.89435592e-03 2.89435592e-03 0. 0. 0. 0.
      0. 1.44717796e-03 0. 0. 0. 0. 1.44717796e-03 1.44717796e-03
      2.89435592e-03 0. 1.44717796e-03 0. 2.89435592e-03 0.
      1.44717796e-03 1.44717796e-03 1.44717796e-03 1.44717796e-03
      1.44717796e-03 1.44717796e-03 0. 0. 1.44717796e-03 0. 0. 0.
      1.44717796e-03 1.44717796e-03 0. 0. 1.44717796e-03 1.44717796e-03
