<?xml version="1.0"?>
<opencv_storage>
<my_svm type_id="opencv-ml-svm">
  <svm_type>C_SVC</svm_type>
  <kernel><type>RBF</type>
    <gamma>5.0625000000000009e-01</gamma></kernel>
  <C>3.1250000000000000e+02</C>
  <term_criteria><epsilon>9.9999999747524271e-07</epsilon>
    <iterations>1000</iterations></term_criteria>
  <var_all>1000</var_all>
  <var_count>1000</var_count>
  <class_count>2</class_count>
  <class_labels type_id="opencv-matrix">
    <rows>1</rows>
    <cols>2</cols>
    <dt>i</dt>
    <data>
      -1 1</data></class_labels>
  <sv_total>143</sv_total>
  <support_vectors>
    <_>
      1.43472024e-03 0. 4.30416083e-03 1.43472024e-03 2.86944048e-03 0.
      0. 0. 0. 0. 1.43472024e-03 8.60832166e-03 0. 0. 2.86944048e-03
      4.30416083e-03 4.30416083e-03 0. 0. 0. 0. 0. 0. 0. 1.43472024e-03
      2.86944048e-03 1.43472024e-03 4.30416083e-03 0. 2.86944048e-03 0.
      0. 7.17360107e-03 1.43472024e-03 0. 0. 2.86944048e-03 0. 0. 0. 0.
      0. 1.43472024e-03 0. 0. 0. 0. 2.86944048e-03 4.30416083e-03 0.
      4.30416083e-03 0. 0. 0. 0. 0. 0. 2.86944048e-03 1.43472024e-03 0.
      0. 1.43472024e-03 1.43472024e-03 0. 2.86944048e-03 0. 0. 0.
      4.30416083e-03 1.43472024e-03 1.43472024e-03 0. 1.43472024e-03 0.
      0. 5.73888095e-03 0. 0. 3.29985656e-02 0. 1.43472024e-03 0. 0. 0.
      1.43472024e-03 0. 1.43472024e-03 1.43472024e-03 0. 4.30416083e-03
      0. 1.43472024e-03 1.43472024e-03 0. 0. 0. 2.86944048e-03 0.
      2.86944048e-03 2.29555238e-02 0. 0. 1.43472024e-03 1.43472024e-03
      0. 0. 1.43472024e-03 0. 2.86944048e-03 2.86944048e-03
      2.86944048e-03 1.43472024e-03 0. 1.43472024e-03 2.86944048e-03 0.
      0. 1.43472024e-03 1.43472024e-03 1.43472024e-03 0. 0. 0. 0. 0.
      1.43472024e-03 0. 0. 0. 0. 5.73888095e-03 0. 1.43472024e-03
      1.43472024e-03 0. 2.86944048e-03 0. 1.43472024e-03 0. 0. 0. 0.
      4.30416083e-03 0. 1.43472024e-03 7.17360107e-03 5.73888095e-03 0.
      2.86944048e-03 1.43472024e-03 0. 0. 0. 2.86944048e-03 0.
      4.30416083e-03 0. 4.30416083e-03 0. 0. 4.30416083e-03 0. 0. 0. 0.
      0. 1.43472024e-03 0. 0. 0. 1.43472024e-03 0. 0. 1.43472024e-03 0.
      0. 2.86944048e-03 0. 2.86944048e-03 7.17360107e-03 0. 0. 0. 0.
      1.43472024e-03 0. 1.43472024e-03 2.86944048e-03 0. 0. 0. 0. 0.
      1.43472024e-03 0. 0. 0. 0. 0. 2.86944048e-03 0. 2.86944048e-03
      2.86944048e-03 0. 0. 0. 0. 0. 0. 0. 0. 0. 1.43472024e-03 0. 0. 0.
      0. 1.43472024e-03 0. 1.43472024e-03 1.43472024e-03 4.30416083e-03
      0. 0. 0. 0. 2.86944048e-03 0. 1.43472024e-03 0. 1.43472024e-03 0.
      0. 0. 1.43472024e-03 2.86944048e-03 0. 1.43472024e-03 0.
      1.43472024e-03 4.30416083e-03 1.43472024e-03 0. 0. 1.43472024e-03
      2.86944048e-03 0. 2.86944048e-03 0. 4.30416083e-03 2.86944048e-03
      0. 0. 0. 1.43472024e-03 1.43472024e-03 2.86944048e-03 0. 0. 0.
      1.43472024e-03 0. 0. 1.43472024e-03 1.43472024e-03 1.43472024e-03
      1.43472024e-03 0. 0. 0. 0. 0. 0. 0. 0. 0. 1.43472024e-03
      5.73888095e-03 0. 1.43472024e-03 0. 0. 4.30416083e-03
      2.86944048e-03 0. 0. 1.43472024e-03 1.43472024e-03 0. 0. 0.
      1.43472024e-03 0. 1.43472024e-03 2.86944048e-03 0. 1.43472024e-03
      0. 0. 0. 2.86944048e-03 0. 2.86944048e-03 0. 0. 4.30416083e-03 0.
      1.43472024e-03 1.43472024e-03 4.30416083e-03 0. 0. 0.
      1.43472024e-03 0. 0. 1.43472024e-03 0. 0. 2.86944048e-03 0.
      1.43472024e-03 1.43472024e-03 0. 0. 0. 1.43472024e-03
      7.17360107e-03 0. 0. 0. 0. 0. 2.86944048e-03 0. 0. 1.43472024e-03
      0. 0. 0. 2.86944048e-03 2.86944048e-03 0. 0. 0. 0. 0. 0.
      1.43472024e-03 2.86944048e-03 1.72166433e-02 0. 0. 0. 0. 0.
      1.43472024e-03 4.30416083e-03 1.43472024e-03 0. 1.43472024e-03 0.
      0. 0. 0. 0. 0. 2.86944048e-03 4.30416083e-03 0. 0. 1.43472024e-03
      0. 7.17360107e-03 0. 0. 1.43472024e-03 0. 0. 2.86944048e-03
      1.43472024e-03 1.43472024e-03 1.43472024e-03 2.86944048e-03
      1.43472024e-03 0. 0. 1.43472024e-03 0. 2.86944048e-03 0. 0. 0.
      1.43472024e-03 0. 0. 0. 1.43472024e-03 0. 0. 1.43472024e-03 0.
      1.43472024e-03 0. 0. 1.43472024e-03 0. 0. 0. 0. 0. 0. 0. 0. 0.
      2.86944048e-03 0. 0. 0. 0. 1.43472024e-03 1.43472024e-03
      1.43472024e-03 0. 0. 0. 1.43472024e-03 0. 2.86944048e-03 0. 0. 0.
      0. 1.43472024e-03 0. 1.43472024e-03 0. 0. 0. 0. 0. 1.43472024e-03
      4.30416083e-03 0. 0. 1.43472024e-03 2.86944048e-03 0.
      4.30416083e-03 4.30416083e-03 0. 0. 2.86944048e-03 0. 0.
      8.60832166e-03 0. 0. 0. 1.43472024e-03 2.86944048e-03 0. 0.
      2.86944048e-03 0. 4.30416083e-03 4.30416083e-03 0. 0.
      2.86944048e-03 0. 0. 0. 1.43472024e-03 0. 0. 0. 0. 2.86944048e-03
      0. 1.43472024e-03 2.86944048e-03 2.86944048e-03 1.43472024e-03
      5.73888095e-03 1.43472024e-03 2.86944048e-03 0. 0. 1.43472024e-03
      1.43472024e-03 0. 0. 5.73888095e-03 0. 0. 0. 1.43472024e-03
      1.43472024e-03 1.43472024e-03 4.30416083e-03 0. 0. 0. 0.
      8.60832166e-03 0. 0. 0. 0. 1.43472024e-03 0. 2.86944048e-03 0.
      1.43472024e-03 1.43472024e-03 1.57819223e-02 0. 1.43472024e-03
      1.43472024e-03 0. 0. 1.43472024e-03 1.43472024e-03 0.
      1.43472024e-03 0. 0. 0. 0. 0. 1.43472024e-03 1.43472024e-03 0. 0.
      4.30416083e-03 0. 0. 1.43472024e-03 1.43472024e-03 0. 0.
      1.43472024e-03 1.43472024e-03 0. 0. 0. 0. 0. 0. 0. 0. 0. 0. 0. 0.
      2.86944048e-03 0. 4.30416083e-03 0. 0. 1.43472024e-03
      1.43472024e-03 0. 4.30416083e-03 0. 0. 0. 0. 1.43472024e-03 0. 0.
      0. 1.43472024e-03 1.43472024e-03 0. 0. 1.43472024e-03 0. 0.
      2.86944048e-03 0. 1.43472024e-03 0. 0. 1.43472024e-03
      4.30416083e-03 0. 0. 0. 7.17360107e-03 1.43472024e-03
      1.43472024e-03 0. 1.43472024e-03 0. 0. 0. 0. 0. 0. 0. 0. 0. 0.
      1.43472024e-03 2.86944048e-03 0. 2.86944048e-03 1.43472024e-03 0.
      0. 0. 0. 0. 1.43472024e-03 0. 0. 0. 0. 0. 0. 1.43472024e-03 0.
      4.30416083e-03 0. 1.43472024e-03 2.86944048e-03 1.43472024e-03 0.
      0. 0. 0. 1.43472024e-03 1.43472024e-03 0. 0. 0. 2.86944048e-03 0.
      0. 0. 0. 0. 0. 1.43472024e-03 0. 0. 1.43472024e-03 0. 0. 0. 0. 0.
      0. 2.86944048e-03 0. 0. 0. 0. 2.86944048e-03 1.43472024e-03
      1.43472024e-03 0. 0. 0. 0. 0. 0. 2.86944048e-03 1.43472024e-03 0.
      0. 0. 0. 1.43472024e-03 0. 1.43472024e-03 0. 0. 1.43472024e-03 0.
      0. 0. 7.17360107e-03 0. 0. 1.43472024e-03 0. 1.43472024e-03 0. 0.
      1.43472024e-03 1.43472024e-03 4.30416083e-03 0. 0. 0. 0. 0. 0. 0.
      0. 0. 0. 0. 0. 0. 4.30416083e-03 0. 0. 0. 1.43472024e-03
      1.43472024e-03 2.58249640e-02 0. 0. 1.43472024e-03 1.43472024e-03
      0. 0. 2.86944048e-03 0. 0. 1.43472024e-03 2.86944048e-03
      1.43472024e-03 0. 0. 0. 0. 0. 0. 1.43472024e-03 0. 0. 0. 0. 0.
      1.43472024e-03 1.43472024e-03 0. 1.43472024e-03 0. 0.
      4.30416083e-03 0. 8.60832166e-03 0. 1.43472024e-03 0. 0. 0. 0. 0.
      2.86944048e-03 0. 0. 1.43472024e-03 0. 0. 1.43472024e-03 0. 0. 0.
      1.43472024e-03 4.30416083e-03 0. 8.60832166e-03 1.14777619e-02
      1.43472024e-03 2.86944048e-03 0. 0. 0. 1.43472024e-03 0. 0. 0.
      2.86944048e-03 5.73888095e-03 1.43472024e-03 0. 0. 2.86944048e-03
      0. 2.86944048e-03 2.86944048e-03 0. 0. 1.43472024e-03 0.
      5.73888095e-03 0. 0. 0. 1.43472024e-03 2.86944048e-03 0. 0. 0. 0.
      0. 0. 0. 0. 2.86944048e-03 0. 1.43472024e-03 1.43472024e-03 0. 0.
      0. 1.43472024e-03 0. 0. 2.86944048e-03 0. 0. 1.43472024e-03 0. 0.
      0. 0. 0. 0. 2.86944048e-03 0. 4.30416083e-03 1.43472024e-03
      2.86944048e-03 0. 1.43472024e-03 1.43472024e-03 0. 0.
      1.43472024e-03 0. 1.43472024e-03 0. 1.43472024e-03 1.43472024e-03
      0. 0. 0. 1.29124820e-02 1.43472024e-03 0. 1.43472024e-03 0. 0. 0.
      0. 1.43472024e-03 0. 0. 0. 0. 4.30416083e-03 0. 1.43472024e-03 0.
      0. 1.43472024e-03 0. 0. 0. 0. 0. 0. 0. 0. 0. 0. 1.43472024e-03 0.
      0. 0. 0. 2.86944048e-03 0. 1.43472024e-03 0. 0. 0. 0.
      2.86944048e-03 0. 2.86944048e-03 0. 0. 0. 1.43472024e-03 0.
      1.43472024e-03 1.43472024e-03 0. 0. 1.43472024e-03 0. 0. 0.
      1.43472024e-03 0. 0. 1.43472024e-03 0. 0. 0. 0. 1.43472024e-03 0.
      0. 0. 2.86944048e-03 0. 0. 0. 0. 1.43472024e-03 0. 1.43472024e-03
      1.43472024e-03 0. 0. 1.43472024e-03 1.43472024e-03 0. 0. 0.
      2.86944048e-03 0. 0. 4.30416083e-03 0. 2.86944048e-03 0. 0. 0. 0.
      0. 1.43472024e-03 0. 0. 0. 0. 0. 0. 0. 1.43472024e-03 0.
      2.86944048e-03 0. 0. 0. 0. 0. 2.86944048e-03 0. 0. 1.43472024e-03
      0. 1.43472024e-03 2.86944048e-03 1.43472024e-03 1.43472024e-03 0.
      0. 0. 4.30416083e-03 0. 1.43472024e-03 0. 0. 0. 0. 2.86944048e-03
      0. 0. 0. 0. 0. 0. 0. 0. 5.73888095e-03 1.43472024e-03 0. 0.
      1.43472024e-03 0. 0. 0. 0. 0. 0. 0. 1.43472024e-03 0. 0.</_>
    <_>
      0. 0. 0. 9.34579410e-03 0. 0. 0. 9.34579410e-03 0. 0. 0. 0. 0. 0.
      0. 0. 0. 0. 0. 0. 0. 0. 9.34579410e-03 0. 0. 0. 0. 0. 0. 0. 0. 0.
      0. 0. 0. 0. 0. 0. 0. 0. 0. 0. 0. 0. 0. 0. 0. 0. 0. 9.34579410e-03
      0. 0. 0. 0. 0. 0. 0. 0. 0. 0. 0. 0. 9.34579410e-03 0. 0.
      5.60747646e-02 0. 0. 0. 0. 0. 0. 0. 0. 0. 0. 0. 0. 0. 0. 0. 0. 0.
      0. 0. 0. 0. 0. 0. 0. 0. 0. 0. 0. 0. 0. 0. 0. 0. 0. 0.
      9.34579410e-03 0. 0. 0. 0. 0. 0. 0. 0. 0. 0. 0. 4.67289686e-02 0.
      0. 0. 0. 0. 0. 0. 0. 0. 0. 9.34579410e-03 0. 0. 0. 0. 0. 0. 0. 0.
      0. 0. 0. 0. 1.86915882e-02 9.34579410e-03 0. 0. 0. 0. 0. 0. 0. 0.
      0. 0. 0. 0. 9.34579410e-03 9.34579410e-03 0. 0. 0. 9.34579410e-03
      0. 0. 0. 0. 0. 0. 0. 0. 0. 9.34579410e-03 0. 0. 0. 0. 0. 0. 0. 0.
      0. 0. 0. 0. 0. 0. 0. 0. 9.34579410e-03 0. 0. 0. 0. 0. 0. 0. 0.
      9.34579410e-03 0. 0. 0. 0. 0. 0. 0. 0. 0. 0. 0. 0. 0. 0. 0. 0. 0.
      0. 0. 0. 0. 0. 0. 0. 0. 0. 0. 0. 0. 0. 0. 0. 0. 0. 0. 0.
      9.34579410e-03 0. 0. 0. 0. 0. 0. 0. 0. 0. 0. 0. 0. 0. 0. 0. 0. 0.
      0. 0. 0. 0. 0. 0. 0. 0. 0. 0. 9.34579410e-03 0. 0. 0. 0. 0. 0. 0.
      0. 0. 0. 0. 2.80373823e-02 0. 0. 0. 0. 0. 0. 0. 0. 0. 0. 0. 0. 0.
      0. 0. 0. 0. 9.34579410e-03 0. 0. 0. 0. 0. 0. 0. 0. 0. 0. 0. 0. 0.
      0. 0. 0. 0. 0. 0. 0. 0. 0. 0. 0. 0. 0. 0. 0. 0. 0. 0. 0. 0. 0. 0.
      0. 0. 0. 0. 0. 0. 0. 0. 0. 0. 0. 0. 0. 0. 0. 0. 0. 0.
      9.34579410e-03 0. 0. 0. 0. 0. 0. 0. 0. 0. 0. 0. 0. 0. 0. 0. 0. 0.
      0. 0. 0. 0. 0. 0. 0. 4.67289686e-02 0. 0. 0. 0. 0. 0. 0. 0. 0. 0.
      9.34579410e-03 0. 0. 9.34579410e-03 0. 0. 0. 0. 0. 0. 0. 0. 0. 0.
      0. 0. 0. 0. 0. 9.34579410e-03 0. 0. 0. 0. 0. 0. 0. 0. 0. 0. 0. 0.
      0. 0. 0. 0. 0. 0. 0. 0. 0. 0. 0. 9.34579410e-03 0. 9.34579410e-03
      0. 2.80373823e-02 0. 0. 0. 0. 0. 2.80373823e-02 0. 0. 0. 0.
      9.34579410e-03 0. 0. 0. 0. 0. 0. 0. 0. 0. 0. 0. 0. 0. 0. 0. 0. 0.
      0. 0. 0. 0. 0. 0. 0. 0. 0. 0. 0. 0. 0. 0. 0. 0. 0. 0. 0. 0. 0. 0.
      0. 0. 0. 9.34579410e-03 0. 0. 9.34579410e-03 0. 0. 0. 0. 0. 0. 0.
      0. 0. 0. 0. 0. 0. 0. 0. 0. 9.34579410e-03 0. 0. 0. 0. 0. 0. 0. 0.
      0. 0. 0. 0. 9.34579410e-03 0. 0. 0. 0. 0. 9.34579410e-03 0. 0.
      9.34579410e-03 0. 0. 0. 0. 0. 1.86915882e-02 0. 0. 0. 0. 0. 0.
      9.34579410e-03 0. 0. 0. 9.34579410e-03 0. 0. 0. 0. 0. 0. 0. 0.
      9.34579410e-03 0. 0. 0. 0. 0. 0. 0. 0. 0. 0. 0. 0. 0. 0. 0. 0.
      9.34579410e-03 0. 0. 0. 0. 0. 0. 0. 0. 0. 0. 0. 0. 0. 0. 0. 0. 0.
      0. 0. 0. 0. 0. 0. 0. 1.86915882e-02 0. 0. 0. 0. 1.86915882e-02 0.
      0. 0. 0. 0. 0. 0. 0. 0. 0. 0. 0. 0. 0. 0. 0. 0. 0. 0. 0. 0. 0. 0.
      0. 0. 0. 0. 0. 0. 0. 0. 0. 0. 0. 0. 0. 0. 0. 0. 0. 0. 0. 0. 0. 0.
      0. 0. 0. 9.34579410e-03 0. 0. 0. 0. 0. 0. 0. 9.34579410e-03 0. 0.
      9.34579372e-02 0. 0. 0. 0. 0. 0. 0. 0. 0. 0. 0. 0. 0. 0. 0. 0. 0.
      0. 9.34579410e-03 0. 0. 0. 0. 0. 0. 0. 0. 0. 0. 0. 0. 0. 0. 0. 0.
      0. 0. 0. 0. 0. 0. 0. 0. 0. 0. 0. 0. 0. 0. 0. 0. 0. 0. 0. 0. 0. 0.
      0. 0. 0. 0. 0. 0. 0. 0. 0. 0. 0. 0. 0. 0. 0. 0. 0. 0. 0. 0. 0. 0.
      0. 0. 0. 0. 0. 0. 0. 0. 0. 0. 0. 0. 0. 0. 0. 0. 0. 0.
      9.34579410e-03 0. 0. 0. 0. 0. 0. 0. 0. 9.34579410e-03 0. 0. 0. 0.
      0. 0. 0. 0. 0. 0. 1.86915882e-02 0. 0. 0. 0. 0. 0. 0. 0. 0. 0. 0.
      0. 0. 0. 0. 0. 0. 0. 0. 0. 0. 0. 0. 0. 0. 0. 0. 0. 0.
      2.80373823e-02 0. 0. 0. 0. 0. 0. 0. 0. 0. 0. 0. 0. 0. 0. 0. 0. 0.
      0. 0. 0. 0. 0. 9.34579410e-03 0. 0. 0. 0. 0. 0. 0. 0. 0.
      9.34579410e-03 0. 0. 0. 0. 0. 0. 0. 0. 0. 0. 0. 0. 0. 0. 0. 0. 0.
      0. 0. 0. 0. 0. 0. 0. 0. 0. 0. 0. 0. 0. 0. 0. 0. 0. 0. 0.
      2.80373823e-02 0. 4.67289686e-02 0. 0. 0. 0. 0. 0. 0. 0. 0. 0. 0.
      0. 0. 0. 0. 9.34579410e-03 0. 0. 0. 0. 0. 0. 0. 0. 0. 0. 0. 0. 0.
      0. 0. 1.86915882e-02 0. 0. 0. 0. 0. 0. 0. 0. 0. 0. 0. 0.
      9.34579410e-03 0. 0. 0. 0. 0. 0. 0. 0. 0. 0. 9.34579410e-03 0. 0.
      0. 0. 0. 0. 0. 0. 0. 0. 0. 0. 0. 0. 0. 0. 0. 0. 0. 0. 0. 0. 0. 0.
      0. 0. 0. 0. 0. 0. 0. 0. 0. 0. 0. 0. 0. 0. 0. 0. 0. 0. 0. 0. 0. 0.
      9.34579410e-03 0. 3.73831764e-02 0. 0. 0. 0. 0. 0. 0. 0. 0. 0. 0.
      0. 0. 0. 0. 0. 0. 0. 0. 0. 0.</_>
    <_>
      0. 0. 0. 0. 0. 0. 0. 3.41296918e-03 0. 0. 0. 6.82593836e-03 0.
      6.82593836e-03 0. 0. 0. 0. 0. 0. 0. 3.41296918e-03 0. 0. 0.
      3.41296918e-03 6.82593836e-03 3.41296918e-03 3.41296918e-03
      3.41296918e-03 0. 3.41296918e-03 6.82593836e-03 3.41296918e-03
      3.41296918e-03 0. 0. 0. 3.41296918e-03 0. 0. 0. 0. 0. 0. 0.
      3.41296918e-03 0. 0. 0. 0. 3.41296918e-03 3.41296918e-03 0. 0. 0.
      0. 0. 0. 0. 0. 0. 0. 0. 0. 6.82593836e-03 0. 6.82593836e-03 0.
      3.41296918e-03 0. 0. 0. 0. 3.41296918e-03 1.02389073e-02
      3.41296918e-03 0. 0. 0. 0. 3.41296918e-03 0. 3.41296918e-03 0. 0.
      0. 0. 3.41296918e-03 6.82593836e-03 0. 0. 0. 6.82593836e-03 0. 0.
      6.82593836e-03 0. 0. 0. 0. 0. 3.41296918e-03 3.41296918e-03 0. 0.
      0. 3.41296918e-03 0. 0. 3.41296918e-03 0. 0. 1.02389073e-02 0. 0.
      0. 0. 0. 3.41296918e-03 3.41296918e-03 0. 0. 0. 0. 0.
      3.41296918e-03 0. 0. 0. 0. 0. 0. 0. 0. 3.41296918e-03 0.
      3.41296918e-03 0. 0. 0. 0. 0. 0. 0. 3.41296918e-03 6.82593836e-03
      0. 0. 0. 0. 0. 0. 0. 0. 0. 0. 0. 0. 0. 0. 0. 0. 3.41296918e-03
      3.41296918e-03 0. 0. 0. 0. 0. 0. 0. 0. 0. 0. 0. 0. 0. 0.
      3.41296918e-03 0. 0. 0. 0. 0. 3.41296918e-03 0. 0. 3.41296918e-03
      0. 0. 3.41296918e-03 0. 0. 0. 0. 0. 0. 0. 0. 0. 0. 0. 0. 0. 0. 0.
      0. 0. 0. 0. 0. 0. 0. 0. 0. 0. 0. 0. 0. 0. 0. 0. 0. 3.41296918e-03
      3.41296918e-03 0. 0. 0. 0. 0. 0. 0. 0. 0. 6.82593836e-03 0. 0. 0.
      6.82593836e-03 0. 3.41296918e-03 0. 0. 3.41296918e-03 0. 0. 0. 0.
      0. 3.41296918e-03 0. 3.41296918e-03 6.82593836e-03 6.82593836e-03
      3.41296918e-03 0. 0. 6.82593836e-03 0. 0. 0. 3.41296918e-03 0. 0.
      0. 0. 0. 0. 3.41296918e-03 3.41296918e-03 0. 0. 3.41296918e-03 0.
      6.82593836e-03 0. 3.41296918e-03 0. 0. 0. 0. 0. 0. 0. 0. 0. 0.
      1.36518767e-02 3.41296918e-03 3.41296918e-03 0. 0. 3.41296918e-03
      0. 0. 0. 0. 0. 0. 0. 0. 1.36518767e-02 0. 0. 6.82593836e-03 0. 0.
      0. 0. 0. 3.41296918e-03 0. 0. 0. 0. 0. 0. 0. 0. 0. 3.41296918e-03
      3.41296918e-03 0. 0. 0. 0. 3.41296918e-03 0. 0. 0. 0.
      3.41296918e-03 0. 0. 0. 0. 0. 6.82593836e-03 0. 0. 0. 0. 0. 0. 0.
      0. 3.41296918e-03 6.82593836e-03 0. 3.41296918e-03 0. 0. 0. 0. 0.
      3.41296918e-03 0. 0. 0. 0. 0. 0. 3.41296918e-03 0. 3.41296918e-03
      0. 0. 0. 0. 0. 0. 0. 3.41296918e-03 0. 0. 0. 0. 0. 0.
      6.82593836e-03 0. 6.82593836e-03 0. 0. 3.41296918e-03 0. 0. 0.
      3.41296918e-03 0. 0. 0. 1.02389073e-02 0. 0. 3.41296918e-03 0. 0.
      0. 0. 3.41296918e-03 0. 0. 0. 0. 0. 0. 0. 0. 3.41296918e-03 0. 0.
      0. 0. 0. 0. 0. 3.41296918e-03 0. 0. 0. 0. 0. 0. 0. 0. 0. 0.
      3.41296918e-03 3.41296918e-03 0. 0. 0. 0. 0. 0. 0. 6.82593836e-03
      0. 0. 0. 3.41296918e-03 0. 3.41296918e-03 0. 0. 0. 0.
      3.41296918e-03 0. 0. 0. 0. 0. 0. 0. 0. 3.41296918e-03 0. 0.
      3.41296918e-03 0. 6.82593836e-03 0. 3.41296918e-03 6.82593836e-03
      0. 0. 0. 0. 0. 0. 0. 0. 0. 0. 0. 0. 0. 3.41296918e-03 0. 0.
      1.02389073e-02 0. 3.41296918e-03 3.41296918e-03 0. 0. 0. 0. 0. 0.
      0. 0. 0. 0. 0. 6.82593836e-03 6.82593836e-03 6.82593836e-03 0.
      3.41296918e-03 0. 0. 0. 0. 0. 0. 0. 3.41296918e-03 3.41296918e-03
      3.41296918e-03 0. 0. 0. 0. 0. 0. 0. 0. 3.41296918e-03 0. 0. 0. 0.
      1.36518767e-02 0. 0. 0. 0. 0. 0. 0. 0. 3.41296918e-03 0.
      3.41296918e-03 0. 0. 0. 0. 0. 3.41296918e-03 0. 0. 0. 0. 0.
      3.41296918e-03 0. 0. 0. 0. 0. 0. 0. 0. 3.41296918e-03 0. 0.
      3.41296918e-03 0. 0. 3.41296918e-03 0. 0. 3.41296918e-03 0. 0. 0.
      6.82593836e-03 0. 0. 3.41296918e-03 0. 0. 0. 0. 3.41296918e-03 0.
      0. 0. 0. 0. 3.41296918e-03 0. 0. 0. 0. 3.41296918e-03 0. 0.
      3.41296918e-03 0. 3.41296918e-03 0. 0. 6.82593836e-03 0. 0. 0. 0.
      0. 0. 0. 3.41296918e-03 0. 3.41296918e-03 0. 0. 3.41296918e-03
      3.41296918e-03 0. 0. 0. 6.82593836e-03 3.41296918e-03 0. 0. 0. 0.
      0. 0. 0. 0. 0. 0. 0. 0. 0. 0. 0. 0. 0. 3.41296918e-03
      6.82593836e-03 0. 0. 0. 0. 0. 0. 0. 0. 0. 0. 0. 6.82593836e-03 0.
      0. 3.41296918e-03 0. 0. 0. 0. 0. 0. 0. 0. 3.41296918e-03 0. 0. 0.
      0. 0. 0. 0. 0. 0. 0. 0. 3.41296918e-03 0. 0. 0. 0. 0. 0. 0. 0. 0.
      0. 0. 3.41296918e-03 0. 0. 3.41296918e-03 0. 0. 3.41296918e-03 0.
      0. 0. 3.41296918e-03 1.36518767e-02 0. 3.41296918e-03 0.
      3.41296918e-03 0. 0. 3.41296918e-03 0. 0. 0. 0. 0. 0. 0.
      6.82593836e-03 0. 0. 0. 3.41296918e-03 0. 0. 0. 0. 0.
      3.41296918e-03 0. 0. 0. 0. 0. 0. 0. 0. 3.41296918e-03
      3.41296918e-03 0. 3.41296918e-03 0. 0. 0. 3.41296918e-03 0. 0. 0.
      0. 0. 0. 0. 0. 0. 0. 3.41296918e-03 0. 0. 0. 0. 3.41296918e-03 0.
      6.82593836e-03 3.41296918e-03 3.41296918e-03 3.41296918e-03 0. 0.
      3.41296918e-03 0. 0. 3.41296918e-03 3.41296918e-03 0.
      3.41296918e-03 0. 0. 0. 0. 0. 0. 0. 0. 0. 3.41296918e-03 0. 0. 0.
      3.41296918e-03 3.41296918e-03 1.36518767e-02 0. 0. 0. 0. 0. 0.
      3.41296918e-03 3.41296918e-03 0. 0. 3.41296918e-03 0. 0. 0. 0. 0.
      0. 0. 0. 0. 3.41296918e-03 0. 3.41296918e-03 0. 0. 0. 0. 0. 0. 0.
      0. 3.41296918e-03 0. 0. 0. 3.41296918e-03 0. 0. 0. 0. 0. 0. 0. 0.
      0. 0. 0. 0. 0. 0. 0. 0. 6.82593836e-03 0. 0. 0. 3.41296918e-03 0.
      3.41296918e-03 1.02389073e-02 0. 0. 0. 0. 1.36518767e-02 0. 0. 0.
      0. 0. 3.41296918e-03 0. 3.41296918e-03 0. 3.41296918e-03
      3.41296918e-03 0. 3.41296918e-03 0. 0. 0. 0. 0. 6.82593836e-03 0.
      3.41296918e-03 0. 0. 0. 0. 6.82593836e-03 0. 0. 3.41296918e-03
      6.82593836e-03 3.41296918e-03 0. 0. 0. 0. 0. 0. 0. 0. 0. 0. 0. 0.
      0. 1.02389073e-02 0. 0. 0. 0. 0. 0. 0. 0. 0. 3.41296918e-03
      3.41296918e-03 0. 0. 3.41296918e-03 3.41296918e-03 0. 0. 0. 0. 0.
      0. 0. 0. 3.41296918e-03 0. 6.82593836e-03 0. 0. 0. 3.41296918e-03
      0. 3.41296918e-03 0. 0. 6.82593836e-03 0. 0. 0. 0. 0. 0. 0. 0. 0.
      0. 3.41296918e-03 0. 3.41296918e-03 0. 0. 0. 0. 0. 0.
      3.41296918e-03 0. 0. 0. 0. 0. 0. 0. 0. 0. 0. 0. 0. 0. 0. 0.
      3.41296918e-03 0. 3.41296918e-03 0. 0. 0. 0. 6.82593836e-03 0. 0.
      0. 0. 0. 3.41296918e-03 0. 3.41296918e-03 0. 0. 0. 0. 0. 0. 0. 0.
      0. 3.41296918e-03 3.41296918e-03 0. 3.41296918e-03 3.41296918e-03
      0. 6.82593836e-03 0. 0. 3.41296918e-03 0. 0.</_>
    <_>
      0. 0. 0. 1.20481933e-02 2.40963860e-03 2.40963860e-03 0. 0. 0.
      4.81927721e-03 0. 0. 0. 0. 0. 0. 0. 4.81927721e-03 2.40963860e-03
      0. 0. 0. 0. 0. 0. 0. 2.40963860e-03 2.40963860e-03 0. 0. 0.
      2.40963860e-03 4.81927721e-03 2.40963860e-03 0. 0. 0.
      4.81927721e-03 2.40963860e-03 0. 0. 0. 0. 2.40963860e-03 0. 0. 0.
      0. 0. 0. 0. 0. 0. 0. 0. 4.81927721e-03 0. 0. 0. 0. 0. 0. 0.
      7.22891558e-03 0. 0. 0. 0. 4.81927721e-03 0. 0. 4.81927721e-03
      2.40963860e-03 0. 2.40963860e-03 0. 0. 0. 0. 0. 0. 0.
      4.81927721e-03 0. 2.40963860e-03 2.40963860e-03 2.40963860e-03 0.
      2.40963860e-03 0. 4.81927721e-03 2.40963860e-03 0. 0. 0. 0. 0.
      2.40963860e-03 2.40963860e-03 4.81927721e-03 0. 0. 0.
      2.40963860e-03 0. 7.22891558e-03 2.40963860e-03 0. 0. 0. 0. 0. 0.
      0. 2.40963860e-03 0. 0. 2.40963860e-03 0. 0. 2.40963860e-03 0. 0.
      1.20481933e-02 0. 2.40963860e-03 0. 0. 2.40963860e-03
      4.81927721e-03 0. 0. 2.40963860e-03 2.40963860e-03 0. 0. 0. 0.
      2.40963860e-03 4.81927721e-03 4.81927721e-03 0. 0. 0. 0.
      2.40963860e-03 0. 2.40963860e-03 0. 0. 2.40963860e-03
      2.40963860e-03 0. 0. 2.40963860e-03 0. 0. 0. 0. 0. 0. 0. 0.
      2.40963860e-03 0. 0. 2.40963860e-03 0. 2.40963860e-03 0.
      2.40963860e-03 0. 7.22891558e-03 0. 2.40963860e-03 2.40963860e-03
      4.81927721e-03 0. 4.81927721e-03 4.81927721e-03 0. 4.81927721e-03
      0. 0. 2.40963860e-03 2.40963860e-03 0. 2.40963860e-03 0.
      2.40963860e-03 0. 0. 0. 0. 0. 2.40963860e-03 0. 2.40963860e-03 0.
      0. 2.40963860e-03 0. 0. 0. 2.40963860e-03 0. 0. 0. 0. 0.
      2.40963860e-03 0. 0. 0. 2.40963860e-03 0. 0. 0. 0. 2.40963860e-03
      0. 0. 0. 4.81927721e-03 0. 2.40963860e-03 2.40963860e-03
      2.40963860e-03 0. 0. 0. 9.63855442e-03 0. 0. 0. 0. 0. 0. 0. 0. 0.
      0. 0. 0. 0. 4.81927721e-03 0. 2.40963860e-03 0. 2.40963860e-03 0.
      2.40963860e-03 0. 0. 0. 2.40963860e-03 2.40963860e-03 0. 0. 0. 0.
      0. 2.40963860e-03 2.40963860e-03 2.40963860e-03 2.40963860e-03 0.
      0. 0. 2.40963860e-03 2.40963860e-03 0. 0. 0. 0. 0. 2.40963860e-03
      0. 2.40963860e-03 2.40963860e-03 0. 0. 0. 0. 0. 0. 0. 0. 0.
      2.40963860e-03 0. 0. 2.40963860e-03 0. 0. 0. 0. 0. 0. 0. 0. 0. 0.
      2.40963860e-03 2.40963860e-03 0. 4.81927721e-03 2.40963860e-03
      4.81927721e-03 0. 4.81927721e-03 0. 0. 4.81927721e-03 0. 0. 0. 0.
      0. 0. 0. 0. 0. 0. 0. 2.40963860e-03 0. 0. 0. 0. 0. 2.40963860e-03
      0. 2.40963860e-03 7.22891558e-03 0. 0. 0. 0. 0. 0. 2.40963860e-03
      0. 2.40963860e-03 0. 2.40963860e-03 2.40963860e-03 0. 0. 0. 0. 0.
      2.40963860e-03 2.40963860e-03 0. 0. 0. 0. 0. 0. 0. 2.40963860e-03
      0. 0. 0. 0. 0. 0. 7.22891558e-03 0. 0. 0. 0. 0. 0. 4.81927721e-03
      0. 0. 0. 0. 0. 0. 0. 2.40963860e-03 0. 0. 0. 2.40963860e-03
      2.40963860e-03 0. 2.40963860e-03 0. 0. 2.40963860e-03 0.
      4.81927721e-03 0. 7.22891558e-03 0. 0. 0. 4.81927721e-03 0. 0.
      2.40963860e-03 0. 0. 0. 2.40963860e-03 2.40963860e-03
      2.40963860e-03 0. 0. 2.40963860e-03 2.40963860e-03 0.
      2.40963860e-03 2.40963860e-03 0. 2.40963860e-03 2.40963860e-03 0.
      0. 0. 0. 0. 0. 4.81927721e-03 2.40963860e-03 0. 0. 0.
      4.81927721e-03 2.40963860e-03 0. 0. 0. 0. 4.81927721e-03
      2.40963860e-03 0. 2.40963860e-03 0. 0. 0. 2.40963860e-03
      2.40963860e-03 0. 0. 0. 0. 0. 0. 2.40963860e-03 4.81927721e-03 0.
      0. 0. 0. 0. 2.40963860e-03 0. 0. 2.40963860e-03 0. 0.
      2.40963860e-03 0. 0. 0. 0. 0. 2.40963860e-03 0. 0. 0. 0.
      4.81927721e-03 0. 0. 2.40963860e-03 0. 0. 0. 0. 0. 0. 0. 0. 0. 0.
      0. 0. 0. 2.40963860e-03 0. 4.81927721e-03 0. 0. 0. 0.
      2.40963860e-03 0. 0. 2.40963860e-03 0. 2.40963860e-03 0. 0.
      4.81927721e-03 4.81927721e-03 0. 0. 2.40963860e-03 0. 0.
      1.20481933e-02 0. 0. 0. 0. 0. 4.81927721e-03 0. 0. 0. 0. 0.
      2.40963860e-03 0. 0. 0. 7.22891558e-03 0. 0. 0. 0. 0. 0. 0.
      9.63855442e-03 0. 2.40963860e-03 0. 2.40963860e-03 0. 0.
      2.40963860e-03 0. 0. 0. 0. 0. 0. 0. 0. 2.40963860e-03 0.
      2.40963860e-03 0. 0. 0. 2.40963860e-03 2.40963860e-03
      2.40963860e-03 0. 0. 0. 0. 0. 0. 0. 2.40963860e-03 0. 0. 0.
      4.81927721e-03 0. 4.81927721e-03 2.40963860e-03 0. 0.
      2.40963860e-03 0. 0. 0. 2.40963860e-03 0. 0. 2.40963860e-03 0. 0.
      0. 0. 0. 0. 2.40963860e-03 0. 0. 0. 4.81927721e-03 0.
      4.81927721e-03 0. 0. 4.81927721e-03 0. 0. 4.81927721e-03 0. 0. 0.
      0. 0. 0. 2.40963860e-03 0. 0. 2.40963860e-03 0. 2.40963860e-03
      2.40963860e-03 2.40963860e-03 0. 2.40963860e-03 0. 2.40963860e-03
      0. 0. 2.40963860e-03 0. 0. 0. 0. 2.40963860e-03 0. 2.40963860e-03
      0. 2.40963860e-03 0. 0. 4.81927721e-03 0. 0. 0. 0. 2.40963860e-03
      2.40963860e-03 0. 0. 9.63855442e-03 0. 0. 0. 0. 0. 2.40963860e-03
      0. 0. 0. 0. 0. 0. 2.40963860e-03 1.20481933e-02 4.81927721e-03 0.
      2.40963860e-03 0. 0. 0. 0. 0. 0. 2.40963860e-03 0. 0. 0.
      7.22891558e-03 0. 2.40963860e-03 0. 2.40963860e-03 0. 0. 0.
      2.40963860e-03 0. 0. 2.40963860e-03 0. 0. 2.40963860e-03 0. 0. 0.
      2.40963860e-03 0. 0. 2.40963860e-03 2.40963860e-03 0. 0. 0. 0. 0.
      0. 0. 0. 0. 2.40963860e-03 0. 2.40963860e-03 0. 2.40963860e-03 0.
      0. 2.40963860e-03 0. 2.40963860e-03 0. 7.22891558e-03
      2.40963860e-03 0. 0. 0. 0. 0. 2.40963860e-03 0. 0. 2.40963860e-03
      0. 0. 0. 2.40963860e-03 2.40963860e-03 0. 2.40963860e-03
      2.40963860e-03 2.40963860e-03 0. 2.40963860e-03 7.22891558e-03 0.
      0. 0. 0. 0. 0. 0. 4.81927721e-03 2.40963860e-03 4.81927721e-03 0.
      0. 0. 0. 0. 0. 0. 0. 2.40963860e-03 0. 0. 4.81927721e-03 0. 0. 0.
      0. 2.40963860e-03 0. 2.40963860e-03 4.81927721e-03 0. 0. 0. 0.
      2.40963860e-03 4.81927721e-03 0. 2.40963860e-03 0. 0. 0.
      2.40963860e-03 0. 0. 4.81927721e-03 0. 2.40963860e-03 0.
      2.40963860e-03 2.40963860e-03 7.22891558e-03 0. 2.40963860e-03 0.
      2.40963860e-03 2.40963860e-03 0. 0. 2.40963860e-03 2.40963860e-03
      0. 0. 0. 0. 2.40963860e-03 0. 0. 2.40963860e-03 2.40963860e-03 0.
      0. 2.40963860e-03 7.22891558e-03 0. 0. 4.81927721e-03
      2.40963860e-03 0. 4.81927721e-03 0. 0. 0. 2.40963860e-03 0. 0. 0.
      2.40963860e-03 0. 2.40963860e-03 0. 0. 0. 0. 0. 0. 0.
      2.40963860e-03 0. 0. 0. 2.40963860e-03 0. 0. 0. 2.40963860e-03 0.
      0. 2.40963860e-03 0. 0. 0. 2.40963860e-03 0. 7.22891558e-03 0. 0.
      0. 0. 2.40963860e-03 0. 0. 0. 0. 0. 0. 0. 0. 0. 0. 0. 0.
      2.40963860e-03 0. 0. 0. 0. 0. 2.40963860e-03 2.40963860e-03 0.
      4.81927721e-03 0. 0. 0. 0. 0. 2.40963860e-03 0. 0. 0.
      2.40963860e-03 2.40963860e-03 0. 0. 0. 0. 0. 0. 0. 0.
      7.22891558e-03 0. 0. 2.40963860e-03 0. 0. 4.81927721e-03 0. 0. 0.
      2.40963860e-03 0. 0. 0. 0. 7.22891558e-03 0. 0. 2.40963860e-03
      2.40963860e-03 0. 2.40963860e-03 2.40963860e-03 0. 0. 0. 0. 0. 0.
      0. 2.40963860e-03 0. 2.40963860e-03 0. 0. 2.40963860e-03 0. 0. 0.
      0. 0. 0. 0. 0. 0. 2.40963860e-03 0. 4.81927721e-03 0. 0. 0. 0.
      2.40963860e-03 0. 2.40963860e-03 4.81927721e-03 0. 0. 0.
      4.81927721e-03 0. 0. 0. 0. 0. 0. 0. 0. 2.40963860e-03 0. 0.
      2.40963860e-03 0. 0. 0. 2.40963860e-03 0. 0. 0. 0. 2.40963860e-03
      0. 2.40963860e-03 0. 0. 0. 4.81927721e-03 0. 0. 2.40963860e-03 0.
      2.40963860e-03 0. 2.40963860e-03 0. 2.40963860e-03</_>
    <_>
      1.09170307e-03 1.09170307e-03 1.09170307e-03 1.09170307e-03 0. 0.
      1.09170307e-03 0. 1.09170307e-03 0. 1.09170307e-03 0.
      1.09170307e-03 0. 1.09170307e-03 0. 0. 4.36681230e-03
      1.09170307e-03 1.09170307e-03 3.27510922e-03 1.09170307e-03 0. 0.
      2.18340615e-03 0. 1.09170307e-03 1.09170307e-03 0. 0. 0.
      1.09170307e-03 0. 1.09170307e-03 0. 3.27510922e-03 2.18340615e-03
      1.09170307e-03 2.18340615e-03 1.09170307e-03 1.09170307e-03
      2.18340615e-03 0. 0. 0. 0. 1.09170307e-03 3.27510922e-03
      1.09170307e-03 0. 1.09170307e-03 1.09170307e-03 1.09170307e-03 0.
      1.09170307e-03 1.09170307e-03 0. 0. 2.18340615e-03 3.27510922e-03
      2.18340615e-03 0. 0. 3.27510922e-03 1.09170307e-03 0. 0. 0.
      1.09170307e-03 3.27510922e-03 0. 1.09170307e-03 0. 0. 0. 0. 0. 0.
      0. 3.27510922e-03 0. 0. 1.09170307e-03 0. 0. 0. 0. 1.09170307e-03
      1.09170307e-03 0. 6.55021844e-03 1.09170307e-03 2.18340615e-03
      1.09170307e-03 3.27510922e-03 0. 4.36681230e-03 1.09170307e-03
      1.09170307e-03 1.09170307e-03 1.09170307e-03 0. 4.36681230e-03 0.
      0. 3.27510922e-03 3.27510922e-03 4.36681230e-03 0. 0. 0. 0. 0. 0.
      2.18340615e-03 0. 1.09170307e-03 0. 0. 0. 1.09170307e-03 0.
      1.09170307e-03 0. 0. 0. 1.09170307e-03 2.18340615e-03
      2.18340615e-03 1.09170307e-03 0. 0. 1.09170307e-03 0. 0.
      3.27510922e-03 3.27510922e-03 0. 1.09170307e-03 1.09170307e-03
      3.27510922e-03 0. 1.09170307e-03 1.09170307e-03 2.18340615e-03 0.
      1.09170307e-03 2.18340615e-03 1.09170307e-03 0. 0. 1.09170307e-03
      0. 1.09170307e-03 0. 4.36681230e-03 1.09170307e-03 0.
      2.18340615e-03 1.09170307e-03 0. 0. 0. 0. 0. 0. 0. 0.
      1.09170307e-03 1.09170307e-03 2.18340615e-03 2.18340615e-03
      1.09170307e-03 1.09170307e-03 0. 0. 0. 4.36681230e-03
      1.09170307e-03 1.09170307e-03 0. 2.18340615e-03 0. 1.09170307e-03
      0. 0. 0. 2.18340615e-03 1.09170307e-03 2.18340615e-03
      1.09170307e-03 0. 0. 2.18340615e-03 3.27510922e-03 0.
      1.09170307e-03 0. 0. 0. 4.36681230e-03 1.09170307e-03
      2.18340615e-03 0. 1.09170307e-03 0. 0. 0. 1.09170307e-03
      1.09170307e-03 0. 0. 0. 2.18340615e-03 1.09170307e-03
      2.18340615e-03 2.18340615e-03 0. 0. 0. 0. 0. 1.09170307e-03
      2.18340615e-03 4.36681230e-03 0. 2.18340615e-03 0. 0.
      1.09170307e-03 1.09170307e-03 2.18340615e-03 0. 0. 2.18340615e-03
      4.36681230e-03 5.45851514e-03 2.18340615e-03 2.18340615e-03
      1.09170307e-03 0. 1.09170307e-03 2.18340615e-03 2.18340615e-03 0.
      1.09170307e-03 0. 0. 1.09170307e-03 1.09170307e-03 0.
      1.09170307e-03 2.18340615e-03 0. 2.18340615e-03 1.09170307e-03 0.
      4.36681230e-03 1.09170307e-03 0. 1.09170307e-03 2.18340615e-03
      1.09170307e-03 0. 0. 1.09170307e-03 0. 4.36681230e-03
      1.09170307e-03 1.09170307e-03 1.09170307e-03 0. 4.36681230e-03 0.
      0. 1.09170307e-03 1.09170307e-03 0. 0. 1.09170307e-03
      2.18340615e-03 1.09170307e-03 0. 0. 1.09170307e-03 0.
      1.09170307e-03 0. 0. 0. 0. 1.09170307e-03 1.09170307e-03
      1.09170307e-03 0. 0. 1.09170307e-03 0. 0. 1.09170307e-03 0. 0. 0.
      0. 1.09170307e-03 1.09170307e-03 1.09170307e-03 1.09170307e-03 0.
      1.09170307e-03 4.36681230e-03 0. 0. 1.09170307e-03 2.18340615e-03
      0. 5.45851514e-03 0. 2.18340615e-03 1.09170307e-03 6.55021844e-03
      1.09170307e-03 1.09170307e-03 1.09170307e-03 1.09170307e-03
      1.09170307e-03 0. 0. 1.09170307e-03 0. 0. 1.09170307e-03 0.
      1.09170307e-03 1.09170307e-03 0. 1.09170307e-03 0. 0.
      1.09170307e-03 1.09170307e-03 1.09170307e-03 1.09170307e-03
      3.27510922e-03 0. 0. 1.09170307e-03 2.18340615e-03 0.
      2.18340615e-03 0. 1.09170307e-03 0. 1.09170307e-03 0.
      1.09170307e-03 1.09170307e-03 2.18340615e-03 2.18340615e-03
      2.18340615e-03 3.27510922e-03 1.09170307e-03 0. 0. 1.09170307e-03
      1.09170307e-03 0. 1.09170307e-03 1.09170307e-03 1.09170307e-03
      1.09170307e-03 0. 1.09170307e-03 0. 1.09170307e-03 1.09170307e-03
      1.09170307e-03 1.09170307e-03 2.18340615e-03 0. 1.09170307e-03
      2.18340615e-03 0. 2.18340615e-03 0. 0. 0. 0. 1.09170307e-03 0. 0.
      2.18340615e-03 0. 0. 1.09170307e-03 2.18340615e-03 1.09170307e-03
      0. 1.09170307e-03 0. 0. 1.09170307e-03 2.18340615e-03
      1.09170307e-03 1.09170307e-03 1.09170307e-03 0. 0. 2.18340615e-03
      1.09170307e-03 1.09170307e-03 1.09170307e-03 0. 4.36681230e-03
      1.09170307e-03 1.09170307e-03 0. 0. 0. 0. 1.09170307e-03
      2.18340615e-03 0. 1.09170307e-03 0. 0. 1.09170307e-03
      1.09170307e-03 1.09170307e-03 3.27510922e-03 1.09170307e-03 0. 0.
      1.09170307e-03 0. 0. 0. 0. 0. 0. 3.27510922e-03 1.09170307e-03
      1.09170307e-03 0. 0. 1.09170307e-03 0. 0. 0. 1.09170307e-03 0. 0.
      0. 3.27510922e-03 2.18340615e-03 1.09170307e-03 2.18340615e-03
      1.09170307e-03 0. 1.09170307e-03 0. 0. 0. 0. 1.09170307e-03
      1.09170307e-03 1.09170307e-03 0. 0. 0. 1.09170307e-03
      1.09170307e-03 3.27510922e-03 0. 0. 1.09170307e-03 0. 0.
      1.09170307e-03 0. 1.09170307e-03 0. 0. 1.09170307e-03 0. 0. 0.
      2.18340615e-03 3.27510922e-03 2.18340615e-03 0. 0. 1.09170307e-03
      0. 1.09170307e-03 1.09170307e-03 2.18340615e-03 0. 0. 0. 0.
      1.09170307e-03 0. 1.09170307e-03 0. 0. 0. 2.18340615e-03 0.
      3.27510922e-03 0. 0. 0. 3.27510922e-03 1.09170307e-03
      2.18340615e-03 2.18340615e-03 1.09170307e-03 0. 0. 1.09170307e-03
      1.09170307e-03 1.09170307e-03 1.09170307e-03 0. 0. 0.
      1.09170307e-03 4.36681230e-03 1.09170307e-03 0. 2.18340615e-03
      1.09170307e-03 1.09170307e-03 0. 1.09170307e-03 0. 0. 0.
      2.18340615e-03 1.09170307e-03 0. 0. 1.09170307e-03 1.09170307e-03
      0. 0. 2.18340615e-03 1.09170307e-03 1.09170307e-03 0.
      1.09170307e-03 0. 0. 0. 0. 0. 1.09170307e-03 1.09170307e-03 0. 0.
      1.09170307e-03 0. 3.27510922e-03 2.18340615e-03 0. 0.
      1.09170307e-03 1.09170307e-03 1.09170307e-03 2.18340615e-03 0. 0.
      1.09170307e-03 5.45851514e-03 1.09170307e-03 3.27510922e-03
      4.36681230e-03 1.09170307e-03 1.09170307e-03 0. 0. 3.27510922e-03
      0. 3.27510922e-03 1.09170307e-03 0. 0. 0. 1.09170307e-03 0.
      3.27510922e-03 0. 0. 0. 1.09170307e-03 2.18340615e-03 0. 0.
      2.18340615e-03 2.18340615e-03 0. 2.18340615e-03 0. 0. 0.
      2.18340615e-03 2.18340615e-03 1.09170307e-03 2.18340615e-03
      1.09170307e-03 1.09170307e-03 0. 0. 0. 0. 3.27510922e-03 0.
      2.18340615e-03 2.18340615e-03 1.09170307e-03 0. 1.09170307e-03
      1.09170307e-03 2.18340615e-03 1.09170307e-03 0. 0. 0.
      3.27510922e-03 0. 1.09170307e-03 1.09170307e-03 1.09170307e-03
      1.09170307e-03 0. 0. 1.09170307e-03 0. 0. 0. 0. 0. 0. 0. 0.
      3.27510922e-03 0. 2.18340615e-03 2.18340615e-03 0. 3.27510922e-03
      1.09170307e-03 0. 2.18340615e-03 1.09170307e-03 3.27510922e-03
      2.18340615e-03 2.18340615e-03 1.09170307e-03 0. 3.27510922e-03 0.
      1.09170307e-03 0. 1.09170307e-03 5.45851514e-03 0. 0.
      1.09170307e-03 2.18340615e-03 1.09170307e-03 1.09170307e-03 0.
      1.09170307e-03 0. 0. 1.09170307e-03 2.18340615e-03 4.36681230e-03
      3.27510922e-03 0. 0. 1.09170307e-03 0. 3.27510922e-03
      4.36681230e-03 2.18340615e-03 0. 1.09170307e-03 0. 0.
      1.09170307e-03 0. 3.27510922e-03 0. 1.09170307e-03 0. 0.
      1.09170307e-03 0. 2.18340615e-03 1.09170307e-03 1.09170307e-03
      1.09170307e-03 1.09170307e-03 1.09170307e-03 0. 1.09170307e-03 0.
      0. 2.18340615e-03 2.18340615e-03 2.18340615e-03 0. 1.09170307e-03
      0. 1.09170307e-03 2.18340615e-03 1.09170307e-03 2.18340615e-03 0.
      0. 1.09170307e-03 1.09170307e-03 0. 2.18340615e-03 1.09170307e-03
      1.09170307e-03 0. 1.09170307e-03 1.09170307e-03 4.36681230e-03 0.
      1.09170307e-03 0. 1.09170307e-03 1.09170307e-03 2.18340615e-03
      1.09170307e-03 0. 1.09170307e-03 0. 1.09170307e-03 4.36681230e-03
      0. 0. 0. 0. 2.18340615e-03 2.18340615e-03 3.27510922e-03
      1.09170307e-03 4.36681230e-03 0. 0. 1.09170307e-03 1.09170307e-03
      0. 0. 0. 3.27510922e-03 0. 1.09170307e-03 0. 2.18340615e-03
      1.09170307e-03 1.09170307e-03 2.18340615e-03 0. 2.18340615e-03
      1.09170307e-03 0. 0. 0. 0. 1.09170307e-03 1.09170307e-03 0.
      1.09170307e-03 1.09170307e-03 9.82532743e-03 0. 0. 3.27510922e-03
      2.18340615e-03 2.18340615e-03 0. 2.18340615e-03 0. 1.09170307e-03
      3.27510922e-03 1.09170307e-03 1.09170307e-03 1.09170307e-03 0.
      2.18340615e-03 0. 4.36681230e-03 0. 0. 1.09170307e-03 0.
      1.09170307e-03 3.27510922e-03 0. 1.09170307e-03 0. 0.
      1.09170307e-03 4.36681230e-03 1.09170307e-03 0. 1.09170307e-03
      1.09170307e-03 2.18340615e-03 4.36681230e-03 2.18340615e-03 0. 0.
      1.09170307e-03 2.18340615e-03 3.27510922e-03 1.09170307e-03 0. 0.
      2.18340615e-03 1.09170307e-03 0. 1.09170307e-03 4.36681230e-03
      1.09170307e-03 3.27510922e-03 1.09170307e-03 0. 0. 1.09170307e-03
      0. 2.18340615e-03 0. 0. 3.27510922e-03 2.18340615e-03
      3.27510922e-03 4.36681230e-03 0. 0. 0. 0. 1.09170307e-03
      2.18340615e-03 1.09170307e-03 0. 1.09170307e-03 0. 0. 0.
      3.27510922e-03 1.09170307e-03 0. 0. 1.09170307e-03 2.18340615e-03
      0. 1.09170307e-03 0. 1.09170307e-03 1.09170307e-03 1.09170307e-03
      1.09170307e-03 0. 0. 2.18340615e-03 0. 2.18340615e-03 0. 0. 0. 0.
      3.27510922e-03 0. 1.09170307e-03 1.09170307e-03 2.18340615e-03 0.
      0. 3.27510922e-03 0. 3.27510922e-03 1.09170307e-03 0.
      2.18340615e-03 0. 2.18340615e-03 1.09170307e-03 0. 2.18340615e-03
      0. 5.45851514e-03 0. 0. 0. 0. 1.09170307e-03 0. 0. 1.09170307e-03
      1.09170307e-03 2.18340615e-03 0. 1.09170307e-03 1.09170307e-03 0.
      1.09170307e-03 2.18340615e-03 0. 2.18340615e-03 1.09170307e-03
      1.09170307e-03 4.36681230e-03 0. 2.18340615e-03 1.09170307e-03 0.
      2.18340615e-03 0. 0. 0. 2.18340615e-03 1.09170307e-03 0. 0. 0.
      1.09170307e-03 1.09170307e-03 0. 2.18340615e-03 0. 0.
      1.09170307e-03 0. 1.09170307e-03 1.09170307e-03 0. 0. 0.
      2.18340615e-03 0. 0. 1.09170307e-03 0. 0. 0. 0. 1.09170307e-03
      1.09170307e-03 2.18340615e-03 1.09170307e-03 4.36681230e-03
      4.36681230e-03 1.09170307e-03 1.09170307e-03 1.09170307e-03
      2.18340615e-03 2.18340615e-03 1.09170307e-03 3.27510922e-03
      1.09170307e-03 0. 0. 0. 1.09170307e-03 1.09170307e-03
      3.27510922e-03 3.27510922e-03 0. 0. 2.18340615e-03 0.
      1.09170307e-03 0. 1.09170307e-03 0. 4.36681230e-03 1.09170307e-03
      1.09170307e-03 1.09170307e-03 0. 0. 0. 5.45851514e-03
      2.18340615e-03 2.18340615e-03 0. 0. 3.27510922e-03 1.09170307e-03
      1.09170307e-03 0. 0.</_>
    <_>
      0. 0. 0. 7.79727101e-03 1.94931775e-03 1.94931775e-03 0.
      1.94931775e-03 0. 1.94931775e-03 0. 1.94931775e-03 0.
      1.94931775e-03 0. 0. 3.89863551e-03 0. 1.94931775e-03 0. 0. 0. 0.
      0. 0. 0. 1.94931775e-03 1.94931775e-03 0. 1.94931775e-03
      1.94931775e-03 0. 0. 3.89863551e-03 1.94931775e-03 3.89863551e-03
      1.94931775e-03 3.89863551e-03 1.94931775e-03 0. 1.94931775e-03 0.
      3.89863551e-03 5.84795326e-03 0. 0. 0. 0. 3.89863551e-03 0. 0. 0.
      1.94931775e-03 1.94931775e-03 0. 0. 0. 5.84795326e-03 0. 0.
      3.89863551e-03 1.94931775e-03 1.94931775e-03 1.94931775e-03 0. 0.
      0. 0. 0. 0. 3.89863551e-03 0. 0. 0. 0. 0. 1.94931775e-03 0.
      1.94931775e-03 0. 0. 1.94931775e-03 9.74658877e-03 1.94931775e-03
      0. 0. 0. 0. 1.94931775e-03 0. 9.74658877e-03 1.94931775e-03 0. 0.
      0. 0. 0. 1.94931775e-03 0. 3.89863551e-03 7.79727101e-03 0. 0.
      1.94931775e-03 0. 1.94931775e-03 0. 1.94931775e-03 0. 0. 0.
      1.94931775e-03 0. 0. 9.74658877e-03 0. 3.89863551e-03
      1.94931775e-03 1.94931775e-03 0. 1.94931775e-03 1.94931775e-03 0.
      1.94931775e-03 0. 1.94931775e-03 3.89863551e-03 0. 1.94931775e-03
      0. 0. 0. 0. 0. 1.94931775e-03 1.94931775e-03 0. 1.94931775e-03
      1.94931775e-03 3.89863551e-03 0. 1.94931775e-03 0. 3.89863551e-03
      1.94931775e-03 1.94931775e-03 3.89863551e-03 3.89863551e-03 0. 0.
      0. 0. 1.94931775e-03 0. 0. 1.94931775e-03 0. 0. 7.79727101e-03 0.
      3.89863551e-03 1.94931775e-03 0. 0. 0. 3.89863551e-03 0. 0. 0. 0.
      0. 1.94931775e-03 0. 0. 3.89863551e-03 0. 1.94931775e-03 0.
      1.94931775e-03 0. 0. 1.94931775e-03 0. 3.89863551e-03 0. 0. 0. 0.
      1.94931775e-03 1.94931775e-03 0. 0. 0. 1.94931775e-03 0. 0. 0.
      1.94931775e-03 0. 0. 1.94931775e-03 0. 3.89863551e-03 0. 0. 0.
      1.94931775e-03 0. 5.84795326e-03 0. 1.94931775e-03 0. 0. 0.
      1.94931775e-03 0. 0. 1.94931775e-03 0. 1.94931775e-03 0. 0.
      5.84795326e-03 3.89863551e-03 0. 0. 0. 0. 0. 0. 0. 0. 0. 0.
      1.94931775e-03 0. 0. 1.94931775e-03 0. 0. 0. 1.94931775e-03 0. 0.
      0. 1.94931775e-03 1.94931775e-03 0. 0. 0. 3.89863551e-03 0.
      1.94931775e-03 0. 1.94931775e-03 1.94931775e-03 0. 0. 0. 0. 0.
      1.94931775e-03 0. 0. 0. 0. 1.94931775e-03 0. 1.94931775e-03
      1.94931775e-03 0. 3.89863551e-03 0. 5.84795326e-03 1.94931775e-03
      0. 1.94931775e-03 0. 0. 0. 0. 0. 1.94931775e-03 0. 1.94931775e-03
      1.94931775e-03 0. 0. 0. 0. 0. 0. 1.94931775e-03 0. 0. 0.
      1.94931775e-03 0. 0. 0. 0. 0. 0. 1.94931775e-03 0. 7.79727101e-03
      1.94931775e-03 0. 0. 0. 0. 0. 0. 0. 0. 0. 0. 1.94931775e-03
      1.94931775e-03 0. 3.89863551e-03 0. 0. 1.94931775e-03 0. 0. 0. 0.
      0. 0. 0. 0. 1.94931775e-03 3.89863551e-03 1.94931775e-03 0. 0. 0.
      0. 3.89863551e-03 0. 0. 0. 0. 3.89863551e-03 0. 0. 0.
      1.94931775e-03 1.94931775e-03 1.94931775e-03 0. 0. 1.94931775e-03
      1.94931775e-03 0. 0. 5.84795326e-03 0. 1.94931775e-03
      1.94931775e-03 0. 1.94931775e-03 1.94931775e-03 0. 0. 0. 0.
      1.94931775e-02 0. 0. 0. 1.94931775e-03 0. 0. 1.94931775e-03
      1.94931775e-03 0. 0. 1.94931775e-03 1.94931775e-03 3.89863551e-03
      3.89863551e-03 0. 0. 0. 3.89863551e-03 1.94931775e-03 0.
      1.94931775e-03 0. 0. 0. 0. 0. 0. 1.94931775e-03 0. 3.89863551e-03
      0. 1.94931775e-03 0. 0. 0. 1.94931775e-03 0. 0. 0. 0. 0. 0. 0. 0.
      0. 0. 0. 0. 0. 1.94931775e-03 1.94931775e-03 1.94931775e-03
      5.84795326e-03 1.94931775e-03 1.94931775e-03 0. 0. 1.94931775e-03
      1.94931775e-03 1.94931775e-03 0. 0. 0. 0. 1.94931775e-03 0. 0. 0.
      1.94931775e-03 0. 3.89863551e-03 0. 3.89863551e-03 0.
      3.89863551e-03 0. 0. 0. 0. 0. 1.94931775e-03 0. 0. 3.89863551e-03
      0. 0. 0. 0. 1.94931775e-03 0. 0. 1.94931775e-03 0. 0. 0. 0.
      1.94931775e-03 0. 0. 0. 0. 1.94931775e-03 0. 0. 0. 0. 0. 0.
      3.89863551e-03 0. 1.94931775e-03 3.89863551e-03 0. 3.89863551e-03
      5.84795326e-03 3.89863551e-03 3.89863551e-03 0. 0. 0. 0. 0.
      5.84795326e-03 1.94931775e-03 0. 0. 1.94931775e-03 3.89863551e-03
      0. 3.89863551e-03 0. 0. 1.94931775e-03 1.94931775e-03 0. 0. 0. 0.
      3.89863551e-03 0. 3.89863551e-03 0. 0. 0. 0. 1.94931775e-03 0. 0.
      0. 0. 1.94931775e-03 0. 1.94931775e-03 0. 3.89863551e-03 0. 0.
      1.94931775e-03 0. 1.94931775e-03 0. 1.94931775e-03 0.
      1.94931775e-03 0. 1.94931775e-03 0. 0. 5.84795326e-03
      1.94931775e-03 1.94931775e-03 0. 3.89863551e-03 0. 1.94931775e-03
      0. 3.89863551e-03 0. 0. 1.94931775e-03 1.94931775e-03 0. 0. 0. 0.
      0. 1.94931775e-03 0. 0. 0. 0. 0. 1.94931775e-03 5.84795326e-03
      3.89863551e-03 0. 0. 0. 0. 1.94931775e-03 0. 1.94931775e-03 0.
      1.94931775e-03 1.94931775e-03 0. 0. 3.89863551e-03 0. 0. 0.
      1.94931775e-03 0. 0. 0. 0. 0. 3.89863551e-03 0. 0. 3.89863551e-03
      0. 0. 5.84795326e-03 0. 1.94931775e-03 0. 0. 1.94931775e-03
      1.94931775e-03 0. 0. 0. 1.94931775e-03 0. 1.94931775e-03 0. 0. 0.
      0. 0. 1.94931775e-03 1.94931775e-03 0. 0. 0. 0. 0. 0.
      1.94931775e-03 0. 0. 0. 0. 0. 0. 1.94931775e-03 0. 1.94931775e-03
      0. 1.94931775e-03 0. 0. 0. 0. 0. 1.94931775e-03 0. 0. 0. 0. 0. 0.
      0. 0. 0. 0. 0. 0. 0. 0. 0. 0. 0. 7.79727101e-03 0. 0.
      1.94931775e-03 0. 0. 0. 0. 1.94931775e-03 1.94931775e-03 0. 0. 0.
      1.94931775e-03 0. 3.89863551e-03 0. 1.94931775e-03 3.89863551e-03
      7.79727101e-03 0. 3.89863551e-03 1.94931775e-03 0. 5.84795326e-03
      0. 0. 3.89863551e-03 1.94931775e-03 1.94931775e-03 1.94931775e-03
      0. 1.94931775e-03 0. 0. 0. 1.94931775e-03 0. 0. 3.89863551e-03 0.
      0. 0. 1.94931775e-03 0. 3.89863551e-03 0. 1.94931775e-03 0.
      1.94931775e-03 0. 0. 0. 0. 0. 0. 3.89863551e-03 1.94931775e-03
      5.84795326e-03 1.94931775e-03 0. 0. 0. 0. 0. 0. 1.94931775e-03 0.
      0. 0. 0. 0. 1.94931775e-03 1.94931775e-03 5.84795326e-03
      3.89863551e-03 3.89863551e-03 1.94931775e-03 1.94931775e-03
      3.89863551e-03 0. 1.94931775e-03 0. 0. 0. 0. 3.89863551e-03
      1.94931775e-03 0. 3.89863551e-03 3.89863551e-03 1.94931775e-03
      1.94931775e-03 0. 1.94931775e-03 1.94931775e-03 0. 0. 0. 0.
      3.89863551e-03 0. 1.94931775e-03 0. 0. 1.94931775e-03
      3.89863551e-03 0. 0. 0. 0. 0. 1.94931775e-03 0. 0. 0.
      1.94931775e-03 0. 0. 1.94931775e-03 0. 0. 1.94931775e-03 0. 0. 0.
      0. 0. 0. 0. 0. 1.94931775e-03 0. 1.94931775e-03 0. 0. 0.
      1.94931775e-03 3.89863551e-03 0. 0. 0. 0. 1.94931775e-03 0. 0. 0.
      0. 1.94931775e-03 0. 0. 0. 0. 3.89863551e-03 0. 1.94931775e-03
      1.94931775e-03 0. 1.94931775e-03 0. 0. 0. 1.94931775e-03
      1.94931775e-03 0. 0. 0. 1.94931775e-03 0. 1.94931775e-03
      1.94931775e-03 0. 0. 0. 0. 1.94931775e-03 1.94931775e-03 0.
      1.94931775e-03 0. 1.94931775e-03 0. 0. 0. 0. 0. 0. 0.
      1.94931775e-03 0. 0. 0. 0. 0. 0. 0. 1.94931775e-03 0.
      1.94931775e-03 0. 0. 0. 0. 0. 1.94931775e-03 0. 0. 0.
      1.94931775e-03 0. 0. 1.94931775e-03 0. 1.94931775e-03 0. 0. 0. 0.
      1.94931775e-03 0. 0. 1.94931775e-03 1.94931775e-03 0. 0.
      1.94931775e-03 0. 1.94931775e-03 0. 0. 1.94931775e-03 0. 0. 0. 0.
      0. 0. 1.94931775e-03 0. 1.94931775e-03 0. 0. 0. 0. 1.94931775e-03
      0. 0. 0. 1.94931775e-03 0. 0. 0. 0. 0. 1.94931775e-03 0. 0.
      1.94931775e-03 0. 0. 3.89863551e-03 0. 5.84795326e-03
      1.94931775e-03 0. 0. 0. 0. 0. 0. 0. 0. 0. 0. 0. 0. 1.94931775e-03
      1.94931775e-03 1.94931775e-03 0. 0. 3.89863551e-03 0. 0.
      1.94931775e-03 1.94931775e-03 3.89863551e-03 3.89863551e-03 0.
      5.84795326e-03 0. 0. 0. 0. 0. 3.89863551e-03 0. 0. 0. 0.
      3.89863551e-03 1.94931775e-03 1.94931775e-03 0. 0. 0. 0. 0. 0.
      1.94931775e-03 3.89863551e-03 1.94931775e-03 0. 0. 1.94931775e-03
      1.94931775e-03 0. 0. 1.94931775e-03 0. 1.94931775e-03
      1.94931775e-03 0. 0. 3.89863551e-03 1.94931775e-03 0. 0.
      5.84795326e-03 0. 3.89863551e-03 3.89863551e-03 0. 0. 0. 0. 0.
      3.89863551e-03 0. 1.94931775e-03 9.74658877e-03 0. 0. 0.
      1.94931775e-03 0. 1.94931775e-03</_>
    <_>
      2.68817204e-03 4.03225794e-03 0. 2.68817204e-03 0. 0. 0. 0. 0.
      1.34408602e-03 0. 0. 0. 2.68817204e-03 1.34408602e-03 0.
      1.34408602e-03 8.06451589e-03 0. 0. 1.34408602e-03 0. 0. 0.
      2.68817204e-03 0. 1.34408602e-03 4.03225794e-03 1.34408602e-03 0.
      1.34408602e-03 0. 0. 1.34408602e-03 2.68817204e-03 1.34408602e-03
      2.68817204e-03 1.34408602e-03 0. 1.34408602e-03 1.34408602e-03
      4.03225794e-03 1.34408602e-03 1.34408602e-03 0. 0. 1.34408602e-03
      2.68817204e-03 0. 0. 0. 0. 0. 0. 0. 4.03225794e-03 1.34408602e-03
      2.68817204e-03 1.34408602e-03 0. 1.34408602e-03 1.34408602e-03 0.
      0. 1.34408602e-03 0. 1.34408602e-03 0. 2.68817204e-03 0. 0. 0. 0.
      0. 1.34408602e-03 0. 0. 1.34408602e-03 0. 0. 0. 0. 2.68817204e-03
      2.68817204e-03 1.34408602e-03 0. 1.34408602e-03 0. 0. 0.
      2.68817204e-03 1.34408602e-03 1.34408602e-03 1.34408602e-03 0.
      1.34408602e-03 0. 1.34408602e-03 0. 2.68817204e-03 1.34408602e-03
      0. 0. 5.37634408e-03 0. 5.37634408e-03 0. 2.68817204e-03
      2.68817204e-03 0. 2.68817204e-03 5.37634408e-03 1.34408602e-03 0.
      0. 0. 1.34408602e-03 0. 4.03225794e-03 1.34408602e-03
      1.34408602e-03 1.34408602e-03 0. 5.37634408e-03 2.68817204e-03
      1.34408602e-03 0. 1.34408602e-03 2.68817204e-03 1.34408602e-03 0.
      0. 2.68817204e-03 2.68817204e-03 2.68817204e-03 2.68817204e-03
      1.34408602e-03 1.34408602e-03 2.68817204e-03 1.34408602e-03 0.
      2.68817204e-03 1.34408602e-03 0. 1.34408602e-03 0. 1.34408602e-03
      4.03225794e-03 0. 0. 0. 1.34408602e-03 2.68817204e-03 0. 0. 0.
      1.34408602e-03 2.68817204e-03 1.34408602e-03 4.03225794e-03
      1.34408602e-03 0. 0. 0. 0. 2.68817204e-03 1.34408602e-03
      2.68817204e-03 0. 0. 2.68817204e-03 0. 1.34408602e-03 0. 0.
      1.34408602e-03 1.34408602e-03 0. 1.34408602e-03 0. 0. 0.
      4.03225794e-03 0. 0. 0. 1.34408602e-03 0. 2.68817204e-03 0.
      2.68817204e-03 5.37634408e-03 0. 0. 0. 2.68817204e-03
      1.34408602e-03 0. 0. 0. 2.68817204e-03 0. 1.34408602e-03
      4.03225794e-03 0. 0. 0. 0. 0. 0. 1.34408602e-03 0. 0. 0. 0.
      2.68817204e-03 0. 0. 1.34408602e-03 0. 1.34408602e-03
      1.34408602e-03 1.34408602e-03 1.34408602e-03 1.34408602e-03 0.
      1.34408602e-03 0. 0. 0. 1.34408602e-03 1.34408602e-03 0. 0. 0. 0.
      0. 1.34408602e-03 1.34408602e-03 0. 0. 1.34408602e-03
      2.68817204e-03 0. 0. 2.68817204e-03 1.34408602e-03 2.68817204e-03
      0. 1.34408602e-03 1.34408602e-03 0. 1.34408602e-03 0. 0.
      1.34408602e-03 0. 2.68817204e-03 1.34408602e-03 1.34408602e-03 0.
      1.34408602e-03 1.34408602e-03 0. 2.68817204e-03 0. 1.34408602e-03
      1.34408602e-03 5.37634408e-03 0. 0. 0. 2.68817204e-03
      2.68817204e-03 2.68817204e-03 2.68817204e-03 0. 1.34408602e-03 0.
      0. 0. 0. 2.68817204e-03 0. 2.68817204e-03 0. 1.34408602e-03 0.
      2.68817204e-03 0. 1.34408602e-03 1.34408602e-03 4.03225794e-03 0.
      0. 0. 0. 0. 0. 5.37634408e-03 0. 1.34408602e-03 1.34408602e-03 0.
      0. 1.34408602e-03 2.68817204e-03 0. 0. 2.68817204e-03
      2.68817204e-03 0. 1.34408602e-03 1.34408602e-03 0. 0. 0.
      4.03225794e-03 0. 0. 1.34408602e-03 0. 2.68817204e-03
      1.34408602e-03 0. 1.34408602e-03 2.68817204e-03 0. 1.34408602e-03
      0. 1.34408602e-03 1.34408602e-03 1.34408602e-03 1.34408602e-03
      2.68817204e-03 0. 2.68817204e-03 1.34408602e-03 1.34408602e-03
      1.34408602e-03 1.34408602e-03 0. 1.34408602e-03 0. 0. 0.
      2.68817204e-03 0. 0. 2.68817204e-03 0. 0. 1.34408602e-03
      2.68817204e-03 1.34408602e-03 0. 0. 1.34408602e-03 0.
      2.68817204e-03 0. 0. 1.34408602e-03 0. 0. 2.68817204e-03 0.
      1.34408602e-03 4.03225794e-03 0. 1.34408602e-03 0. 0.
      5.37634408e-03 1.34408602e-03 1.34408602e-03 0. 1.34408602e-03
      1.34408602e-03 0. 0. 2.68817204e-03 1.34408602e-03 1.34408602e-03
      2.68817204e-03 1.34408602e-03 0. 4.03225794e-03 0. 1.34408602e-03
      0. 0. 1.34408602e-03 2.68817204e-03 0. 0. 2.68817204e-03
      1.34408602e-03 0. 0. 1.34408602e-03 0. 0. 0. 1.34408602e-03
      2.68817204e-03 4.03225794e-03 0. 2.68817204e-03 0. 0.
      1.34408602e-03 1.34408602e-03 0. 0. 0. 0. 0. 0. 2.68817204e-03
      2.68817204e-03 2.68817204e-03 2.68817204e-03 1.34408602e-03 0. 0.
      0. 4.03225794e-03 0. 1.34408602e-03 0. 1.34408602e-03
      1.34408602e-03 2.68817204e-03 4.03225794e-03 0. 0. 1.34408602e-03
      2.68817204e-03 0. 2.68817204e-03 0. 0. 0. 0. 2.68817204e-03
      1.34408602e-03 0. 1.34408602e-03 1.34408602e-03 1.34408602e-03
      1.34408602e-03 0. 1.34408602e-03 1.34408602e-03 1.34408602e-03 0.
      1.34408602e-03 2.68817204e-03 1.34408602e-03 0. 2.68817204e-03 0.
      1.34408602e-03 0. 1.34408602e-03 1.34408602e-03 0. 0. 0.
      2.68817204e-03 2.68817204e-03 4.03225794e-03 1.34408602e-03 0. 0.
      0. 0. 1.34408602e-03 1.34408602e-03 0. 0. 0. 0. 1.34408602e-03 0.
      1.34408602e-03 1.34408602e-03 0. 0. 2.68817204e-03 0. 0.
      2.68817204e-03 0. 0. 1.34408602e-03 0. 1.34408602e-03 0. 0. 0. 0.
      0. 0. 0. 0. 0. 0. 5.37634408e-03 0. 0. 0. 0. 1.34408602e-03
      1.34408602e-03 0. 0. 0. 2.68817204e-03 1.34408602e-03 0. 0. 0. 0.
      0. 1.34408602e-03 0. 1.34408602e-03 0. 0. 0. 0. 0. 0. 0. 0. 0. 0.
      0. 1.34408602e-03 0. 2.68817204e-03 0. 0. 0. 0. 0. 1.34408602e-03
      2.68817204e-03 1.34408602e-03 1.34408602e-03 1.34408602e-03
      1.34408602e-03 0. 2.68817204e-03 1.34408602e-03 5.37634408e-03 0.
      0. 0. 0. 0. 2.68817204e-03 1.34408602e-03 0. 0. 0. 2.68817204e-03
      0. 1.34408602e-03 1.34408602e-03 0. 1.34408602e-03 1.34408602e-03
      0. 0. 2.68817204e-03 0. 0. 1.34408602e-03 0. 2.68817204e-03 0. 0.
      1.34408602e-03 0. 1.34408602e-03 0. 0. 0. 0. 0. 0. 0.
      4.03225794e-03 0. 0. 1.34408602e-03 0. 0. 2.68817204e-03
      1.34408602e-03 2.68817204e-03 2.68817204e-03 2.68817204e-03
      1.34408602e-03 0. 0. 0. 0. 0. 0. 0. 1.34408602e-03 2.68817204e-03
      0. 1.34408602e-03 0. 0. 1.34408602e-03 2.68817204e-03 0.
      1.34408602e-03 1.34408602e-03 0. 0. 0. 1.34408602e-03 0.
      1.34408602e-03 0. 0. 0. 0. 0. 1.34408602e-03 0. 2.68817204e-03
      1.34408602e-03 0. 1.34408602e-03 0. 1.34408602e-03 1.34408602e-03
      0. 0. 2.68817204e-03 0. 0. 0. 1.34408602e-03 0. 1.34408602e-03 0.
      1.34408602e-03 0. 1.34408602e-03 0. 0. 0. 5.37634408e-03
      2.68817204e-03 0. 5.37634408e-03 1.34408602e-03 0. 0. 0.
      1.34408602e-03 0. 5.37634408e-03 0. 1.34408602e-03 0. 0.
      1.34408602e-03 1.34408602e-03 1.34408602e-03 0. 0. 0.
      2.68817204e-03 0. 1.34408602e-03 1.34408602e-03 0. 0.
      1.34408602e-03 1.34408602e-03 4.03225794e-03 1.34408602e-03
      2.68817204e-03 0. 0. 0. 1.34408602e-03 1.34408602e-03
      1.34408602e-03 0. 1.34408602e-03 4.03225794e-03 0. 2.68817204e-03
      2.68817204e-03 1.34408602e-03 0. 0. 0. 0. 0. 2.68817204e-03
      2.68817204e-03 2.68817204e-03 0. 0. 0. 0. 2.68817204e-03 0.
      2.68817204e-03 0. 0. 1.34408602e-03 2.68817204e-03 1.34408602e-03
      0. 0. 0. 0. 0. 1.34408602e-03 0. 2.68817204e-03 2.68817204e-03 0.
      0. 0. 0. 4.03225794e-03 1.34408602e-03 1.34408602e-03 0. 0. 0.
      1.34408602e-03 1.34408602e-03 1.34408602e-03 0. 1.34408602e-03
      4.03225794e-03 1.34408602e-03 1.34408602e-03 0. 2.68817204e-03 0.
      0. 1.34408602e-03 1.34408602e-03 0. 0. 0. 2.68817204e-03 0. 0.
      1.34408602e-03 0. 0. 0. 0. 1.34408602e-03 4.03225794e-03
      1.34408602e-03 0. 0. 1.34408602e-03 1.34408602e-03 1.34408602e-03
      2.68817204e-03 2.68817204e-03 0. 0. 1.34408602e-03 0.
      1.34408602e-03 0. 1.34408602e-03 0. 1.34408602e-03 1.34408602e-03
      1.34408602e-03 0. 1.34408602e-03 2.68817204e-03 0. 1.34408602e-03
      2.68817204e-03 0. 0. 4.03225794e-03 0. 0. 1.34408602e-03
      1.34408602e-03 2.68817204e-03 0. 0. 1.34408602e-03 0. 0. 0. 0. 0.
      2.68817204e-03 4.03225794e-03 1.34408602e-03 2.68817204e-03 0. 0.
      0. 0. 0. 1.34408602e-03 4.03225794e-03 0. 1.34408602e-03 0. 0.
      1.34408602e-03 0. 0. 0. 1.34408602e-03 0. 0. 0. 0. 0.
      1.34408602e-03 0. 0. 1.34408602e-03 0. 1.34408602e-03
      2.68817204e-03 0. 1.34408602e-03 0. 4.03225794e-03 0.
      1.34408602e-03 0. 0. 0. 2.68817204e-03 4.03225794e-03
      1.34408602e-03 1.34408602e-03 0. 1.34408602e-03 1.34408602e-03
      1.34408602e-03 2.68817204e-03 0. 0. 2.68817204e-03 0. 0.
      1.34408602e-03 0. 0. 1.34408602e-03 0. 0. 2.68817204e-03
      1.34408602e-03 0. 5.37634408e-03 0. 0. 2.68817204e-03
      1.34408602e-03 4.03225794e-03 0. 2.68817204e-03 2.68817204e-03 0.
      0. 1.34408602e-03 1.34408602e-03 1.34408602e-03 0. 2.68817204e-03
      1.34408602e-03 0. 5.37634408e-03 1.34408602e-03 0. 1.34408602e-03
      0. 1.34408602e-03 1.34408602e-03 1.34408602e-03 0. 1.34408602e-03
      1.34408602e-03 4.03225794e-03 4.03225794e-03 0. 0. 0. 0. 0. 0. 0.
      0. 2.68817204e-03 2.68817204e-03 1.34408602e-03 1.34408602e-03
      5.37634408e-03 1.34408602e-03 1.34408602e-03 1.34408602e-03
      1.34408602e-03 0. 0. 0. 0. 1.34408602e-03 2.68817204e-03 0.
      1.34408602e-03 0. 1.34408602e-03 0. 1.34408602e-03 1.34408602e-03
      1.34408602e-03 0. 1.34408602e-03 2.68817204e-03 2.68817204e-03
      1.34408602e-03 1.34408602e-03 0. 0. 1.34408602e-03 1.34408602e-03
      1.34408602e-03 0. 2.68817204e-03 4.03225794e-03 0. 0.
      1.34408602e-03 0. 5.37634408e-03 0. 0. 0. 0. 0. 1.34408602e-03 0.
      0. 0. 1.34408602e-03 2.68817204e-03 2.68817204e-03 0. 0. 0. 0. 0.
      2.68817204e-03 0. 0. 0. 0. 4.03225794e-03 1.34408602e-03 0. 0. 0.
      4.03225794e-03 2.68817204e-03 1.34408602e-03 0. 0. 2.68817204e-03
      0. 1.34408602e-03 5.37634408e-03 1.34408602e-03 1.34408602e-03
      1.34408602e-03 1.34408602e-03 0. 0.</_>
    <_>
      0. 3.49650346e-03 0. 3.49650346e-03 0. 0. 0. 1.39860138e-02 0. 0.
      3.49650346e-03 0. 0. 0. 0. 3.49650346e-03 0. 0. 0. 3.49650346e-03
      0. 0. 3.49650346e-03 0. 0. 0. 0. 0. 3.49650346e-03 0. 0. 0. 0. 0.
      0. 0. 3.49650346e-03 0. 0. 0. 0. 0. 0. 0. 0. 3.49650346e-03
      3.49650346e-03 0. 3.49650346e-03 3.49650346e-03 0. 0. 0. 0. 0. 0.
      0. 0. 0. 3.49650346e-03 0. 6.99300691e-03 3.49650346e-03 0. 0.
      3.49650346e-03 0. 3.49650346e-03 0. 3.49650346e-03 3.49650346e-03
      0. 0. 3.49650346e-03 0. 0. 0. 0. 0. 0. 6.99300691e-03
      3.49650346e-03 6.99300691e-03 0. 0. 3.49650346e-03 0. 0. 0. 0. 0.
      0. 0. 0. 0. 0. 0. 3.49650346e-03 3.49650346e-03 0. 3.49650346e-03
      1.39860138e-02 0. 0. 0. 0. 0. 0. 3.49650346e-03 0. 0.
      3.49650346e-03 0. 3.49650346e-03 6.99300691e-03 0. 0.
      3.49650346e-03 0. 3.49650346e-03 0. 0. 0. 3.49650346e-03 0. 0.
      3.49650346e-03 3.49650346e-03 0. 0. 0. 3.49650346e-03
      3.49650346e-03 0. 0. 3.49650346e-03 0. 3.49650346e-03
      3.49650346e-03 0. 0. 6.99300691e-03 0. 3.49650346e-03 0. 0. 0. 0.
      3.49650346e-03 0. 0. 0. 0. 0. 0. 0. 0. 0. 0. 0. 0. 0.
      3.49650346e-03 0. 0. 0. 0. 3.49650346e-03 0. 0. 0. 0. 0. 0. 0. 0.
      6.99300691e-03 0. 0. 0. 0. 0. 0. 1.04895104e-02 0. 0. 0. 0. 0. 0.
      0. 0. 0. 0. 0. 0. 0. 0. 1.39860138e-02 0. 0. 0. 0. 0. 0. 0. 0. 0.
      0. 0. 0. 0. 3.49650346e-03 0. 0. 3.49650346e-03 0. 0.
      6.99300691e-03 0. 3.49650346e-03 0. 0. 0. 0. 0. 0. 0. 0.
      3.49650346e-03 0. 0. 3.49650346e-03 0. 0. 0. 0. 0. 3.49650346e-03
      0. 0. 0. 0. 0. 0. 3.49650346e-03 0. 0. 6.99300691e-03 0. 0. 0.
      3.49650346e-03 0. 0. 0. 0. 3.49650346e-03 0. 0. 0. 0. 0. 0. 0. 0.
      0. 0. 0. 0. 3.49650346e-03 0. 0. 0. 0. 0. 0. 0. 0. 0. 0.
      6.99300691e-03 0. 0. 0. 0. 0. 3.49650346e-03 3.49650346e-03 0. 0.
      0. 0. 0. 0. 3.49650346e-03 0. 0. 0. 3.49650346e-03 0. 0. 0. 0. 0.
      0. 0. 3.49650346e-03 3.49650346e-03 0. 0. 0. 0. 0. 0. 0. 0. 0. 0.
      3.49650346e-03 3.49650346e-03 0. 3.49650346e-03 0. 0. 0. 0. 0.
      3.49650346e-03 0. 0. 3.49650346e-03 0. 0. 0. 0. 0. 0. 0. 0.
      3.49650346e-03 3.49650346e-03 0. 3.49650346e-03 0. 0. 0. 0. 0. 0.
      1.04895104e-02 0. 0. 6.99300691e-03 3.49650346e-03 3.49650346e-03
      0. 0. 0. 0. 0. 6.99300691e-03 0. 6.99300691e-03 0. 0. 0. 0.
      1.04895104e-02 0. 0. 0. 0. 0. 0. 3.49650346e-03 0. 3.49650346e-03
      0. 0. 3.49650346e-03 0. 0. 0. 0. 3.49650346e-03 0. 0. 0.
      3.49650346e-03 0. 0. 0. 0. 0. 0. 0. 0. 0. 0. 0. 0. 0. 0.
      3.49650346e-03 0. 0. 0. 0. 0. 0. 0. 0. 0. 0. 0. 0. 0. 0. 0. 0. 0.
      0. 0. 3.49650346e-03 0. 3.49650346e-03 3.49650346e-03
      3.49650346e-03 0. 3.49650346e-03 0. 0. 0. 3.49650346e-03 0. 0. 0.
      0. 3.49650346e-03 3.49650346e-03 0. 0. 0. 0. 6.99300691e-03 0.
      3.49650346e-03 0. 3.49650346e-03 0. 0. 0. 0. 3.49650346e-03 0.
      3.49650346e-03 0. 0. 0. 0. 0. 0. 0. 3.49650346e-03 0. 0. 0. 0. 0.
      0. 1.39860138e-02 0. 0. 0. 0. 0. 0. 3.49650346e-03 0.
      3.49650346e-03 0. 0. 6.99300691e-03 0. 0. 6.99300691e-03 0. 0. 0.
      0. 0. 0. 0. 3.49650346e-03 0. 0. 0. 0. 0. 0. 0. 0. 0. 0. 0. 0. 0.
      0. 0. 0. 0. 0. 0. 0. 0. 0. 0. 0. 0. 0. 3.49650346e-03 0. 0. 0.
      3.49650346e-03 6.99300691e-03 0. 3.49650346e-03 0. 0.
      3.49650346e-03 0. 3.49650346e-03 0. 0. 0. 3.49650346e-03 0.
      3.49650346e-03 0. 3.49650346e-03 0. 0. 0. 0. 0. 0. 6.99300691e-03
      3.49650346e-03 0. 0. 0. 0. 3.49650346e-03 0. 0. 0. 0.
      3.49650346e-03 0. 0. 0. 0. 0. 3.49650346e-03 3.49650346e-03 0. 0.
      0. 0. 0. 0. 0. 0. 0. 0. 0. 0. 0. 0. 3.49650346e-03 0. 0. 0. 0. 0.
      0. 3.49650346e-03 0. 0. 0. 0. 0. 3.49650346e-03 0. 3.49650346e-03
      3.49650346e-03 0. 3.49650346e-03 0. 0. 3.49650346e-03
      1.04895104e-02 0. 0. 0. 0. 0. 0. 3.49650346e-03 3.49650346e-03 0.
      0. 0. 0. 0. 0. 0. 3.49650346e-03 0. 3.49650346e-03 0. 0. 0. 0. 0.
      0. 0. 3.49650346e-03 0. 0. 0. 6.99300691e-03 0. 0. 0.
      6.99300691e-03 0. 0. 0. 0. 0. 0. 0. 3.49650346e-03 3.49650346e-03
      0. 0. 0. 0. 0. 0. 0. 0. 0. 0. 0. 0. 0. 0. 3.49650346e-03 0. 0.
      3.49650346e-03 0. 0. 0. 0. 0. 3.49650346e-03 0. 6.99300691e-03 0.
      0. 0. 3.49650346e-03 0. 0. 0. 3.49650346e-03 0. 0. 0. 0. 0. 0.
      3.49650346e-03 0. 0. 0. 0. 0. 0. 0. 3.49650346e-03 0. 0. 0.
      3.49650346e-03 0. 0. 0. 0. 3.49650346e-03 0. 0. 0. 0. 0. 0. 0.
      3.49650346e-03 0. 0. 6.99300691e-03 0. 0. 0. 0. 0. 0.
      6.99300691e-03 0. 3.49650346e-03 0. 0. 3.49650346e-03 0. 0. 0.
      3.49650346e-03 0. 0. 3.49650346e-03 3.49650346e-03 0. 0.
      3.49650346e-03 0. 0. 3.49650346e-03 0. 0. 3.49650346e-03
      3.49650346e-03 0. 0. 6.99300691e-03 0. 0. 6.99300691e-03 0.
      3.49650346e-03 0. 0. 0. 0. 0. 0. 0. 0. 0. 0. 0. 0. 0. 0.
      6.99300691e-03 0. 6.99300691e-03 6.99300691e-03 0. 0. 0. 0.
      3.49650346e-03 0. 0. 0. 0. 3.49650346e-03 0. 0. 0. 0. 0. 0. 0. 0.
      0. 0. 0. 0. 6.99300691e-03 0. 0. 0. 6.99300691e-03 0. 0. 0. 0. 0.
      0. 1.74825173e-02 0. 0. 0. 0. 0. 0. 3.49650346e-03 0. 0. 0.
      6.99300691e-03 0. 0. 0. 0. 3.49650346e-03 0. 3.49650346e-03 0. 0.
      3.49650346e-03 0. 0. 3.49650346e-03 1.39860138e-02 0.
      3.49650346e-03 0. 0. 0. 0. 0. 0. 0. 0. 0. 0. 6.99300691e-03
      3.49650346e-03 0. 3.49650346e-03 0. 0. 0. 0. 0. 0. 0.
      3.49650346e-03 0. 0. 0. 0. 0. 0. 0. 0. 0. 0. 3.49650346e-03 0. 0.
      0. 0. 0. 1.04895104e-02 0. 0. 3.49650346e-03 3.49650346e-03
      6.99300691e-03 0. 0. 0. 0. 0. 0. 0. 0. 0. 0. 0. 0. 3.49650346e-03
      3.49650346e-03 0. 0. 0. 0. 0. 0. 3.49650346e-03 3.49650346e-03 0.
      0. 0. 0. 3.49650346e-03 0. 3.49650346e-03 0. 0. 3.49650346e-03
      3.49650346e-03 0. 0. 0. 0. 0. 0. 0. 0. 0. 3.49650346e-03 0. 0. 0.
      0. 6.99300691e-03 0. 3.49650346e-03 0. 3.49650346e-03
      3.49650346e-03 0. 0. 0. 0. 0. 0. 0. 0. 0. 0. 0. 0. 0. 0.
      1.04895104e-02 3.49650346e-03 3.49650346e-03 0. 0. 0. 0. 0. 0.
      6.99300691e-03 0. 0. 0. 0. 0. 6.99300691e-03 0. 3.49650346e-03 0.
      3.49650346e-03 0. 0. 0. 0. 0. 0. 0. 0. 0. 0. 0. 0. 3.49650346e-03
      0. 0. 3.49650346e-03 0. 0. 0. 3.49650346e-03 0. 0. 3.49650346e-03
      3.49650346e-03 0. 0. 0. 3.49650346e-03 0. 0. 0. 0. 0.
      3.49650346e-03 0. 0.</_>
    <_>
      0. 0. 0. 0. 0. 1.99600798e-03 1.99600798e-03 1.99600798e-03 0. 0.
      0. 1.99600798e-03 0. 1.99600798e-03 0. 3.99201596e-03
      3.99201596e-03 0. 0. 0. 0. 0. 5.98802418e-03 0. 0. 0. 0. 0. 0.
      1.99600798e-03 0. 1.99600798e-03 0. 1.99600798e-03 0. 0. 0. 0. 0.
      0. 1.99600798e-03 0. 0. 0. 3.99201596e-03 0. 3.99201596e-03 0.
      5.98802418e-03 1.99600793e-02 0. 0. 0. 0. 3.99201596e-03 0. 0. 0.
      0. 0. 0. 0. 0. 0. 0. 1.19760484e-02 0. 5.98802418e-03
      1.99600798e-03 1.59680638e-02 0. 0. 0. 0. 0. 0. 0. 0.
      5.98802418e-03 0. 1.99600798e-03 0. 0. 0. 0. 0. 0. 0. 0.
      1.99600798e-03 0. 0. 0. 0. 1.99600798e-03 0. 0. 0. 0. 0. 0.
      7.98403192e-03 1.99600798e-03 0. 9.98003967e-03 1.99600798e-03 0.
      0. 0. 0. 0. 0. 1.99600798e-03 0. 0. 0. 0. 0. 0. 3.99201596e-03 0.
      0. 3.99201596e-03 0. 0. 7.98403192e-03 0. 0. 0. 0. 1.99600798e-03
      1.99600798e-03 1.99600798e-03 0. 0. 0. 0. 1.99600798e-03
      1.99600798e-03 0. 0. 0. 0. 0. 0. 5.98802418e-03 0. 0. 0.
      7.98403192e-03 0. 0. 0. 0. 0. 0. 0. 0. 0. 0. 9.98003967e-03 0.
      1.99600798e-03 0. 1.99600798e-03 1.99600798e-03 1.99600798e-03 0.
      1.99600798e-03 1.99600798e-03 0. 0. 1.99600798e-03 0. 0.
      1.99600798e-03 0. 0. 0. 0. 0. 1.99600798e-03 3.99201596e-03
      3.99201596e-03 0. 0. 0. 0. 0. 0. 0. 5.98802418e-03 1.99600798e-03
      0. 0. 0. 0. 0. 3.99201596e-03 0. 0. 0. 1.99600798e-03 0. 0. 0. 0.
      0. 0. 0. 1.99600798e-03 0. 1.99600798e-03 0. 0. 0. 0.
      1.99600798e-03 0. 0. 0. 0. 1.99600798e-03 0. 1.99600798e-03 0. 0.
      1.99600798e-03 0. 0. 0. 0. 0. 0. 0. 0. 5.98802418e-03 0. 0.
      1.99600798e-03 0. 0. 0. 0. 0. 3.99201596e-03 0. 0. 3.99201596e-03
      0. 5.98802418e-03 0. 0. 0. 0. 0. 0. 0. 0. 1.99600798e-03 0.
      1.99600798e-03 3.99201596e-03 0. 0. 3.99201596e-03 0.
      1.99600798e-03 0. 7.98403192e-03 0. 0. 0. 0. 0. 0. 0. 0. 0. 0. 0.
      1.99600798e-03 2.19560880e-02 3.99201596e-03 0. 1.99600798e-03 0.
      3.99201596e-03 0. 0. 0. 0. 0. 0. 1.99600798e-03 0. 1.99600798e-03
      1.99600798e-03 0. 1.99600798e-03 1.99600798e-03 0. 0.
      1.99600798e-03 0. 0. 0. 0. 0. 1.99600798e-03 0. 3.99201596e-03 0.
      0. 0. 1.99600798e-03 0. 0. 7.98403192e-03 0. 0. 0. 1.99600798e-03
      0. 0. 0. 0. 0. 0. 0. 0. 0. 1.99600798e-03 0. 1.99600798e-03 0. 0.
      0. 3.99201596e-03 0. 0. 0. 0. 5.98802418e-03 1.99600798e-03
      1.99600798e-03 0. 0. 1.99600798e-03 0. 0. 0. 3.99201596e-03 0. 0.
      1.99600798e-03 0. 0. 0. 0. 0. 1.99600798e-03 0. 0. 0. 0.
      3.99201596e-03 0. 0. 0. 0. 0. 0. 5.98802418e-03 1.99600798e-03 0.
      0. 1.99600798e-03 0. 0. 3.99201596e-03 1.99600798e-03
      1.99600798e-03 1.99600798e-03 0. 3.99201596e-03 1.99600798e-03 0.
      0. 1.99600798e-03 0. 1.99600798e-03 3.99201596e-03 0.
      1.99600798e-03 0. 0. 1.99600798e-03 0. 0. 1.99600798e-03 0. 0. 0.
      0. 0. 0. 0. 1.99600798e-03 3.99201596e-03 1.99600798e-03 0. 0. 0.
      5.98802418e-03 3.99201596e-03 0. 0. 3.99201596e-03 1.99600798e-03
      0. 0. 3.99201596e-03 0. 1.99600798e-03 1.99600798e-03 0.
      3.99201596e-03 0. 1.99600798e-03 0. 0. 0. 0. 0. 1.79640725e-02 0.
      0. 0. 0. 0. 0. 0. 0. 0. 0. 3.99201596e-03 0. 5.98802418e-03 0. 0.
      0. 0. 3.99201596e-03 9.98003967e-03 0. 0. 5.98802418e-03 0.
      3.99201596e-03 1.99600798e-03 0. 0. 1.99600798e-03 0.
      5.98802418e-03 0. 0. 0. 0. 0. 3.99201596e-03 0. 1.99600798e-03 0.
      0. 0. 0. 1.99600798e-03 0. 3.99201596e-03 1.99600798e-03 0. 0. 0.
      0. 1.99600798e-03 1.99600798e-03 0. 0. 0. 0. 0. 1.99600798e-03 0.
      0. 0. 3.99201596e-03 1.99600798e-03 1.99600798e-03 2.19560880e-02
      0. 0. 0. 1.99600798e-03 3.99201596e-03 0. 0. 0. 1.99600798e-03
      1.99600798e-03 1.99600798e-03 1.99600798e-03 0. 3.99201596e-03 0.
      0. 0. 1.99600798e-03 0. 0. 0. 0. 0. 0. 0. 0. 0. 0. 1.99600798e-03
      0. 0. 0. 0. 0. 7.98403192e-03 3.99201596e-03 1.99600798e-03 0. 0.
      0. 1.99600798e-03 1.99600798e-03 0. 5.98802418e-03 0.
      1.99600798e-03 0. 0. 1.99600798e-03 0. 1.99600798e-03 0. 0.
      1.99600798e-03 0. 0. 1.99600798e-03 0. 0. 1.99600798e-03
      1.99600798e-03 0. 0. 1.99600798e-03 0. 1.99600798e-03 0. 0. 0.
      3.99201596e-03 0. 0. 1.99600798e-03 0. 0. 0. 0. 1.99600798e-03 0.
      0. 0. 0. 0. 0. 0. 1.99600798e-03 0. 9.98003967e-03 0. 0. 0. 0. 0.
      0. 0. 0. 0. 0. 0. 0. 1.99600798e-03 0. 3.99201596e-03 0.
      5.98802418e-03 1.99600798e-03 0. 0. 0. 0. 1.99600798e-03
      1.99600798e-03 0. 0. 0. 0. 0. 0. 0. 0. 1.99600798e-03 0. 0.
      1.99600798e-03 1.99600798e-03 0. 3.99201596e-03 0. 0. 0. 0. 0. 0.
      1.99600798e-03 0. 0. 0. 3.99201596e-03 0. 0. 0. 0. 0.
      1.99600798e-03 3.99201596e-03 0. 0. 0. 0. 1.99600798e-03 0. 0.
      1.99600798e-03 0. 0. 0. 0. 1.99600798e-03 0. 0. 0. 0. 0. 0. 0.
      1.99600798e-03 0. 0. 0. 0. 0. 0. 0. 0. 0. 0. 1.99600798e-03 0. 0.
      0. 0. 0. 0. 0. 0. 0. 1.99600798e-03 1.99600798e-03 0. 0.
      1.99600798e-03 0. 0. 0. 1.99600798e-03 0. 0. 0. 0. 5.98802418e-03
      1.99600798e-03 1.99600798e-03 0. 0. 0. 1.99600798e-03
      3.99201596e-03 0. 1.99600798e-03 1.99600798e-03 0. 0. 0.
      5.98802418e-03 0. 0. 0. 1.99600798e-03 0. 0. 1.99600798e-03
      3.99201596e-03 0. 0. 0. 0. 0. 0. 1.99600798e-03 0. 0. 0. 0.
      5.98802418e-03 1.99600798e-03 0. 1.99600798e-03 1.99600798e-03 0.
      0. 0. 3.99201596e-03 0. 0. 0. 0. 1.99600798e-03 0. 0. 0. 0. 0. 0.
      0. 9.98003967e-03 1.99600798e-03 1.99600798e-03 0. 0. 0. 0. 0. 0.
      0. 0. 1.99600798e-03 1.99600798e-03 0. 1.19760484e-02 0. 0. 0. 0.
      1.99600798e-03 1.99600798e-03 1.99600798e-03 1.99600798e-03 0. 0.
      0. 0. 0. 0. 0. 0. 5.98802418e-03 0. 0. 0. 0. 0. 1.39720561e-02 0.
      1.99600798e-03 0. 0. 0. 0. 0. 0. 0. 0. 0. 0. 0. 0. 0.
      1.99600798e-03 0. 0. 0. 0. 0. 0. 0. 0. 0. 0. 0. 1.99600798e-03
      1.99600798e-03 0. 0. 0. 7.98403192e-03 0. 1.99600798e-03
      1.99600798e-03 0. 0. 0. 0. 0. 1.99600798e-03 1.19760484e-02
      5.98802418e-03 0. 0. 1.99600798e-03 0. 0. 0. 0. 0. 5.98802418e-03
      0. 0. 1.99600798e-03 0. 0. 0. 0. 0. 0. 1.99600798e-03 0.
      3.99201596e-03 0. 0. 0. 0. 0. 0. 0. 0. 1.99600798e-03
      1.99600798e-03 0. 0. 0. 5.98802418e-03 0. 7.98403192e-03 0.
      1.99600798e-03 1.99600798e-03 0. 3.99201596e-03 0. 1.99600798e-03
      1.99600798e-03 0. 1.99600798e-03 1.99600798e-03 0. 3.99201596e-03
      0. 0. 3.99201596e-03 3.99201596e-03 0. 0. 0. 0. 0. 1.99600798e-03
      1.99600798e-03 0. 0. 1.99600798e-03 0. 0. 5.98802418e-03 0. 0. 0.
      0. 0. 3.99201596e-03 0. 0. 0. 0. 0. 1.99600798e-03 0. 0.
      1.99600798e-03 0. 0. 0. 0. 3.99201596e-03 0. 1.99600798e-03
      2.39520967e-02 0. 0. 0. 0. 0. 0. 0. 0. 0. 0. 0. 0. 0. 0. 0. 0. 0.
      0. 0. 0. 0. 1.99600798e-03 1.99600798e-03 0. 0. 0. 0. 0. 0. 0. 0.
      0. 3.99201596e-03 0. 0. 0. 3.99201596e-03 0. 0. 0. 0. 0.
      1.99600798e-03 0. 0. 0. 0. 0. 0. 0. 0. 1.99600798e-03 0.
      1.99600798e-03 0. 0. 0. 0. 0. 0. 0. 0. 0. 0. 0. 0. 0. 0. 0.
      1.99600798e-03 0. 1.99600798e-03 0.</_>
    <_>
      0. 1.11731840e-03 1.11731840e-03 0. 3.35195521e-03 0.
      1.11731840e-03 0. 0. 1.11731840e-03 0. 0. 0. 0. 1.11731840e-03
      3.35195521e-03 1.11731840e-03 0. 1.11731840e-03 1.11731840e-03
      1.11731840e-03 0. 0. 3.35195521e-03 0. 0. 0. 3.35195521e-03 0. 0.
      0. 1.11731840e-03 1.11731840e-03 0. 1.11731840e-03 0.
      1.11731840e-03 1.11731840e-03 1.11731840e-03 0. 0. 2.23463681e-03
      0. 0. 1.11731840e-03 0. 2.23463681e-03 1.11731840e-03
      1.11731840e-03 2.23463681e-03 2.23463681e-03 0. 0. 1.11731840e-03
      0. 1.11731840e-03 0. 0. 1.11731840e-03 1.11731840e-03
      1.11731840e-03 1.11731840e-03 0. 0. 0. 0. 3.35195521e-03
      1.11731840e-03 1.11731840e-03 3.35195521e-03 1.11731840e-03
      3.35195521e-03 4.46927361e-03 0. 0. 5.58659201e-03 0. 0. 0.
      1.11731840e-03 0. 0. 0. 0. 2.23463681e-03 0. 1.11731840e-03 0. 0.
      1.11731840e-03 1.11731840e-03 2.23463681e-03 0. 2.23463681e-03
      2.23463681e-03 0. 0. 1.11731840e-03 0. 0. 1.11731840e-03
      7.82122836e-03 1.11731840e-03 0. 0. 1.11731840e-03 1.11731840e-03
      1.11731840e-03 0. 3.35195521e-03 2.23463681e-03 0. 0. 0. 0.
      2.23463681e-03 2.23463681e-03 0. 0. 1.11731840e-03 0.
      3.35195521e-03 1.11731840e-03 0. 0. 2.23463681e-03 0.
      2.23463681e-03 0. 1.11731840e-03 1.11731840e-03 1.11731840e-03
      2.23463681e-03 0. 3.35195521e-03 1.11731840e-03 1.11731840e-03 0.
      0. 1.11731840e-03 0. 2.23463681e-03 1.11731840e-03 0.
      1.11731840e-03 3.35195521e-03 4.46927361e-03 0. 0. 3.35195521e-03
      0. 0. 0. 0. 2.23463681e-03 0. 0. 3.35195521e-03 1.11731840e-03 0.
      1.11731840e-03 0. 0. 2.23463681e-03 0. 0. 1.11731840e-03 0.
      1.11731840e-03 0. 0. 0. 1.11731840e-03 0. 1.11731840e-03
      2.23463681e-03 0. 1.11731840e-03 1.11731840e-03 1.11731840e-03 0.
      0. 0. 0. 0. 2.23463681e-03 0. 1.11731840e-03 2.23463681e-03
      1.11731840e-03 1.11731840e-03 3.35195521e-03 0. 0. 1.11731840e-03
      1.11731840e-03 1.11731840e-03 1.11731840e-03 0. 0. 0. 0. 0. 0. 0.
      4.46927361e-03 0. 0. 1.11731840e-03 0. 2.23463681e-03 0.
      2.23463681e-03 1.11731840e-03 1.11731840e-03 0. 0. 1.11731840e-03
      4.46927361e-03 1.11731840e-03 0. 0. 0. 0. 2.23463681e-03 0.
      3.35195521e-03 1.11731840e-03 0. 0. 3.35195521e-03 0. 0. 0. 0.
      1.11731840e-03 1.11731840e-03 1.11731840e-03 0. 1.11731840e-03
      2.23463681e-03 0. 0. 0. 1.11731840e-03 0. 1.11731840e-03 0.
      1.11731840e-03 0. 0. 1.11731840e-03 1.11731840e-03 0.
      2.23463681e-03 1.11731840e-03 0. 0. 4.46927361e-03 0. 0.
      1.11731840e-03 0. 1.11731840e-03 0. 0. 2.23463681e-03
      1.11731840e-03 0. 0. 0. 0. 1.11731840e-03 1.11731840e-03
      2.23463681e-03 0. 1.11731840e-03 1.11731840e-03 5.58659201e-03
      3.35195521e-03 1.11731840e-03 0. 1.11731840e-03 0. 1.11731840e-03
      1.11731840e-03 1.11731840e-03 0. 0. 0. 0. 2.23463681e-03
      1.11731840e-03 0. 0. 1.11731840e-03 0. 2.23463681e-03
      1.11731840e-03 0. 0. 1.11731840e-03 0. 3.35195521e-03
      1.11731840e-03 6.70391042e-03 1.11731840e-03 0. 1.11731840e-03
      2.23463681e-03 3.35195521e-03 1.11731840e-03 0. 1.11731840e-03
      2.23463681e-03 3.35195521e-03 4.46927361e-03 0. 4.46927361e-03 0.
      0. 1.11731840e-03 1.11731840e-03 2.23463681e-03 2.23463681e-03 0.
      2.23463681e-03 3.35195521e-03 0. 2.23463681e-03 0. 2.23463681e-03
      1.11731840e-03 1.11731840e-03 0. 1.11731840e-03 2.23463681e-03 0.
      1.11731840e-03 2.23463681e-03 0. 1.11731840e-03 1.11731840e-03 0.
      1.11731840e-03 1.11731840e-03 0. 0. 0. 2.23463681e-03 0.
      1.11731840e-03 1.11731840e-03 1.11731840e-03 3.35195521e-03
      1.11731840e-03 1.11731840e-03 3.35195521e-03 0. 1.11731840e-03
      3.35195521e-03 0. 0. 0. 3.35195521e-03 0. 0. 1.11731840e-03 0. 0.
      3.35195521e-03 0. 0. 0. 1.11731840e-03 1.11731840e-03
      2.23463681e-03 0. 3.35195521e-03 2.23463681e-03 2.23463681e-03 0.
      0. 0. 1.11731840e-03 2.23463681e-03 0. 0. 0. 1.11731840e-03 0.
      1.11731840e-03 0. 1.11731840e-03 1.11731840e-03 1.11731840e-03 0.
      1.11731840e-03 2.23463681e-03 1.11731840e-03 0. 1.11731840e-03 0.
      1.11731840e-03 0. 0. 0. 1.11731840e-03 0. 0. 0. 1.11731840e-03 0.
      0. 0. 1.11731840e-03 0. 0. 0. 0. 0. 2.23463681e-03 0.
      1.11731840e-03 4.46927361e-03 0. 0. 1.11731840e-03 2.23463681e-03
      1.11731840e-03 0. 1.11731840e-03 1.11731840e-03 1.11731840e-03 0.
      0. 4.46927361e-03 1.11731840e-03 2.23463681e-03 3.35195521e-03
      1.11731840e-03 0. 2.23463681e-03 2.23463681e-03 2.23463681e-03
      1.11731840e-03 1.11731840e-03 1.11731840e-03 2.23463681e-03
      1.11731840e-03 0. 2.23463681e-03 4.46927361e-03 0. 4.46927361e-03
      2.23463681e-03 0. 2.23463681e-03 0. 2.23463681e-03 3.35195521e-03
      0. 3.35195521e-03 1.11731840e-03 3.35195521e-03 2.23463681e-03
      1.11731840e-03 0. 2.23463681e-03 1.11731840e-03 0. 1.11731840e-03
      0. 0. 1.11731840e-03 0. 1.11731840e-03 1.11731840e-03 0.
      2.23463681e-03 4.46927361e-03 1.11731840e-03 0. 0. 0.
      1.11731840e-03 0. 0. 1.11731840e-03 2.23463681e-03 1.11731840e-03
      1.11731840e-03 2.23463681e-03 0. 1.11731840e-03 3.35195521e-03
      1.11731840e-03 1.11731840e-03 0. 1.11731840e-03 1.11731840e-03 0.
      2.23463681e-03 0. 1.11731840e-03 0. 0. 2.23463681e-03
      1.11731840e-03 2.23463681e-03 2.23463681e-03 0. 0. 0.
      1.11731840e-03 0. 0. 1.11731840e-03 2.23463681e-03 0.
      2.23463681e-03 3.35195521e-03 1.11731840e-03 0. 1.11731840e-03
      2.23463681e-03 0. 0. 0. 0. 0. 0. 3.35195521e-03 1.11731840e-03 0.
      0. 0. 1.11731840e-03 0. 0. 1.11731840e-03 0. 2.23463681e-03
      5.58659201e-03 0. 2.23463681e-03 2.23463681e-03 0. 0. 0. 0.
      3.35195521e-03 0. 3.35195521e-03 0. 0. 2.23463681e-03
      1.11731840e-03 1.11731840e-03 0. 2.23463681e-03 1.11731840e-03
      1.11731840e-03 5.58659201e-03 3.35195521e-03 0. 0. 2.23463681e-03
      0. 0. 2.23463681e-03 0. 0. 0. 1.11731840e-03 0. 0. 1.11731840e-03
      3.35195521e-03 1.11731840e-03 1.11731840e-03 1.11731840e-03 0. 0.
      1.11731840e-03 1.11731840e-03 0. 1.11731840e-03 0. 4.46927361e-03
      1.11731840e-03 0. 0. 3.35195521e-03 0. 0. 0. 2.23463681e-03
      2.23463681e-03 4.46927361e-03 0. 0. 0. 0. 0. 0. 1.11731840e-03
      1.11731840e-03 0. 3.35195521e-03 0. 2.23463681e-03 0. 0.
      3.35195521e-03 0. 0. 4.46927361e-03 3.35195521e-03 2.23463681e-03
      2.23463681e-03 0. 1.11731840e-03 0. 1.11731840e-03 1.11731840e-03
      1.11731840e-03 0. 0. 0. 1.11731840e-03 1.11731840e-03
      1.11731840e-03 1.11731840e-03 1.11731840e-03 2.23463681e-03 0.
      3.35195521e-03 0. 0. 1.11731840e-03 1.11731840e-03 1.11731840e-03
      2.23463681e-03 0. 2.23463681e-03 0. 0. 1.11731840e-03
      1.11731840e-03 1.11731840e-03 0. 1.11731840e-03 0. 0.
      1.11731840e-03 0. 2.23463681e-03 1.11731840e-03 2.23463681e-03
      1.11731840e-03 0. 1.11731840e-03 2.23463681e-03 1.11731840e-03 0.
      1.11731840e-03 0. 1.11731840e-03 0. 1.11731840e-03 0. 0.
      1.11731840e-03 2.23463681e-03 1.11731840e-03 1.11731840e-03
      1.11731840e-03 2.23463681e-03 0. 1.11731840e-03 0. 2.23463681e-03
      0. 3.35195521e-03 2.23463681e-03 0. 1.11731840e-03 0. 0. 0. 0. 0.
      1.11731840e-03 1.11731840e-03 0. 3.35195521e-03 0. 0. 0.
      2.23463681e-03 2.23463681e-03 0. 1.11731840e-03 0. 0. 0. 0.
      2.23463681e-03 0. 1.11731840e-03 1.11731840e-03 1.11731840e-03 0.
      0. 1.11731840e-03 2.23463681e-03 0. 1.11731840e-03 3.35195521e-03
      0. 0. 1.11731840e-03 2.23463681e-03 0. 0. 0. 0. 2.23463681e-03
      2.23463681e-03 0. 0. 1.11731840e-03 2.23463681e-03 0.
      4.46927361e-03 1.11731840e-03 4.46927361e-03 2.23463681e-03 0.
      3.35195521e-03 0. 2.23463681e-03 0. 0. 2.23463681e-03
      2.23463681e-03 3.35195521e-03 0. 1.11731840e-03 4.46927361e-03 0.
      1.11731840e-03 0. 1.11731840e-03 3.35195521e-03 0. 1.11731840e-03
      0. 0. 0. 0. 2.23463681e-03 5.58659201e-03 1.11731840e-03
      4.46927361e-03 0. 1.11731840e-03 0. 0. 2.23463681e-03
      1.11731840e-03 2.23463681e-03 0. 0. 0. 1.11731840e-03
      3.35195521e-03 2.23463681e-03 2.23463681e-03 0. 1.11731840e-03
      2.23463681e-03 1.11731840e-03 1.11731840e-03 1.11731840e-03
      4.46927361e-03 0. 0. 1.11731840e-03 0. 2.23463681e-03
      2.23463681e-03 1.11731840e-03 0. 1.11731840e-03 1.11731840e-03 0.
      0. 0. 3.35195521e-03 0. 0. 2.23463681e-03 0. 1.11731840e-03 0.
      1.11731840e-03 0. 2.23463681e-03 1.11731840e-03 4.46927361e-03 0.
      2.23463681e-03 2.23463681e-03 0. 1.11731840e-03 0. 0. 0.
      3.35195521e-03 0. 2.23463681e-03 1.11731840e-03 0. 1.11731840e-03
      1.11731840e-03 0. 5.58659201e-03 2.23463681e-03 0. 0. 0. 0. 0. 0.
      3.35195521e-03 0. 2.23463681e-03 0. 0. 2.23463681e-03 0.
      1.11731840e-03 3.35195521e-03 0. 0. 0. 0. 0. 1.11731840e-03
      1.11731840e-03 2.23463681e-03 1.11731840e-03 0. 2.23463681e-03 0.
      3.35195521e-03 0. 0. 1.11731840e-03 1.11731840e-03 1.11731840e-03
      1.11731840e-03 2.23463681e-03 1.11731840e-03 0. 2.23463681e-03
      1.11731840e-03 1.11731840e-03 0. 0. 2.23463681e-03 0.
      1.11731840e-03 0. 0. 1.11731840e-03 0. 0. 0. 1.11731840e-03
      3.35195521e-03 2.23463681e-03 1.11731840e-03 0. 2.23463681e-03
      1.11731840e-03 0. 0. 1.11731840e-03 0. 2.23463681e-03
      3.35195521e-03 0. 0. 1.11731840e-03 2.23463681e-03 1.11731840e-03
      0. 0. 1.11731840e-03 0. 0. 0. 0. 0. 0. 0. 0. 0. 2.23463681e-03 0.
      0. 1.11731840e-03 2.23463681e-03 0. 4.46927361e-03 0. 0.
      4.46927361e-03 0. 2.23463681e-03 0. 0. 0. 0. 1.11731840e-03 0. 0.
      1.11731840e-03 2.23463681e-03 0. 1.11731840e-03 0. 0.
      1.11731840e-03 0. 0. 0. 0. 0. 0. 1.11731840e-03 0. 1.11731840e-03
      0. 0. 1.11731840e-03 2.23463681e-03 0. 1.11731840e-03
      1.11731840e-03 0. 1.11731840e-03 4.46927361e-03 1.11731840e-03
      2.23463681e-03 1.11731840e-03 3.35195521e-03 0. 1.11731840e-03
      2.23463681e-03 0. 1.11731840e-03 2.23463681e-03 2.23463681e-03 0.
      0. 2.23463681e-03 3.35195521e-03 1.11731840e-03 2.23463681e-03
      1.11731840e-03 1.11731840e-03 0. 0. 1.11731840e-03 0. 0. 0. 0.
      1.11731840e-03 0. 1.11731840e-03 0. 0. 3.35195521e-03 0.
      3.35195521e-03 0. 1.11731840e-03 4.46927361e-03 0. 0.
      1.11731840e-03 0. 0. 2.23463681e-03 1.11731840e-03</_>
    <_>
      1.05932204e-03 0. 1.05932204e-03 1.05932204e-03 3.17796599e-03
      2.11864407e-03 0. 0. 1.05932204e-03 0. 1.05932204e-03
      2.11864407e-03 2.11864407e-03 2.11864407e-03 1.05932204e-03
      1.05932204e-03 0. 0. 2.11864407e-03 2.11864407e-03 0. 0.
      1.05932204e-03 3.17796599e-03 0. 0. 2.11864407e-03 1.05932204e-03
      1.05932204e-03 0. 1.05932204e-03 1.05932204e-03 0. 1.05932204e-03
      1.05932204e-03 1.05932204e-03 2.11864407e-03 0. 2.11864407e-03 0.
      0. 0. 0. 1.05932204e-03 0. 0. 0. 0. 4.23728814e-03 1.05932204e-03
      2.11864407e-03 0. 0. 1.05932204e-03 2.11864407e-03 1.05932204e-03
      0. 3.17796599e-03 6.35593198e-03 1.05932204e-03 1.05932204e-03 0.
      0. 0. 0. 0. 0. 0. 0. 0. 0. 0. 2.11864407e-03 0. 0. 0. 0. 0. 0. 0.
      1.05932204e-03 0. 2.11864407e-03 1.05932204e-03 0. 2.11864407e-03
      2.11864407e-03 1.05932204e-03 3.17796599e-03 0. 4.23728814e-03 0.
      4.23728814e-03 0. 0. 2.11864407e-03 1.05932204e-03 0. 0.
      3.17796599e-03 0. 0. 0. 3.17796599e-03 2.11864407e-03 0.
      5.29661030e-03 3.17796599e-03 1.05932204e-03 1.05932204e-03 0.
      2.11864407e-03 0. 0. 0. 2.11864407e-03 2.11864407e-03
      1.05932204e-03 2.11864407e-03 0. 1.05932204e-03 2.11864407e-03 0.
      5.29661030e-03 3.17796599e-03 0. 0. 2.11864407e-03 1.05932204e-03
      1.05932204e-03 1.05932204e-03 0. 1.05932204e-03 1.05932204e-03 0.
      2.11864407e-03 2.11864407e-03 1.05932204e-03 0. 0. 1.05932204e-03
      0. 1.05932204e-03 1.05932204e-03 1.05932204e-03 0. 0.
      2.11864407e-03 1.05932204e-03 1.05932204e-03 2.11864407e-03 0.
      3.17796599e-03 0. 0. 0. 0. 1.05932204e-03 0. 4.23728814e-03 0.
      1.05932204e-03 0. 2.11864407e-03 1.05932204e-03 0. 0.
      1.05932204e-03 2.11864407e-03 2.11864407e-03 1.05932204e-03 0. 0.
      0. 0. 0. 1.05932204e-03 0. 0. 2.11864407e-03 0. 2.11864407e-03 0.
      0. 1.05932204e-03 4.23728814e-03 0. 0. 3.17796599e-03
      4.23728814e-03 0. 3.17796599e-03 0. 0. 3.17796599e-03
      1.05932204e-03 1.05932204e-03 0. 0. 1.05932204e-03 0.
      1.05932204e-03 4.23728814e-03 0. 0. 0. 0. 1.05932204e-03 0.
      1.05932204e-03 1.05932204e-03 1.05932204e-03 1.05932204e-03
      1.05932204e-03 0. 0. 0. 0. 0. 1.05932204e-03 0. 1.05932204e-03 0.
      4.23728814e-03 2.11864407e-03 2.11864407e-03 1.05932204e-03 0. 0.
      0. 3.17796599e-03 1.05932204e-03 0. 2.11864407e-03 0. 0.
      1.05932204e-03 2.11864407e-03 0. 4.23728814e-03 0. 0.
      1.05932204e-03 1.05932204e-03 2.11864407e-03 0. 1.05932204e-03 0.
      1.05932204e-03 0. 0. 0. 0. 0. 1.05932204e-03 1.05932204e-03
      1.05932204e-03 0. 0. 0. 0. 1.05932204e-03 1.05932204e-03
      1.05932204e-03 1.05932204e-03 1.05932204e-03 0. 0. 2.11864407e-03
      0. 1.05932204e-03 1.05932204e-03 0. 5.29661030e-03 1.05932204e-03
      7.41525413e-03 0. 0. 6.35593198e-03 3.17796599e-03 0. 0. 0. 0.
      1.05932204e-03 1.05932204e-03 2.11864407e-03 0. 1.05932204e-03
      1.05932204e-03 1.05932204e-03 0. 5.29661030e-03 2.11864407e-03 0.
      3.17796599e-03 1.05932204e-03 1.05932204e-03 4.23728814e-03
      4.23728814e-03 0. 0. 2.11864407e-03 0. 0. 1.05932204e-03
      2.11864407e-03 0. 0. 0. 2.11864407e-03 1.05932204e-03
      2.11864407e-03 4.23728814e-03 0. 0. 0. 2.11864407e-03 0.
      2.11864407e-03 0. 1.05932204e-03 0. 0. 2.11864407e-03
      1.05932204e-03 2.11864407e-03 2.11864407e-03 2.11864407e-03
      1.05932204e-03 0. 4.23728814e-03 4.23728814e-03 3.17796599e-03
      1.05932204e-03 1.05932204e-03 2.11864407e-03 1.05932204e-03 0.
      1.05932204e-03 5.29661030e-03 0. 0. 0. 0. 0. 0. 1.05932204e-03 0.
      2.11864407e-03 0. 0. 2.11864407e-03 0. 0. 0. 1.05932204e-03
      2.11864407e-03 0. 0. 0. 0. 2.11864407e-03 2.11864407e-03 0.
      3.17796599e-03 0. 1.05932204e-03 0. 0. 1.05932204e-03 0.
      1.05932204e-03 0. 0. 3.17796599e-03 0. 0. 1.05932204e-03
      1.05932204e-03 0. 0. 0. 3.17796599e-03 1.05932204e-03 0.
      1.05932204e-03 0. 1.05932204e-03 2.11864407e-03 0. 1.05932204e-03
      0. 1.05932204e-03 2.11864407e-03 1.05932204e-03 1.05932204e-03
      2.11864407e-03 0. 0. 0. 1.05932204e-03 0. 1.05932204e-03 0.
      1.05932204e-03 0. 1.05932204e-03 0. 0. 0. 2.11864407e-03 0.
      1.05932204e-03 2.11864407e-03 1.05932204e-03 3.17796599e-03 0.
      1.05932204e-03 0. 5.29661030e-03 1.05932204e-03 1.05932204e-03 0.
      0. 2.11864407e-03 0. 6.35593198e-03 0. 0. 0. 2.11864407e-03
      2.11864407e-03 0. 2.11864407e-03 0. 0. 1.05932204e-03
      4.23728814e-03 0. 2.11864407e-03 3.17796599e-03 0. 0.
      2.11864407e-03 2.11864407e-03 0. 0. 2.11864407e-03 0. 0.
      2.11864407e-03 1.05932204e-03 1.05932204e-03 0. 2.11864407e-03 0.
      1.05932204e-03 0. 3.17796599e-03 0. 0. 1.05932204e-03 0.
      2.11864407e-03 0. 2.11864407e-03 2.11864407e-03 0. 1.05932204e-03
      4.23728814e-03 0. 0. 1.05932204e-03 1.05932204e-03 0.
      1.05932204e-03 0. 1.05932204e-03 0. 0. 0. 0. 0. 1.05932204e-03 0.
      2.11864407e-03 2.11864407e-03 0. 1.05932204e-03 5.29661030e-03 0.
      1.05932204e-03 0. 1.05932204e-03 0. 2.11864407e-03 1.05932204e-03
      0. 1.05932204e-03 0. 0. 0. 1.05932204e-03 0. 0. 2.11864407e-03 0.
      0. 4.23728814e-03 1.05932204e-03 0. 1.05932204e-03 0.
      1.05932204e-03 0. 0. 1.05932204e-03 1.05932204e-03 1.05932204e-03
      0. 2.11864407e-03 1.05932204e-03 2.11864407e-03 0. 0. 0. 0.
      1.05932204e-03 0. 0. 0. 0. 0. 3.17796599e-03 0. 2.11864407e-03 0.
      3.17796599e-03 0. 1.05932204e-03 0. 1.05932204e-03 1.05932204e-03
      1.05932204e-03 0. 1.05932204e-03 3.17796599e-03 2.11864407e-03
      2.11864407e-03 2.11864407e-03 0. 1.05932204e-03 2.11864407e-03 0.
      0. 0. 1.05932204e-03 0. 0. 1.05932204e-03 1.05932204e-03 0.
      2.11864407e-03 2.11864407e-03 0. 0. 2.11864407e-03 1.05932204e-03
      0. 0. 0. 0. 1.05932204e-03 0. 2.11864407e-03 1.05932204e-03
      2.11864407e-03 0. 1.05932204e-03 2.11864407e-03 1.05932204e-03
      2.11864407e-03 1.05932204e-03 1.05932204e-03 0. 0. 1.05932204e-03
      0. 0. 0. 1.05932204e-03 0. 1.05932204e-03 0. 2.11864407e-03
      1.05932204e-03 0. 1.05932204e-03 0. 2.11864407e-03 0.
      2.11864407e-03 1.05932204e-03 0. 0. 0. 1.05932204e-03
      1.05932204e-03 4.23728814e-03 1.05932204e-03 0. 2.11864407e-03
      1.05932204e-03 0. 2.11864407e-03 1.05932204e-03 1.05932204e-03 0.
      0. 4.23728814e-03 1.05932204e-03 2.11864407e-03 2.11864407e-03
      1.05932204e-03 1.05932204e-03 1.05932204e-03 0. 0. 1.05932204e-03
      2.11864407e-03 1.05932204e-03 1.05932204e-03 0. 0. 0. 0.
      1.05932204e-03 1.05932204e-03 1.05932204e-03 1.05932204e-03
      3.17796599e-03 1.05932204e-03 0. 0. 0. 0. 1.05932204e-03
      3.17796599e-03 0. 3.17796599e-03 1.05932204e-03 1.05932204e-03 0.
      0. 0. 0. 0. 3.17796599e-03 3.17796599e-03 2.11864407e-03
      2.11864407e-03 2.11864407e-03 0. 1.05932204e-03 0. 1.05932204e-03
      0. 1.05932204e-03 4.23728814e-03 1.05932204e-03 3.17796599e-03 0.
      2.11864407e-03 3.17796599e-03 0. 1.05932204e-03 1.05932204e-03 0.
      0. 1.05932204e-03 0. 3.17796599e-03 0. 0. 0. 2.11864407e-03 0.
      3.17796599e-03 1.05932204e-03 5.29661030e-03 0. 0. 1.05932204e-03
      0. 0. 1.05932204e-03 0. 1.05932204e-03 0. 0. 2.11864407e-03
      2.11864407e-03 0. 0. 0. 0. 0. 0. 0. 0. 2.11864407e-03
      1.05932204e-03 0. 0. 1.05932204e-03 1.05932204e-03 0.
      1.05932204e-03 0. 1.05932204e-03 3.17796599e-03 0. 0.
      2.11864407e-03 1.05932204e-03 2.11864407e-03 0. 0. 1.05932204e-03
      7.41525413e-03 0. 3.17796599e-03 4.23728814e-03 1.05932204e-03
      1.05932204e-03 0. 1.05932204e-03 0. 1.05932204e-03 1.05932204e-03
      2.11864407e-03 0. 0. 0. 0. 1.05932204e-03 1.05932204e-03
      1.05932204e-03 1.05932204e-03 2.11864407e-03 0. 1.05932204e-03 0.
      2.11864407e-03 1.05932204e-03 0. 3.17796599e-03 0. 0. 0.
      2.11864407e-03 2.11864407e-03 1.05932204e-03 0. 1.05932204e-03 0.
      2.11864407e-03 2.11864407e-03 0. 5.29661030e-03 2.11864407e-03 0.
      1.05932204e-03 0. 2.11864407e-03 3.17796599e-03 0. 2.11864407e-03
      0. 1.05932204e-03 0. 5.29661030e-03 1.05932204e-03 1.05932204e-03
      0. 0. 0. 6.35593198e-03 4.23728814e-03 0. 1.05932204e-03
      1.05932204e-03 1.05932204e-03 0. 2.11864407e-03 0. 0. 0.
      2.11864407e-03 1.05932204e-03 0. 1.05932204e-03 2.11864407e-03
      3.17796599e-03 1.05932204e-03 2.11864407e-03 1.05932204e-03
      1.05932204e-03 2.11864407e-03 0. 1.05932204e-03 1.05932204e-03 0.
      1.05932204e-03 1.05932204e-03 4.23728814e-03 1.05932204e-03 0.
      1.05932204e-03 0. 0. 1.05932204e-03 1.05932204e-03 0. 0.
      2.11864407e-03 0. 0. 0. 1.05932204e-03 0. 3.17796599e-03 0. 0.
      1.05932204e-03 0. 1.05932204e-03 0. 2.11864407e-03 4.23728814e-03
      2.11864407e-03 2.11864407e-03 3.17796599e-03 3.17796599e-03 0. 0.
      0. 1.05932204e-03 1.05932204e-03 1.05932204e-03 0. 0.
      1.05932204e-03 2.11864407e-03 0. 2.11864407e-03 1.05932204e-03
      1.05932204e-03 1.05932204e-03 1.05932204e-03 0. 0. 0.
      2.11864407e-03 4.23728814e-03 0. 0. 4.23728814e-03 0.
      1.05932204e-03 1.05932204e-03 2.11864407e-03 0. 2.11864407e-03
      1.05932204e-03 0. 2.11864407e-03 0. 0. 1.05932204e-03
      2.11864407e-03 1.05932204e-03 1.05932204e-03 0. 1.05932204e-03 0.
      1.05932204e-03 0. 0. 0. 0. 2.11864407e-03 0. 1.05932204e-03
      1.05932204e-03 0. 1.05932204e-03 1.05932204e-03 2.11864407e-03 0.
      1.05932204e-03 1.05932204e-03 0. 0. 2.11864407e-03 3.17796599e-03
      0. 0. 0. 0. 0. 4.23728814e-03 0. 2.11864407e-03 1.05932204e-03
      1.05932204e-03 1.05932204e-03 0. 5.29661030e-03 2.11864407e-03
      3.17796599e-03 0. 0. 0. 1.05932204e-03 0. 1.05932204e-03
      1.05932204e-03 0. 1.05932204e-03 1.05932204e-03 2.11864407e-03
      1.05932204e-03 1.05932204e-03 3.17796599e-03 2.11864407e-03
      1.05932204e-03 0. 1.05932204e-03 1.05932204e-03 0. 4.23728814e-03
      0. 0. 0. 1.05932204e-03 1.05932204e-03 0. 0. 2.11864407e-03
      1.05932204e-03 0. 0. 0. 0. 0. 1.05932204e-03 1.05932204e-03 0. 0.
      1.05932204e-03 1.05932204e-03 3.17796599e-03 2.11864407e-03
      1.05932204e-03 1.05932204e-03 0. 3.17796599e-03 1.05932204e-03 0.
      4.23728814e-03 2.11864407e-03 0. 0. 1.05932204e-03 0. 0.
      1.05932204e-03 1.05932204e-03 0. 1.05932204e-03 1.05932204e-03 0.
      0. 2.11864407e-03 2.11864407e-03 1.05932204e-03 0. 0. 0.
      1.05932204e-03 1.05932204e-03 2.11864407e-03 0. 1.05932204e-03
      1.05932204e-03 0. 0. 2.11864407e-03</_>
    <_>
      0. 0. 2.99850083e-03 0. 0. 0. 0. 0. 1.49925041e-03 1.49925041e-03
      1.49925041e-03 0. 0. 1.49925041e-03 2.99850083e-03 2.99850083e-03
      0. 0. 0. 0. 0. 0. 0. 1.49925041e-03 1.49925041e-03 0. 0.
      4.49775113e-03 0. 1.49925041e-03 0. 0. 0. 0. 5.99700166e-03 0.
      1.49925041e-03 0. 1.49925041e-03 0. 0. 2.99850083e-03
      1.49925041e-03 1.49925041e-03 2.99850083e-03 0. 0. 2.99850083e-03
      0. 0. 0. 0. 0. 0. 0. 2.99850083e-03 0. 7.49625219e-03 0. 0.
      7.49625219e-03 1.49925041e-03 0. 4.49775113e-03 0. 0. 0. 0.
      1.49925041e-03 0. 4.49775113e-03 1.49925041e-03 0. 1.49925041e-03
      0. 1.49925041e-03 0. 0. 1.49925041e-03 0. 1.49925041e-03 0.
      1.34932538e-02 0. 1.49925041e-03 1.49925041e-03 0. 0. 0.
      4.49775113e-03 0. 2.99850083e-03 4.49775113e-03 0. 0.
      1.49925041e-03 0. 0. 1.49925041e-03 2.99850083e-03 4.49775113e-03
      0. 0. 2.99850083e-03 1.49925041e-03 0. 0. 0. 1.49925041e-03 0. 0.
      0. 0. 0. 0. 0. 0. 0. 1.04947528e-02 0. 0. 0. 0. 0. 0.
      1.49925041e-03 0. 0. 0. 1.49925041e-03 0. 0. 1.49925041e-03 0. 0.
      0. 5.99700166e-03 0. 0. 0. 4.49775113e-03 1.49925041e-03
      1.49925041e-03 0. 0. 0. 7.49625219e-03 0. 0. 0. 0. 0. 0. 0. 0.
      1.49925041e-03 0. 0. 1.49925041e-03 0. 2.99850083e-03
      1.49925041e-03 7.49625219e-03 0. 2.99850083e-03 0. 0.
      1.49925041e-03 0. 0. 0. 1.49925041e-03 1.49925041e-03
      2.99850083e-03 1.49925041e-03 1.49925041e-03 0. 2.99850083e-03 0.
      2.99850083e-03 0. 1.49925041e-03 1.49925041e-03 0. 1.49925041e-03
      0. 7.49625219e-03 0. 5.99700166e-03 2.99850083e-03 1.49925041e-03
      0. 1.49925041e-03 0. 0. 2.99850083e-03 0. 1.49925041e-03 0. 0. 0.
      0. 5.99700166e-03 0. 1.49925041e-03 0. 1.49925041e-03 0.
      1.49925041e-03 0. 2.99850083e-03 0. 0. 1.49925041e-03 0. 0.
      4.49775113e-03 0. 0. 0. 0. 1.49925041e-03 0. 5.99700166e-03 0.
      1.49925041e-03 0. 1.49925041e-03 0. 0. 0. 0. 0. 1.49925041e-03 0.
      0. 0. 4.49775113e-03 0. 0. 4.49775113e-03 2.99850083e-03 0.
      1.49925041e-03 0. 2.99850083e-03 0. 0. 0. 4.49775113e-03 0. 0. 0.
      0. 0. 0. 2.99850083e-03 0. 2.99850083e-03 0. 0. 4.49775113e-03
      1.49925041e-03 2.99850083e-03 0. 0. 0. 0. 1.49925041e-03 0.
      1.49925041e-03 0. 1.49925041e-03 0. 1.49925041e-03 0.
      1.49925041e-03 0. 0. 0. 0. 0. 0. 0. 0. 0. 8.99550226e-03 0.
      1.49925041e-03 0. 0. 1.49925041e-03 0. 0. 5.99700166e-03
      1.49925041e-03 1.49925041e-03 0. 0. 0. 2.09895056e-02
      1.49925041e-03 0. 0. 0. 2.99850083e-03 1.49925041e-03 0. 0. 0.
      1.49925041e-03 0. 0. 0. 1.49925041e-03 0. 0. 4.49775113e-03 0.
      1.04947528e-02 4.49775113e-03 2.99850083e-03 1.04947528e-02 0. 0.
      1.49925041e-03 1.49925041e-03 1.49925041e-03 0. 0. 0.
      1.49925041e-03 0. 1.49925041e-03 1.49925041e-03 1.49925041e-03
      7.49625219e-03 0. 1.49925041e-03 2.99850083e-03 2.99850083e-03
      2.99850083e-03 0. 0. 0. 0. 0. 0. 0. 4.49775113e-03 1.64917540e-02
      0. 0. 0. 0. 0. 1.49925041e-03 2.99850083e-03 0. 0. 2.99850083e-03
      0. 0. 0. 0. 0. 0. 0. 0. 0. 1.49925041e-03 1.49925041e-03 0.
      4.49775113e-03 0. 2.99850083e-03 1.49925041e-03 0. 1.49925041e-03
      0. 0. 0. 2.99850083e-03 8.99550226e-03 0. 0. 0. 4.49775113e-03 0.
      0. 0. 0. 1.49925041e-03 1.49925041e-03 0. 1.49925041e-03 0. 0. 0.
      0. 1.49925041e-03 0. 0. 0. 0. 1.49925041e-03 0. 0. 0. 0. 0.
      1.49925041e-03 0. 0. 0. 0. 0. 0. 0. 1.49925041e-03 1.49925041e-03
      2.99850083e-03 1.49925041e-03 0. 0. 1.49925041e-03 0.
      1.49925041e-03 0. 1.49925041e-03 0. 0. 0. 0. 0. 0. 0. 0. 0.
      1.49925041e-03 1.49925041e-03 0. 0. 0. 0. 0. 1.49925041e-03 0.
      1.49925041e-03 7.49625219e-03 1.49925041e-03 0. 1.49925041e-03 0.
      2.99850083e-03 2.99850083e-03 0. 0. 1.49925041e-03 0. 0. 0. 0. 0.
      0. 0. 1.49925041e-03 0. 1.49925041e-03 1.49925041e-03 0.
      1.49925041e-03 0. 0. 0. 2.99850083e-03 1.49925041e-03 0.
      1.49925041e-03 0. 0. 0. 1.49925041e-03 0. 0. 0. 2.39880066e-02 0.
      0. 0. 1.49925041e-03 0. 1.49925041e-03 2.99850083e-03 0. 0.
      2.99850083e-03 1.49925041e-03 0. 1.49925041e-03 0. 1.49925041e-03
      1.49925041e-03 0. 1.49925041e-03 0. 0. 0. 0. 0. 2.99850083e-03 0.
      0. 0. 0. 0. 0. 0. 2.99850083e-03 0. 1.49925041e-03 0. 0.
      1.49925041e-03 0. 0. 0. 0. 0. 0. 0. 0. 0. 2.99850083e-03 0. 0. 0.
      1.49925041e-03 1.49925041e-03 0. 1.49925041e-03 0. 1.49925041e-03
      1.49925041e-03 0. 0. 0. 1.49925041e-03 2.99850083e-03 0. 0.
      1.49925041e-03 0. 2.99850083e-03 0. 0. 0. 1.49925041e-03 0. 0. 0.
      0. 7.49625219e-03 1.49925041e-03 1.49925041e-03 0. 0.
      2.99850083e-03 2.99850083e-03 0. 0. 0. 1.49925041e-03 0. 0. 0.
      4.49775113e-03 0. 0. 0. 1.49925041e-03 0. 1.49925041e-03
      1.49925041e-03 0. 0. 2.99850083e-03 0. 0. 1.49925041e-03
      1.49925041e-03 0. 4.49775113e-03 0. 0. 0. 0. 0. 0. 0.
      2.99850083e-03 0. 2.99850083e-03 1.49925041e-03 0. 5.99700166e-03
      0. 0. 1.49925041e-03 0. 2.99850083e-03 1.49925041e-03 0. 0. 0. 0.
      0. 4.49775113e-03 2.99850083e-03 1.49925041e-03 4.49775113e-03 0.
      1.49925041e-03 0. 1.49925041e-03 1.49925041e-03 5.99700166e-03 0.
      1.49925041e-03 1.49925041e-03 0. 0. 0. 0. 0. 1.49925041e-03
      1.49925041e-03 0. 0. 0. 0. 1.49925041e-03 0. 1.49925041e-03 0.
      1.49925041e-03 0. 2.99850083e-03 0. 0. 0. 0. 2.99850083e-03 0. 0.
      1.49925041e-03 0. 2.99850083e-03 0. 2.99850083e-03 0. 0. 0. 0. 0.
      0. 1.49925041e-03 1.49925041e-03 0. 2.99850083e-03 0. 0.
      1.49925041e-03 0. 0. 0. 0. 0. 0. 4.49775113e-03 0. 1.49925041e-03
      0. 0. 0. 0. 0. 0. 1.49925041e-03 1.49925041e-03 0. 0.
      1.49925041e-03 7.49625219e-03 0. 1.49925041e-03 0. 0. 0.
      1.49925041e-03 1.49925041e-03 0. 0. 0. 2.99850083e-03
      1.49925041e-03 1.49925041e-03 0. 0. 1.49925041e-03 0. 0. 0.
      1.49925041e-03 1.49925041e-03 0. 0. 1.49925041e-03 4.49775113e-03
      0. 0. 0. 0. 0. 0. 1.49925041e-03 0. 0. 0. 0. 0. 0. 0.
      1.49925041e-03 0. 0. 1.49925041e-03 1.49925041e-03 1.49925041e-03
      0. 2.99850083e-03 0. 1.49925041e-03 0. 1.49925041e-03
      1.49925041e-03 0. 0. 0. 0. 5.99700166e-03 1.49925041e-03
      2.99850083e-03 1.49925041e-03 0. 1.49925041e-03 1.49925041e-03 0.
      0. 2.99850083e-03 0. 4.49775113e-03 0. 0. 0. 0. 0. 0.
      1.49925041e-03 1.49925041e-03 4.49775113e-03 0. 2.99850083e-03 0.
      0. 0. 0. 0. 1.49925041e-03 0. 0. 0. 1.49925041e-03 2.99850083e-03
      1.49925041e-03 1.49925041e-03 0. 0. 2.99850083e-03 0. 0. 0.
      1.49925041e-03 0. 2.99850083e-03 0. 0. 0. 1.49925041e-03
      1.49925041e-03 2.99850083e-03 0. 0. 0. 0. 0. 1.49925041e-03 0.
      1.49925041e-03 0. 0. 0. 1.49925041e-03 0. 0. 0. 0. 0. 0.
      2.99850083e-03 0. 0. 1.49925041e-03 0. 0. 0. 2.99850083e-03
      1.49925041e-03 1.49925041e-03 1.49925041e-03 0. 7.49625219e-03
      2.99850083e-03 0. 0. 1.49925041e-03 0. 0. 1.49925041e-03 0.
      1.49925041e-03 2.99850083e-03 0. 1.49925041e-03 0. 2.99850083e-03
      0. 0. 2.99850083e-03 2.99850083e-03 0. 0. 0. 0. 0. 0. 0. 0.
      2.99850083e-03 0. 0. 0. 1.49925041e-03 0. 0. 0. 0. 1.49925041e-03
      0. 2.99850083e-03 0. 0. 0. 0. 1.49925041e-03 2.99850083e-03 0. 0.
      0. 0. 0. 1.49925041e-03 1.49925041e-03 0. 2.99850083e-03
      1.49925041e-03 1.49925041e-03 0. 1.49925041e-03 1.49925041e-03
      1.49925041e-03 0. 0. 1.49925041e-03 0. 1.49925041e-03 0. 0. 0.
      1.49925041e-03 0. 0. 0. 0. 0. 0. 0. 0. 1.49925041e-03 0. 0. 0. 0.
      0. 0. 1.49925041e-03 0. 0. 0. 1.49925041e-03 0. 2.99850083e-03
      1.49925041e-03 0. 0. 1.49925041e-03 1.49925041e-03 0. 0. 0.
      2.99850083e-03 1.49925041e-03 0. 2.99850083e-03 0. 4.49775113e-03
      0. 0. 1.49925041e-03 5.99700166e-03 0. 0. 0. 2.99850083e-03
      4.49775113e-03 0. 0. 0. 1.49925041e-03 0. 4.49775113e-03 0.
      1.49925041e-03 0. 0. 0. 0. 7.49625219e-03 0. 0. 1.49925041e-03 0.
      0. 0. 0. 1.49925041e-03 4.49775113e-03 1.49925041e-03
      2.99850083e-03 1.49925041e-03 0. 2.99850083e-03 1.49925041e-03
      1.49925041e-03 1.49925041e-03 0. 0. 1.49925041e-03 0. 0. 0. 0. 0.
      0. 2.99850083e-03 0. 1.49925041e-03 1.49925041e-03 0.
      1.49925041e-03 0. 1.49925041e-03 0. 8.99550226e-03 2.99850083e-03
      1.49925041e-03 0. 0. 0. 1.49925041e-03</_>
    <_>
      0. 0. 0. 0. 0. 0. 0. 0. 0. 2.24215258e-03 0. 0. 4.48430516e-03 0.
      0. 0. 0. 0. 0. 0. 4.48430516e-03 0. 2.24215258e-03 0.
      6.72645774e-03 0. 0. 2.24215258e-03 2.24215258e-03 0. 0.
      4.48430516e-03 0. 0. 0. 8.96861032e-03 0. 0. 2.24215258e-03 0.
      4.48430516e-03 0. 2.24215258e-03 0. 0. 0. 2.24215258e-03 0.
      2.24215258e-03 0. 0. 2.24215258e-03 0. 0. 0. 0. 0. 2.24215258e-03
      0. 0. 0. 4.48430516e-03 0. 0. 6.72645774e-03 0. 0. 8.96861032e-03
      0. 0. 0. 0. 4.48430516e-03 0. 0. 0. 0. 0. 0. 2.24215258e-03 0.
      2.24215258e-03 0. 0. 0. 0. 0. 0. 0. 0. 0. 4.48430516e-03 0. 0.
      4.48430516e-03 0. 2.24215258e-03 0. 2.24215258e-03 2.24215258e-03
      2.24215258e-03 0. 0. 0. 0. 0. 0. 0. 0. 0. 0. 2.24215258e-03 0. 0.
      6.72645774e-03 0. 0. 2.24215258e-03 0. 0. 0. 2.24215258e-03
      2.24215258e-03 2.24215258e-03 0. 0. 0. 0. 2.24215258e-03
      4.48430516e-03 0. 2.24215258e-03 0. 0. 4.48430516e-03 0.
      4.48430516e-03 0. 0. 2.24215258e-03 0. 0. 0. 0. 0. 0. 0. 0. 0. 0.
      2.24215258e-03 4.48430516e-03 2.24215258e-03 0. 2.24215258e-03
      4.48430516e-03 4.48430516e-03 0. 0. 2.24215258e-03 0. 0.
      2.24215258e-03 0. 2.24215258e-03 0. 0. 0. 0. 2.24215258e-03 0. 0.
      0. 2.24215258e-03 4.48430516e-03 0. 0. 0. 0. 0. 0. 0. 0.
      4.48430516e-03 0. 2.24215258e-03 0. 0. 2.24215258e-03 0. 0.
      2.24215258e-03 0. 0. 0. 0. 2.24215258e-03 0. 0. 2.24215258e-03 0.
      0. 0. 2.24215258e-03 2.24215258e-03 2.24215258e-03 0. 0. 0. 0.
      4.48430516e-03 0. 2.24215258e-03 0. 0. 0. 0. 2.24215258e-03
      2.24215258e-03 0. 2.24215258e-03 0. 4.48430516e-03 0. 0. 0. 0.
      2.24215258e-03 0. 0. 0. 0. 0. 0. 2.24215258e-03 0. 2.24215258e-03
      2.24215258e-03 0. 0. 0. 2.24215258e-03 0. 0. 0. 0. 0.
      2.24215258e-03 0. 4.48430516e-03 0. 2.24215258e-03 0. 0.
      2.24215258e-03 0. 0. 0. 4.48430516e-03 0. 4.48430516e-03
      2.24215258e-03 2.24215258e-03 2.24215258e-03 0. 0. 0.
      4.48430516e-03 2.24215258e-03 0. 0. 4.48430516e-03 0. 0. 0. 0.
      2.24215258e-03 0. 0. 0. 2.24215258e-03 0. 0. 0. 0. 2.24215258e-03
      0. 0. 0. 0. 0. 0. 0. 0. 4.48430516e-03 0. 4.48430516e-03 0. 0. 0.
      0. 0. 0. 0. 2.24215258e-03 0. 0. 0. 0. 0. 0. 0. 2.24215258e-03 0.
      2.24215258e-03 0. 0. 4.48430516e-03 0. 0. 0. 0. 0. 2.24215258e-03
      0. 2.24215258e-03 0. 0. 2.24215258e-03 0. 0. 4.48430516e-03 0.
      4.48430516e-03 0. 0. 2.24215258e-03 0. 0. 0. 2.24215258e-03
      2.24215258e-03 2.24215258e-03 2.24215258e-03 6.72645774e-03 0. 0.
      0. 2.24215258e-03 0. 0. 0. 0. 2.24215258e-03 0. 0. 0.
      2.24215258e-03 0. 2.24215258e-03 0. 2.24215258e-03 0. 0. 0.
      6.72645774e-03 2.24215258e-03 0. 2.24215258e-03 2.24215258e-03
      2.24215258e-03 0. 0. 0. 0. 4.48430516e-03 0. 2.24215258e-03 0. 0.
      4.48430516e-03 2.24215258e-03 0. 2.24215258e-03 2.24215258e-03
      2.24215258e-03 6.72645774e-03 0. 4.48430516e-03 0. 0. 0. 0. 0. 0.
      2.24215258e-03 0. 0. 0. 0. 0. 4.48430516e-03 0. 0. 0.
      2.24215258e-03 0. 0. 2.24215258e-03 0. 0. 0. 0. 0. 0.
      2.24215258e-03 2.24215258e-03 0. 0. 2.24215258e-03 0. 0. 0.
      4.48430516e-03 0. 2.24215258e-03 0. 0. 0. 0. 0. 2.24215258e-03 0.
      0. 2.24215258e-03 0. 0. 0. 2.24215258e-03 0. 2.24215258e-03
      2.24215258e-03 0. 0. 0. 0. 0. 0. 0. 2.24215258e-03 0. 0. 0.
      1.12107629e-02 0. 0. 2.24215258e-03 0. 0. 0. 2.24215258e-03 0. 0.
      2.24215258e-03 0. 2.24215258e-03 0. 4.48430516e-03 0. 0.
      4.48430516e-03 0. 4.48430516e-03 0. 0. 4.48430516e-03 0.
