<?xml version="1.0"?>
<opencv_storage>
<my_svm type_id="opencv-ml-svm">
  <svm_type>C_SVC</svm_type>
  <kernel><type>RBF</type>
    <gamma>5.0625000000000009e-01</gamma></kernel>
  <C>3.1250000000000000e+02</C>
  <term_criteria><epsilon>9.9999999747524271e-07</epsilon>
    <iterations>1000</iterations></term_criteria>
  <var_all>1000</var_all>
  <var_count>1000</var_count>
  <class_count>2</class_count>
  <class_labels type_id="opencv-matrix">
    <rows>1</rows>
    <cols>2</cols>
    <dt>i</dt>
    <data>
      -1 1</data></class_labels>
  <sv_total>168</sv_total>
  <support_vectors>
    <_>
      0. 0. 0. 2.34192028e-03 0. 2.34192028e-03 0. 2.34192028e-03 0. 0.
      2.34192028e-03 2.34192028e-03 0. 0. 0. 0. 2.34192028e-03
      7.02576060e-03 0. 0. 0. 0. 0. 2.34192028e-03 0. 0. 4.68384055e-03
      0. 0. 0. 2.34192028e-03 0. 2.34192028e-03 0. 4.68384055e-03 0. 0.
      0. 0. 0. 0. 0. 0. 2.34192028e-03 0. 0. 0. 0. 0. 0. 0. 0. 0.
      2.34192028e-03 2.34192028e-03 0. 0. 7.02576060e-03 2.34192028e-03
      0. 0. 0. 0. 0. 0. 0. 2.34192028e-03 0. 2.34192028e-03 0. 0. 0.
      2.34192028e-03 0. 0. 0. 0. 0. 0. 0. 0. 0. 0. 2.34192028e-03 0.
      2.34192028e-03 0. 0. 0. 0. 9.36768111e-03 0. 0. 0. 0.
      4.68384055e-03 0. 0. 0. 4.68384055e-03 0. 0. 0. 0. 2.34192028e-03
      2.34192028e-03 2.34192028e-03 4.68384055e-03 0. 0. 0.
      7.02576060e-03 4.68384055e-03 4.68384055e-03 0. 0. 2.34192028e-03
      0. 2.34192028e-03 0. 0. 0. 0. 9.36768111e-03 0. 4.68384055e-03 0.
      0. 0. 4.68384055e-03 2.34192028e-03 0. 0. 0. 0. 2.34192028e-03
      2.34192028e-03 0. 2.34192028e-03 2.34192028e-03 0. 2.34192028e-03
      0. 0. 0. 2.34192028e-03 2.34192028e-03 2.34192028e-03
      2.34192028e-03 2.34192028e-03 0. 0. 7.02576060e-03 0. 0. 0. 0. 0.
      0. 0. 0. 2.34192028e-03 0. 1.17096016e-02 2.34192028e-03 0. 0.
      2.34192028e-03 0. 0. 2.34192028e-03 2.34192028e-03 0. 0.
      2.34192028e-03 0. 0. 0. 0. 0. 0. 0. 4.68384055e-03 0. 0. 0.
      2.34192028e-03 0. 0. 0. 2.34192028e-03 0. 0. 0. 0. 0. 0. 0. 0. 0.
      2.34192028e-03 2.34192028e-03 0. 1.17096016e-02 0. 0. 0.
      4.68384055e-03 0. 0. 0. 0. 2.34192028e-03 0. 0. 0. 2.34192028e-03
      2.34192028e-03 0. 0. 0. 0. 0. 2.34192028e-03 0. 0. 7.02576060e-03
      0. 0. 2.34192028e-03 2.34192028e-03 0. 0. 2.34192028e-03 0. 0. 0.
      0. 0. 0. 0. 0. 0. 0. 0. 0. 0. 0. 2.34192028e-03 2.34192028e-03 0.
      4.68384055e-03 0. 0. 4.68384055e-03 0. 2.34192028e-03 0. 0.
      2.34192028e-03 0. 0. 0. 0. 2.34192028e-03 0. 0. 0. 0. 0.
      2.34192028e-03 0. 0. 0. 0. 2.34192028e-03 2.34192028e-03 0. 0. 0.
      0. 0. 0. 0. 0. 0. 2.34192028e-03 0. 0. 0. 4.68384055e-03 0. 0. 0.
      0. 2.34192028e-03 2.34192028e-03 0. 0. 0. 0. 0. 0. 4.68384055e-03
      0. 0. 4.68384055e-03 0. 0. 0. 2.34192028e-03 0. 0. 0. 0. 0. 0.
      2.34192028e-03 0. 2.34192028e-03 2.34192028e-03 0. 0. 0. 0. 0. 0.
      4.68384055e-03 0. 0. 2.34192028e-03 2.34192028e-03 4.68384055e-03
      0. 0. 2.34192028e-03 0. 0. 0. 2.34192028e-03 0. 2.34192028e-03
      2.34192028e-03 0. 0. 2.34192028e-03 0. 0. 0. 0. 0. 0. 0. 0.
      7.02576060e-03 0. 0. 0. 0. 2.34192028e-03 0. 0. 0. 2.34192028e-03
      0. 2.34192028e-03 0. 2.34192028e-03 2.34192028e-03 0. 0.
      2.34192028e-03 0. 0. 0. 0. 2.34192028e-03 0. 0. 0. 0.
      4.68384055e-03 0. 2.34192028e-03 2.34192028e-03 4.68384055e-03
      2.34192028e-03 2.34192028e-03 2.34192028e-03 0. 0. 2.34192028e-03
      4.68384055e-03 2.34192028e-03 0. 0. 2.34192028e-03 2.34192028e-03
      0. 0. 0. 0. 0. 0. 4.68384055e-03 2.34192028e-03 0. 0.
      7.02576060e-03 0. 0. 0. 2.34192028e-03 0. 1.17096016e-02
      2.34192028e-03 0. 0. 0. 2.34192028e-03 0. 2.34192028e-03 0. 0. 0.
      0. 0. 4.68384055e-03 0. 0. 0. 0. 0. 0. 2.34192028e-03 0. 0. 0. 0.
      0. 0. 0. 2.34192028e-03 0. 4.68384055e-03 0. 0. 0. 2.34192028e-03
      0. 0. 0. 0. 9.36768111e-03 0. 7.02576060e-03 0. 0. 0.
      4.68384055e-03 4.68384055e-03 0. 0. 0. 2.34192028e-03
      2.34192028e-03 2.34192028e-03 0. 2.34192028e-03 0. 0.
      2.34192028e-03 0. 0. 2.34192028e-03 2.34192028e-03 0. 0. 0.
      2.34192028e-03 0. 0. 0. 0. 0. 4.68384055e-03 0. 2.34192028e-03 0.
      0. 4.68384055e-03 2.34192028e-03 0. 2.34192028e-03 2.34192028e-03
      0. 0. 0. 0. 2.34192028e-03 0. 7.02576060e-03 0. 4.68384055e-03
      2.34192028e-03 0. 0. 2.34192028e-03 0. 0. 0. 0. 0. 2.34192028e-03
      0. 2.34192028e-03 0. 7.02576060e-03 2.34192028e-03 0.
      2.34192028e-03 0. 2.34192028e-03 2.34192028e-03 0. 0.
      2.34192028e-03 0. 0. 0. 2.34192028e-03 0. 2.34192028e-03
      2.34192028e-03 0. 0. 0. 0. 2.34192028e-03 0. 0. 0. 2.34192028e-03
      0. 0. 0. 0. 0. 0. 2.34192028e-03 0. 0. 0. 0. 0. 0. 0. 0. 0. 0.
      7.02576060e-03 0. 0. 4.68384055e-03 0. 0. 0. 0. 0. 0. 0. 0. 0. 0.
      0. 2.34192028e-03 0. 0. 2.34192028e-03 2.34192028e-03 0. 0. 0.
      2.34192028e-03 0. 0. 0. 4.68384055e-03 0. 0. 0. 0. 0.
      4.68384055e-03 0. 0. 0. 2.34192028e-03 2.34192028e-03 0.
      2.34192028e-03 0. 0. 0. 0. 0. 0. 0. 2.34192028e-03 2.34192028e-03
      0. 0. 0. 0. 0. 0. 0. 0. 0. 0. 2.34192028e-03 4.68384055e-03 0.
      7.02576060e-03 0. 2.34192028e-03 7.02576060e-03 0. 0. 0. 0.
      4.68384055e-03 0. 0. 0. 0. 0. 0. 0. 1.17096016e-02 0.
      4.68384055e-03 0. 2.34192028e-03 2.34192028e-03 0. 0. 0. 0. 0. 0.
      0. 0. 0. 0. 0. 0. 0. 0. 0. 0. 0. 4.68384055e-03 2.34192028e-03
      2.34192028e-03 0. 0. 0. 2.34192028e-03 0. 0. 0. 0. 2.34192028e-03
      2.34192028e-03 0. 0. 0. 0. 0. 0. 2.34192028e-03 4.68384055e-03 0.
      0. 0. 0. 0. 2.34192028e-03 0. 2.34192028e-03 0. 0. 2.34192028e-03
      0. 1.17096016e-02 2.34192028e-03 0. 0. 0. 0. 2.34192028e-03
      4.68384055e-03 0. 0. 0. 0. 2.34192028e-03 0. 0. 0. 0. 0. 0. 0.
      2.34192028e-03 4.68384055e-03 0. 0. 0. 2.34192028e-03
      2.34192028e-03 0. 0. 0. 2.34192028e-03 2.34192028e-03 0.
      2.34192028e-03 2.34192028e-03 0. 0. 0. 0. 0. 0. 0. 0.
      2.34192028e-03 0. 0. 0. 0. 0. 0. 0. 2.34192028e-03 0. 0. 0. 0.
      2.34192028e-03 2.34192028e-03 0. 0. 0. 4.68384055e-03
      2.34192028e-03 0. 2.34192028e-03 0. 0. 0. 0. 0. 2.34192028e-03 0.
      4.68384055e-03 0. 0. 0. 0. 7.02576060e-03 0. 7.02576060e-03 0.
      2.34192028e-03 0. 2.34192028e-03 0. 0. 0. 0. 0. 0. 0. 0.
      2.34192028e-03 2.34192028e-03 0. 0. 2.34192028e-03 2.34192028e-03
      0. 0. 2.34192028e-03 0. 0. 0. 0. 0. 2.34192028e-03 2.34192028e-03
      2.34192028e-03 2.34192028e-03 0. 2.34192028e-03 0. 0. 0. 0.
      2.34192028e-03 0. 4.68384055e-03 0. 0. 0. 4.68384055e-03 0. 0. 0.
      0. 0. 0. 0. 0. 4.68384055e-03 0. 4.68384055e-03 0. 2.34192028e-03
      0. 2.34192028e-03 0. 0. 0. 0. 0. 0. 0. 0. 4.68384055e-03 0. 0. 0.
      0. 4.68384055e-03 4.68384055e-03 2.34192028e-03 0. 2.34192028e-03
      4.68384055e-03 0. 0. 4.68384055e-03 4.68384055e-03 2.34192028e-03
      0. 7.02576060e-03 0. 2.34192028e-03 0. 4.68384055e-03 0. 0.
      2.34192028e-03 0. 2.34192028e-03 0. 0. 0. 0. 2.34192028e-03 0. 0.
      2.34192028e-03 2.34192028e-03 0. 0. 0. 0. 2.34192028e-03
      2.34192028e-03 2.34192028e-03 2.34192028e-03 0. 0. 4.68384055e-03
      0. 2.34192028e-03 2.34192028e-03 0. 0. 0. 0. 2.34192028e-03 0.
      2.34192028e-03 0. 0. 0. 2.34192028e-03 2.34192028e-03
      2.34192028e-03 2.34192028e-03 2.34192028e-03 0. 0. 0.
      7.02576060e-03 2.34192028e-03 0. 2.34192028e-03 0. 0. 0. 0. 0. 0.
      0. 0. 2.34192028e-03 0. 0. 0. 0. 0. 2.34192028e-03 2.34192028e-03
      0. 0. 0. 2.34192028e-03 0. 0. 0. 0. 0. 2.34192028e-03
      2.34192028e-03 4.68384055e-03 0. 0. 0. 0. 0. 2.34192028e-03
      7.02576060e-03 0. 0. 2.34192028e-03 0. 4.68384055e-03
      2.34192028e-03 0. 0. 0. 0. 0. 0. 0. 0. 0. 0. 0. 0. 0.
      2.34192028e-03 0. 0. 7.02576060e-03 2.34192028e-03 2.34192028e-03
      0. 0. 0. 0. 2.34192028e-03 2.34192028e-03 2.34192028e-03 0. 0. 0.
      0. 0. 2.34192028e-03 0. 0. 2.34192028e-03 0. 0. 0. 0.
      7.02576060e-03 0. 0. 0. 0. 0. 0.</_>
    <_>
      0. 0. 0. 5.41516254e-03 1.80505414e-03 0. 1.08303251e-02
      7.22021656e-03 0. 0. 0. 0. 1.80505414e-03 0. 0. 0. 0. 0.
      3.61010828e-03 0. 0. 0. 0. 0. 0. 0. 5.41516254e-03 1.80505414e-03
      1.80505414e-03 0. 0. 1.80505414e-03 0. 0. 0. 0. 0. 0. 0.
      3.61010828e-03 0. 0. 0. 0. 0. 0. 3.61010828e-03 0. 0.
      3.61010828e-03 0. 3.61010828e-03 3.61010828e-03 0. 0. 0.
      1.80505414e-03 0. 0. 1.80505414e-03 0. 0. 0. 0. 0. 3.24909762e-02
      1.80505414e-03 5.41516254e-03 0. 0. 0. 0. 0. 0. 0. 7.22021656e-03
      5.41516254e-03 0. 0. 3.61010828e-03 0. 0. 0. 1.80505414e-03
      1.80505414e-03 0. 0. 1.80505414e-03 0. 0. 5.41516254e-03 0.
      3.61010828e-03 0. 0. 0. 0. 3.61010828e-03 1.80505414e-03
      1.80505414e-03 0. 1.80505414e-03 0. 0. 0. 0. 3.61010828e-03 0. 0.
      0. 0. 0. 0. 3.61010828e-03 1.80505414e-03 0. 0. 0. 0.
      3.61010828e-03 0. 3.61010828e-03 0. 0. 0. 0. 3.61010828e-03 0.
      1.80505414e-03 0. 0. 0. 0. 0. 0. 0. 0. 1.62454881e-02 0. 0. 0. 0.
      0. 0. 0. 0. 0. 1.80505414e-03 0. 0. 1.80505414e-03 3.61010828e-03
      0. 0. 0. 0. 1.80505414e-03 1.80505414e-03 0. 0. 0. 0. 0.
      7.22021656e-03 0. 0. 0. 0. 0. 0. 0. 1.80505414e-03 0. 0. 0.
      1.80505414e-03 0. 0. 0. 0. 3.61010828e-03 0. 0. 0. 0. 0. 0. 0. 0.
      1.80505414e-03 0. 0. 0. 0. 0. 0. 0. 0. 1.44404331e-02 0. 0. 0. 0.
      1.80505414e-03 0. 1.80505414e-03 5.41516254e-03 0. 0. 0. 0.
      1.44404331e-02 0. 0. 3.61010828e-03 0. 0. 0. 0. 0. 0. 0. 0. 0. 0.
      3.61010828e-03 0. 1.80505414e-03 0. 1.80505414e-03 0. 0. 0.
      1.80505414e-03 0. 1.08303251e-02 1.80505414e-03 0. 0. 0. 0. 0. 0.
      0. 3.61010828e-03 0. 0. 0. 0. 0. 0. 0. 0. 1.80505414e-03 0. 0. 0.
      0. 0. 0. 1.80505414e-03 0. 0. 0. 0. 0. 0. 0. 0. 1.80505414e-03 0.
      0. 0. 0. 0. 0. 0. 0. 0. 0. 1.80505414e-03 0. 0. 1.80505414e-03
      1.80505414e-03 5.41516254e-03 0. 0. 7.22021656e-03 3.61010828e-03
      3.97111923e-02 0. 1.80505414e-03 0. 0. 0. 0. 1.80505414e-03 0.
      1.80505414e-03 0. 0. 1.80505414e-03 0. 0. 0. 1.80505414e-03 0. 0.
      0. 0. 0. 3.61010828e-03 0. 0. 1.80505414e-03 0. 0. 0. 0. 0. 0. 0.
      0. 0. 0. 0. 0. 0. 1.08303251e-02 0. 0. 1.80505414e-03 0.
      1.80505414e-03 1.80505414e-03 0. 0. 9.02527105e-03 0. 0.
      3.61010828e-03 0. 0. 0. 0. 0. 0. 5.41516254e-03 0. 0. 0. 0.
      1.80505414e-03 0. 0. 1.80505414e-03 0. 0. 0. 0. 0. 0.
      1.80505414e-03 0. 0. 3.61010828e-03 0. 3.61010828e-03
      1.80505414e-03 1.80505414e-03 0. 0. 0. 0. 0. 1.80505414e-03 0. 0.
      1.80505414e-03 0. 1.80505414e-03 0. 0. 0. 3.61010828e-03
      3.61010828e-03 0. 0. 0. 1.80505414e-03 0. 0. 0. 9.02527105e-03 0.
      0. 0. 0. 1.80505414e-03 1.80505414e-03 1.80505414e-03
      3.61010828e-03 0. 0. 1.80505414e-03 0. 0. 5.41516254e-03
      1.80505414e-03 0. 0. 0. 0. 0. 1.80505414e-03 0. 2.34657042e-02 0.
      0. 0. 0. 0. 0. 0. 0. 0. 1.80505414e-03 0. 0. 1.80505414e-03 0. 0.
      0. 0. 0. 0. 0. 0. 0. 0. 1.80505414e-03 0. 3.61010828e-03 0. 0. 0.
      0. 0. 1.80505414e-03 1.80505414e-03 1.80505414e-03 0. 0.
      9.02527105e-03 0. 0. 0. 0. 0. 0. 0. 0. 1.80505414e-03
      1.80505414e-03 0. 0. 0. 0. 1.80505414e-03 3.61010828e-03
      1.80505414e-03 0. 3.61010828e-03 0. 0. 1.80505414e-03 0. 0.
      9.02527105e-03 0. 1.80505414e-03 0. 0. 0. 0. 0. 0. 0.
      1.80505414e-03 0. 0. 0. 0. 3.61010828e-03 1.80505414e-03 0.
      1.80505414e-03 1.80505414e-03 0. 1.80505414e-03 0. 0.
      3.61010828e-03 1.80505414e-03 0. 5.41516254e-03 1.80505414e-03 0.
      0. 0. 1.80505414e-03 1.44404331e-02 0. 0. 0. 0. 0. 0. 0.
      1.80505414e-03 0. 0. 0. 0. 0. 5.41516254e-03 9.02527105e-03 0. 0.
      3.61010828e-03 0. 0. 0. 0. 1.80505414e-03 0. 9.02527105e-03 0. 0.
      1.80505414e-03 0. 0. 0. 1.80505414e-03 0. 0. 0. 0. 0.
      1.80505414e-03 1.80505414e-03 1.80505414e-03 0. 0. 0. 0. 0. 0.
      3.61010828e-03 0. 0. 0. 0. 0. 0. 0. 0. 0. 0. 1.80505414e-03 0. 0.
      1.80505414e-03 0. 0. 0. 0. 0. 2.16606501e-02 0. 0. 0.
      1.80505414e-03 0. 0. 0. 3.61010828e-03 0. 0. 0. 0. 0. 0. 0.
      3.61010828e-03 0. 0. 1.80505414e-03 0. 0. 5.41516254e-03 0.
      1.80505414e-03 0. 0. 0. 0. 0. 1.80505414e-03 0. 3.61010828e-03
      9.02527105e-03 3.61010828e-03 1.98555961e-02 0. 7.22021656e-03 0.
      0. 0. 0. 0. 0. 0. 0. 0. 1.80505414e-03 1.80505414e-03 0. 0. 0.
      1.80505414e-03 1.80505414e-03 1.80505414e-03 1.80505414e-03 0. 0.
      0. 0. 1.08303251e-02 0. 1.80505414e-03 0. 0. 0. 0. 0. 0. 0. 0. 0.
      1.80505414e-03 0. 0. 0. 0. 1.80505414e-03 0. 3.61010828e-03 0.
      1.80505414e-03 0. 0. 0. 0. 0. 0. 0. 7.22021656e-03 0. 0. 0.
      1.80505414e-03 0. 0. 0. 0. 1.80505414e-03 1.80505414e-03 0. 0. 0.
      0. 1.80505414e-03 0. 0. 0. 1.80505414e-03 0. 0. 0. 0. 0. 0.
      1.80505414e-03 1.80505414e-03 0. 0. 0. 0. 1.80505414e-03 0. 0. 0.
      0. 0. 0. 0. 3.61010828e-03 0. 0. 0. 0. 0. 0. 0. 3.61010828e-03 0.
      0. 1.80505414e-03 0. 0. 1.80505414e-03 1.80505414e-03 0. 0. 0. 0.
      0. 0. 0. 1.80505414e-03 0. 0. 0. 0. 3.61010828e-03 0. 0.
      1.80505414e-03 0. 0. 0. 0. 0. 0. 0. 0. 0. 0. 1.80505414e-03
      3.61010828e-03 0. 0. 0. 0. 0. 3.61010828e-03 0. 0. 3.61010828e-03
      0. 1.80505414e-03 0. 7.22021656e-03 0. 0. 0. 0. 0. 1.80505414e-03
      0. 0. 3.61010828e-03 3.61010828e-03 3.61010828e-03 5.41516254e-03
      3.61010828e-03 0. 0. 0. 1.80505414e-03 0. 0. 1.80505414e-03 0. 0.
      5.41516254e-03 0. 0. 1.80505414e-03 0. 0. 0. 5.41516254e-03 0. 0.
      0. 0. 0. 0. 0. 0. 0. 0. 0. 1.80505414e-03 0. 3.61010828e-03
      3.61010828e-03 0. 0. 0. 1.80505414e-03 0. 0. 0. 1.80505414e-03
      7.22021656e-03 0. 0. 0. 0. 0. 1.80505414e-03 0. 0. 0. 0.
      1.80505414e-03 0. 1.80505414e-03 1.80505414e-03 0. 5.41516254e-03
      1.80505414e-03 0. 1.80505414e-03 0. 1.80505414e-03 0. 0.
      1.80505414e-03 1.80505414e-03 0. 0. 0. 5.41516254e-03 0. 0. 0. 0.
      1.80505414e-03 0. 1.80505414e-03 0. 1.80505414e-03 0.
      1.80505414e-03 0. 0. 0. 0. 0. 0. 0. 0. 0. 0. 0. 0. 0. 0.
      3.24909762e-02 0. 0. 3.61010828e-03 1.80505414e-03 0. 0. 0. 0. 0.
      0. 0. 0. 3.61010828e-03 1.80505414e-03 0. 1.80505414e-03 0. 0. 0.
      0. 3.61010828e-03 0. 0. 0. 1.80505414e-03 0. 0. 0. 0. 0. 0. 0. 0.
      0. 0. 1.80505414e-03 0. 1.80505414e-03 0. 0. 1.80505414e-03 0. 0.
      0. 0. 0. 0. 0. 0. 3.61010828e-03 0. 1.80505414e-03 0.
      1.80505414e-03 0. 0. 0. 0. 0. 0. 0. 0. 1.80505414e-03 0. 0. 0. 0.
      1.80505414e-03 0. 1.80505414e-03 0. 1.80505414e-03 1.80505414e-03
      1.80505414e-03 3.61010828e-03 0. 1.80505414e-03 0. 0.
      1.80505414e-03 0. 0. 5.41516254e-03 0. 1.80505414e-03
      3.61010828e-03 0. 0. 0. 0. 0. 0. 1.80505414e-03 0. 0. 0.
      1.80505414e-03 0. 0. 0. 1.80505414e-03 0. 3.61010828e-03 0.
      7.22021656e-03 1.80505414e-03 0. 0. 0. 0. 0. 0. 0. 0. 0. 0. 0. 0.
      0. 0. 0. 0. 0. 0. 5.41516254e-03 0.</_>
    <_>
      8.18330620e-04 8.18330620e-04 0. 0. 2.45499192e-03 0.
      8.18330620e-04 8.18330620e-04 1.63666124e-03 0. 0. 2.45499192e-03
      8.18330620e-04 2.45499192e-03 8.18330620e-04 0. 8.18330620e-04
      8.18330620e-04 8.18330620e-04 8.18330620e-04 1.63666124e-03 0. 0.
      3.27332248e-03 0. 0. 0. 0. 1.63666124e-03 2.45499192e-03
      2.45499192e-03 0. 8.18330620e-04 0. 1.63666124e-03 8.18330620e-04
      1.63666124e-03 0. 8.18330620e-04 1.63666124e-03 8.18330620e-04
      2.45499192e-03 0. 0. 0. 0. 8.18330620e-04 0. 0. 8.18330620e-04
      1.63666124e-03 1.63666124e-03 8.18330620e-04 1.63666124e-03 0.
      8.18330620e-04 0. 1.63666124e-03 1.63666124e-03 1.63666124e-03 0.
      0. 0. 8.18330620e-04 2.45499192e-03 0. 8.18330620e-04 0.
      1.63666124e-03 8.18330620e-04 0. 2.45499192e-03 1.63666124e-03
      1.63666124e-03 8.18330620e-04 8.18330620e-04 1.63666124e-03
      4.90998384e-03 0. 1.63666124e-03 0. 0. 0. 8.18330620e-04
      8.18330620e-04 0. 1.63666124e-03 0. 0. 0. 0. 1.63666124e-03
      1.63666124e-03 2.45499192e-03 2.45499192e-03 2.45499192e-03 0.
      8.18330620e-04 8.18330620e-04 0. 0. 8.18330620e-04 1.63666124e-03
      8.18330620e-04 0. 1.63666124e-03 1.63666124e-03 8.18330620e-04
      1.63666124e-03 1.63666124e-03 4.90998384e-03 0. 8.18330620e-04 0.
      0. 2.45499192e-03 8.18330620e-04 8.18330620e-04 0. 8.18330620e-04
      1.63666124e-03 3.27332248e-03 0. 0. 0. 8.18330620e-04
      1.63666124e-03 8.18330620e-04 0. 1.63666124e-03 2.45499192e-03
      8.18330620e-04 8.18330620e-04 3.27332248e-03 8.18330620e-04 0.
      1.63666124e-03 8.18330620e-04 0. 8.18330620e-04 0. 0.
      1.63666124e-03 0. 1.63666124e-03 0. 0. 1.63666124e-03
      8.18330620e-04 0. 0. 4.09165304e-03 8.18330620e-04 8.18330620e-04
      8.18330620e-04 0. 8.18330620e-04 0. 1.63666124e-03 1.63666124e-03
      8.18330620e-04 1.63666124e-03 0. 1.63666124e-03 1.63666124e-03
      8.18330620e-04 0. 0. 8.18330620e-04 0. 0. 8.18330620e-04 0. 0. 0.
      7.36497575e-03 0. 8.18330620e-04 0. 1.63666124e-03 0.
      8.18330620e-04 8.18330620e-04 8.18330620e-04 0. 0. 8.18330620e-04
      8.18330620e-04 8.18330620e-04 8.18330620e-04 8.18330620e-04
      2.45499192e-03 0. 8.18330620e-04 0. 1.63666124e-03 2.45499192e-03
      8.18330620e-04 1.63666124e-03 1.63666124e-03 1.63666124e-03
      8.18330620e-04 0. 1.63666124e-03 0. 8.18330620e-04 0. 0.
      1.63666124e-03 1.63666124e-03 8.18330620e-04 0. 8.18330620e-04
      8.18330620e-04 1.63666124e-03 0. 3.27332248e-03 8.18330620e-04
      8.18330620e-04 1.63666124e-03 0. 8.18330620e-04 3.27332248e-03
      1.63666124e-03 1.63666124e-03 4.09165304e-03 8.18330620e-04
      3.27332248e-03 3.27332248e-03 0. 2.45499192e-03 0. 0.
      1.63666124e-03 8.18330620e-04 8.18330620e-04 0. 0. 1.63666124e-03
      5.72831417e-03 8.18330620e-04 2.45499192e-03 8.18330620e-04 0. 0.
      8.18330620e-04 1.63666124e-03 1.63666124e-03 2.45499192e-03 0.
      8.18330620e-04 8.18330620e-04 2.45499192e-03 8.18330620e-04
      4.09165304e-03 8.18330620e-04 0. 0. 0. 8.18330620e-04
      3.27332248e-03 1.63666124e-03 8.18330620e-04 1.63666124e-03
      1.63666124e-03 0. 4.09165304e-03 0. 8.18330620e-04 0. 0. 0. 0.
      8.18330620e-04 8.18330620e-04 8.18330620e-04 8.18330620e-04
      2.45499192e-03 8.18330620e-04 2.45499192e-03 8.18330620e-04
      8.18330620e-04 0. 0. 1.63666124e-03 8.18330620e-04 0. 0.
      8.18330620e-04 1.63666124e-03 0. 8.18330620e-04 8.18330620e-04 0.
      2.45499192e-03 3.27332248e-03 8.18330620e-04 8.18330620e-04
      2.45499192e-03 8.18330620e-04 0. 1.63666124e-03 2.45499192e-03 0.
      2.45499192e-03 8.18330620e-04 4.90998384e-03 1.63666124e-03 0. 0.
      2.45499192e-03 0. 8.18330620e-04 0. 8.18330620e-04 1.63666124e-03
      0. 1.63666124e-03 8.18330620e-04 0. 0. 0. 0. 4.09165304e-03 0.
      8.18330620e-04 0. 1.63666124e-03 8.18330620e-04 0. 0.
      1.63666124e-03 0. 8.18330620e-04 8.18330620e-04 8.18330620e-04
      1.63666124e-03 8.18330620e-04 0. 0. 8.18330620e-04 0. 0.
      3.27332248e-03 1.63666124e-03 8.18330620e-04 0. 8.18330620e-04
      1.63666124e-03 0. 0. 2.45499192e-03 0. 8.18330620e-04 0. 0.
      8.18330620e-04 0. 0. 0. 4.09165304e-03 1.63666124e-03
      2.45499192e-03 2.45499192e-03 0. 2.45499192e-03 0. 8.18330620e-04
      0. 1.63666124e-03 2.45499192e-03 8.18330620e-04 1.63666124e-03 0.
      8.18330620e-04 8.18330620e-04 0. 0. 0. 1.63666124e-03
      8.18330620e-04 1.63666124e-03 1.63666124e-03 8.18330620e-04
      4.09165304e-03 8.18330620e-04 0. 0. 8.18330620e-04 0.
      8.18330620e-04 0. 8.18330620e-04 8.18330620e-04 1.63666124e-03 0.
      1.63666124e-03 2.45499192e-03 2.45499192e-03 8.18330620e-04
      2.45499192e-03 0. 1.63666124e-03 8.18330620e-04 0. 0.
      8.18330620e-04 0. 0. 0. 8.18330620e-04 0. 8.18330620e-04
      8.18330620e-04 0. 2.45499192e-03 1.63666124e-03 3.27332248e-03 0.
      8.18330620e-04 0. 0. 8.18330620e-04 0. 1.63666124e-03 0. 0.
      8.18330620e-04 0. 4.09165304e-03 1.63666124e-03 8.18330620e-04
      8.18330620e-04 1.63666124e-03 0. 8.18330620e-04 1.63666124e-03
      1.63666124e-03 2.45499192e-03 8.18330620e-04 1.63666124e-03 0. 0.
      8.18330620e-04 0. 0. 8.18330620e-04 3.27332248e-03 0. 0. 0.
      8.18330620e-04 0. 8.18330620e-04 1.63666124e-03 8.18330620e-04
      8.18330620e-04 8.18330620e-04 1.63666124e-03 8.18330620e-04 0.
      8.18330620e-04 2.45499192e-03 0. 1.63666124e-03 8.18330620e-04
      1.63666124e-03 2.45499192e-03 1.63666124e-03 8.18330620e-04
      8.18330620e-04 8.18330620e-04 8.18330620e-04 8.18330620e-04 0. 0.
      0. 0. 0. 0. 8.18330620e-04 0. 0. 8.18330620e-04 0. 3.27332248e-03
      0. 8.18330620e-04 2.45499192e-03 8.18330620e-04 0. 0.
      2.45499192e-03 0. 0. 1.63666124e-03 0. 8.18330620e-04
      8.18330620e-04 8.18330620e-04 0. 0. 1.63666124e-03 1.63666124e-03
      1.63666124e-03 1.63666124e-03 1.63666124e-03 0. 0. 8.18330620e-04
      1.63666124e-03 2.45499192e-03 0. 2.45499192e-03 8.18330620e-04
      8.18330620e-04 0. 0. 0. 0. 8.18330620e-04 8.18330620e-04
      1.63666124e-03 1.63666124e-03 8.18330620e-04 0. 0. 0.
      3.27332248e-03 1.63666124e-03 0. 0. 8.18330620e-04 0. 0.
      8.18330620e-04 1.63666124e-03 8.18330620e-04 8.18330620e-04
      1.63666124e-03 8.18330620e-04 0. 0. 0. 8.18330620e-04
      1.63666124e-03 8.18330620e-04 8.18330620e-04 8.18330620e-04
      8.18330620e-04 8.18330620e-04 2.45499192e-03 0. 8.18330620e-04 0.
      0. 1.63666124e-03 1.63666124e-03 8.18330620e-04 3.27332248e-03 0.
      2.45499192e-03 0. 8.18330620e-04 0. 1.63666124e-03 1.63666124e-03
      0. 0. 1.63666124e-03 0. 1.63666124e-03 0. 1.63666124e-03
      3.27332248e-03 8.18330620e-04 0. 4.09165304e-03 8.18330620e-04
      8.18330620e-04 1.63666124e-03 3.27332248e-03 8.18330620e-04
      3.27332248e-03 1.63666124e-03 0. 0. 0. 0. 1.63666124e-03 0.
      1.63666124e-03 0. 1.63666124e-03 0. 1.63666124e-03 0.
      8.18330620e-04 3.27332248e-03 8.18330620e-04 3.27332248e-03
      8.18330620e-04 8.18330620e-04 0. 1.63666124e-03 8.18330620e-04
      1.63666124e-03 2.45499192e-03 0. 2.45499192e-03 0. 8.18330620e-04
      0. 4.09165304e-03 0. 0. 1.63666124e-03 8.18330620e-04
      1.63666124e-03 2.45499192e-03 2.45499192e-03 8.18330620e-04
      1.63666124e-03 3.27332248e-03 1.63666124e-03 0. 1.63666124e-03 0.
      8.18330620e-04 0. 1.63666124e-03 8.18330620e-04 0. 2.45499192e-03
      1.63666124e-03 1.63666124e-03 4.09165304e-03 8.18330620e-04
      3.27332248e-03 0. 1.63666124e-03 1.63666124e-03 8.18330620e-04
      2.45499192e-03 8.18330620e-04 2.45499192e-03 0. 4.09165304e-03
      2.45499192e-03 0. 0. 0. 1.63666124e-03 8.18330620e-04
      8.18330620e-04 0. 2.45499192e-03 0. 2.45499192e-03 1.63666124e-03
      0. 0. 8.18330620e-04 8.18330620e-04 0. 0. 2.45499192e-03
      8.18330620e-04 8.18330620e-04 0. 2.45499192e-03 1.63666124e-03 0.
      2.45499192e-03 2.45499192e-03 1.63666124e-03 0. 1.63666124e-03
      8.18330620e-04 0. 0. 1.63666124e-03 0. 8.18330620e-04
      8.18330620e-04 0. 2.45499192e-03 0. 8.18330620e-04 2.45499192e-03
      8.18330620e-04 0. 8.18330620e-04 1.63666124e-03 8.18330620e-04
      8.18330620e-04 1.63666124e-03 0. 8.18330620e-04 0. 0.
      8.18330620e-04 1.63666124e-03 1.63666124e-03 3.27332248e-03
      2.45499192e-03 0. 8.18330620e-04 8.18330620e-04 0. 1.63666124e-03
      2.45499192e-03 8.18330620e-04 2.45499192e-03 1.63666124e-03
      4.09165304e-03 8.18330620e-04 0. 8.18330620e-04 0. 2.45499192e-03
      0. 2.45499192e-03 8.18330620e-04 8.18330620e-04 2.45499192e-03 0.
      8.18330620e-04 0. 8.18330620e-04 1.63666124e-03 1.63666124e-03
      8.18330620e-04 0. 8.18330620e-04 8.18330620e-04 2.45499192e-03 0.
      0. 8.18330620e-04 8.18330620e-04 8.18330620e-04 0. 8.18330620e-04
      0. 8.18330620e-04 0. 8.18330620e-04 0. 3.27332248e-03
      1.63666124e-03 8.18330620e-04 1.63666124e-03 1.63666124e-03
      8.18330620e-04 0. 0. 1.63666124e-03 1.63666124e-03 0. 0.
      2.45499192e-03 8.18330620e-04 4.09165304e-03 1.63666124e-03
      8.18330620e-04 0. 0. 8.18330620e-04 8.18330620e-04 2.45499192e-03
      8.18330620e-04 8.18330620e-04 1.63666124e-03 8.18330620e-04 0. 0.
      8.18330620e-04 1.63666124e-03 0. 1.63666124e-03 8.18330620e-04 0.
      1.63666124e-03 8.18330620e-04 5.72831417e-03 0. 1.63666124e-03
      1.63666124e-03 8.18330620e-04 8.18330620e-04 0. 8.18330620e-04
      1.63666124e-03 2.45499192e-03 1.63666124e-03 8.18330620e-04 0. 0.
      3.27332248e-03 8.18330620e-04 8.18330620e-04 0. 1.63666124e-03 0.
      1.63666124e-03 0. 1.63666124e-03 2.45499192e-03 2.45499192e-03 0.
      8.18330620e-04 8.18330620e-04 8.18330620e-04 0. 0. 8.18330620e-04
      0. 1.63666124e-03 0. 0. 0. 8.18330620e-04 8.18330620e-04
      1.63666124e-03 0. 8.18330620e-04 1.63666124e-03 8.18330620e-04 0.
      0. 0. 8.18330620e-04 0. 3.27332248e-03 0. 8.18330620e-04
      8.18330620e-04 0. 0. 4.90998384e-03 1.63666124e-03 8.18330620e-04
      2.45499192e-03 2.45499192e-03 0. 1.63666124e-03 0. 0. 0.
      8.18330620e-04 0. 1.63666124e-03 0. 8.18330620e-04 3.27332248e-03
      2.45499192e-03 0. 0. 2.45499192e-03 1.63666124e-03 2.45499192e-03
      1.63666124e-03 1.63666124e-03 8.18330620e-04 1.63666124e-03
      8.18330620e-04 1.63666124e-03 8.18330620e-04 1.63666124e-03
      1.63666124e-03 0. 8.18330620e-04 0. 1.63666124e-03 8.18330620e-04
      8.18330620e-04 1.63666124e-03 0. 8.18330620e-04 0. 0.
      8.18330620e-04 8.18330620e-04 1.63666124e-03 8.18330620e-04 0.
      1.63666124e-03 8.18330620e-04 0. 8.18330620e-04 8.18330620e-04
      8.18330620e-04 1.63666124e-03 0. 0. 8.18330620e-04 2.45499192e-03
      8.18330620e-04 1.63666124e-03 2.45499192e-03 8.18330620e-04 0. 0.
      0. 8.18330620e-04 1.63666124e-03 8.18330620e-04 8.18330620e-04
      8.18330620e-04 0. 8.18330620e-04 1.63666124e-03 0. 0. 0.
      2.45499192e-03 1.63666124e-03 0. 2.45499192e-03 8.18330620e-04
      1.63666124e-03 8.18330620e-04 0. 8.18330620e-04 0. 0.
      8.18330620e-04 0. 8.18330620e-04 1.63666124e-03 1.63666124e-03
      2.45499192e-03 1.63666124e-03 0. 0. 2.45499192e-03 1.63666124e-03
      8.18330620e-04 1.63666124e-03 2.45499192e-03 1.63666124e-03
      2.45499192e-03 8.18330620e-04 0. 1.63666124e-03 3.27332248e-03
      8.18330620e-04 2.45499192e-03 0. 0. 1.63666124e-03 2.45499192e-03
      2.45499192e-03 0. 3.27332248e-03 2.45499192e-03 8.18330620e-04 0.
      8.18330620e-04 2.45499192e-03 8.18330620e-04 1.63666124e-03
      8.18330620e-04 8.18330620e-04 1.63666124e-03 8.18330620e-04
      2.45499192e-03 2.45499192e-03 0. 1.63666124e-03 0. 2.45499192e-03
      8.18330620e-04 0. 1.63666124e-03 8.18330620e-04 8.18330620e-04
      8.18330620e-04 0. 8.18330620e-04 1.63666124e-03 8.18330620e-04 0.
      0. 8.18330620e-04 8.18330620e-04 8.18330620e-04 0. 1.63666124e-03
      3.27332248e-03 1.63666124e-03 8.18330620e-04 0. 4.09165304e-03
      8.18330620e-04 1.63666124e-03 8.18330620e-04 8.18330620e-04 0.</_>
    <_>
      0. 9.68054228e-04 1.93610846e-03 1.93610846e-03 0. 0. 0. 0.
      1.93610846e-03 0. 9.68054228e-04 0. 0. 9.68054228e-04 0.
      9.68054228e-04 4.84027108e-03 0. 9.68054228e-04 1.93610846e-03
      1.93610846e-03 9.68054228e-04 0. 0. 1.93610846e-03 0. 0.
      3.87221691e-03 9.68054228e-04 0. 9.68054228e-04 9.68054228e-04
      2.90416274e-03 2.90416274e-03 2.90416274e-03 9.68054228e-04
      9.68054228e-04 2.90416274e-03 9.68054228e-04 1.93610846e-03 0.
      1.93610846e-03 9.68054228e-04 9.68054228e-04 0. 0. 0. 0. 0. 0.
      9.68054228e-04 0. 9.68054228e-04 1.93610846e-03 0. 9.68054228e-04
      0. 1.93610846e-03 0. 9.68054228e-04 1.93610846e-03 0.
      9.68054228e-04 0. 9.68054228e-04 0. 9.68054228e-04 9.68054228e-04
      0. 0. 0. 9.68054228e-04 0. 0. 2.90416274e-03 0. 0. 0. 0.
      9.68054228e-04 0. 1.93610846e-03 0. 0. 9.68054228e-04
      9.68054228e-04 3.87221691e-03 0. 2.90416274e-03 9.68054228e-04
      9.68054228e-04 9.68054228e-04 1.93610846e-03 3.87221691e-03 0.
      9.68054228e-04 1.93610846e-03 2.90416274e-03 2.90416274e-03
      9.68054228e-04 9.68054228e-04 0. 0. 0. 0. 3.87221691e-03
      2.90416274e-03 0. 0. 0. 0. 0. 2.90416274e-03 3.87221691e-03
      9.68054228e-04 1.93610846e-03 9.68054228e-04 0. 2.90416274e-03
      9.68054228e-04 0. 0. 0. 6.77637942e-03 0. 1.93610846e-03 0.
      1.93610846e-03 9.68054228e-04 1.93610846e-03 0. 0. 9.68054228e-04
      9.68054228e-04 1.93610846e-03 9.68054228e-04 3.87221691e-03
      2.90416274e-03 9.68054228e-04 9.68054228e-04 9.68054228e-04 0.
      9.68054228e-04 9.68054228e-04 9.68054228e-04 0. 0. 3.87221691e-03
      6.77637942e-03 0. 0. 1.93610846e-03 9.68054228e-04 9.68054228e-04
      0. 1.93610846e-03 0. 9.68054228e-04 2.90416274e-03 9.68054228e-04
      1.93610846e-03 0. 2.90416274e-03 0. 9.68054228e-04 0. 0.
      1.93610846e-03 9.68054228e-04 0. 9.68054228e-04 9.68054228e-04
      9.68054228e-04 9.68054228e-04 1.93610846e-03 0. 1.93610846e-03 0.
      9.68054228e-04 9.68054228e-04 0. 2.90416274e-03 9.68054228e-04
      1.93610846e-03 9.68054228e-04 1.93610846e-03 2.90416274e-03
      1.93610846e-03 9.68054228e-04 0. 9.68054228e-04 1.93610846e-03
      1.93610846e-03 9.68054228e-04 0. 9.68054228e-04 0. 0. 0. 0.
      9.68054228e-04 1.93610846e-03 9.68054228e-04 9.68054228e-04
      2.90416274e-03 0. 0. 0. 1.93610846e-03 9.68054228e-04
      1.93610846e-03 0. 0. 1.93610846e-03 0. 0. 0. 9.68054228e-04 0.
      9.68054228e-04 1.93610846e-03 9.68054228e-04 9.68054228e-04
      3.87221691e-03 2.90416274e-03 0. 9.68054228e-04 0. 0. 0.
      1.93610846e-03 9.68054228e-04 2.90416274e-03 0. 3.87221691e-03 0.
      0. 1.93610846e-03 0. 0. 0. 9.68054228e-04 1.93610846e-03 0. 0. 0.
      9.68054228e-04 0. 0. 0. 0. 0. 0. 9.68054228e-04 3.87221691e-03 0.
      9.68054228e-04 9.68054228e-04 9.68054228e-04 0. 0. 9.68054228e-04
      1.93610846e-03 1.93610846e-03 1.93610846e-03 0. 9.68054228e-04
      9.68054228e-04 0. 2.90416274e-03 9.68054228e-04 0. 1.93610846e-03
      2.90416274e-03 1.93610846e-03 1.93610846e-03 0. 0. 0.
      2.90416274e-03 9.68054228e-04 9.68054228e-04 0. 0. 9.68054228e-04
      0. 9.68054228e-04 1.93610846e-03 0. 9.68054228e-04 0.
      9.68054228e-04 1.93610846e-03 9.68054228e-04 0. 9.68054228e-04
      1.93610846e-03 1.93610846e-03 9.68054228e-04 0. 0. 1.93610846e-03
      0. 9.68054228e-04 0. 1.93610846e-03 0. 9.68054228e-04 0.
      9.68054228e-04 2.90416274e-03 1.93610846e-03 1.93610846e-03
      9.68054228e-04 1.93610846e-03 9.68054228e-04 1.93610846e-03
      9.68054228e-04 0. 2.90416274e-03 9.68054228e-04 0. 1.93610846e-03
      0. 0. 9.68054228e-04 0. 0. 0. 0. 0. 0. 3.87221691e-03 0.
      9.68054228e-04 0. 2.90416274e-03 2.90416274e-03 9.68054228e-04
      9.68054228e-04 3.87221691e-03 0. 0. 0. 0. 0. 1.93610846e-03
      9.68054228e-04 1.93610846e-03 9.68054228e-04 9.68054228e-04
      1.93610846e-03 1.93610846e-03 9.68054228e-04 9.68054228e-04
      9.68054228e-04 9.68054228e-04 3.87221691e-03 0. 1.93610846e-03 0.
      9.68054228e-04 2.90416274e-03 0. 1.93610846e-03 1.93610846e-03 0.
      9.68054228e-04 9.68054228e-04 1.93610846e-03 0. 1.93610846e-03 0.
      0. 0. 1.93610846e-03 9.68054228e-04 1.93610846e-03 0.
      1.93610846e-03 0. 9.68054228e-04 2.90416274e-03 2.90416274e-03 0.
      9.68054228e-04 0. 2.90416274e-03 0. 0. 0. 0. 9.68054228e-04 0.
      9.68054228e-04 1.93610846e-03 3.87221691e-03 0. 2.90416274e-03
      9.68054228e-04 0. 9.68054228e-04 0. 0. 0. 1.93610846e-03
      9.68054228e-04 0. 9.68054228e-04 0. 1.93610846e-03 1.93610846e-03
      0. 9.68054228e-04 1.93610846e-03 9.68054228e-04 3.87221691e-03 0.
      1.93610846e-03 9.68054228e-04 0. 1.93610846e-03 9.68054228e-04 0.
      0. 3.87221691e-03 1.93610846e-03 1.93610846e-03 1.93610846e-03 0.
      9.68054228e-04 9.68054228e-04 2.90416274e-03 1.93610846e-03
      1.93610846e-03 9.68054228e-04 0. 0. 9.68054228e-04 9.68054228e-04
      3.87221691e-03 9.68054228e-04 9.68054228e-04 9.68054228e-04
      9.68054228e-04 9.68054228e-04 1.93610846e-03 0. 1.93610846e-03
      1.93610846e-03 0. 3.87221691e-03 2.90416274e-03 1.93610846e-03
      3.87221691e-03 9.68054228e-04 0. 0. 0. 0. 4.84027108e-03
      2.90416274e-03 0. 1.93610846e-03 2.90416274e-03 0. 1.93610846e-03
      0. 1.93610846e-03 0. 1.93610846e-03 9.68054228e-04 9.68054228e-04
      0. 0. 9.68054228e-04 0. 1.93610846e-03 9.68054228e-04
      9.68054228e-04 9.68054228e-04 9.68054228e-04 9.68054228e-04
      9.68054228e-04 9.68054228e-04 9.68054228e-04 9.68054228e-04
      9.68054228e-04 0. 9.68054228e-04 9.68054228e-04 0. 9.68054228e-04
      9.68054228e-04 9.68054228e-04 0. 1.93610846e-03 0. 9.68054228e-04
      1.93610846e-03 0. 2.90416274e-03 0. 2.90416274e-03 9.68054228e-04
      0. 0. 0. 0. 2.90416274e-03 1.93610846e-03 1.93610846e-03 0.
      2.90416274e-03 0. 9.68054228e-04 7.74443382e-03 0. 0. 0.
      9.68054228e-04 0. 0. 9.68054228e-04 0. 1.93610846e-03
      2.90416274e-03 0. 1.93610846e-03 9.68054228e-04 9.68054228e-04
      9.68054228e-04 0. 3.87221691e-03 0. 0. 9.68054228e-04 0.
      9.68054228e-04 1.93610846e-03 1.93610846e-03 9.68054228e-04
      1.93610846e-03 0. 9.68054228e-04 1.93610846e-03 9.68054228e-04 0.
      1.93610846e-03 3.87221691e-03 0. 0. 9.68054228e-04 0. 0. 0.
      1.93610846e-03 9.68054228e-04 9.68054228e-04 9.68054228e-04
      9.68054228e-04 0. 1.93610846e-03 5.80832548e-03 0. 2.90416274e-03
      0. 9.68054228e-04 9.68054228e-04 9.68054228e-04 0. 0.
      9.68054228e-04 0. 1.93610846e-03 0. 9.68054228e-04 3.87221691e-03
      1.93610846e-03 0. 2.90416274e-03 0. 6.77637942e-03 0. 0. 0. 0. 0.
      1.93610846e-03 0. 0. 2.90416274e-03 1.93610846e-03 0.
      9.68054228e-04 0. 0. 0. 0. 1.93610846e-03 9.68054228e-04 0.
      9.68054228e-04 9.68054228e-04 0. 9.68054228e-04 9.68054228e-04
      9.68054228e-04 9.68054228e-04 9.68054228e-04 9.68054228e-04
      9.68054228e-04 0. 0. 0. 9.68054228e-04 9.68054228e-04
      1.93610846e-03 9.68054228e-04 0. 1.93610846e-03 1.93610846e-03
      1.93610846e-03 0. 9.68054228e-04 0. 9.68054228e-04 2.90416274e-03
      0. 2.90416274e-03 1.93610846e-03 0. 9.68054228e-04 9.68054228e-04
      0. 9.68054228e-04 0. 0. 1.93610846e-03 9.68054228e-04
      9.68054228e-04 9.68054228e-04 9.68054228e-04 9.68054228e-04 0. 0.
      1.93610846e-03 9.68054228e-04 0. 9.68054228e-04 9.68054228e-04
      1.93610846e-03 9.68054228e-04 1.93610846e-03 0. 0. 2.90416274e-03
      9.68054228e-04 0. 1.93610846e-03 0. 1.93610846e-03 9.68054228e-04
      0. 0. 9.68054228e-04 1.93610846e-03 9.68054228e-04 0. 0. 0. 0. 0.
      9.68054228e-04 9.68054228e-04 0. 9.68054228e-04 0. 0.
      9.68054228e-04 9.68054228e-04 9.68054228e-04 0. 4.84027108e-03 0.
      1.93610846e-03 9.68054228e-04 9.68054228e-04 0. 1.93610846e-03
      9.68054228e-04 9.68054228e-04 0. 9.68054228e-04 0. 0.
      9.68054228e-04 0. 0. 9.68054228e-04 9.68054228e-04 1.93610846e-03
      0. 9.68054228e-04 3.87221691e-03 0. 0. 0. 1.93610846e-03
      1.93610846e-03 0. 3.87221691e-03 1.93610846e-03 0. 0.
      8.71248823e-03 9.68054228e-04 0. 2.90416274e-03 0. 0. 0. 0. 0.
      1.93610846e-03 0. 2.90416274e-03 1.93610846e-03 1.93610846e-03 0.
      2.90416274e-03 1.93610846e-03 3.87221691e-03 1.93610846e-03
      9.68054228e-04 9.68054228e-04 0. 0. 1.93610846e-03 0.
      9.68054228e-04 0. 1.93610846e-03 0. 2.90416274e-03 1.93610846e-03
      1.93610846e-03 0. 9.68054228e-04 0. 0. 3.87221691e-03 0. 0. 0.
      2.90416274e-03 9.68054228e-04 0. 0. 0. 9.68054228e-04
      1.93610846e-03 0. 1.93610846e-03 2.90416274e-03 0. 1.93610846e-03
      9.68054228e-04 9.68054228e-04 0. 3.87221691e-03 2.90416274e-03
      9.68054228e-04 2.90416274e-03 0. 0. 9.68054228e-04 0.
      9.68054228e-04 9.68054228e-04 0. 2.90416274e-03 0. 9.68054228e-04
      0. 1.93610846e-03 0. 0. 1.93610846e-03 0. 0. 2.90416274e-03 0.
      1.93610846e-03 1.93610846e-03 0. 9.68054228e-04 1.93610846e-03
      1.93610846e-03 0. 9.68054228e-04 9.68054228e-04 0. 9.68054228e-04
      9.68054228e-04 0. 9.68054228e-04 1.93610846e-03 0. 0.
      9.68054228e-04 0. 1.93610846e-03 9.68054228e-04 0. 9.68054228e-04
      3.87221691e-03 1.93610846e-03 0. 9.68054228e-04 0. 9.68054228e-04
      0. 9.68054228e-04 0. 0. 2.90416274e-03 9.68054228e-04 0.
      4.84027108e-03 1.93610846e-03 1.93610846e-03 0. 9.68054228e-04 0.
      0. 9.68054228e-04 0. 9.68054228e-04 0. 2.90416274e-03 0. 0.
      9.68054228e-04 0. 1.93610846e-03 9.68054228e-04 0. 1.93610846e-03
      0. 0. 0. 0. 0. 9.68054228e-04 9.68054228e-04 0. 1.93610846e-03
      1.93610846e-03 9.68054228e-04 0. 9.68054228e-04 1.93610846e-03
      1.93610846e-03 9.68054228e-04 9.68054228e-04 0. 0. 9.68054228e-04
      0. 9.68054228e-04 0. 9.68054228e-04 0. 9.68054228e-04
      1.93610846e-03 0. 0. 0. 1.93610846e-03 0. 9.68054228e-04
      9.68054228e-04 0. 9.68054228e-04 9.68054228e-04 9.68054228e-04
      9.68054228e-04 9.68054228e-04 9.68054228e-04 9.68054228e-04 0. 0.
      1.93610846e-03 0. 9.68054228e-04 9.68054228e-04 0. 9.68054228e-04
      0. 9.68054228e-04 0. 0. 0. 1.93610846e-03 1.93610846e-03
      1.93610846e-03 0. 9.68054228e-04 2.90416274e-03 1.93610846e-03
      9.68054228e-04 0. 0. 0. 2.90416274e-03 9.68054228e-04 0.
      1.93610846e-03 9.68054228e-04 0. 9.68054228e-04 0. 0.
      9.68054228e-04 0. 0. 9.68054228e-04 0. 0. 9.68054228e-04
      1.93610846e-03 0. 1.93610846e-03 3.87221691e-03 1.93610846e-03
      9.68054228e-04 9.68054228e-04 9.68054228e-04 0. 0. 0.
      9.68054228e-04 2.90416274e-03 9.68054228e-04 0. 1.93610846e-03
      1.93610846e-03 0. 0. 2.90416274e-03 9.68054228e-04 9.68054228e-04
      0. 9.68054228e-04 9.68054228e-04 0. 9.68054228e-04 0.
      2.90416274e-03 9.68054228e-04 0. 9.68054228e-04 9.68054228e-04 0.
      0. 0. 0. 2.90416274e-03 9.68054228e-04 9.68054228e-04
      9.68054228e-04 9.68054228e-04 1.93610846e-03 0. 0. 0.
      2.90416274e-03 0. 0. 9.68054228e-04 1.93610846e-03 0. 0.
      1.93610846e-03 2.90416274e-03 9.68054228e-04 9.68054228e-04 0.
      2.90416274e-03 1.93610846e-03 9.68054228e-04 0. 0. 0. 0.
      1.93610846e-03 9.68054228e-04 0. 0.</_>
    <_>
      1.44717796e-03 0. 0. 0. 2.89435592e-03 0. 4.34153387e-03
      7.23588979e-03 0. 0. 0. 5.78871183e-03 4.34153387e-03
      1.44717796e-03 1.44717796e-03 0. 0. 2.89435592e-03 0.
      1.44717796e-03 0. 0. 1.44717796e-03 1.44717796e-03 0. 0. 0. 0.
      1.44717796e-03 0. 0. 0. 0. 0. 2.89435592e-03 0. 0. 0. 0. 0. 0.
      1.44717796e-03 1.44717796e-03 0. 0. 0. 1.44717796e-03 0. 0. 0. 0.
      1.44717796e-03 0. 0. 5.78871183e-03 1.44717796e-03 1.44717796e-02
      0. 0. 1.44717796e-03 1.44717796e-03 0. 0. 0. 0. 3.76266278e-02 0.
      0. 1.44717796e-03 0. 0. 0. 0. 0. 2.89435592e-03 1.44717796e-03
      1.44717796e-03 1.44717796e-03 0. 0. 1.44717796e-03 0. 0. 0.
      1.44717796e-03 0. 4.34153387e-03 0. 0. 1.44717796e-03
      1.44717796e-03 0. 1.44717796e-03 0. 0. 0. 0. 0. 0. 0. 0. 0. 0. 0.
      7.23588979e-03 2.89435592e-03 1.44717796e-03 1.44717796e-03 0. 0.
      0. 2.89435592e-03 0. 0. 0. 0. 1.44717796e-03 0. 0. 0. 0.
      4.34153387e-03 1.44717796e-03 0. 1.44717796e-03 0. 0. 0.
      1.44717796e-03 1.44717796e-03 2.89435592e-03 0. 0. 0. 0.
      1.44717796e-03 0. 2.89435592e-03 0. 0. 0. 0. 0. 7.23588979e-03 0.
      0. 0. 0. 0. 1.44717796e-03 0. 0. 0. 0. 0. 0. 5.78871183e-03
      2.89435592e-03 0. 4.34153387e-03 0. 1.44717796e-03 0.
      1.01302452e-02 0. 0. 0. 0. 1.44717796e-03 0. 2.89435592e-03
      1.44717796e-03 0. 0. 0. 0. 0. 0. 0. 1.44717796e-03 0.
      1.44717796e-03 1.44717796e-03 2.89435592e-03 0. 0. 0. 0. 0. 0. 0.
      1.44717796e-03 0. 0. 1.44717796e-03 0. 1.44717796e-03 0.
      2.89435592e-03 0. 0. 0. 0. 0. 0. 0. 8.68306775e-03 0.
      1.44717796e-03 0. 0. 2.89435592e-03 5.78871183e-03 1.44717796e-03
      0. 0. 0. 0. 0. 1.44717796e-03 0. 0. 0. 0. 1.44717796e-03
      1.44717796e-03 1.44717796e-03 0. 0. 7.23588979e-03 0.
      1.44717796e-03 0. 4.34153387e-03 0. 1.44717796e-03 0. 0. 0.
      1.44717796e-03 0. 0. 0. 0. 0. 0. 0. 1.44717796e-03 0. 0. 0. 0.
      1.44717796e-03 0. 0. 0. 0. 2.89435592e-03 1.44717796e-03
      2.89435592e-03 0. 0. 0. 0. 1.44717796e-03 0. 1.44717796e-03 0. 0.
      0. 0. 1.44717796e-03 0. 2.89435592e-03 0. 1.44717796e-03 0. 0. 0.
      0. 1.44717796e-03 0. 1.44717796e-03 0. 0. 2.89435592e-03 0.
      4.34153387e-03 8.68306775e-03 0. 5.78871183e-03 0. 0. 0. 0.
      1.44717796e-03 1.44717796e-03 0. 0. 0. 1.44717796e-03 0. 0. 0. 0.
      0. 1.44717796e-03 0. 0. 1.44717796e-03 1.44717796e-03 0. 0.
      2.89435592e-03 0. 0. 1.44717796e-03 0. 0. 0. 0. 0. 0. 0. 0. 0. 0.
      1.44717796e-03 2.89435592e-03 0. 4.34153387e-03 1.44717796e-03 0.
      0. 1.44717796e-03 1.44717796e-03 0. 1.44717796e-03 5.78871183e-03
      1.44717796e-03 0. 0. 0. 1.44717796e-03 1.44717796e-03
      1.44717796e-03 0. 1.44717796e-03 2.89435592e-03 0. 0. 0. 0. 0.
      1.44717796e-03 1.44717796e-03 1.44717796e-03 0. 0. 0. 0. 0.
      1.44717796e-03 0. 0. 0. 0. 0. 1.44717796e-03 0. 2.89435592e-03 0.
      0. 0. 0. 0. 0. 1.44717796e-03 0. 0. 1.44717796e-03 0. 0. 0.
      1.44717796e-03 5.78871183e-03 2.89435592e-03 0. 0. 0. 0.
      1.73661355e-02 0. 0. 0. 0. 4.34153387e-03 1.44717796e-03 0.
      1.44717796e-03 1.44717796e-03 0. 0. 0. 1.44717796e-03 0. 0. 0.
      2.89435592e-03 0. 0. 1.44717796e-03 2.89435592e-03 0.
      5.78871183e-03 0. 0. 0. 2.89435592e-03 1.44717796e-03 0. 0. 0. 0.
      0. 0. 0. 1.44717796e-03 0. 1.44717796e-03 1.44717796e-03
      1.44717796e-03 1.44717796e-03 1.44717796e-03 7.23588979e-03 0. 0.
      0. 0. 0. 0. 0. 0. 1.44717796e-03 0. 0. 0. 0. 0. 0. 0. 0. 0. 0.
      2.89435592e-03 0. 0. 0. 0. 2.89435592e-03 1.44717796e-03
      1.44717796e-03 0. 0. 0. 0. 1.44717796e-03 0. 0. 0. 4.34153387e-03
      2.89435592e-03 0. 2.89435592e-03 2.89435592e-03 1.44717796e-03
      1.44717796e-03 1.44717796e-03 1.44717796e-03 4.34153387e-03 0. 0.
      0. 0. 0. 0. 0. 0. 1.44717796e-03 0. 1.44717796e-03 0.
      1.44717796e-03 0. 1.44717796e-03 0. 0. 0. 4.34153387e-03 0.
      1.44717796e-03 0. 0. 1.44717796e-03 0. 0. 4.34153387e-03 0. 0. 0.
      0. 2.89435592e-03 1.44717796e-03 0. 0. 0. 0. 1.01302452e-02
      2.89435592e-03 0. 0. 1.44717796e-03 0. 0. 2.89435592e-03 0.
      1.44717796e-03 0. 0. 0. 0. 0. 0. 0. 1.44717796e-03 0. 0.
      1.44717796e-03 0. 1.44717796e-03 0. 0. 0. 1.44717796e-03
      2.89435592e-03 0. 1.44717796e-03 0. 0. 2.89435592e-03
      1.44717796e-03 1.44717796e-03 1.44717796e-03 1.44717796e-03 0.
      2.89435592e-03 0. 1.44717796e-03 0. 0. 1.44717796e-03
      2.89435592e-03 0. 5.78871183e-03 0. 0. 0. 0. 0. 1.44717796e-03 0.
      0. 0. 1.44717796e-03 0. 4.34153387e-03 0. 0. 0. 0. 0. 0. 0.
      1.44717796e-03 1.44717796e-03 1.44717796e-03 0. 5.78871183e-03
      2.89435592e-03 2.89435592e-03 0. 0. 0. 1.44717796e-03
      1.44717796e-03 4.34153387e-03 0. 0. 1.44717796e-03 1.44717796e-03
      1.44717796e-03 2.89435592e-03 0. 1.44717796e-03 0. 0. 0. 0. 0.
      2.89435592e-03 1.44717796e-03 0. 7.23588979e-03 4.34153387e-03
      1.44717796e-03 1.44717796e-03 5.78871183e-03 0. 0. 0. 0.
      2.89435592e-03 0. 0. 0. 0. 0. 0. 0. 0. 1.44717796e-03
      4.34153387e-03 0. 0. 0. 1.44717796e-03 2.89435592e-03 0. 0.
      1.01302452e-02 0. 0. 0. 0. 4.34153387e-03 1.44717796e-03 0. 0.
      2.89435592e-03 0. 0. 0. 0. 0. 1.44717796e-03 1.44717796e-03
      1.44717796e-03 1.44717796e-03 0. 0. 0. 1.44717796e-03
      4.34153387e-03 0. 1.44717796e-03 0. 0. 0. 0. 0. 0. 0. 0. 0. 0.
      1.44717796e-03 1.44717796e-03 0. 0. 0. 0. 0. 1.44717796e-03 0.
      1.44717796e-03 0. 0. 0. 2.89435592e-03 0. 2.89435592e-03 0. 0.
      1.44717796e-03 0. 5.78871183e-03 1.44717796e-03 4.34153387e-03
      5.78871183e-03 4.34153387e-03 1.44717796e-03 0. 0. 0. 0.
      1.44717796e-03 2.89435592e-03 2.89435592e-03 0. 0. 0.
      1.44717796e-03 0. 0. 0. 2.89435592e-03 0. 1.44717796e-03 0. 0.
      5.78871183e-03 0. 0. 0. 1.44717796e-03 0. 0. 0. 0. 1.44717796e-03
      1.44717796e-03 0. 1.44717796e-03 2.89435592e-03 0. 0. 0. 0.
      1.44717796e-03 1.44717796e-03 1.44717796e-03 0. 0. 0. 0.
      1.44717796e-03 0. 1.44717796e-03 0. 0. 0. 0. 0. 0. 1.44717796e-03
      0. 5.78871183e-03 4.34153387e-03 0. 0. 1.44717796e-03 0. 0.
      2.89435592e-03 1.44717796e-03 0. 0. 0. 0. 0. 0. 0. 0. 0.
      1.44717796e-03 5.78871183e-03 7.23588979e-03 0. 8.68306775e-03
      1.44717796e-03 0. 0. 5.78871183e-03 1.44717796e-03 0. 0. 0. 0. 0.
      4.34153387e-03 0. 0. 1.44717796e-03 2.89435592e-03 1.44717796e-03
      4.34153387e-03 0. 0. 0. 0. 1.44717796e-03 1.44717796e-03 0.
      4.34153387e-03 0. 8.68306775e-03 0. 1.44717796e-03 1.44717796e-03
      0. 0. 0. 0. 1.44717796e-03 1.44717796e-03 0. 0. 2.89435592e-03
      8.68306775e-03 0. 0. 0. 0. 0. 0. 1.44717796e-03 0. 0. 0. 0. 0. 0.
      0. 0. 0. 5.78871183e-03 0. 0. 0. 2.89435592e-03 0. 0.
      2.89435592e-03 0. 1.44717796e-03 0. 0. 1.44717796e-02 0. 0. 0. 0.
      0. 0. 0. 1.44717796e-03 1.44717796e-03 0. 1.44717796e-03
      2.89435592e-03 0. 0. 0. 0. 0. 0. 1.15774237e-02 1.44717796e-03
      1.44717796e-03 1.44717796e-03 0. 0. 1.44717796e-03 2.89435592e-02
      4.34153387e-03 0. 4.34153387e-03 2.89435592e-03 1.44717796e-03 0.
      0. 0. 1.44717796e-03 0. 0. 0. 0. 0. 1.44717796e-03 1.44717796e-03
      1.44717796e-03 1.44717796e-03 2.89435592e-03 0. 0. 0. 0. 0. 0. 0.
      0. 0. 1.44717796e-03 0. 0. 0. 0. 0. 0. 1.73661355e-02 0. 0. 0. 0.
      0. 0. 0. 0. 1.44717796e-03 0. 1.44717796e-03 0. 1.44717796e-03
      1.44717796e-03 0. 0. 0. 4.34153387e-03 0. 0. 0. 0. 1.44717796e-03
      0. 0. 0. 0. 2.89435592e-03 1.44717796e-03 0. 4.34153387e-03
      1.44717796e-03 1.44717796e-03 0. 0. 0. 0. 2.89435592e-03 0. 0. 0.
      0. 0. 0. 0. 0. 0. 0. 0. 0. 2.89435592e-03 0. 0. 0. 2.89435592e-03
      0. 1.44717796e-03 0. 0. 0. 2.89435592e-03 0. 0. 0. 0. 0. 0. 0.
      2.89435592e-03 4.34153387e-03 0. 2.89435592e-03 0. 0.
      1.44717796e-03 0. 0. 0. 7.23588979e-03 0. 0. 1.44717796e-03
      1.44717796e-03 0. 1.44717796e-03 0. 1.44717796e-03 0. 0. 0.</_>
    <_>
      0. 0. 5.76368859e-03 0. 2.88184430e-03 0. 0. 0. 2.88184430e-03 0.
      2.88184430e-03 0. 2.88184430e-03 0. 2.88184430e-03 5.76368859e-03
      0. 0. 0. 0. 0. 2.88184430e-03 0. 2.88184430e-03 0. 0. 0.
      2.88184430e-03 2.88184430e-03 0. 0. 5.76368859e-03 2.88184430e-03
      0. 2.88184430e-03 0. 2.88184430e-03 0. 0. 5.76368859e-03 0. 0. 0.
      0. 0. 0. 0. 0. 0. 0. 2.88184430e-03 0. 2.88184430e-03 0.
      2.88184430e-03 2.88184430e-03 0. 0. 5.76368859e-03 2.88184430e-03
      0. 0. 0. 0. 2.88184430e-03 0. 0. 0. 0. 0. 0. 2.88184430e-03
      2.88184430e-03 0. 0. 0. 0. 0. 2.88184430e-03 0. 0. 0. 0. 0.
      2.88184430e-03 2.88184430e-03 0. 0. 0. 0. 0. 2.88184430e-03
      8.64553265e-03 0. 0. 2.88184430e-03 0. 0. 2.88184430e-03 0. 0. 0.
      0. 0. 0. 0. 0. 5.76368859e-03 0. 2.88184430e-03 0. 0. 0.
      2.88184430e-03 0. 0. 0. 0. 5.76368859e-03 0. 2.88184430e-03 0. 0.
      0. 0. 0. 2.88184430e-03 0. 2.88184430e-03 0. 0. 0. 0. 0. 0. 0.
      2.88184430e-03 2.88184430e-03 0. 0. 0. 2.88184430e-03 0. 0.
      2.88184430e-03 2.88184430e-03 0. 0. 2.88184430e-03 0. 0. 0. 0.
      2.88184430e-03 0. 0. 0. 0. 0. 0. 2.88184430e-03 0. 0. 0. 0. 0. 0.
      2.88184430e-03 0. 0. 5.76368859e-03 5.76368859e-03 2.88184430e-03
      0. 2.88184430e-03 2.88184430e-03 0. 0. 0. 0. 0. 0. 0.
      5.76368859e-03 2.88184430e-03 0. 2.88184430e-03 0. 2.88184430e-03
      0. 0. 0. 0. 2.88184430e-03 0. 0. 0. 0. 0. 0. 0. 0. 0.
      2.88184430e-03 0. 0. 0. 0. 0. 0. 0. 0. 0. 2.88184430e-03 0. 0.
      5.76368859e-03 0. 2.88184430e-03 8.64553265e-03 0. 0.
      2.88184430e-03 2.88184430e-03 5.76368859e-03 0. 2.88184430e-03 0.
      0. 0. 0. 0. 0. 0. 0. 0. 5.76368859e-03 0. 0. 0. 0. 0. 0. 0. 0. 0.
      0. 2.88184430e-03 0. 0. 2.88184430e-03 0. 0. 0. 0. 0. 0.
      5.76368859e-03 2.88184430e-03 0. 0. 0. 0. 2.88184430e-03 0. 0. 0.
      2.88184430e-03 0. 0. 0. 0. 0. 2.88184430e-03 0. 0. 0. 0. 0. 0. 0.
      0. 0. 0. 0. 0. 0. 0. 0. 2.88184430e-03 0. 2.88184430e-03
      5.76368859e-03 2.88184430e-03 0. 0. 0. 2.88184430e-03 0.
      2.88184430e-03 0. 0. 0. 0. 2.88184430e-03 0. 2.88184430e-03 0.
      2.88184430e-03 2.88184430e-03 0. 2.88184430e-03 0. 2.88184430e-03
      2.88184430e-03 0. 0. 0. 0. 0. 0. 2.88184430e-03 0. 0. 0.
      2.88184430e-03 0. 0. 0. 0. 0. 0. 2.88184430e-03 2.88184430e-03 0.
      0. 2.88184430e-03 0. 0. 0. 5.76368859e-03 0. 2.88184430e-03 0. 0.
      0. 0. 2.88184430e-03 0. 0. 0. 5.76368859e-03 0. 0. 0. 0. 0. 0. 0.
      0. 2.88184430e-03 0. 2.88184430e-03 2.88184430e-03 0. 0. 0. 0.
      1.15273772e-02 0. 0. 0. 0. 0. 0. 0. 0. 0. 0. 0. 0. 0. 0.
      2.88184430e-03 0. 0. 0. 2.88184430e-03 0. 2.88184430e-03 0.
      2.88184430e-03 0. 0. 2.88184430e-03 2.88184430e-03 0.
      2.88184430e-03 0. 0. 0. 2.88184430e-03 0. 0. 0. 0. 0. 0. 0. 0. 0.
      0. 0. 0. 0. 0. 0. 0. 0. 0. 0. 2.88184430e-03 0. 0. 2.88184430e-03
      2.88184430e-03 0. 5.76368859e-03 0. 0. 0. 0. 0. 0. 0. 0.
      5.76368859e-03 2.88184430e-03 0. 0. 0. 2.88184430e-03 0. 0. 0.
      2.88184430e-03 0. 0. 0. 0. 0. 0. 0. 2.88184430e-03 2.88184430e-03
      0. 0. 2.88184430e-03 0. 0. 0. 5.76368859e-03 0. 0. 2.88184430e-03
      0. 0. 2.88184430e-03 0. 0. 0. 0. 0. 2.88184430e-03 2.88184430e-03
      0. 2.88184430e-03 0. 0. 0. 0. 0. 0. 0. 2.88184430e-03 0. 0. 0. 0.
      0. 0. 0. 0. 5.76368859e-03 0. 0. 0. 0. 2.88184430e-03
      8.64553265e-03 0. 0. 2.88184430e-03 0. 0. 0. 0. 0. 0. 0.
      2.88184430e-03 0. 0. 0. 2.88184430e-03 2.88184430e-03 0.
      2.88184430e-03 0. 0. 0. 0. 2.88184430e-03 2.88184430e-03 0. 0.
      2.88184430e-03 2.88184430e-03 2.88184430e-03 0. 0. 0. 0.
      2.88184430e-03 0. 0. 0. 0. 2.88184430e-03 0. 0. 2.88184430e-03
      2.88184430e-03 0. 0. 0. 0. 0. 2.88184430e-03 2.88184430e-03
      2.88184430e-03 0. 0. 0. 0. 2.88184430e-03 5.76368859e-03 0.
      2.88184430e-03 0. 0. 2.88184430e-03 0. 2.88184430e-03 0. 0. 0.
      2.88184430e-03 0. 5.76368859e-03 0. 0. 0. 2.88184430e-03 0.
      2.88184430e-03 0. 2.88184430e-03 0. 0. 0. 0. 0. 2.88184430e-03 0.
      0. 2.88184430e-03 0. 0. 0. 0. 0. 0. 0. 0. 2.88184430e-03 0. 0.
      2.88184430e-03 2.88184430e-03 2.88184430e-03 0. 0. 0. 0. 0.
      2.88184430e-03 0. 0. 2.88184430e-03 0. 0. 2.88184430e-03
      5.76368859e-03 0. 0. 2.88184430e-03 0. 0. 0. 0. 2.88184430e-03 0.
      0. 2.88184430e-03 0. 0. 2.88184430e-03 2.88184430e-03 0. 0. 0. 0.
      0. 0. 2.88184430e-03 5.76368859e-03 2.88184430e-03 2.88184430e-03
      0. 2.88184430e-03 2.88184430e-03 0. 0. 2.88184430e-03 0. 0. 0. 0.
      0. 0. 2.88184430e-03 0. 0. 2.88184430e-03 0. 0. 0. 0.
      2.88184430e-03 2.88184430e-03 0. 2.88184430e-03 0. 2.88184430e-03
      8.64553265e-03 0. 5.76368859e-03 0. 0. 2.88184430e-03 0. 0. 0. 0.
      0. 2.88184430e-03 0. 0. 0. 2.88184430e-03 8.64553265e-03
      2.88184430e-03 0. 2.88184430e-03 2.88184430e-03 0. 5.76368859e-03
      2.88184430e-03 0. 0. 0. 0. 5.76368859e-03 0. 2.88184430e-03 0. 0.
      0. 0. 0. 5.76368859e-03 0. 0. 0. 2.88184430e-03 2.88184430e-03 0.
      0. 0. 0. 0. 0. 0. 0. 0. 0. 0. 0. 2.88184430e-03 0. 0.
      2.88184430e-03 2.88184430e-03 0. 0. 0. 0. 0. 0. 0. 0. 0. 0.
      2.88184430e-03 0. 2.88184430e-03 0. 2.88184430e-03 5.76368859e-03
      0. 0. 0. 0. 8.64553265e-03 0. 0. 0. 0. 0. 2.88184430e-03
      2.30547544e-02 0. 2.88184430e-03 0. 0. 0. 0. 2.88184430e-03 0.
      2.88184430e-03 2.88184430e-03 0. 2.88184430e-03 2.88184430e-03 0.
      0. 2.88184430e-03 0. 2.88184430e-03 2.88184430e-03 0. 0. 0. 0. 0.
      0. 2.88184430e-03 2.88184430e-03 0. 0. 2.88184430e-03
      2.88184430e-03 5.76368859e-03 0. 0. 0. 0. 0. 0. 2.88184430e-03 0.
      0. 0. 0. 0. 0. 0. 2.88184430e-03 0. 0. 8.64553265e-03 0. 0. 0. 0.
      0. 2.88184430e-03 0. 0. 0. 0. 0. 0. 2.88184430e-03 0. 0. 0. 0. 0.
      2.88184430e-03 0. 0. 0. 0. 0. 0. 0. 0. 0. 2.88184430e-03 0. 0. 0.
      0. 0. 0. 0. 0. 0. 5.76368859e-03 2.88184430e-03 0. 0. 0. 0. 0. 0.
      0. 0. 2.88184430e-03 2.88184430e-03 0. 0. 0. 0. 2.88184430e-03 0.
      0. 0. 2.88184430e-03 0. 0. 0. 0. 0. 0. 2.88184430e-03
      2.88184430e-03 0. 2.88184430e-03 2.88184430e-03 0. 0. 0.
      2.88184430e-03 2.88184430e-03 0. 0. 2.88184430e-03 0.
      2.88184430e-03 0. 0. 0. 0. 0. 0. 0. 0. 0. 2.88184430e-03
      2.88184430e-03 0. 0. 0. 0. 0. 0. 2.88184430e-03 0. 0. 0.
      5.76368859e-03 0. 8.64553265e-03 2.88184430e-03 0. 0. 0. 0. 0.
      2.88184430e-03 2.88184430e-03 0. 0. 0. 0. 0. 2.88184430e-03 0.
      5.76368859e-03 0. 0. 0. 0. 2.88184430e-03 0. 0. 0. 0.
      2.88184430e-03 0. 0. 2.88184430e-03 2.88184430e-03 0. 0. 0.
      2.88184430e-03 0. 0. 0. 0. 0. 0. 0. 0. 0. 0. 2.88184430e-03
      2.88184430e-03 2.88184430e-03 8.64553265e-03 0. 0. 0.
      2.88184430e-03 0. 2.88184430e-03 0. 0. 0. 0. 0. 0. 0. 0. 0.
      5.76368859e-03 2.88184430e-03 5.76368859e-03 1.15273772e-02 0. 0.
      0. 0. 0. 0. 2.88184430e-03 2.88184430e-03 0. 0. 0. 0.
      5.76368859e-03 0. 0. 0. 2.88184430e-03 2.88184430e-03 0.
      2.88184430e-03 0. 2.88184430e-03 0. 0. 0. 0. 2.88184430e-03</_>
    <_>
      0. 0. 1.71526591e-03 0. 0. 3.43053183e-03 0. 3.43053183e-03 0. 0.
      0. 0. 3.43053183e-03 0. 0. 3.43053183e-03 0. 1.71526591e-03
      3.43053183e-03 0. 1.71526591e-03 0. 3.43053183e-03 0.
      1.71526591e-03 1.71526591e-03 1.71526591e-03 0. 0. 0. 0.
      3.43053183e-03 0. 0. 1.71526591e-03 0. 0. 1.71526591e-03 0. 0. 0.
      0. 0. 3.43053183e-03 0. 0. 0. 1.71526591e-03 0. 0. 0. 0. 0. 0.
      1.71526591e-03 1.02915950e-02 0. 0. 0. 0. 0. 1.71526591e-03 0.
      3.43053183e-03 1.71526591e-03 3.43053183e-03 1.71526591e-03
      1.71526591e-03 0. 0. 0. 1.71526591e-03 0. 0. 0. 0. 0. 0. 0.
      1.71526591e-03 1.71526591e-03 6.86106365e-03 0. 1.71526591e-03
      1.71526591e-03 1.71526591e-03 0. 0. 0. 1.71526591e-03 0. 0. 0. 0.
      1.71526591e-03 5.14579751e-03 3.43053183e-03 0. 0. 0. 0. 0.
      1.71526591e-03 0. 0. 3.43053183e-03 0. 1.71526591e-03 0. 0.
      1.71526591e-03 0. 3.43053183e-03 1.71526591e-03 1.71526591e-03 0.
      0. 1.71526591e-03 0. 1.71526591e-03 1.71526591e-03 1.71526591e-03
      0. 0. 0. 1.71526591e-03 1.71526591e-03 0. 0. 0. 0. 1.71526591e-03
      1.71526591e-03 1.71526591e-03 0. 1.71526591e-03 1.71526591e-03 0.
      0. 0. 0. 0. 0. 1.71526591e-03 0. 0. 1.71526591e-03 0. 0. 0. 0. 0.
      3.43053183e-03 0. 1.71526591e-03 0. 0. 0. 1.71526591e-03 0. 0.
      1.71526591e-03 0. 0. 6.86106365e-03 0. 0. 0. 0. 1.71526591e-03
      1.71526591e-03 1.71526591e-03 1.71526591e-03 0. 0. 0. 0.
      1.71526591e-03 1.71526591e-03 1.71526591e-03 0. 1.71526591e-03 0.
      3.43053183e-03 0. 0. 1.71526591e-03 0. 5.14579751e-03
      1.71526591e-03 0. 0. 0. 0. 0. 0. 1.71526591e-03 0. 3.43053183e-03
      0. 0. 1.71526591e-03 0. 1.71526591e-03 0. 1.71526591e-03 0.
      1.71526591e-03 0. 0. 0. 0. 0. 0. 1.71526591e-03 0. 0.
      5.14579751e-03 3.43053183e-03 3.43053183e-03 0. 0. 1.71526591e-03
      0. 1.71526591e-03 0. 1.71526591e-03 1.71526591e-03 1.71526591e-03
      0. 0. 3.43053183e-03 0. 0. 0. 0. 0. 3.43053183e-03 0.
      1.71526591e-03 1.71526591e-03 0. 0. 1.71526591e-03 0. 0.
      1.71526591e-03 0. 1.71526591e-03 1.71526591e-03 0. 3.43053183e-03
      3.43053183e-03 0. 1.71526591e-03 0. 0. 0. 0. 0. 0. 0. 0. 0. 0.
      1.71526591e-03 0. 0. 1.71526591e-03 0. 0. 1.71526591e-03 0. 0. 0.
      0. 0. 1.71526591e-03 0. 0. 1.71526591e-03 0. 0. 3.43053183e-03 0.
      0. 0. 1.71526591e-03 3.43053183e-03 0. 0. 0. 1.71526591e-03 0. 0.
      0. 5.14579751e-03 0. 0. 0. 0. 0. 0. 1.71526591e-03 0. 0.
      1.71526591e-03 8.57632980e-03 1.71526591e-03 0. 0. 0.
      1.71526591e-03 0. 0. 3.43053183e-03 0. 1.71526591e-03 0. 0.
      3.43053183e-03 1.71526591e-03 0. 0. 0. 0. 3.43053183e-03 0. 0.
      1.71526591e-03 3.43053183e-03 0. 1.71526591e-03 0. 3.43053183e-03
      0. 0. 0. 0. 0. 1.71526591e-03 0. 0. 0. 0. 0. 1.71526591e-03
      1.71526591e-03 0. 0. 0. 0. 1.71526591e-03 0. 0. 1.71526591e-03 0.
      0. 0. 0. 0. 0. 0. 0. 0. 0. 3.43053183e-03 0. 0. 0. 1.71526591e-03
      0. 0. 0. 1.71526591e-03 0. 0. 3.43053183e-03 1.71526591e-03
      3.43053183e-03 5.14579751e-03 0. 0. 0. 0. 1.71526591e-03
      8.57632980e-03 0. 0. 0. 0. 1.71526591e-03 0. 0. 0. 0.
      3.43053183e-03 1.71526591e-03 3.43053183e-03 0. 1.71526591e-03
      3.43053183e-03 3.43053183e-03 0. 1.71526591e-03 0. 0. 0.
      1.71526591e-03 0. 1.71526591e-03 1.71526591e-03 0. 0. 0. 0. 0. 0.
      0. 0. 5.14579751e-03 0. 1.71526591e-03 0. 1.71526591e-03 0. 0. 0.
      0. 1.71526591e-03 0. 0. 0. 0. 3.43053183e-03 3.43053183e-03
      1.71526591e-03 0. 0. 0. 0. 0. 0. 0. 0. 0. 0. 0. 1.71526591e-03
      1.71526591e-03 6.86106365e-03 1.71526591e-03 0. 0. 3.43053183e-03
      0. 0. 0. 1.71526591e-03 0. 1.71526591e-03 3.43053183e-03 0. 0.
      3.43053183e-03 0. 0. 0. 0. 0. 3.43053183e-03 0. 0. 0.
      1.71526591e-03 0. 0. 1.71526591e-03 0. 0. 1.71526591e-03 0. 0. 0.
      0. 0. 0. 0. 1.71526591e-03 0. 1.71526591e-03 1.71526591e-03
      1.71526591e-03 0. 0. 0. 0. 1.71526591e-03 1.71526591e-03
      3.43053183e-03 0. 0. 0. 1.71526591e-03 1.71526591e-03 0.
      1.71526591e-03 0. 0. 0. 0. 1.71526591e-03 0. 0. 0. 0.
      5.14579751e-03 0. 0. 0. 0. 0. 1.71526591e-03 0. 1.71526591e-03
      3.43053183e-03 8.57632980e-03 0. 0. 5.14579751e-03 0. 0.
      6.86106365e-03 0. 3.43053183e-03 0. 0. 1.71526591e-03 0. 0. 0. 0.
      1.71526591e-03 1.71526591e-03 1.71526591e-03 1.71526591e-03 0. 0.
      0. 3.43053183e-03 6.86106365e-03 0. 0. 1.71526591e-03 0. 0.
      1.71526591e-03 0. 1.71526591e-03 0. 0. 0. 0. 0. 0. 0. 0.
      1.71526591e-03 0. 1.71526591e-03 1.71526591e-03 1.71526591e-03 0.
      0. 1.71526591e-03 0. 0. 0. 0. 0. 0. 1.71526591e-03 0. 0.
      3.43053183e-03 5.14579751e-03 0. 0. 3.43053183e-03 0. 0.
      5.14579751e-03 0. 0. 0. 0. 0. 0. 0. 0. 1.71526591e-03 0.
      1.71526591e-03 3.43053183e-03 0. 0. 0. 0. 1.71526591e-03 0.
      1.71526591e-03 0. 3.43053183e-03 0. 1.71526591e-03 0. 0.
      1.71526591e-03 0. 0. 0. 3.43053183e-03 0. 0. 1.71526591e-03 0. 0.
      1.71526591e-03 0. 3.43053183e-03 3.43053183e-03 0. 0.
      1.71526591e-03 1.71526591e-03 0. 1.71526591e-03 5.14579751e-03
      1.71526591e-03 1.71526591e-03 1.71526591e-03 0. 0. 0.
      1.71526591e-03 1.71526591e-03 1.71526591e-03 0. 0. 0. 0. 0.
      1.71526591e-03 1.71526591e-03 0. 0. 0. 1.71526591e-03 0. 0.
      1.71526591e-03 1.71526591e-03 1.71526591e-03 0. 3.43053183e-03
      1.71526591e-03 6.86106365e-03 0. 0. 0. 0. 1.71526591e-03 0. 0. 0.
      0. 1.71526591e-03 1.71526591e-03 3.43053183e-03 0. 0.
      3.43053183e-03 5.14579751e-03 0. 1.71526591e-03 1.71526591e-03
      1.71526591e-03 6.86106365e-03 1.71526591e-03 0. 1.71526591e-03
      1.71526591e-03 1.71526591e-03 0. 1.71526591e-03 1.02915950e-02
      1.71526591e-03 0. 0. 3.43053183e-03 1.71526591e-03 1.71526591e-03
      0. 0. 0. 1.71526591e-03 1.71526591e-03 1.71526591e-03 0. 0.
      1.71526591e-03 3.43053183e-03 0. 0. 0. 3.43053183e-03 0. 0. 0.
      3.43053183e-03 1.71526591e-03 8.57632980e-03 0. 0. 0. 0.
      1.71526591e-03 0. 0. 1.71526591e-03 0. 0. 0. 0. 1.71526591e-03
      3.43053183e-03 0. 1.71526591e-03 0. 0. 0. 0. 0. 1.71526591e-03
      3.43053183e-03 0. 0. 0. 0. 0. 0. 3.43053183e-03 0. 3.43053183e-03
      1.71526591e-03 0. 3.43053183e-03 3.43053183e-03 1.71526591e-03 0.
      3.43053183e-03 0. 0. 1.71526591e-03 8.57632980e-03 1.71526591e-03
      8.57632980e-03 3.43053183e-03 0. 0. 0. 0. 0. 0. 0. 0.
      6.86106365e-03 0. 1.71526591e-03 0. 0. 1.71526591e-03 0. 0. 0.
      1.71526591e-03 3.43053183e-03 1.71526591e-03 3.43053183e-03
      3.43053183e-03 0. 0. 1.71526591e-03 1.71526591e-03 0. 0.
      1.71526591e-03 1.71526591e-03 3.43053183e-03 1.71526591e-03
      1.71526591e-03 3.43053183e-03 0. 1.71526591e-03 0. 1.71526591e-03
      0. 3.43053183e-03 1.71526591e-03 0. 1.71526591e-03 0. 0. 0. 0. 0.
      5.14579751e-03 0. 1.71526591e-03 0. 0. 3.43053183e-03
      3.43053183e-03 0. 0. 0. 0. 1.71526591e-03 1.71526591e-03 0. 0. 0.
      3.43053183e-03 0. 0. 1.71526591e-03 0. 0. 1.71526591e-03 0. 0. 0.
      0. 0. 0. 0. 0. 1.71526591e-03 0. 1.71526591e-03 0. 0.
      1.71526591e-03 3.43053183e-03 1.71526591e-03 1.71526591e-03
      1.71526591e-03 0. 0. 0. 1.71526591e-03 0. 0. 0. 0. 0.
      3.43053183e-03 5.14579751e-03 1.71526591e-03 0. 1.71526591e-03
      5.14579751e-03 1.71526591e-03 1.71526591e-03 0. 0. 0. 0.
      1.71526591e-03 0. 5.14579751e-03 0. 0. 3.43053183e-03
      1.71526591e-03 1.71526591e-03 0. 0. 0. 3.43053183e-03 0. 0.
      1.71526591e-03 3.43053183e-03 3.43053183e-03 0. 1.71526591e-03 0.
      5.14579751e-03 0. 0. 0. 5.14579751e-03 0. 0. 1.71526591e-03
      1.71526591e-03 0. 0. 8.57632980e-03 0. 0. 0. 3.43053183e-03 0. 0.
      1.02915950e-02 0. 1.71526591e-03 0. 0. 0. 0. 1.71526591e-03 0. 0.
      3.43053183e-03 3.43053183e-03 0. 0. 1.71526591e-03 0.
      1.71526591e-03 1.71526591e-03 0. 0. 0. 0. 0. 1.71526591e-03 0. 0.
      0. 0. 0. 0. 0. 1.71526591e-03 0. 0. 3.43053183e-03 0.
      1.71526591e-03 0. 1.71526591e-03 1.71526591e-03 1.71526591e-03
      5.14579751e-03 1.71526591e-03 6.86106365e-03 0. 1.71526591e-03
      1.71526591e-03 0. 0. 0. 1.71526591e-03 5.14579751e-03 0. 0. 0. 0.
      0. 0. 1.71526591e-03 0. 0. 0. 0. 6.86106365e-03 1.71526591e-03
      1.71526591e-03 0. 1.71526591e-03 0. 1.71526591e-03 0. 0.
      1.71526591e-03 0. 1.71526591e-03 1.71526591e-03 0. 0.
      3.43053183e-03 0. 0. 0. 3.43053183e-03 0.</_>
    <_>
      0. 0. 1.03519671e-03 0. 1.03519671e-03 4.14078683e-03
      1.03519671e-03 1.03519671e-03 0. 2.07039341e-03 3.10559012e-03 0.
      3.10559012e-03 2.07039341e-03 0. 0. 0. 2.07039341e-03 0.
      2.07039341e-03 0. 1.03519671e-03 0. 3.10559012e-03 4.14078683e-03
      0. 2.07039341e-03 1.03519671e-03 0. 0. 0. 0. 4.14078683e-03
      7.24637695e-03 1.03519671e-03 0. 1.03519671e-03 0. 1.03519671e-03
      0. 0. 1.03519671e-03 0. 0. 0. 0. 0. 2.07039341e-03 1.03519671e-03
      0. 2.07039341e-03 1.03519671e-03 0. 0. 0. 2.07039341e-03
      1.03519671e-03 1.03519671e-03 3.10559012e-03 1.03519671e-03 0.
      1.03519671e-03 0. 2.07039341e-03 0. 0. 0. 0. 1.03519671e-03 0. 0.
      1.03519671e-03 1.03519671e-03 2.07039341e-03 1.03519671e-03 0.
      1.03519671e-03 1.03519671e-03 1.03519671e-03 0. 1.03519671e-03
      1.03519671e-03 4.14078683e-03 1.03519671e-03 0. 2.07039341e-03
      2.07039341e-03 3.10559012e-03 1.03519671e-03 0. 0. 0. 0.
      1.03519671e-03 0. 1.03519671e-03 0. 3.10559012e-03 0. 0. 0. 0.
      1.03519671e-03 2.07039341e-03 1.03519671e-03 1.03519671e-03 0.
      1.03519671e-03 1.03519671e-03 0. 2.07039341e-03 2.07039341e-03 0.
      1.03519671e-03 0. 1.03519671e-03 5.17598353e-03 0. 0.
      1.03519671e-03 2.07039341e-03 1.03519671e-03 0. 8.28157365e-03
      3.10559012e-03 0. 1.03519671e-03 0. 0. 3.10559012e-03 0.
      1.03519671e-03 1.03519671e-03 1.03519671e-03 0. 1.03519671e-03
      3.10559012e-03 0. 0. 1.03519671e-03 6.21118024e-03 1.03519671e-03
      1.03519671e-03 0. 1.03519671e-03 1.03519671e-03 2.07039341e-03
      3.10559012e-03 0. 1.03519671e-03 0. 1.03519671e-03 4.14078683e-03
      0. 0. 3.10559012e-03 1.03519671e-03 1.03519671e-03 0.
      2.07039341e-03 1.03519671e-03 3.10559012e-03 1.03519671e-03
      1.03519671e-03 1.03519671e-03 1.03519671e-03 1.03519671e-03 0.
      1.03519671e-03 1.03519671e-03 0. 2.07039341e-03 0. 1.03519671e-03
      0. 1.03519671e-03 1.03519671e-03 0. 0. 2.07039341e-03 0.
      4.14078683e-03 0. 0. 1.03519671e-03 4.14078683e-03 0.
      1.03519671e-03 2.07039341e-03 1.03519671e-03 0. 2.07039341e-03
      1.03519671e-03 2.07039341e-03 1.03519671e-03 1.03519671e-03
      1.03519671e-03 1.03519671e-03 0. 0. 1.03519671e-03 0.
      4.14078683e-03 2.07039341e-03 1.03519671e-03 0. 2.07039341e-03 0.
      1.03519671e-03 1.03519671e-03 1.03519671e-03 1.03519671e-03
      3.10559012e-03 2.07039341e-03 0. 1.03519671e-03 1.03519671e-03
      1.03519671e-03 0. 0. 0. 1.03519671e-03 0. 0. 2.07039341e-03
      1.03519671e-03 1.03519671e-03 0. 0. 0. 1.03519671e-03
      1.03519671e-03 0. 3.10559012e-03 0. 1.03519671e-03 1.03519671e-03
      0. 1.03519671e-03 2.07039341e-03 0. 0. 1.03519671e-03
      1.03519671e-03 1.03519671e-03 3.10559012e-03 0. 0. 0.
      1.03519671e-03 0. 0. 1.03519671e-03 1.03519671e-03 0. 0. 0. 0.
      1.03519671e-03 1.03519671e-03 1.03519671e-03 0. 1.03519671e-03 0.
      1.03519671e-03 1.03519671e-03 2.07039341e-03 2.07039341e-03
      3.10559012e-03 0. 0. 2.07039341e-03 0. 2.07039341e-03
      2.07039341e-03 1.03519671e-03 3.10559012e-03 2.07039341e-03
      1.03519671e-03 1.03519671e-03 0. 0. 0. 0. 1.03519671e-03
      2.07039341e-03 1.03519671e-03 0. 1.03519671e-03 0. 1.03519671e-03
      2.07039341e-03 0. 1.03519671e-03 0. 3.10559012e-03 0.
      4.14078683e-03 3.10559012e-03 0. 0. 0. 1.03519671e-03
      1.03519671e-03 0. 1.03519671e-03 0. 0. 2.07039341e-03 0. 0.
      1.03519671e-03 1.03519671e-03 3.10559012e-03 0. 0. 1.03519671e-03
      1.03519671e-03 0. 1.03519671e-03 1.03519671e-03 0. 1.03519671e-03
      0. 1.03519671e-03 1.03519671e-03 1.03519671e-03 1.03519671e-03
      2.07039341e-03 0. 1.03519671e-03 1.03519671e-03 3.10559012e-03
      1.03519671e-03 1.03519671e-03 0. 0. 1.03519671e-03 1.03519671e-03
      0. 0. 0. 0. 1.03519671e-03 0. 1.03519671e-03 1.03519671e-03
      1.03519671e-03 0. 3.10559012e-03 1.03519671e-03 0. 1.03519671e-03
      2.07039341e-03 1.03519671e-03 0. 2.07039341e-03 0. 3.10559012e-03
      2.07039341e-03 2.07039341e-03 0. 2.07039341e-03 1.03519671e-03 0.
      3.10559012e-03 0. 0. 0. 1.03519671e-03 5.17598353e-03 0.
      1.03519671e-03 3.10559012e-03 2.07039341e-03 0. 1.03519671e-03 0.
      0. 0. 0. 1.03519671e-03 2.07039341e-03 3.10559012e-03
      1.03519671e-03 3.10559012e-03 0. 1.03519671e-03 0. 0. 0. 0.
      1.03519671e-03 4.14078683e-03 1.03519671e-03 3.10559012e-03
      4.14078683e-03 2.07039341e-03 1.03519671e-03 1.03519671e-03 0. 0.
      0. 1.03519671e-03 0. 0. 2.07039341e-03 0. 2.07039341e-03 0.
      3.10559012e-03 1.03519671e-03 0. 0. 3.10559012e-03 2.07039341e-03
      3.10559012e-03 0. 0. 1.03519671e-03 4.14078683e-03 0.
      2.07039341e-03 2.07039341e-03 0. 0. 0. 1.03519671e-03
      1.03519671e-03 1.03519671e-03 0. 0. 2.07039341e-03 1.03519671e-03
      3.10559012e-03 0. 2.07039341e-03 0. 0. 0. 0. 1.03519671e-03
      2.07039341e-03 0. 1.03519671e-03 2.07039341e-03 0. 0.
      1.03519671e-03 3.10559012e-03 1.03519671e-03 2.07039341e-03 0. 0.
      0. 0. 0. 0. 1.03519671e-03 3.10559012e-03 2.07039341e-03
      2.07039341e-03 0. 2.07039341e-03 3.10559012e-03 2.07039341e-03 0.
      2.07039341e-03 1.03519671e-03 2.07039341e-03 0. 0. 1.03519671e-03
      2.07039341e-03 1.03519671e-03 1.03519671e-03 0. 1.03519671e-03 0.
      0. 0. 0. 0. 0. 1.03519671e-03 0. 0. 1.03519671e-03 0.
      1.03519671e-03 3.10559012e-03 0. 0. 1.03519671e-03 0. 0.
      1.03519671e-03 1.03519671e-03 0. 0. 0. 0. 3.10559012e-03
      1.03519671e-03 2.07039341e-03 0. 1.03519671e-03 0. 0.
      4.14078683e-03 0. 0. 0. 0. 1.03519671e-03 1.03519671e-03 0.
      3.10559012e-03 0. 2.07039341e-03 3.10559012e-03 0. 1.03519671e-03
      1.03519671e-03 1.03519671e-03 0. 0. 1.03519671e-03 2.07039341e-03
      0. 0. 1.03519671e-03 1.03519671e-03 0. 0. 0. 2.07039341e-03 0. 0.
      0. 4.14078683e-03 0. 2.07039341e-03 2.07039341e-03 1.03519671e-03
      1.03519671e-03 1.03519671e-03 1.03519671e-03 2.07039341e-03 0.
      1.03519671e-03 1.03519671e-03 1.03519671e-03 1.03519671e-03 0.
      1.03519671e-03 1.03519671e-03 2.07039341e-03 1.03519671e-03 0.
      1.03519671e-03 1.03519671e-03 0. 3.10559012e-03 1.03519671e-03 0.
      1.03519671e-03 0. 0. 3.10559012e-03 0. 1.03519671e-03
      1.03519671e-03 0. 2.07039341e-03 2.07039341e-03 1.03519671e-03
      2.07039341e-03 0. 0. 4.14078683e-03 2.07039341e-03 3.10559012e-03
      2.07039341e-03 1.03519671e-03 1.03519671e-03 0. 4.14078683e-03 0.
      2.07039341e-03 0. 0. 0. 2.07039341e-03 0. 3.10559012e-03 0.
      1.03519671e-03 3.10559012e-03 0. 0. 2.07039341e-03 0. 0. 0.
      2.07039341e-03 2.07039341e-03 0. 1.03519671e-03 1.03519671e-03
      2.07039341e-03 0. 1.03519671e-03 3.10559012e-03 0. 3.10559012e-03
      1.03519671e-03 1.03519671e-03 2.07039341e-03 0. 1.03519671e-03
      1.03519671e-03 2.07039341e-03 1.03519671e-03 1.03519671e-03 0. 0.
      0. 1.03519671e-03 1.03519671e-03 2.07039341e-03 1.03519671e-03 0.
      1.03519671e-03 0. 0. 1.03519671e-03 0. 3.10559012e-03
      4.14078683e-03 0. 2.07039341e-03 1.03519671e-03 4.14078683e-03
      1.03519671e-03 0. 3.10559012e-03 2.07039341e-03 1.03519671e-03 0.
      2.07039341e-03 0. 0. 0. 0. 0. 2.07039341e-03 0. 0. 0. 0.
      1.03519671e-03 2.07039341e-03 2.07039341e-03 1.03519671e-03
      3.10559012e-03 0. 1.03519671e-03 2.07039341e-03 3.10559012e-03 0.
      4.14078683e-03 2.07039341e-03 1.03519671e-03 0. 1.03519671e-03 0.
      3.10559012e-03 1.03519671e-03 0. 0. 1.03519671e-03 2.07039341e-03
      1.03519671e-03 1.03519671e-03 0. 0. 0. 1.03519671e-03
      2.07039341e-03 5.17598353e-03 0. 0. 1.03519671e-03 1.03519671e-03
      2.07039341e-03 0. 1.03519671e-03 2.07039341e-03 1.03519671e-03 0.
      2.07039341e-03 0. 2.07039341e-03 2.07039341e-03 0. 0. 0. 0. 0. 0.
      2.07039341e-03 0. 0. 1.03519671e-03 1.03519671e-03 2.07039341e-03
      0. 1.03519671e-03 0. 3.10559012e-03 0. 0. 1.03519671e-03
      1.03519671e-03 3.10559012e-03 1.03519671e-03 0. 0. 1.03519671e-03
      2.07039341e-03 0. 4.14078683e-03 1.03519671e-03 0. 0.
      2.07039341e-03 3.10559012e-03 0. 0. 3.10559012e-03 5.17598353e-03
      0. 2.07039341e-03 2.07039341e-03 0. 1.03519671e-03 1.03519671e-03
      0. 1.03519671e-03 1.03519671e-03 0. 0. 0. 5.17598353e-03 0.
      1.03519671e-03 0. 1.03519671e-03 0. 0. 0. 2.07039341e-03
      1.03519671e-03 1.03519671e-03 0. 0. 0. 2.07039341e-03
      1.03519671e-03 0. 0. 1.03519671e-03 0. 3.10559012e-03
      3.10559012e-03 1.03519671e-03 1.03519671e-03 0. 1.03519671e-03
      1.03519671e-03 0. 1.03519671e-03 0. 1.03519671e-03 0. 0. 0. 0. 0.
      0. 0. 2.07039341e-03 2.07039341e-03 0. 1.03519671e-03
      3.10559012e-03 0. 0. 2.07039341e-03 0. 0. 1.03519671e-03
      1.03519671e-03 0. 2.07039341e-03 0. 0. 0. 0. 1.03519671e-03
      2.07039341e-03 0. 0. 0. 1.03519671e-03 4.14078683e-03 0. 0. 0. 0.
      1.03519671e-03 0. 0. 2.07039341e-03 0. 0. 0. 2.07039341e-03
      1.03519671e-03 0. 1.03519671e-03 2.07039341e-03 1.03519671e-03
      1.03519671e-03 1.03519671e-03 0. 0. 1.03519671e-03 2.07039341e-03
      0. 3.10559012e-03 4.14078683e-03 3.10559012e-03 1.03519671e-03 0.
      0. 0. 1.03519671e-03 1.03519671e-03 1.03519671e-03 1.03519671e-03
      0. 1.03519671e-03 0. 2.07039341e-03 2.07039341e-03 0.
      1.03519671e-03 5.17598353e-03 0. 0. 0. 0. 1.03519671e-03
      3.10559012e-03 1.03519671e-03 0. 1.03519671e-03 1.03519671e-03
      2.07039341e-03 0. 0. 0. 3.10559012e-03 1.03519671e-03 0.
      5.17598353e-03 0. 0. 1.03519671e-03 2.07039341e-03 0.
      1.03519671e-03 1.03519671e-03 0. 1.03519671e-03 0. 1.03519671e-03
      1.03519671e-03 0. 0. 2.07039341e-03 0. 0. 3.10559012e-03 0. 0. 0.
      2.07039341e-03 0. 2.07039341e-03 1.03519671e-03 0. 0.
      1.03519671e-03 2.07039341e-03 0. 0. 2.07039341e-03 2.07039341e-03
      0. 0. 0. 1.03519671e-03 3.10559012e-03 3.10559012e-03
      3.10559012e-03 0. 0. 0. 0. 0. 0. 0. 1.03519671e-03 0.
      1.03519671e-03 0. 1.03519671e-03 1.03519671e-03 0. 2.07039341e-03
      2.07039341e-03 1.03519671e-03 1.03519671e-03 0. 1.03519671e-03
      2.07039341e-03 1.03519671e-03 2.07039341e-03 0. 2.07039341e-03
      3.10559012e-03 0. 0. 0. 0. 0. 0. 1.03519671e-03 2.07039341e-03
      2.07039341e-03 2.07039341e-03 0. 0. 1.03519671e-03 2.07039341e-03
      0. 0. 0. 3.10559012e-03 0. 2.07039341e-03 3.10559012e-03 0. 0. 0.
      1.03519671e-03 2.07039341e-03 1.03519671e-03 0. 2.07039341e-03 0.
      2.07039341e-03 1.03519671e-03 0. 0. 0. 3.10559012e-03
      5.17598353e-03 2.07039341e-03 2.07039341e-03 1.03519671e-03
      1.03519671e-03 1.03519671e-03 2.07039341e-03 3.10559012e-03
      4.14078683e-03 1.03519671e-03 1.03519671e-03 2.07039341e-03 0.
      1.03519671e-03 0. 2.07039341e-03 2.07039341e-03 1.03519671e-03 0.
      0.</_>
    <_>
      3.11526470e-03 0. 3.11526470e-03 1.86915882e-02 0. 0. 0. 0. 0.
      3.11526470e-03 0. 0. 0. 0. 0. 3.11526470e-03 0. 0. 0. 0. 0. 0. 0.
      0. 3.11526470e-03 0. 0. 0. 0. 3.11526470e-03 0. 6.23052940e-03 0.
      0. 0. 0. 3.11526470e-03 0. 0. 0. 0. 0. 0. 6.23052940e-03 0.
      1.24610588e-02 2.80373823e-02 0. 3.11526470e-03 0. 0. 0. 0. 0.
      3.11526470e-03 3.11526470e-03 6.23052940e-03 0. 0. 0. 0. 0.
      3.11526470e-03 0. 0. 0. 3.11526470e-03 6.23052940e-03 0. 0. 0. 0.
      0. 0. 0. 0. 0. 0. 0. 3.11526470e-03 6.23052940e-03 0. 0. 0. 0. 0.
      3.11526470e-03 0. 3.11526470e-03 0. 3.11526470e-03 6.23052940e-03
      0. 0. 0. 0. 0. 0. 0. 3.11526470e-03 3.11526470e-03 9.34579410e-03
      0. 0. 0. 0. 3.11526470e-03 0. 3.11526470e-03 0. 0. 0. 0. 0.
      6.23052940e-03 0. 0. 0. 0. 0. 3.11526470e-03 0. 0. 0. 0.
      3.11526470e-03 0. 0. 0. 0. 0. 0. 0. 3.11526470e-03 0. 0. 0.
      3.11526470e-03 0. 0. 3.11526470e-03 0. 0. 0. 3.11526470e-03 0. 0.
      0. 3.11526470e-03 3.11526470e-03 0. 0. 0. 0. 0. 0. 0.
      3.11526470e-03 0. 0. 3.11526470e-03 0. 0. 0. 0. 0. 0. 0. 0. 0. 0.
      0. 0. 0. 6.23052940e-03 0. 3.11526470e-03 0. 0. 0. 0.
      6.23052940e-03 6.23052940e-03 3.11526470e-03 3.11526470e-03 0. 0.
      0. 0. 3.11526470e-03 0. 0. 6.23052940e-03 0. 3.11526470e-03 0. 0.
      0. 0. 0. 9.34579410e-03 0. 0. 3.11526470e-03 0. 0. 0. 0. 0.
      3.11526470e-03 3.11526470e-03 3.11526470e-03 0. 0. 0. 0. 0. 0. 0.
      0. 0. 0. 6.23052940e-03 6.23052940e-03 0. 0. 0. 0. 0.
      6.23052940e-03 0. 0. 0. 0. 0. 0. 3.11526470e-03 3.11526470e-03 0.
      3.11526470e-03 0. 0. 0. 0. 0. 3.11526470e-03 0. 0. 3.11526470e-03
      3.11526470e-03 0. 0. 0. 0. 0. 0. 3.11526470e-03 0. 0. 0. 0. 0. 0.
      0. 0. 0. 0. 0. 0. 1.86915882e-02 3.11526470e-03 0. 0. 0. 0. 0. 0.
      3.11526470e-03 0. 0. 0. 1.24610588e-02 3.11526470e-03
      3.11526470e-03 0. 0. 0. 3.11526470e-03 3.11526470e-03 0. 0. 0. 0.
      3.11526470e-03 3.11526470e-03 0. 0. 0. 0. 3.11526470e-03 0. 0. 0.
      3.11526470e-03 0. 0. 0. 0. 0. 0. 0. 0. 0. 0. 0. 3.11526470e-03 0.
      0. 0. 0. 3.11526470e-03 0. 0. 0. 0. 3.11526470e-03 0. 0. 0. 0. 0.
      0. 3.11526470e-03 0. 3.11526470e-03 0. 0. 0. 0. 0. 0. 0.
      3.11526470e-03 0. 3.11526470e-03 0. 0. 0. 0. 0. 0. 0. 0. 0. 0.
      3.11526470e-03 0. 6.23052940e-03 0. 0. 0. 0. 0. 0. 0. 0.
      6.23052940e-03 0. 1.55763235e-02 0. 0. 0. 3.11526470e-03 0. 0.
      3.11526470e-03 3.11526470e-03 0. 0. 3.11526470e-03 1.24610588e-02
      6.23052940e-03 0. 3.11526470e-03 0. 0. 0. 3.11526470e-03 0. 0. 0.
      0. 3.11526470e-03 0. 0. 0. 0. 0. 0. 0. 0. 3.11526470e-03 0. 0. 0.
      0. 0. 0. 0. 0. 3.11526470e-03 0. 0. 3.11526470e-03 0. 0. 0. 0. 0.
      3.11526470e-03 3.11526470e-03 0. 0. 0. 3.11526470e-03 0. 0.
      6.23052940e-03 0. 0. 0. 0. 6.23052940e-03 0. 0. 0. 0. 0. 0. 0. 0.
      0. 0. 0. 0. 0. 0. 0. 0. 0. 0. 3.11526470e-03 6.23052940e-03 0.
      6.23052940e-03 0. 1.24610588e-02 0. 0. 0. 3.11526470e-03 0. 0. 0.
      0. 0. 0. 0. 0. 0. 0. 3.11526470e-03 0. 0. 0. 0. 3.11526470e-03 0.
      0. 0. 3.11526470e-03 3.11526470e-03 0. 0. 0. 0. 0. 0. 0. 0. 0. 0.
      0. 3.11526470e-03 0. 0. 9.34579410e-03 3.11526470e-03 0. 0. 0. 0.
      0. 1.24610588e-02 0. 3.11526470e-03 0. 6.23052940e-03 0. 0. 0. 0.
      0. 0. 3.11526470e-03 0. 0. 3.11526470e-03 0. 0. 0. 0. 0. 0. 0.
      3.11526470e-03 0. 3.11526470e-03 0. 0. 0. 0. 3.11526470e-03
      6.23052940e-03 0. 0. 0. 0. 0. 3.11526470e-03 0. 1.24610588e-02 0.
      3.11526470e-03 0. 0. 0. 3.11526470e-03 0. 3.11526470e-03 0. 0. 0.
      0. 0. 0. 0. 3.11526470e-03 0. 0. 0. 0. 0. 0. 0. 3.11526470e-03 0.
      0. 0. 0. 0. 0. 0. 0. 0. 0. 0. 0. 0. 3.11526470e-03 0. 0. 0. 0. 0.
      0. 0. 0. 3.11526470e-03 3.11526470e-03 3.11526470e-03 0. 0. 0.
      3.11526470e-03 0. 0. 1.24610588e-02 0. 3.11526470e-03 0. 0. 0. 0.
      0. 0. 0. 0. 3.11526470e-03 0. 0. 6.23052940e-03 0. 0. 0. 0.
      3.11526470e-03 0. 0. 0. 0. 3.11526470e-03 6.23052940e-03 0. 0.
      3.11526470e-03 0. 0. 0. 0. 0. 3.11526470e-03 0. 0. 0.
      3.11526470e-03 0. 0. 3.11526470e-03 0. 0. 0. 0. 3.11526470e-03
      3.11526470e-03 0. 0. 0. 0. 3.11526470e-03 0. 0. 0. 3.11526470e-03
      9.34579410e-03 0. 0. 0. 0. 3.11526470e-03 0. 0. 0. 3.11526470e-03
      3.11526470e-03 0. 0. 0. 0. 0. 0. 0. 3.11526470e-03 0.
      6.23052940e-03 3.11526470e-03 0. 0. 0. 3.11526470e-03 0. 0.
      3.11526470e-03 0. 0. 3.11526470e-03 3.11526470e-03 0.
      3.11526470e-03 0. 0. 3.11526470e-03 0. 0. 0. 0. 0. 0.
      3.11526470e-03 0. 0. 0. 0. 0. 0. 0. 0. 0. 0. 3.11526470e-03
      3.11526470e-03 0. 0. 3.11526470e-03 0. 3.11526470e-03
      3.11526470e-03 0. 3.11526470e-03 0. 0. 3.11526470e-03 0. 0. 0.
      3.11526470e-03 0. 0. 6.23052940e-03 6.23052940e-03 3.11526470e-03
      0. 0. 0. 6.23052940e-03 6.23052940e-03 0. 0. 0. 0. 0. 0.
      3.11526470e-03 0. 0. 0. 0. 0. 0. 0. 0. 1.24610588e-02 0. 0. 0. 0.
      0. 0. 0. 0. 0. 0. 0. 0. 0. 0. 0. 0. 0. 0. 0. 0. 0. 3.11526470e-03
      0. 0. 0. 3.11526470e-03 0. 0. 6.23052940e-03 0. 0. 0. 0. 0. 0. 0.
      3.11526470e-03 0. 3.11526470e-03 0. 0. 0. 0. 0. 0. 0. 0. 0. 0.
      3.11526470e-03 0. 0. 0. 3.11526470e-03 0. 0. 0. 0. 3.11526470e-03
      0. 0. 0. 3.11526470e-03 0. 0. 0. 3.11526470e-03 0. 0. 0. 0.
      3.11526470e-03 0. 3.11526470e-03 0. 0. 0. 0. 0. 3.11526470e-03 0.
      0. 6.23052940e-03 0. 3.11526470e-03 0. 3.11526470e-03
      3.11526470e-03 0. 0. 0. 0. 0. 0. 0. 0. 3.11526470e-03 0. 0. 0. 0.
      0. 3.11526470e-03 0. 0. 3.11526470e-03 0. 0. 0. 0. 0. 0. 0. 0.
      3.11526470e-03 0. 0. 0. 0. 3.11526470e-03 0. 0. 0. 3.11526470e-03
      0. 0. 0. 0. 0. 0. 0. 3.11526470e-03 3.11526470e-03 0. 0. 0. 0. 0.
      0. 0. 0. 0. 0. 0. 3.11526470e-03 0. 9.34579410e-03 0. 0. 0. 0.
      3.11526470e-03 0. 0. 0. 0. 0. 3.11526470e-03 0. 0. 0. 0. 0.
      3.11526470e-03 0. 0. 0. 3.11526470e-03 0. 0. 0. 6.23052940e-03 0.
      0. 0. 0. 3.11526470e-03 0. 0. 0. 0. 0. 0. 0. 3.11526470e-03 0. 0.
      0. 0. 3.11526470e-03 0. 3.11526470e-03 0. 0. 0. 0. 0. 0. 0. 0. 0.
      6.23052940e-03 9.34579410e-03 0. 0. 3.11526470e-03 0. 0. 0. 0. 0.
      0. 0. 0. 0. 0. 0. 0. 3.11526470e-03 0. 3.11526470e-03 0. 0. 0. 0.
      3.11526470e-03 0. 0. 0. 0. 0. 0. 0. 0. 3.11526470e-03 0. 0. 0. 0.
      3.11526470e-03 0. 0. 0. 0. 0. 0. 6.23052940e-03 3.11526470e-03</_>
    <_>
      0. 2.93255132e-03 2.93255132e-03 0. 0. 0. 0. 0. 0. 2.93255132e-03
      2.93255132e-03 0. 0. 0. 0. 2.93255132e-03 0. 0. 0. 0.
      2.93255132e-03 2.93255132e-03 0. 2.93255132e-03 2.93255132e-03 0.
      0. 0. 0. 2.93255132e-03 0. 2.93255132e-03 2.93255132e-03 0.
      2.93255132e-03 0. 0. 0. 0. 0. 2.93255132e-03 0. 0. 0. 0. 0.
      2.93255132e-03 0. 0. 0. 0. 1.17302053e-02 0. 0. 0. 0. 0. 0.
      2.93255132e-03 0. 0. 0. 1.17302053e-02 0. 2.93255132e-03 0.
      2.93255132e-03 5.86510263e-03 0. 0. 0. 0. 0. 0. 0. 2.93255132e-03
      0. 0. 0. 5.86510263e-03 0. 2.93255132e-03 2.93255132e-03
      5.86510263e-03 0. 0. 0. 5.86510263e-03 0. 2.93255132e-03 0. 0. 0.
      0. 0. 0. 1.75953079e-02 0. 0. 0. 0. 2.93255132e-03 5.86510263e-03
      0. 0. 0. 0. 0. 0. 0. 2.93255132e-03 0. 2.93255132e-03 0.
      2.93255132e-03 0. 2.93255132e-03 2.93255132e-03 2.93255132e-03 0.
      0. 0. 0. 0. 0. 0. 2.93255132e-03 0. 0. 0. 0. 0. 0. 0. 0. 0.
      2.93255132e-03 0. 0. 0. 2.93255132e-03 0. 0. 0. 0. 0. 0. 0. 0.
      2.93255132e-03 2.93255132e-03 0. 0. 8.79765395e-03 0.
      2.93255132e-03 2.93255132e-03 2.93255132e-03 0. 0. 0. 0. 0. 0. 0.
      0. 0. 0. 0. 0. 0. 0. 0. 0. 0. 0. 2.93255132e-03 2.93255132e-03
      5.86510263e-03 0. 0. 2.93255132e-03 0. 0. 0. 0. 0. 0.
      2.93255132e-03 2.93255132e-03 0. 0. 0. 2.93255132e-03 0. 0. 0. 0.
      0. 0. 0. 2.93255132e-03 5.86510263e-03 0. 0. 0. 0. 0. 0. 0.
      2.93255132e-03 2.93255132e-03 0. 0. 0. 0. 0. 0. 5.86510263e-03 0.
      0. 2.93255132e-03 0. 0. 2.93255132e-03 0. 2.93255132e-03 0.
      5.86510263e-03 0. 0. 0. 8.79765395e-03 0. 0. 0. 0. 2.93255132e-03
      0. 0. 0. 0. 0. 2.93255132e-03 0. 0. 0. 0. 0. 5.86510263e-03 0.
      2.93255132e-03 0. 0. 0. 2.93255132e-03 2.93255132e-03 0.
      2.93255132e-03 2.93255132e-03 2.93255132e-03 2.93255132e-03 0. 0.
      2.93255132e-03 2.93255132e-03 0. 0. 2.93255132e-03 0. 0. 0. 0. 0.
      0. 2.93255132e-03 0. 0. 0. 0. 2.93255132e-03 0. 0. 0. 0. 0. 0. 0.
      0. 2.93255132e-03 0. 0. 2.93255132e-03 0. 0. 0. 0. 0.
      5.86510263e-03 0. 1.17302053e-02 0. 0. 0. 2.93255132e-03 0. 0. 0.
      0. 0. 0. 0. 0. 0. 0. 0. 0. 0. 2.93255132e-03 0. 2.93255132e-03 0.
      1.17302053e-02 5.86510263e-03 0. 2.93255132e-03 0. 0. 0. 0. 0. 0.
      0. 0. 0. 0. 0. 0. 0. 2.93255132e-03 0. 0. 0. 0. 0. 2.93255132e-03
      2.63929628e-02 0. 0. 0. 8.79765395e-03 0. 0. 2.93255132e-03 0. 0.
      2.93255132e-03 0. 0. 0. 0. 5.86510263e-03 0. 0. 2.93255132e-03 0.
      0. 0. 0. 0. 2.93255132e-03 2.93255132e-03 0. 0. 0. 2.93255132e-03
      0. 2.93255132e-03 5.86510263e-03 0. 0. 0. 0. 5.86510263e-03 0. 0.
      0. 0. 2.93255132e-03 0. 0. 0. 0. 2.93255132e-03 0. 2.93255132e-03
      2.93255132e-03 2.93255132e-03 2.93255132e-03 0. 2.93255132e-03 0.
      0. 0. 0. 0. 0. 0. 0. 0. 2.93255132e-03 0. 0. 0. 2.93255132e-03 0.
      0. 0. 0. 0. 0. 0. 0. 2.93255132e-03 2.93255132e-03 0. 0. 0.
      2.93255132e-03 0. 2.93255132e-03 2.93255132e-03 2.93255132e-03 0.
      0. 0. 0. 0. 0. 0. 2.93255132e-03 2.93255132e-03 0. 0. 0. 0. 0. 0.
      0. 0. 5.86510263e-03 0. 0. 0. 5.86510263e-03 2.93255132e-03 0. 0.
      0. 0. 0. 2.93255132e-03 0. 0. 0. 0. 8.79765395e-03 0. 0. 0. 0. 0.
      0. 0. 0. 0. 0. 0. 0. 0. 0. 2.93255132e-03 0. 0. 8.79765395e-03 0.
      8.79765395e-03 0. 8.79765395e-03 0. 0. 2.93255132e-03 0.
      2.93255132e-03 0. 0. 0. 0. 0. 0. 0. 0. 2.93255132e-03 0. 0.
      5.86510263e-03 0. 0. 0. 2.93255132e-03 2.93255132e-03 0. 0. 0. 0.
      0. 0. 0. 0. 5.86510263e-03 2.93255132e-03 0. 0. 5.86510263e-03 0.
      0. 0. 0. 0. 2.93255132e-03 0. 0. 0. 0. 0. 0. 2.93255132e-03 0.
      2.93255132e-03 0. 5.86510263e-03 2.93255132e-03 0. 0. 0. 0. 0.
      8.79765395e-03 0. 0. 0. 0. 0. 0. 5.86510263e-03 0. 0. 0. 0.
      5.86510263e-03 0. 0. 0. 0. 2.93255132e-03 5.86510263e-03 0. 0. 0.
      0. 0. 0. 0. 0. 0. 0. 0. 0. 0. 0. 2.93255132e-03 0. 2.93255132e-03
      2.93255132e-03 0. 0. 0. 0. 2.93255132e-03 2.93255132e-03 0. 0. 0.
      0. 2.93255132e-03 0. 0. 5.86510263e-03 2.93255132e-03 0.
      5.86510263e-03 0. 2.93255132e-03 0. 0. 0. 2.93255132e-03 0. 0. 0.
      0. 2.93255132e-03 0. 0. 0. 0. 0. 0. 0. 0. 0. 0. 0. 0.
      2.93255132e-03 0. 0. 0. 0. 2.93255132e-03 0. 0. 0. 2.93255132e-03
      0. 2.93255132e-03 0. 0. 0. 0. 0. 2.93255132e-03 0. 0. 0. 0. 0. 0.
      0. 0. 0. 0. 0. 0. 0. 0. 0. 0. 0. 0. 0. 2.93255132e-03 0. 0. 0. 0.
      5.86510263e-03 0. 0. 0. 0. 0. 2.93255132e-03 2.93255132e-03 0. 0.
      0. 2.93255132e-03 0. 0. 2.93255132e-03 0. 0. 0. 0. 2.93255132e-03
      0. 8.79765395e-03 2.93255132e-03 8.79765395e-03 0. 0.
      5.86510263e-03 2.93255132e-03 0. 0. 0. 0. 2.93255132e-03 0. 0. 0.
      2.93255132e-03 0. 0. 0. 0. 0. 0. 0. 2.93255132e-03 0. 0.
      2.93255132e-03 2.93255132e-03 2.93255132e-03 0. 0. 0. 0.
      2.93255132e-03 2.93255132e-03 2.93255132e-03 0. 0. 0.
      2.93255132e-03 0. 0. 0. 5.86510263e-03 0. 0. 0. 0. 5.86510263e-03
      0. 1.17302053e-02 0. 0. 0. 2.93255132e-03 0. 0. 0. 0.
      2.93255132e-03 0. 0. 0. 0. 0. 0. 0. 0. 2.93255132e-03 0. 0. 0. 0.
      0. 0. 0. 0. 5.86510263e-03 0. 0. 0. 0. 0. 2.93255132e-03
      2.93255132e-03 0. 0. 0. 2.93255132e-03 0. 0. 0. 0. 0.
      5.86510263e-03 0. 0. 0. 2.93255132e-03 2.93255132e-03 0. 0. 0. 0.
      0. 0. 0. 0. 0. 0. 0. 1.46627566e-02 0. 0. 1.46627566e-02
      5.86510263e-03 0. 0. 0. 8.79765395e-03 0. 5.86510263e-03 0.
      2.93255132e-03 0. 0. 0. 0. 0. 0. 2.93255132e-03 0. 2.93255132e-03
      2.93255132e-03 2.93255132e-03 0. 0. 0. 0. 0. 0. 0. 0. 0. 0.
      2.93255132e-03 0. 0. 0. 2.93255132e-03 0. 0. 0. 0. 0. 0. 0. 0. 0.
      0. 0. 2.93255132e-03 0. 0. 0. 0. 0. 0. 0. 0. 0. 1.46627566e-02 0.
      0. 0. 0. 0. 0. 2.93255132e-03 0. 0. 0. 0. 0. 0. 0. 0.
      2.93255132e-03 0. 0. 0. 0. 0. 0. 0. 0. 0. 0. 0. 5.86510263e-03 0.
      0. 2.93255132e-03 0. 0. 0. 0. 0. 0. 0. 0. 0. 0. 2.93255132e-03 0.
      0. 2.93255132e-03 0. 0. 0. 0. 0. 0. 0. 2.93255132e-03
      2.93255132e-03 0. 0. 0. 0. 0. 0. 0. 0. 0. 0. 0. 0. 0.
      2.93255132e-03 5.86510263e-03 0. 2.93255132e-03 0. 0.
      2.93255132e-03 0. 0. 0. 0. 0. 2.93255132e-03 0. 0. 0. 0. 0. 0. 0.
      0. 0. 2.93255132e-03 0. 0. 0. 0. 2.93255132e-03 0. 0. 0. 0.
      8.79765395e-03 0. 0. 0. 0. 2.93255132e-03 0. 0. 0. 0. 0. 0. 0. 0.
      2.93255132e-03 0. 0. 5.86510263e-03 0. 2.93255132e-03 0. 0. 0. 0.
      0. 5.86510263e-03 0. 2.93255132e-03 2.93255132e-03 0. 0. 0.
      2.93255132e-03 2.93255132e-03 2.93255132e-03 0. 0. 0. 0. 0. 0. 0.</_>
    <_>
      0. 0. 0. 0. 0. 2.88184430e-03 0. 0. 2.88184430e-03 2.88184430e-03
      0. 0. 0. 0. 0. 0. 2.88184430e-03 0. 0. 2.88184430e-03
      5.76368859e-03 2.88184430e-03 0. 2.88184430e-03 2.88184430e-03 0.
      2.88184430e-03 0. 5.76368859e-03 0. 0. 0. 0. 0. 5.76368859e-03 0.
      0. 2.88184430e-03 0. 0. 0. 2.88184430e-03 0. 0. 0. 2.88184430e-03
      0. 0. 0. 8.64553265e-03 0. 0. 0. 0. 0. 0. 0. 0. 0. 0. 0. 0.
      2.88184430e-03 2.88184430e-03 0. 0. 8.64553265e-03 2.88184430e-03
      0. 5.76368859e-03 0. 0. 0. 0. 0. 0. 0. 0. 0. 2.88184430e-03 0. 0.
      2.88184430e-03 0. 0. 0. 2.88184430e-03 0. 0. 0. 5.76368859e-03 0.
      0. 0. 0. 0. 0. 0. 0. 0. 0. 0. 0. 0. 0. 2.88184430e-03 0. 0. 0. 0.
      0. 0. 2.88184430e-03 0. 0. 0. 0. 0. 0. 0. 0. 2.88184430e-03
      2.88184430e-03 0. 0. 0. 0. 0. 0. 0. 0. 8.64553265e-03
      2.88184430e-03 0. 2.88184430e-03 2.88184430e-03 1.15273772e-02 0.
      2.88184430e-03 0. 0. 0. 2.88184430e-03 0. 0. 2.88184430e-03 0. 0.
      0. 0. 0. 0. 8.64553265e-03 0. 0. 2.88184430e-03 0. 0. 0. 0. 0. 0.
      0. 0. 0. 0. 0. 0. 0. 0. 2.88184430e-03 2.88184430e-03 0. 0.
      2.88184430e-03 0. 0. 0. 0. 0. 0. 2.88184430e-03 2.88184430e-03
      2.88184430e-03 0. 2.88184430e-03 5.76368859e-03 2.88184430e-03 0.
      0. 0. 0. 2.88184430e-03 2.88184430e-03 0. 0. 0. 0. 0. 0.
      1.15273772e-02 0. 0. 2.88184430e-03 0. 0. 0. 0. 0. 2.88184430e-03
      0. 0. 0. 2.88184430e-03 0. 0. 0. 0. 0. 0. 0. 0. 2.88184430e-03 0.
      0. 2.88184430e-03 0. 0. 0. 0. 0. 0. 5.76368859e-03 0. 0. 0. 0.
      2.88184430e-03 0. 0. 0. 0. 2.88184430e-03 0. 0. 0. 2.88184430e-03
      0. 5.76368859e-03 2.88184430e-03 0. 0. 0. 0. 0. 0. 0.
      2.88184430e-03 0. 2.88184430e-03 2.88184430e-03 0. 8.64553265e-03
      5.76368859e-03 0. 0. 0. 0. 0. 0. 0. 0. 0. 5.76368859e-03 0. 0. 0.
      0. 2.88184430e-03 0. 0. 2.88184430e-03 0. 0. 0. 0. 0. 0.
      2.88184430e-03 2.88184430e-03 0. 0. 8.64553265e-03 0. 0.
      2.88184430e-03 0. 0. 0. 0. 0. 0. 0. 5.76368859e-03 0. 0.
      2.88184430e-03 2.88184430e-03 0. 2.88184430e-03 2.88184430e-03 0.
      2.88184430e-03 0. 0. 0. 8.64553265e-03 2.88184430e-03
      2.88184430e-03 0. 0. 2.88184430e-03 0. 0. 0. 0. 0. 0. 0. 0. 0.
      2.88184430e-03 2.88184430e-03 0. 0. 0. 0. 0. 2.88184430e-03 0.
      1.15273772e-02 0. 0. 2.88184430e-03 0. 5.76368859e-03 0. 0. 0. 0.
      0. 0. 0. 0. 0. 0. 0. 0. 2.88184430e-03 0. 0. 0. 0. 0. 0. 0. 0. 0.
      5.76368859e-03 0. 5.76368859e-03 0. 0. 0. 2.88184430e-03 0. 0. 0.
      2.88184430e-03 0. 1.44092217e-02 0. 0. 0. 2.88184430e-03 0. 0. 0.
      0. 0. 0. 0. 0. 0. 0. 0. 2.88184430e-03 0. 0. 2.88184430e-03 0. 0.
      5.76368859e-03 2.88184430e-03 0. 0. 0. 0. 8.64553265e-03
      2.88184430e-03 0. 2.88184430e-03 0. 0. 0. 0. 2.88184430e-03 0. 0.
      0. 0. 0. 2.88184430e-03 0. 5.76368859e-03 0. 0. 0. 0. 0.
      2.88184430e-03 0. 2.88184430e-03 0. 0. 2.88184430e-03 0. 0. 0.
      5.76368859e-03 0. 0. 0. 0. 5.76368859e-03 0. 0. 5.76368859e-03 0.
      0. 0. 5.76368859e-03 0. 2.88184430e-03 8.64553265e-03 0. 0. 0. 0.
      2.88184430e-03 2.88184430e-03 0. 0. 2.88184430e-03 0.
      2.88184430e-03 0. 2.88184430e-03 0. 2.88184430e-03 0. 0. 0. 0.
      2.88184430e-03 0. 0. 0. 5.76368859e-03 0. 2.88184430e-03
      5.76368859e-03 0. 2.88184430e-03 0. 0. 0. 0. 2.88184430e-03
      2.88184430e-03 0. 0. 0. 0. 0. 2.88184430e-03 2.88184430e-03 0.
      2.88184430e-03 0. 0. 0. 0. 0. 0. 0. 0. 0. 0. 0. 0. 2.88184430e-03
      2.88184430e-03 2.88184430e-03 0. 2.88184430e-03 2.88184430e-03
      2.88184430e-03 0. 0. 0. 0. 2.88184430e-03 0. 2.88184430e-03 0.
      8.64553265e-03 0. 2.88184430e-03 0. 0. 2.88184430e-03 0. 0.
      2.88184430e-03 0. 0. 5.76368859e-03 0. 0. 0. 2.88184430e-03
      2.88184430e-03 0. 0. 2.88184430e-03 0. 2.88184430e-03 0.
      2.88184430e-03 2.88184430e-03 0. 0. 0. 2.88184430e-03 0. 0. 0. 0.
      0. 0. 0. 2.88184430e-03 0. 0. 0. 0. 0. 0. 0. 0. 0. 0.
      2.88184430e-03 0. 0. 2.88184430e-03 0. 0. 0. 2.88184430e-03 0. 0.
      2.88184430e-03 0. 0. 0. 0. 0. 0. 0. 0. 2.88184430e-03 0.
      2.88184430e-03 0. 0. 0. 0. 0. 0. 0. 0. 0. 0. 0. 2.88184430e-03 0.
      0. 0. 0. 0. 0. 0. 0. 0. 0. 0. 2.88184430e-03 0. 0. 5.76368859e-03
      0. 5.76368859e-03 0. 0. 0. 2.88184430e-03 0. 2.88184430e-03 0. 0.
      2.88184430e-03 0. 1.15273772e-02 0. 0. 0. 0. 5.76368859e-03 0. 0.
      2.88184430e-03 0. 0. 0. 0. 0. 0. 0. 2.88184430e-03 0.
      2.88184430e-03 2.88184430e-03 2.88184430e-03 0. 0. 0. 0. 0. 0. 0.
      0. 0. 0. 2.88184430e-03 2.88184430e-03 0. 0. 0. 0. 2.88184430e-03
      5.76368859e-03 0. 2.88184430e-03 2.88184430e-03 0. 0. 0. 0.
      2.88184430e-03 0. 0. 0. 0. 0. 2.88184430e-03 5.76368859e-03 0.
      2.88184430e-03 0. 0. 0. 0. 0. 2.88184430e-03 0. 0. 0. 0.
      5.76368859e-03 0. 0. 0. 2.88184430e-03 5.76368859e-03 0. 0. 0. 0.
      2.88184430e-03 0. 2.88184430e-03 0. 0. 0. 0. 0. 2.88184430e-03 0.
      0. 0. 0. 0. 0. 0. 0. 0. 2.88184430e-03 0. 2.88184430e-03 0.
      2.88184430e-03 0. 0. 2.88184430e-03 0. 2.88184430e-03 0. 0. 0.
      2.88184430e-03 2.88184430e-03 0. 0. 0. 2.88184430e-03 0. 0. 0. 0.
      2.88184430e-03 2.88184430e-03 0. 0. 5.76368859e-03 0. 0.
      2.88184430e-03 0. 2.88184430e-03 2.88184430e-03 0. 2.88184430e-03
      0. 0. 0. 2.88184430e-03 0. 0. 2.88184430e-03 0. 2.88184430e-03
      2.88184430e-03 0. 0. 5.76368859e-03 0. 2.88184430e-03 0.
      2.88184430e-03 2.88184430e-03 0. 0. 2.88184430e-03 0.
      5.76368859e-03 0. 0. 5.76368859e-03 0. 0. 0. 2.88184430e-03 0. 0.
      0. 5.76368859e-03 0. 0. 0. 0. 0. 0. 0. 2.88184430e-03 0.
      5.76368859e-03 0. 0. 5.76368859e-03 2.88184430e-03 0. 0. 0. 0.
      2.88184430e-03 2.88184430e-03 0. 0. 0. 0. 0. 0. 2.88184430e-03
      8.64553265e-03 0. 0. 0. 0. 0. 0. 2.88184430e-03 0. 5.76368859e-03
      0. 0. 0. 0. 0. 5.76368859e-03 0. 0. 0. 2.88184430e-03 0. 0. 0. 0.
      0. 0. 0. 0. 0. 0. 0. 0. 0. 0. 2.88184430e-03 0. 0. 2.88184430e-03
      0. 0. 2.88184430e-03 0. 0. 0. 0. 0. 0. 0. 0. 0. 0. 0. 0. 0. 0. 0.
      2.88184430e-03 0. 2.88184430e-03 0. 2.88184430e-03 0. 0. 0. 0. 0.
      0. 0. 2.88184430e-03 2.88184430e-03 0. 2.88184430e-03 0. 0. 0. 0.
      0. 0. 2.88184430e-03 0. 2.88184430e-03 0. 2.88184430e-03 0.
      2.88184430e-03 0. 0. 0. 0. 0. 0. 0. 0. 0. 0. 0. 0. 0. 0. 0.
      2.88184430e-03 2.88184430e-03 2.88184430e-03 0. 2.88184430e-03
      5.76368859e-03 0. 0. 0. 2.88184430e-03 0. 2.88184430e-03 0. 0. 0.
      0. 0. 2.88184430e-03 0. 0. 0. 0. 0. 0. 2.88184430e-03 0. 0.
      2.88184430e-03 0. 0. 0. 0. 0. 0. 0. 0. 5.76368859e-03 0.
      2.88184430e-03 2.88184430e-03 0. 0. 0. 0. 0. 0. 0. 2.88184430e-03
      5.76368859e-03 0. 0. 2.88184430e-03 2.88184430e-03 0. 0. 0.
      2.88184430e-03 0. 2.88184430e-03 0. 0. 0. 0. 2.88184430e-03 0.
      2.88184430e-03 0. 0. 0. 0. 0. 0. 2.88184430e-03 5.76368859e-03 0.</_>
    <_>
      0. 2.45098048e-03 2.45098048e-03 1.71568636e-02 0. 0. 0. 0. 0.
      2.45098048e-03 0. 0. 4.90196096e-03 0. 0. 0. 0. 0. 0. 0.
      2.45098048e-03 9.80392192e-03 2.45098048e-03 0. 0. 0.
      2.45098048e-03 2.45098048e-03 0. 0. 0. 2.45098048e-03
      4.90196096e-03 0. 0. 0. 0. 0. 0. 2.45098048e-03 4.90196096e-03
      4.90196096e-03 0. 0. 0. 2.45098048e-03 0. 2.45098048e-03 0.
      2.45098048e-03 0. 0. 2.45098048e-03 0. 2.45098048e-03
      2.45098048e-03 0. 0. 0. 0. 4.90196096e-03 2.45098048e-03
      4.90196096e-03 2.45098048e-03 4.90196096e-03 0. 0. 2.45098048e-03
      0. 2.45098048e-03 0. 0. 0. 0. 0. 2.45098048e-03 0. 0. 0. 0. 0.
      2.45098048e-03 0. 0. 0. 0. 0. 2.45098048e-03 0. 0. 7.35294167e-03
      0. 2.45098048e-03 0. 2.45098048e-03 0. 2.45098048e-03 0. 0. 0. 0.
      4.90196096e-03 0. 0. 0. 1.22549022e-02 0. 2.45098048e-03 0. 0. 0.
      2.45098048e-03 0. 2.45098048e-03 0. 0. 0. 2.45098048e-03 0. 0. 0.
      0. 2.45098048e-03 0. 0. 0. 0. 0. 0. 0. 4.90196096e-03 0. 0. 0. 0.
      4.90196096e-03 0. 0. 0. 0. 0. 0. 0. 4.90196096e-03 0.
      4.90196096e-03 0. 0. 2.45098048e-03 0. 0. 2.45098048e-03
      7.35294167e-03 0. 0. 2.45098048e-03 0. 0. 0. 0. 0. 0. 0. 0. 0. 0.
      0. 2.45098048e-03 0. 2.45098048e-03 0. 0. 0. 2.45098048e-03 0. 0.
      0. 0. 2.45098048e-03 0. 0. 0. 0. 2.45098048e-03 2.45098048e-03 0.
      0. 0. 0. 0. 0. 0. 0. 2.45098048e-03 2.45098048e-03 0. 0. 0. 0.
      2.45098048e-03 0. 2.45098048e-03 0. 0. 0. 2.45098048e-03 0. 0. 0.
      0. 0. 2.45098048e-03 0. 2.45098048e-03 0. 0. 0. 0. 0.
      2.45098048e-03 2.45098048e-03 0. 0. 0. 2.45098048e-03
      2.45098048e-03 0. 0. 0. 0. 0. 0. 0. 2.45098048e-03 0. 0. 0.
      2.45098048e-03 2.45098048e-03 0. 0. 2.45098048e-03 0. 0.
      2.45098048e-03 0. 0. 0. 0. 2.45098048e-03 0. 0. 0. 0.
      2.45098048e-03 0. 0. 2.45098048e-03 0. 2.45098048e-03 0. 0. 0. 0.
      2.45098048e-03 0. 0. 0. 0. 1.22549022e-02 0. 0. 2.45098048e-03 0.
      0. 0. 2.45098048e-03 0. 0. 0. 0. 2.45098048e-03 0. 2.45098048e-03
      0. 0. 0. 2.45098048e-03 2.45098048e-03 2.45098048e-03 0. 0.
      4.90196096e-03 0. 0. 0. 0. 0. 0. 0. 0. 0. 0. 2.45098048e-03
      2.45098048e-03 0. 0. 2.45098048e-03 0. 0. 0. 2.45098048e-03 0. 0.
      4.90196096e-03 0. 0. 0. 0. 0. 0. 0. 0. 2.45098048e-03 0. 0. 0. 0.
      2.45098048e-03 0. 0. 0. 0. 0. 0. 2.45098048e-03 0. 0.
      2.45098048e-03 0. 4.90196096e-03 0. 0. 0. 0. 0. 0. 2.45098048e-03
      0. 2.45098048e-03 0. 0. 0. 0. 0. 0. 2.45098048e-03 0. 0.
      2.45098048e-03 0. 9.80392192e-03 0. 4.90196096e-03 0. 0. 0. 0.
      1.71568636e-02 0. 0. 0. 0. 0. 2.45098048e-03 0. 2.45098048e-03
      7.35294167e-03 0. 0. 4.90196096e-03 2.45098048e-03 0. 0.
      2.45098048e-03 2.45098048e-03 2.45098048e-03 0. 2.45098048e-03
      2.45098048e-03 0. 0. 0. 2.45098048e-03 0. 0. 0. 0. 0.
      2.45098048e-03 0. 0. 0. 0. 0. 2.45098048e-03 0. 0. 0. 0. 0. 0. 0.
      4.90196096e-03 0. 2.45098048e-03 2.45098048e-03 0. 0. 0.
      4.90196096e-03 0. 0. 2.45098048e-03 0. 0. 0. 2.45098048e-03 0.
      4.90196096e-03 0. 2.45098048e-03 0. 0. 2.45098048e-03 0. 0. 0. 0.
      0. 0. 2.45098048e-03 0. 0. 2.45098048e-03 4.90196096e-03 0.
      2.45098048e-03 0. 2.45098048e-03 2.45098048e-03 0. 0. 0. 0. 0. 0.
      0. 0. 0. 0. 7.35294167e-03 0. 0. 4.90196096e-03 0. 0. 0. 0. 0. 0.
      0. 0. 0. 2.45098048e-03 0. 0. 0. 2.45098048e-03 0. 2.45098048e-03
      2.45098048e-03 0. 4.90196096e-03 0. 0. 0. 2.45098048e-03
      2.45098048e-03 0. 0. 0. 0. 0. 0. 2.45098048e-03 2.45098048e-03 0.
      0. 0. 0. 0. 4.90196096e-03 9.80392192e-03 0. 0. 0. 0. 0. 0.
      2.45098048e-03 2.45098048e-03 0. 2.45098048e-03 0. 0.
      4.90196096e-03 0. 0. 0. 0. 0. 0. 0. 0. 0. 2.45098048e-03 0.
      7.35294167e-03 0. 2.45098048e-03 2.45098048e-03 7.35294167e-03 0.
      0. 0. 2.45098048e-03 4.90196096e-03 2.45098048e-03 0. 0. 0.
      2.45098048e-03 0. 0. 0. 0. 0. 0. 4.90196096e-03 2.45098048e-03 0.
      0. 0. 0. 0. 0. 0. 2.45098048e-03 0. 0. 2.45098048e-03 0. 0. 0. 0.
      0. 0. 2.45098048e-03 2.45098048e-03 0. 4.90196096e-03 0.
      2.45098048e-03 0. 0. 0. 4.90196096e-03 0. 0. 9.80392192e-03 0. 0.
      0. 0. 2.45098048e-03 0. 4.90196096e-03 2.45098048e-03 0. 0. 0.
      2.45098048e-03 0. 0. 2.45098048e-03 0. 4.90196096e-03 0. 0. 0. 0.
      0. 0. 0. 0. 0. 0. 0. 0. 0. 2.45098048e-03 0. 2.45098048e-03 0. 0.
      4.90196096e-03 2.45098048e-03 0. 0. 0. 2.45098048e-03
      7.35294167e-03 0. 0. 0. 0. 0. 0. 2.45098048e-03 2.45098048e-03 0.
      2.45098048e-03 0. 0. 0. 0. 0. 2.45098048e-03 0. 0. 2.45098048e-03
      0. 0. 0. 2.45098048e-03 0. 0. 0. 9.80392192e-03 2.45098048e-03
      7.35294167e-03 2.45098048e-03 0. 0. 0. 0. 0. 0. 0. 2.45098048e-03
      2.45098048e-03 0. 0. 0. 0. 2.45098048e-03 2.45098048e-03 0. 0. 0.
      2.45098048e-03 0. 0. 0. 2.45098048e-03 0. 2.45098048e-03 0.
      2.45098048e-03 0. 0. 0. 0. 0. 0. 2.45098048e-03 0. 0. 0. 0. 0. 0.
      0. 9.80392192e-03 0. 0. 2.45098048e-03 0. 0. 0. 0. 0. 0.
      2.45098048e-03 0. 4.90196096e-03 0. 0. 0. 2.45098048e-03
      2.45098048e-03 0. 0. 0. 9.80392192e-03 0. 0. 0. 0. 2.45098048e-03
      0. 2.45098048e-03 0. 0. 0. 0. 0. 0. 0. 2.45098048e-03 0. 0. 0. 0.
      0. 0. 2.45098048e-03 0. 0. 0. 0. 0. 0. 2.45098048e-03 0.
      2.45098048e-03 0. 2.45098048e-03 0. 4.90196096e-03 4.90196096e-03
      0. 0. 0. 0. 0. 2.45098048e-03 2.45098048e-03 2.45098048e-03 0.
      2.45098048e-03 0. 2.45098048e-03 2.45098048e-03 0. 2.45098048e-03
      0. 0. 2.45098048e-03 0. 2.45098048e-03 0. 0. 0. 0. 0. 0. 0. 0.
      2.45098048e-03 2.45098048e-03 0. 0. 2.45098048e-03 0. 0. 0. 0. 0.
      0. 2.45098048e-03 0. 0. 0. 0. 0. 0. 7.35294167e-03 2.45098048e-03
      0. 2.45098048e-03 0. 2.45098048e-03 0. 9.80392192e-03 0. 0. 0. 0.
      0. 0. 2.45098048e-03 0. 0. 0. 7.35294167e-03 4.90196096e-03
      2.45098048e-03 0. 2.45098048e-03 0. 0. 0. 0. 2.45098048e-03 0. 0.
      2.45098048e-03 2.45098048e-03 0. 2.45098048e-03 0. 0. 0. 0. 0. 0.
      0. 0. 0. 0. 0. 2.45098048e-03 0. 0. 2.45098048e-03 0. 0. 0. 0.
      2.45098048e-03 0. 0. 0. 0. 2.45098048e-03 0. 0. 0. 2.45098048e-03
      2.45098048e-03 0. 0. 0. 0. 0. 0. 2.45098048e-03 0. 0. 0. 0.
      9.80392192e-03 0. 2.45098048e-03 0. 2.45098048e-03 0. 0.
      2.45098048e-03 0. 0. 0. 0. 0. 0. 2.45098048e-03 0. 0.
      2.45098048e-03 7.35294167e-03 0. 0. 0. 2.45098048e-03
      4.90196096e-03 0. 2.45098048e-03 0. 0. 0. 0. 0. 0. 0. 0. 0. 0.
      2.45098048e-03 2.45098048e-03 2.45098048e-03 4.90196096e-03
      2.45098048e-03 0. 4.90196096e-03 0. 0. 4.90196096e-03 0.
      2.45098048e-03 0. 0. 0. 4.90196096e-03 4.90196096e-03
      2.45098048e-03 0. 0. 0. 0. 0. 0. 0. 0. 0. 0. 0. 0. 0. 0. 0. 0. 0.
      0. 0. 0. 4.90196096e-03 0. 0. 0. 0. 2.45098048e-03 0.
      2.45098048e-03 0. 0. 0. 0. 0. 4.90196096e-03 0. 4.90196096e-03 0.
      0. 2.45098048e-03 0. 4.90196096e-03 2.45098048e-03 0. 0. 0. 0.
      2.45098048e-03 0. 0. 0. 7.35294167e-03 2.45098048e-03 0. 0.
      2.45098048e-03 0. 4.90196096e-03 0. 4.90196096e-03 0. 0. 0. 0. 0.
      0. 2.45098048e-03 0. 0. 0. 4.90196096e-03 4.90196096e-03
      2.45098048e-03 0.</_>
    <_>
      0. 0. 0. 3.25203245e-03 1.62601622e-03 0. 3.25203245e-03
      1.62601622e-03 0. 0. 0. 0. 0. 0. 0. 0. 0. 0. 0. 0. 0.
      1.62601622e-03 1.62601622e-03 1.62601622e-03 3.25203245e-03
      1.62601622e-03 0. 1.62601622e-03 1.62601622e-03 0. 0.
      3.25203245e-03 0. 0. 0. 0. 0. 0. 0. 0. 1.62601622e-03 0. 0.
      3.25203245e-03 0. 3.25203245e-03 1.62601622e-03 0. 0. 0.
      3.25203245e-03 0. 0. 0. 1.62601622e-03 8.13008100e-03 0. 0. 0. 0.
      1.62601622e-03 1.62601622e-03 0. 1.62601622e-03 3.25203245e-03 0.
      0. 1.62601622e-03 1.62601622e-03 4.87804879e-03 0. 3.25203245e-03
      0. 0. 0. 0. 3.25203245e-03 1.62601622e-03 0. 0. 1.62601622e-03 0.
      0. 0. 0. 0. 4.87804879e-03 1.62601622e-03 0. 0. 4.87804879e-03
      1.62601622e-03 0. 0. 1.62601622e-03 0. 0. 3.25203245e-03
      1.62601622e-03 3.25203245e-03 0. 3.25203245e-03 3.25203245e-03 0.
      0. 1.62601622e-03 0. 1.62601622e-03 0. 1.62601622e-03
      3.25203245e-03 0. 0. 9.75609757e-03 3.25203245e-03 1.62601622e-03
      1.62601622e-03 0. 1.62601622e-03 0. 0. 0. 1.62601622e-03
      4.87804879e-03 0. 0. 0. 0. 1.62601622e-03 0. 0. 1.62601622e-03
      1.62601622e-03 0. 0. 0. 0. 0. 0. 0. 0. 6.50406489e-03 0. 0. 0. 0.
      0. 3.25203245e-03 0. 0. 4.87804879e-03 1.62601622e-03
      1.62601622e-03 1.62601622e-03 3.25203245e-03 4.87804879e-03 0. 0.
      0. 0. 0. 0. 1.62601622e-03 0. 0. 0. 0. 1.62601622e-03 0.
      1.62601622e-03 0. 1.62601622e-03 1.62601622e-03 0. 0.
      3.25203245e-03 0. 3.25203245e-03 1.62601622e-03 0. 0. 0.
      1.62601622e-03 0. 3.25203245e-03 1.62601622e-03 0. 1.62601622e-03
      0. 1.62601622e-03 1.62601622e-03 0. 0. 0. 6.50406489e-03 0.
      3.25203245e-03 0. 4.87804879e-03 0. 1.62601622e-03 1.62601622e-03
      0. 0. 0. 0. 1.62601622e-03 3.25203245e-03 3.25203245e-03 0. 0. 0.
      0. 0. 1.62601622e-03 0. 1.62601622e-03 1.62601622e-03 0.
