<?xml version="1.0"?>
<opencv_storage>
<my_svm type_id="opencv-ml-svm">
  <svm_type>C_SVC</svm_type>
  <kernel><type>RBF</type>
    <gamma>5.0625000000000009e-01</gamma></kernel>
  <C>3.1250000000000000e+02</C>
  <term_criteria><epsilon>9.9999999747524271e-07</epsilon>
    <iterations>1000</iterations></term_criteria>
  <var_all>1000</var_all>
  <var_count>1000</var_count>
  <class_count>2</class_count>
  <class_labels type_id="opencv-matrix">
    <rows>1</rows>
    <cols>2</cols>
    <dt>i</dt>
    <data>
      -1 1</data></class_labels>
  <sv_total>114</sv_total>
  <support_vectors>
    <_>
      0. 0. 0. 3.22580640e-03 0. 0. 3.22580640e-03 0. 0. 0. 0. 0. 0. 0.
      6.45161280e-03 0. 3.22580640e-03 6.45161280e-03 0. 0. 0.
      3.22580640e-03 0. 0. 0. 0. 0. 0. 0. 0. 0. 3.22580640e-03
      6.45161280e-03 3.22580640e-03 0. 0. 0. 0. 3.22580640e-03 0.
      3.22580640e-03 0. 0. 3.22580640e-03 0. 0. 0. 0. 0. 0. 0.
      3.22580640e-03 3.22580640e-03 0. 0. 6.45161280e-03 3.22580640e-03
      0. 0. 0. 0. 0. 0. 3.22580640e-03 0. 0. 0. 0. 0. 0. 0. 0.
      3.22580640e-03 0. 3.22580640e-03 0. 0. 0. 0. 0. 0. 0. 0. 0. 0. 0.
      3.22580640e-03 3.22580640e-03 0. 0. 6.45161280e-03 0.
      1.93548389e-02 0. 0. 0. 0. 0. 0. 3.22580640e-03 0. 0. 0. 0. 0.
      6.45161280e-03 0. 0. 0. 0. 0. 0. 0. 0. 0. 0. 0. 0. 9.67741944e-03
      0. 0. 0. 0. 3.22580640e-03 3.22580640e-03 0. 0. 0. 0. 0. 0. 0. 0.
      3.22580640e-03 0. 0. 0. 0. 0. 0. 0. 0. 0. 0. 0. 0. 9.67741944e-03
      0. 0. 3.22580640e-03 0. 0. 3.22580640e-03 0. 0. 0. 0. 0. 0. 0. 0.
      3.22580640e-03 0. 3.22580640e-03 0. 3.22580640e-03 0. 0. 0.
      3.22580640e-03 3.22580640e-03 0. 0. 0. 0. 0. 0. 0. 0. 0. 0. 0. 0.
      0. 0. 0. 1.29032256e-02 0. 0. 0. 0. 3.22580640e-03 0. 0. 0. 0.
      3.22580640e-03 0. 0. 0. 0. 3.22580640e-03 0. 0. 3.22580640e-03 0.
      0. 3.22580640e-03 3.22580640e-03 6.45161280e-03 0. 3.22580640e-03
      3.22580640e-03 0. 0. 0. 0. 0. 0. 0. 0. 0. 0. 3.22580640e-03
      6.45161280e-03 0. 3.22580640e-03 0. 3.22580640e-03 0.
      3.22580640e-03 3.22580640e-03 0. 0. 0. 0. 0. 0. 0. 0. 0. 0. 0. 0.
      0. 0. 0. 0. 0. 9.67741944e-03 0. 0. 0. 0. 0. 0. 3.22580640e-03 0.
      3.22580640e-03 0. 0. 0. 0. 0. 0. 0. 0. 0. 3.22580640e-03 0.
      3.22580640e-03 0. 0. 0. 0. 6.45161280e-03 0. 3.22580640e-03 0. 0.
      0. 0. 0. 3.22580640e-03 3.22580640e-03 0. 0. 0. 0. 0.
      9.67741944e-03 0. 3.22580640e-03 3.22580640e-03 0. 3.22580640e-03
      0. 3.22580640e-03 0. 0. 6.45161280e-03 0. 0. 3.22580640e-03 0.
      3.22580640e-03 3.22580640e-03 0. 6.45161280e-03 0. 3.22580640e-03
      0. 0. 0. 0. 3.22580640e-03 0. 3.22580640e-03 0. 3.54838707e-02 0.
      6.45161280e-03 0. 0. 0. 3.22580640e-03 0. 3.22580640e-03 0. 0. 0.
      0. 3.22580640e-03 0. 0. 0. 0. 0. 0. 0. 6.45161280e-03
      3.22580640e-03 0. 3.22580640e-03 0. 0. 0. 0. 0. 3.22580640e-03
      3.22580640e-03 0. 0. 3.22580640e-03 0. 0. 0. 0. 0. 3.22580640e-03
      0. 0. 0. 0. 0. 0. 0. 3.22580640e-03 0. 0. 0. 2.25806441e-02 0. 0.
      0. 3.22580640e-03 0. 0. 0. 0. 0. 0. 0. 0. 0. 0. 6.45161280e-03
      1.93548389e-02 0. 0. 0. 0. 0. 0. 0. 0. 0. 3.22580640e-03 0. 0. 0.
      3.22580640e-03 0. 0. 0. 0. 0. 0. 3.22580640e-03 0. 0. 0. 0. 0.
      3.22580640e-03 0. 3.22580640e-03 0. 0. 0. 3.22580640e-03 0. 0.
      3.22580640e-03 0. 0. 0. 3.22580640e-03 0. 0. 0. 3.22580640e-03
      1.29032256e-02 0. 0. 0. 0. 0. 3.22580640e-03 0. 0. 0.
      3.22580640e-03 0. 0. 0. 0. 0. 0. 3.22580640e-03 0. 3.22580640e-03
      0. 9.67741944e-03 0. 0. 0. 0. 0. 0. 0. 3.22580640e-03 0. 0. 0. 0.
      3.22580640e-03 0. 0. 0. 0. 0. 3.22580640e-03 3.22580640e-03 0.
      3.22580640e-03 0. 0. 0. 3.22580640e-03 0. 0. 0. 0. 0. 0.
      9.67741944e-03 3.22580640e-03 3.22580640e-03 0. 0. 0. 0. 0. 0. 0.
      3.22580640e-03 0. 0. 0. 0. 0. 0. 0. 0. 0. 3.22580640e-03 0. 0.
      6.45161280e-03 0. 0. 3.22580640e-03 0. 0. 3.22580640e-03
      2.90322583e-02 0. 3.22580640e-03 0. 0. 3.22580640e-03 0. 0. 0. 0.
      0. 3.22580640e-03 0. 0. 0. 0. 3.22580640e-03 6.45161280e-03
      6.45161280e-03 0. 3.22580640e-03 0. 3.22580640e-03 0. 0. 0. 0. 0.
      0. 0. 6.45161280e-03 3.22580640e-03 0. 3.22580640e-03 0. 0. 0. 0.
      0. 3.22580640e-03 0. 0. 0. 0. 0. 0. 0. 0. 0. 0. 0. 3.22580640e-03
      0. 0. 0. 0. 0. 0. 3.22580640e-03 0. 0. 0. 3.22580640e-03 0. 0. 0.
      3.22580640e-03 0. 0. 0. 0. 3.22580640e-03 0. 0. 0. 0. 0.
      6.45161280e-03 0. 3.22580640e-03 0. 0. 0. 0. 3.22580640e-03 0. 0.
      0. 0. 0. 0. 0. 3.22580640e-03 0. 0. 0. 3.22580640e-03
      3.22580640e-03 0. 6.45161280e-03 0. 0. 0. 0. 0. 3.22580640e-03 0.
      0. 0. 0. 0. 0. 0. 0. 0. 0. 0. 0. 0. 0. 3.22580640e-03 0. 0. 0. 0.
      0. 0. 0. 0. 0. 0. 0. 0. 0. 0. 0. 0. 0. 0. 0. 0. 0. 0. 0. 0. 0. 0.
      0. 3.22580640e-03 0. 0. 0. 6.45161280e-03 0. 0. 0. 0. 0. 0. 0.
      3.22580640e-03 3.22580640e-03 0. 0. 0. 0. 0. 0. 0. 0.
      6.45161280e-03 0. 0. 0. 0. 0. 0. 0. 0. 0. 0. 0. 0. 0. 0. 0. 0. 0.
      0. 0. 0. 0. 0. 0. 0. 0. 3.22580640e-03 0. 0. 3.22580640e-03 0. 0.
      0. 0. 9.67741944e-03 3.22580640e-03 0. 3.22580640e-03 0. 0. 0. 0.
      0. 0. 6.45161280e-03 0. 0. 0. 0. 3.22580640e-03 0. 0. 0. 0. 0.
      3.22580640e-03 0. 0. 0. 0. 3.22580640e-03 0. 0. 0. 0.
      3.22580640e-03 0. 0. 9.67741944e-03 0. 0. 0. 0. 0. 0. 0.
      3.22580640e-03 0. 0. 0. 0. 3.22580640e-03 0. 0. 0. 0.
      6.45161280e-03 0. 0. 6.45161280e-03 3.22580640e-03 0. 0. 0. 0. 0.
      6.45161280e-03 0. 0. 0. 0. 0. 0. 3.22580640e-03 0. 0. 0. 0. 0.
      3.22580640e-03 3.22580640e-03 0. 0. 0. 0. 0. 3.22580640e-03 0.
      3.22580640e-03 0. 3.22580640e-03 0. 0. 0. 0. 0. 0. 0. 0. 0.
      6.45161280e-03 0. 0. 0. 0. 0. 0. 0. 0. 0. 0. 0. 0. 3.22580640e-03
      3.22580640e-03 0. 0. 0. 0. 0. 0. 0. 0. 0. 0. 0. 0. 3.22580640e-03
      0. 0. 3.54838707e-02 0. 3.22580640e-03 0. 0. 3.22580640e-03 0. 0.
      0. 0. 0. 3.22580640e-03 0. 0. 0. 0. 0. 0. 0. 3.22580640e-03 0.
      3.22580640e-03 0. 0. 0. 0. 0. 0. 0. 0. 0. 0. 0. 0. 0. 0. 0. 0. 0.
      0. 0. 0. 0. 0. 0. 0. 0. 0. 0. 1.29032256e-02 0. 0. 9.67741944e-03
      0. 0. 0. 0. 0. 0. 0. 3.22580640e-03 0. 0. 3.22580640e-03
      6.45161280e-03 0. 0. 0. 0. 0. 0. 0. 0. 0. 0. 0. 6.45161280e-03 0.
      0. 0. 0. 0. 0. 0. 3.22580640e-03 0. 0. 0. 0. 0. 0. 0. 0. 0. 0.
      3.22580640e-03 6.45161280e-03 0. 3.22580640e-03 0. 0.
      3.22580640e-03 0. 3.22580640e-03 0. 0. 0. 0. 0. 0. 0. 0. 0.
      3.22580640e-03 0. 3.22580640e-03 0. 0. 0. 0. 0. 0. 0. 0. 0. 0. 0.
      0. 3.22580640e-03 0. 0. 0. 0. 0. 6.45161280e-03 0. 0. 0. 0.
      3.22580640e-03 0. 0. 6.45161280e-03 0. 0. 0. 0. 3.22580640e-03 0.
      0. 0. 3.22580640e-03 0. 3.22580640e-03</_>
    <_>
      0. 0. 0. 7.66283507e-03 0. 0. 0. 0. 3.83141753e-03 0. 0. 0. 0. 0.
      0. 0. 3.83141753e-03 0. 0. 3.83141753e-03 3.83141753e-03 0. 0. 0.
      3.83141753e-03 0. 0. 0. 0. 0. 0. 0. 3.83141753e-03 0. 0. 0. 0. 0.
      7.66283507e-03 0. 3.83141753e-03 3.83141753e-03 7.66283507e-03
      7.66283507e-03 0. 7.66283507e-03 7.66283507e-03 0. 7.66283507e-03
      0. 3.83141753e-03 0. 3.83141753e-03 3.83141753e-03 0.
      7.66283507e-03 0. 7.66283507e-03 0. 0. 0. 0. 0. 0. 0. 0.
      3.83141753e-03 3.83141753e-03 0. 0. 3.83141753e-03 0. 0. 0. 0. 0.
      0. 0. 0. 0. 0. 3.83141753e-03 0. 3.83141753e-03 0. 0. 0. 0. 0. 0.
      0. 0. 0. 0. 0. 0. 3.83141753e-03 3.83141753e-03 0. 7.66283507e-03
      0. 3.83141753e-03 0. 0. 0. 0. 3.83141753e-03 0. 3.83141753e-03 0.
      0. 0. 0. 0. 0. 0. 0. 0. 0. 0. 0. 0. 0. 0. 0. 0. 3.83141753e-03 0.
      0. 0. 3.83141753e-03 3.83141753e-03 0. 0. 0. 0. 3.83141753e-03 0.
      3.83141753e-03 7.66283507e-03 7.66283507e-03 0. 0. 0. 0.
      3.83141753e-03 3.83141753e-03 0. 3.83141753e-03 0. 0. 0. 0. 0. 0.
      0. 0. 0. 0. 0. 0. 0. 0. 3.83141753e-03 0. 0. 0. 7.66283507e-03 0.
      0. 3.83141753e-03 3.83141753e-03 0. 0. 0. 3.83141753e-03 0. 0.
      3.83141753e-03 0. 0. 0. 0. 3.83141753e-03 0. 0. 7.66283507e-03 0.
      0. 3.83141753e-03 0. 0. 0. 1.14942528e-02 0. 0. 3.83141753e-03
      3.83141753e-03 0. 0. 0. 0. 0. 0. 0. 0. 0. 0. 0. 0. 0. 0.
      3.83141753e-03 0. 0. 0. 0. 0. 3.83141753e-03 0. 3.83141753e-03 0.
      3.83141753e-03 0. 3.83141753e-03 0. 0. 0. 0. 0. 0. 7.66283507e-03
      0. 0. 7.66283507e-03 0. 0. 0. 0. 0. 0. 0. 0. 3.83141753e-03 0. 0.
      0. 0. 0. 3.83141753e-03 0. 0. 0. 0. 7.66283507e-03 3.83141753e-03
      0. 0. 0. 0. 0. 0. 0. 0. 3.83141753e-03 0. 3.83141753e-03
      7.66283507e-03 0. 3.83141753e-03 0. 0. 3.83141753e-03 0. 0. 0. 0.
      3.83141753e-03 0. 0. 0. 0. 0. 3.83141753e-03 0. 0. 0. 0. 0. 0. 0.
      3.83141753e-03 0. 0. 0. 0. 3.83141753e-03 0. 0. 0. 0. 0.
      3.83141753e-03 0. 0. 3.83141753e-03 1.14942528e-02 3.83141753e-03
      3.83141753e-03 0. 0. 0. 0. 0. 3.83141753e-03 0. 0. 0. 0.
      3.83141753e-03 3.83141753e-03 0. 0. 0. 0. 0. 0. 0. 0. 0. 0. 0. 0.
      0. 3.83141753e-03 0. 3.83141753e-03 0. 0. 3.83141753e-03
      7.66283507e-03 3.83141753e-03 0. 3.83141753e-03 0. 0. 0. 0. 0. 0.
      3.83141753e-03 0. 0. 0. 0. 0. 0. 7.66283507e-03 0. 0. 0.
      3.83141753e-03 3.83141753e-03 0. 0. 0. 0. 0. 0. 0. 0. 0. 0. 0.
      1.14942528e-02 0. 3.83141753e-03 0. 0. 0. 0. 3.83141753e-03 0. 0.
      0. 0. 0. 0. 3.83141753e-03 0. 0. 0. 3.83141753e-03 0. 0. 0. 0. 0.
      0. 0. 0. 3.83141753e-03 0. 0. 0. 1.53256701e-02 0. 0. 0. 0. 0. 0.
      3.83141753e-03 0. 0. 0. 0. 0. 0. 0. 0. 0. 0. 7.66283507e-03
      3.83141753e-03 0. 0. 0. 0. 7.66283507e-03 0. 0. 0. 3.83141753e-03
      0. 0. 0. 0. 0. 0. 0. 0. 0. 3.83141753e-03 0. 0. 0. 0. 0.
      3.83141753e-03 0. 0. 7.66283507e-03 7.66283507e-03 1.14942528e-02
      0. 0. 0. 0. 0. 0. 0. 0. 0. 0. 3.83141753e-03 0. 0. 0.
      3.83141753e-03 0. 0. 0. 0. 0. 0. 0. 0. 0. 0. 3.83141753e-03
      7.66283507e-03 3.83141753e-03 0. 0. 0. 0. 0. 3.83141753e-03 0. 0.
      0. 0. 0. 0. 3.83141753e-03 1.14942528e-02 0. 0. 0. 0.
      3.83141753e-03 0. 0. 0. 0. 0. 3.83141753e-03 0. 3.83141753e-03 0.
      0. 0. 0. 3.83141753e-03 1.14942528e-02 0. 7.66283507e-03 0. 0. 0.
      0. 3.83141753e-03 0. 0. 0. 0. 0. 0. 0. 0. 0. 0. 0. 0. 0. 0. 0. 0.
      0. 0. 0. 0. 0. 0. 0. 0. 3.83141753e-03 7.66283507e-03 0. 0. 0. 0.
      0. 0. 0. 0. 0. 0. 0. 0. 0. 0. 0. 0. 0. 0. 3.83141753e-03 0. 0. 0.
      0. 0. 0. 0. 0. 0. 0. 0. 0. 0. 0. 0. 0. 0. 0. 0. 0. 0. 0. 0.
      3.83141753e-03 0. 0. 3.83141753e-03 0. 3.83141753e-03 0. 0.
      3.83141753e-03 0. 0. 7.66283507e-03 0. 0. 0. 0. 0. 3.83141753e-03
      0. 0. 0. 0. 0. 0. 0. 0. 0. 0. 0. 0. 0. 0. 0. 0. 3.83141753e-03 0.
      0. 0. 3.83141753e-03 0. 0. 0. 0. 3.83141753e-03 0. 0.
      3.83141753e-03 0. 0. 0. 3.83141753e-03 0. 3.83141753e-03 0. 0. 0.
      0. 0. 3.83141753e-03 3.83141753e-03 0. 7.66283507e-03 0. 0. 0.
      3.83141753e-03 0. 0. 0. 0. 0. 3.83141753e-03 3.83141753e-03 0. 0.
      0. 0. 0. 0. 3.83141753e-03 0. 3.83141753e-03 0. 3.83141753e-03 0.
      0. 0. 0. 0. 0. 0. 0. 0. 0. 3.83141753e-03 0. 0. 0. 3.83141753e-03
      0. 0. 0. 0. 3.83141753e-03 3.83141753e-03 0. 0. 0. 0. 0. 0. 0. 0.
      0. 0. 0. 0. 0. 0. 0. 0. 3.83141753e-03 0. 0. 0. 0. 0. 0. 0. 0.
      3.83141753e-03 0. 0. 0. 0. 3.83141753e-03 0. 3.83141753e-03 0. 0.
      0. 0. 0. 0. 7.66283507e-03 0. 0. 0. 0. 0. 0. 0. 0. 0. 0. 0. 0. 0.
      0. 0. 3.83141753e-03 0. 0. 0. 0. 0. 0. 0. 0. 0. 0. 0.
      3.83141753e-03 0. 0. 0. 0. 3.83141753e-03 0. 0. 0. 0. 0. 0. 0. 0.
      0. 3.83141753e-03 0. 0. 3.83141753e-03 0. 0. 3.83141753e-03
      3.83141753e-03 0. 0. 3.83141753e-03 0. 0. 1.14942528e-02 0. 0. 0.
      3.83141753e-03 0. 0. 3.83141753e-03 0. 0. 0. 0. 0. 0. 0. 0. 0.
      3.83141753e-03 0. 0. 0. 7.66283507e-03 0. 0. 0. 0. 0. 0. 0. 0. 0.
      0. 0. 0. 0. 3.83141753e-03 7.66283507e-03 0. 0. 7.66283507e-03 0.
      3.83141753e-03 0. 0. 0. 0. 0. 0. 0. 0. 0. 0. 0. 3.83141753e-03 0.
      3.83141753e-03 0. 0. 0. 0. 0. 0. 3.83141753e-03 0. 0. 0. 0. 0.
      3.83141753e-03 0. 0. 0. 0. 0. 0. 0. 3.83141753e-03 0. 0. 0. 0. 0.
      0. 0. 0. 0. 0. 3.83141753e-03 3.83141753e-03 0. 0. 0. 0. 0.
      3.83141753e-03 3.83141753e-03 3.83141753e-03 0. 0. 0. 0. 0. 0. 0.
      0. 0. 0. 0. 0. 0. 0. 0. 0. 0. 0. 0. 0. 0. 0. 3.83141753e-03 0. 0.
      0. 0. 3.83141753e-03 0. 0. 0. 0. 3.83141753e-03 3.83141753e-03 0.
      0. 0. 0. 0. 0. 3.83141753e-03 0. 0. 0. 0. 3.83141753e-03 0. 0. 0.
      0. 0. 7.66283507e-03 0. 0. 3.83141753e-03 3.83141753e-03 0. 0. 0.
      0. 0. 0. 0. 0. 0. 0. 0. 0. 0. 1.14942528e-02 0. 3.83141753e-03 0.
      3.83141753e-03 0. 0. 0. 0. 0. 0. 3.83141753e-03 3.83141753e-03 0.
      0. 0. 3.83141753e-03 3.83141753e-03 3.83141753e-03 0.
      3.83141753e-03 0. 0. 0. 0. 0. 3.83141753e-03 0. 0. 3.83141753e-03
      0. 0. 0. 0. 0. 0. 0. 3.83141753e-03 3.83141753e-03 0. 0.
      3.83141753e-03 7.66283507e-03</_>
    <_>
      0. 0. 0. 5.24934381e-03 0. 0. 2.62467191e-03 0. 0. 0. 0. 0. 0. 0.
      2.62467191e-03 5.24934381e-03 0. 0. 0. 0. 0. 0. 2.62467191e-03 0.
      5.24934381e-03 0. 0. 2.62467191e-03 0. 0. 0. 0. 0. 2.62467191e-03
      2.09973752e-02 0. 5.24934381e-03 0. 2.62467191e-03 0. 0. 0. 0. 0.
      0. 5.24934381e-03 5.24934381e-03 0. 0. 2.62467191e-03
      2.62467191e-03 0. 5.24934381e-03 0. 0. 5.24934381e-03 0. 0. 0. 0.
      0. 0. 0. 0. 0. 5.24934381e-03 0. 0. 0. 0. 0. 0. 2.62467191e-03 0.
      0. 1.04986876e-02 2.62467191e-03 0. 0. 0. 0. 0. 0. 2.62467191e-03
      2.62467191e-03 0. 0. 0. 0. 0. 0. 2.62467191e-03 2.62467191e-03 0.
      2.62467191e-03 0. 0. 0. 0. 0. 0. 5.24934381e-03 7.87401572e-03 0.
      0. 0. 0. 0. 0. 0. 5.24934381e-03 0. 0. 7.87401572e-03
      5.24934381e-03 0. 0. 0. 2.62467191e-03 0. 0. 0. 0. 2.62467191e-03
      2.62467191e-03 2.62467191e-03 0. 0. 0. 0. 2.62467191e-03 0.
      2.62467191e-03 0. 0. 0. 0. 0. 0. 0. 0. 0. 0. 0. 0. 0. 0.
      2.62467191e-03 0. 5.24934381e-03 0. 0. 0. 0. 2.62467191e-03 0. 0.
      0. 0. 0. 2.62467191e-03 0. 0. 5.24934381e-03 2.62467191e-03 0. 0.
      0. 2.62467191e-03 0. 0. 0. 0. 0. 0. 0. 0. 0. 0. 0. 0.
      2.62467191e-03 0. 0. 0. 0. 0. 2.62467191e-03 0. 0. 0.
      2.62467191e-03 0. 0. 0. 0. 0. 2.62467191e-03 2.62467191e-03 0. 0.
      0. 0. 0. 2.62467191e-03 0. 0. 2.62467191e-03 0. 0. 0.
      5.24934381e-03 0. 0. 0. 0. 0. 0. 0. 7.87401572e-03 0. 0. 0.
      5.24934381e-03 5.24934381e-03 0. 0. 2.62467191e-03 0. 0. 0. 0.
      2.62467191e-03 0. 0. 0. 0. 0. 0. 0. 0. 0. 0. 0. 0. 2.62467191e-03
      0. 2.62467191e-03 0. 0. 0. 0. 0. 2.62467191e-03 0. 0.
      2.62467191e-03 0. 2.62467191e-03 0. 0. 0. 0. 0. 5.24934381e-03 0.
      0. 0. 2.62467191e-03 0. 0. 2.62467191e-03 2.62467191e-03 0. 0. 0.
      0. 0. 0. 0. 0. 5.24934381e-03 0. 2.62467191e-03 0. 2.62467191e-03
      0. 0. 1.83727033e-02 0. 2.62467191e-03 0. 0. 0. 0. 2.62467191e-03
      0. 2.62467191e-03 0. 2.62467191e-03 0. 2.62467191e-03 0.
      7.87401572e-03 2.62467191e-03 0. 2.62467191e-03 2.62467191e-03 0.
      2.62467191e-03 0. 0. 0. 0. 2.62467191e-03 0. 0. 0. 0.
      2.62467191e-03 2.62467191e-03 7.87401572e-03 0. 0. 0. 0. 0. 0.
      2.62467191e-03 0. 0. 0. 0. 2.62467191e-03 2.62467191e-03 0. 0. 0.
      5.24934381e-03 0. 2.62467191e-03 2.62467191e-03 0. 0.
      2.62467191e-03 0. 0. 2.62467191e-03 7.87401572e-03 0. 0. 0. 0.
      5.24934381e-03 0. 0. 0. 0. 0. 0. 0. 0. 0. 0. 0. 2.62467191e-03
      5.24934381e-03 0. 0. 0. 0. 0. 0. 0. 0. 5.24934381e-03 0. 0. 0. 0.
      5.24934381e-03 0. 0. 0. 0. 0. 2.62467191e-03 0. 0. 0. 0. 0. 0.
      2.62467191e-03 2.62467191e-03 0. 0. 2.62467191e-03 2.62467191e-03
      0. 2.62467191e-03 2.62467191e-03 0. 0. 0. 0. 0. 2.62467191e-03 0.
      0. 5.24934381e-03 2.62467191e-03 0. 2.62467191e-03 2.62467191e-03
      2.62467191e-03 0. 1.31233595e-02 0. 0. 0. 0. 2.62467191e-03 0.
      5.24934381e-03 2.62467191e-03 0. 5.24934381e-03 0. 0. 0. 0. 0. 0.
      0. 0. 0. 0. 0. 0. 0. 2.62467191e-03 0. 0. 2.62467191e-03 0. 0. 0.
      0. 0. 0. 2.62467191e-03 0. 0. 0. 0. 2.62467191e-03 0. 0. 0.
      2.62467191e-03 7.87401572e-03 0. 0. 0. 2.62467191e-03
      2.62467191e-03 0. 0. 0. 2.62467191e-03 2.62467191e-03 0. 0. 0. 0.
      0. 2.62467191e-03 2.62467191e-03 0. 7.87401572e-03 2.62467191e-03
      0. 7.87401572e-03 0. 0. 0. 0. 0. 0. 0. 0. 2.62467191e-03 0.
      5.24934381e-03 2.62467191e-03 5.24934381e-03 0. 5.24934381e-03 0.
      0. 0. 0. 0. 2.62467191e-03 0. 0. 0. 0. 0. 0. 2.62467191e-03
      2.62467191e-03 0. 0. 0. 0. 0. 0. 0. 0. 0. 0. 0. 2.62467191e-03 0.
      2.62467191e-03 0. 0. 0. 0. 0. 2.62467191e-03 0. 0. 2.62467191e-03
      0. 0. 2.62467191e-03 0. 2.62467191e-03 0. 0. 0. 0. 0. 0. 0. 0.
      2.62467191e-03 0. 0. 7.87401572e-03 0. 0. 0. 0. 2.62467191e-03 0.
      0. 0. 2.62467191e-03 0. 2.62467191e-03 0. 0. 0. 2.62467191e-03 0.
      0. 0. 0. 0. 0. 0. 5.24934381e-03 0. 0. 0. 0. 0. 0. 0. 0.
      2.62467191e-03 0. 0. 0. 0. 0. 0. 0. 0. 0. 7.87401572e-03
      2.62467191e-03 0. 5.24934381e-03 0. 0. 2.62467191e-03 0. 0.
      2.62467191e-03 5.24934381e-03 0. 0. 0. 0. 0. 0. 7.87401572e-03 0.
      0. 0. 0. 0. 2.62467191e-03 0. 0. 0. 2.62467191e-03 0. 0. 0. 0. 0.
      0. 0. 0. 0. 0. 0. 0. 2.62467191e-03 0. 7.87401572e-03
      2.62467191e-03 0. 2.62467191e-03 2.62467191e-03 0. 0.
      2.62467191e-03 0. 2.62467191e-03 0. 0. 0. 0. 0. 0. 0. 0.
      2.62467191e-03 0. 0. 0. 0. 0. 0. 0. 0. 2.62467191e-03
      2.62467191e-03 0. 0. 0. 0. 2.62467191e-03 0. 0. 0. 0. 0. 0. 0. 0.
      0. 0. 0. 2.62467191e-03 0. 0. 0. 0. 0. 0. 0. 0. 5.24934381e-03 0.
      2.62467191e-03 0. 0. 2.62467191e-03 0. 0. 0. 2.62467191e-03 0. 0.
      5.24934381e-03 7.87401572e-03 0. 2.62467191e-03 2.62467191e-03 0.
      0. 0. 0. 0. 0. 0. 0. 5.24934381e-03 0. 0. 0. 2.62467191e-03
      2.62467191e-03 2.62467191e-03 0. 2.62467191e-03 0. 0. 0. 0. 0.
      2.62467191e-03 5.24934381e-03 0. 0. 0. 2.62467191e-03
      2.62467191e-03 0. 2.62467191e-03 0. 0. 0. 2.62467191e-03 0.
      2.62467191e-03 2.62467191e-03 0. 0. 0. 0. 0. 2.62467191e-03
      1.04986876e-02 0. 0. 0. 0. 0. 5.24934381e-03 0. 0. 5.24934381e-03
      0. 0. 0. 0. 0. 0. 0. 0. 2.62467191e-03 0. 7.87401572e-03 0. 0. 0.
      2.62467191e-03 0. 0. 2.62467191e-03 0. 0. 2.62467191e-03 0.
      2.62467191e-03 0. 0. 0. 5.24934381e-03 0. 0. 0. 5.24934381e-03
      5.24934381e-03 2.62467191e-03 2.62467191e-03 0. 0. 0.
      5.24934381e-03 0. 0. 2.62467191e-03 5.24934381e-03 0. 0.
      5.24934381e-03 2.62467191e-03 0. 0. 0. 0. 0. 0. 0. 2.62467191e-03
      2.62467191e-03 0. 0. 2.62467191e-03 0. 0. 0. 0. 0. 0. 0.
      2.62467191e-03 0. 2.62467191e-03 0. 5.24934381e-03 0. 0. 0.
      2.62467191e-03 0. 7.87401572e-03 0. 0. 2.62467191e-03 0. 0. 0. 0.
      0. 0. 0. 0. 2.62467191e-03 0. 0. 0. 0. 0. 0. 0. 5.24934381e-03
      1.04986876e-02 2.62467191e-03 0. 0. 0. 0. 0. 2.62467191e-03
      2.62467191e-03 2.62467191e-03 0. 0. 0. 2.62467191e-03
      2.62467191e-03 0. 2.62467191e-03 2.62467191e-03 5.24934381e-03 0.
      0. 0. 0. 0. 0. 0. 0. 0. 0. 0. 0. 0. 5.24934381e-03 0. 0. 0. 0. 0.
      0. 0. 0. 2.62467191e-03 0. 0. 0. 0. 2.62467191e-03 0.
      1.04986876e-02 2.62467191e-03 0. 0. 2.62467191e-03 0. 0. 0. 0. 0.
      0. 2.62467191e-03 0. 7.87401572e-03 0. 0. 0. 0. 0. 0. 0. 0.
      2.62467191e-03 0. 0. 2.62467191e-03 0. 2.62467191e-03 0.
      2.62467191e-03 0. 5.24934381e-03 0. 0. 0. 0. 0. 0. 0. 0. 0. 0.
      1.04986876e-02 0. 2.62467191e-03 2.62467191e-03 2.62467191e-03 0.
      0. 0. 0. 0. 0. 0. 5.24934381e-03 0. 0. 0. 0. 5.24934381e-03 0. 0.
      2.62467191e-03 0. 0. 0. 0. 0. 0. 0. 2.62467191e-03 0. 0. 0.
      2.62467191e-03 0. 0. 0. 0. 0. 5.24934381e-03 0. 0. 0.
      2.62467191e-03 0. 0. 0. 0. 0. 2.62467191e-03 0. 0. 2.62467191e-03
      0.</_>
    <_>
      0. 3.60360369e-03 1.80180185e-03 1.80180185e-03 0. 0. 0. 0. 0. 0.
      1.80180185e-03 0. 0. 0. 0. 0. 0. 0. 0. 0. 0. 0. 0. 0. 0. 0. 0.
      1.80180185e-03 0. 3.60360369e-03 0. 0. 1.80180185e-03 0.
      1.80180185e-03 0. 3.60360369e-03 0. 1.80180185e-03 0. 0. 0.
      3.60360369e-03 0. 0. 0. 0. 3.60360369e-03 0. 1.80180185e-03
      3.60360369e-03 3.60360369e-03 1.80180185e-03 0. 0. 0. 0.
      1.80180185e-03 0. 0. 0. 1.80180185e-03 1.80180185e-03
      1.80180185e-03 0. 0. 0. 7.20720738e-03 0. 0. 0. 1.80180185e-03 0.
      1.80180185e-03 0. 0. 0. 0. 0. 1.80180185e-03 0. 0. 1.80180185e-03
      0. 0. 0. 0. 0. 0. 1.80180185e-03 1.80180185e-03 0. 3.60360369e-03
      0. 0. 0. 1.80180185e-03 0. 3.60360369e-03 0. 0. 1.80180185e-03 0.
      0. 0. 0. 1.80180185e-03 1.80180185e-03 0. 0. 1.80180185e-03 0.
      3.60360369e-03 0. 0. 0. 0. 1.80180185e-03 0. 0. 5.40540554e-03
      1.80180185e-03 0. 0. 1.80180185e-03 0. 0. 1.80180185e-03
      3.60360369e-03 1.80180185e-03 0. 0. 3.60360369e-03 1.80180185e-03
      1.80180185e-03 5.40540554e-03 1.80180185e-03 0. 0. 0. 0. 0. 0. 0.
      1.80180185e-03 1.80180185e-03 1.80180185e-03 0. 1.80180185e-03 0.
      0. 0. 0. 0. 0. 0. 1.80180185e-03 3.60360369e-03 0. 0.
      3.60360369e-03 1.80180185e-03 0. 0. 3.60360369e-03 1.80180185e-03
      0. 3.60360369e-03 0. 1.80180185e-03 0. 0. 0. 0. 1.80180185e-03 0.
      1.80180185e-03 0. 3.60360369e-03 0. 0. 0. 0. 1.80180185e-03
      1.80180185e-03 1.80180185e-03 0. 1.80180185e-03 0. 3.60360369e-03
      0. 0. 0. 1.26126129e-02 0. 1.80180185e-03 0. 0. 0. 0. 0. 0.
      5.40540554e-03 0. 0. 1.80180185e-03 0. 0. 1.80180185e-03 0.
      3.60360369e-03 1.80180185e-03 0. 0. 3.60360369e-03 0. 0. 0. 0.
      1.80180185e-03 0. 0. 1.80180185e-03 0. 1.80180185e-03 0.
      3.60360369e-03 0. 1.80180185e-03 0. 0. 0. 0. 0. 1.80180185e-03 0.
      3.60360369e-03 1.80180185e-03 0. 0. 1.80180185e-03 1.80180185e-03
      0. 0. 0. 3.60360369e-03 1.80180185e-03 1.80180185e-03
      1.80180185e-03 0. 0. 0. 3.60360369e-03 0. 3.60360369e-03
      5.40540554e-03 0. 1.08108111e-02 0. 0. 1.80180185e-03
      1.80180185e-03 0. 0. 0. 0. 0. 0. 0. 3.60360369e-03 0. 0.
      1.80180185e-03 1.80180185e-03 1.80180185e-03 1.80180185e-03 0.
      1.80180185e-03 0. 3.60360369e-03 1.80180185e-03 0. 0. 0.
      3.60360369e-03 0. 0. 0. 0. 0. 0. 0. 1.80180185e-03 0. 0.
      1.80180185e-03 1.80180185e-03 0. 1.80180185e-03 0. 1.80180185e-03
      0. 0. 3.60360369e-03 0. 1.80180185e-03 0. 3.60360369e-03 0. 0. 0.
      0. 0. 0. 0. 1.80180185e-03 0. 0. 0. 0. 0. 1.80180185e-03 0.
      1.80180185e-03 0. 0. 0. 0. 1.80180185e-03 0. 1.80180185e-03
      1.80180185e-03 1.80180185e-03 1.80180185e-03 3.60360369e-03 0. 0.
      0. 0. 0. 3.60360369e-03 0. 1.80180185e-03 0. 1.80180185e-03
      1.80180185e-03 3.60360369e-03 0. 3.60360369e-03 0. 1.80180185e-03
      0. 0. 0. 0. 0. 1.80180185e-03 0. 3.60360369e-03 0. 0.
      1.80180185e-03 3.60360369e-03 0. 0. 5.40540554e-03 0.
      1.80180185e-03 3.60360369e-03 0. 0. 0. 0. 3.60360369e-03
      3.60360369e-03 0. 0. 0. 1.80180185e-03 3.60360369e-03 0. 0.
      1.80180185e-03 3.60360369e-03 0. 1.80180185e-03 0. 1.80180185e-03
      0. 0. 1.80180185e-03 0. 0. 0. 0. 0. 1.26126129e-02 0.
      1.80180185e-03 0. 1.80180185e-03 0. 3.60360369e-03 0. 0.
      1.80180185e-03 0. 0. 0. 0. 1.80180185e-03 1.80180185e-03 0. 0. 0.
      0. 0. 0. 0. 1.80180185e-03 0. 1.80180185e-03 0. 0. 1.80180185e-03
      1.80180185e-03 1.80180185e-03 0. 3.60360369e-03 0. 1.80180185e-03
      0. 1.80180185e-03 1.80180185e-03 0. 0. 7.20720738e-03
      3.60360369e-03 3.60360369e-03 5.40540554e-03 3.60360369e-03 0. 0.
      0. 1.80180185e-03 1.80180185e-03 0. 0. 0. 1.80180185e-03 0. 0. 0.
      0. 0. 0. 1.80180185e-03 0. 0. 1.80180185e-03 0. 5.40540554e-03 0.
      1.80180185e-03 0. 0. 0. 0. 0. 0. 0. 0. 1.80180185e-03
      1.80180185e-03 0. 1.80180185e-03 0. 1.80180185e-03 0. 0.
      1.80180185e-03 1.80180185e-03 5.40540554e-03 5.40540554e-03 0.
      5.40540554e-03 0. 0. 5.40540554e-03 0. 1.80180185e-03
      1.80180185e-03 1.80180185e-03 0. 0. 1.80180185e-03 0. 0. 0. 0.
      1.80180185e-03 1.80180185e-03 1.80180185e-03 0. 5.40540554e-03
      1.80180185e-03 3.60360369e-03 0. 0. 1.80180185e-03 1.80180185e-03
      0. 0. 0. 1.80180185e-03 1.80180185e-03 9.00900923e-03 0.
      1.80180185e-03 1.80180185e-03 0. 1.80180185e-03 1.80180185e-03
      3.60360369e-03 0. 0. 3.60360369e-03 1.80180185e-03 1.80180185e-03
      0. 1.80180185e-03 0. 0. 0. 0. 1.80180185e-03 0. 0. 0. 0.
      1.80180185e-03 0. 1.80180185e-03 0. 0. 3.60360369e-03 0. 0. 0. 0.
      0. 1.80180185e-03 0. 0. 5.40540554e-03 0. 0. 1.80180185e-03
      3.60360369e-03 0. 0. 0. 1.80180185e-03 0. 3.60360369e-03 0.
      3.60360369e-03 1.80180185e-03 1.80180185e-03 0. 0. 0.
      1.80180185e-03 0. 3.60360369e-03 0. 0. 0. 3.60360369e-03
      1.80180185e-03 0. 1.80180185e-03 0. 1.80180185e-03 0. 0.
      5.40540554e-03 0. 0. 0. 0. 0. 1.80180185e-03 0. 0. 1.80180185e-03
      1.80180185e-03 0. 1.80180185e-03 0. 0. 0. 0. 0. 0. 0.
      1.80180185e-03 0. 3.60360369e-03 0. 1.80180185e-03 1.80180185e-03
      0. 0. 0. 0. 1.80180185e-03 1.80180185e-03 0. 0. 1.80180185e-03
      1.80180185e-03 1.80180185e-03 0. 0. 3.60360369e-03 0. 0. 0. 0.
      1.80180185e-03 0. 0. 1.80180185e-03 1.80180185e-03 1.80180185e-03
      0. 0. 1.80180185e-03 0. 0. 0. 1.80180185e-03 1.80180185e-03 0.
      3.60360369e-03 3.60360369e-03 5.40540554e-03 0. 1.80180185e-03 0.
      1.80180185e-03 0. 1.80180185e-03 0. 1.80180185e-03 0. 0. 0. 0. 0.
      3.60360369e-03 0. 3.60360369e-03 0. 1.80180185e-03 1.80180185e-03
      0. 1.80180185e-03 0. 3.60360369e-03 0. 0. 1.80180185e-03
      1.80180185e-03 0. 0. 0. 1.80180185e-03 1.80180185e-03 0.
      1.80180185e-03 1.80180185e-03 3.60360369e-03 1.80180185e-03
      3.60360369e-03 0. 0. 0. 1.80180185e-03 0. 0. 1.80180185e-03
      5.40540554e-03 0. 1.80180185e-03 0. 0. 0. 3.60360369e-03
      1.80180185e-03 1.80180185e-03 0. 0. 0. 0. 0. 0. 0. 1.80180185e-03
      0. 3.60360369e-03 1.80180185e-03 0. 1.80180185e-03 1.80180185e-03
      1.80180185e-03 0. 0. 5.40540554e-03 1.80180185e-03 0.
      3.60360369e-03 0. 1.80180185e-03 0. 0. 0. 0. 0. 0. 1.80180185e-03
      1.80180185e-03 0. 0. 3.60360369e-03 0. 1.80180185e-03
      1.80180185e-03 0. 0. 1.80180185e-03 0. 0. 0. 1.80180185e-03
      1.80180185e-03 1.80180185e-03 1.80180185e-03 0. 1.80180185e-03 0.
      0. 0. 1.80180185e-03 3.60360369e-03 0. 1.80180185e-03
      1.80180185e-03 0. 0. 0. 1.80180185e-03 0. 0. 0. 1.80180185e-03
      3.60360369e-03 0. 0. 0. 0. 0. 0. 0. 0. 0. 1.80180185e-03
      1.80180185e-03 0. 0. 0. 1.80180185e-03 0. 5.40540554e-03 0. 0. 0.
      0. 1.80180185e-03 1.80180185e-03 0. 3.60360369e-03 1.80180185e-03
      3.60360369e-03 0. 5.40540554e-03 3.60360369e-03 1.80180185e-03 0.
      0. 1.80180185e-03 0. 0. 0. 1.80180185e-03 1.80180185e-03
      1.80180185e-03 3.60360369e-03 1.80180185e-03 1.80180185e-03
      1.80180185e-03 0. 0. 0. 0. 0. 3.60360369e-03 3.60360369e-03
      1.80180185e-03 3.60360369e-03 1.80180185e-03 0. 0. 0. 0. 0.
      1.80180185e-03 0. 1.80180185e-03 1.26126129e-02 5.40540554e-03
      1.80180185e-03 1.80180185e-03 1.80180185e-03 0. 0. 1.80180185e-03
      1.80180185e-03 0. 0. 0. 0. 0. 0. 0. 1.80180185e-03 0. 0. 0. 0.
      1.80180185e-03 0. 0. 0. 0. 1.80180185e-03 0. 0. 0. 0. 0. 0. 0. 0.
      3.60360369e-03 0. 1.80180185e-03 0. 0. 0. 0. 1.80180185e-03 0.
      1.80180185e-03 1.80180185e-03 0. 1.80180185e-03 1.80180185e-03 0.
      0. 1.80180185e-03 0. 1.80180185e-03 3.60360369e-03 0. 0. 0. 0.
      3.60360369e-03 0. 0. 0. 1.80180185e-03 0. 0. 0. 0. 1.80180185e-03
      0. 3.60360369e-03 0. 0. 0. 0. 0. 0. 0. 0. 1.80180185e-03
      1.80180185e-03 1.80180185e-03 0. 0. 1.80180185e-03 1.80180185e-03
      1.80180185e-03 1.80180185e-03 0. 0. 0. 0. 3.60360369e-03
      3.60360369e-03 0. 1.80180185e-03 1.80180185e-03 0. 1.80180185e-03
      0. 1.80180185e-03 0. 1.80180185e-03 0. 1.80180185e-03
      1.80180185e-03 0. 0. 1.80180185e-03 0. 0. 1.80180185e-03
      1.80180185e-03 0. 1.80180185e-03 0. 0. 1.80180185e-03
      1.80180185e-03 1.80180185e-03 1.80180185e-03 0. 0. 0. 0. 0. 0.
      5.40540554e-03 3.60360369e-03 1.80180185e-03 0. 1.80180185e-03 0.
      1.80180185e-03 1.80180185e-03 0. 0. 0. 0. 0. 0. 0. 0.
      1.80180185e-03 1.80180185e-03 0. 0. 3.60360369e-03 0. 0. 0. 0. 0.
      0. 0. 3.60360369e-03 0. 0. 0. 0. 1.80180185e-03 3.60360369e-03 0.
      0. 0. 0. 0. 1.80180185e-03 0. 1.80180185e-03</_>
    <_>
      1.59235671e-03 0. 3.18471342e-03 7.96178356e-03 0. 0. 0.
      3.18471342e-03 4.77707013e-03 1.59235671e-03 0. 0. 0. 0. 0. 0. 0.
      0. 1.59235671e-03 1.59235671e-03 3.18471342e-03 0. 0. 0. 0. 0. 0.
      0. 0. 1.59235671e-03 4.77707013e-03 0. 1.59235671e-03
      1.59235671e-03 4.77707013e-03 0. 0. 0. 1.59235671e-03 0. 0. 0.
      6.36942685e-03 1.59235671e-03 0. 0. 1.59235671e-03 0. 0. 0. 0. 0.
      3.18471342e-03 1.59235671e-03 0. 0. 0. 1.59235671e-03
      1.59235671e-03 1.59235671e-03 3.18471342e-03 1.59235671e-03 0. 0.
      3.18471342e-03 0. 0. 1.59235671e-03 3.18471342e-03 1.59235671e-03
      3.18471342e-03 0. 0. 0. 1.59235671e-03 0. 1.59235671e-03
      3.18471342e-03 0. 0. 0. 0. 0. 1.59235671e-03 6.36942685e-03
      1.59235671e-03 0. 3.18471342e-03 0. 0. 7.96178356e-03
      1.59235671e-03 0. 1.59235671e-03 0. 0. 4.77707013e-03
      1.59235671e-03 1.59235671e-03 0. 1.59235671e-03 1.59235671e-03
      1.59235671e-03 1.59235671e-03 0. 1.59235671e-03 1.59235671e-03 0.
      1.59235671e-03 1.59235671e-03 6.36942685e-03 1.59235671e-03
      3.18471342e-03 0. 7.96178356e-03 0. 0. 0. 0. 0. 0. 0. 0.
      4.77707013e-03 0. 0. 1.59235671e-03 0. 0. 3.18471342e-03
      1.59235671e-03 0. 0. 0. 1.59235671e-03 3.18471342e-03 0. 0.
      1.59235671e-03 0. 0. 1.43312104e-02 0. 0. 0. 0. 1.59235671e-03
      3.18471342e-03 0. 0. 0. 1.59235671e-03 1.59235671e-03 0. 0. 0. 0.
      1.59235671e-03 0. 1.59235671e-03 0. 0. 0. 0. 1.59235671e-03
      1.59235671e-03 0. 1.59235671e-03 0. 0. 1.59235671e-03 0.
      1.59235671e-03 0. 0. 1.59235671e-03 0. 0. 0. 1.59235671e-03 0. 0.
      1.59235671e-03 1.59235671e-03 1.59235671e-03 0. 0. 1.59235671e-03
      3.18471342e-03 1.59235671e-03 6.36942685e-03 0. 0. 3.18471342e-03
      0. 0. 3.18471342e-03 4.77707013e-03 1.59235671e-03 1.59235671e-03
      4.77707013e-03 6.36942685e-03 0. 0. 1.59235671e-03 0. 0. 0.
      1.59235671e-03 0. 6.36942685e-03 0. 0. 0. 0. 3.18471342e-03
      1.59235671e-03 1.59235671e-03 0. 0. 0. 0. 0. 9.55414027e-03
      1.59235671e-03 3.18471342e-03 1.59235671e-03 3.18471342e-03 0.
      1.59235671e-03 1.59235671e-03 4.77707013e-03 1.59235671e-03 0.
      1.59235671e-03 0. 3.18471342e-03 3.18471342e-03 0. 0. 0. 0.
      1.59235671e-03 1.59235671e-03 0. 0. 1.59235671e-03 1.59235671e-03
      0. 0. 0. 0. 0. 0. 0. 0. 0. 7.96178356e-03 0. 0. 3.18471342e-03 0.
      0. 0. 3.18471342e-03 0. 1.59235671e-03 3.18471342e-03 0.
      4.77707013e-03 1.59235671e-03 0. 0. 0. 1.59235671e-03 0.
      4.77707013e-03 0. 0. 0. 3.18471342e-03 1.59235671e-03 0.
      1.59235671e-03 0. 4.77707013e-03 0. 0. 1.59235671e-03 0. 0. 0. 0.
      0. 0. 0. 1.59235671e-03 0. 1.59235671e-03 0. 1.59235671e-03 0.
      1.59235671e-03 0. 0. 0. 0. 1.59235671e-03 1.59235671e-03 0. 0. 0.
      0. 0. 0. 1.59235671e-03 0. 0. 3.18471342e-03 3.18471342e-03
      1.59235671e-03 0. 1.59235671e-03 1.59235671e-03 3.18471342e-03 0.
      0. 0. 0. 0. 0. 0. 0. 0. 1.59235671e-03 1.59235671e-03 0.
      1.59235671e-03 1.59235671e-03 1.59235671e-03 0. 1.59235671e-03
      1.59235671e-03 0. 0. 0. 0. 0. 3.18471342e-03 0. 0. 3.18471342e-03
      0. 1.59235671e-03 0. 0. 0. 0. 0. 0. 0. 0. 1.59235671e-03 0. 0.
      1.59235671e-03 0. 1.59235671e-03 9.55414027e-03 0. 0. 0. 0. 0.
      1.59235671e-03 3.18471342e-03 0. 3.18471342e-03 1.59235671e-03 0.
      1.59235671e-03 7.96178356e-03 1.59235671e-03 3.18471342e-03 0. 0.
      3.18471342e-03 0. 0. 0. 0. 0. 1.59235671e-03 1.59235671e-03 0. 0.
      6.36942685e-03 0. 3.18471342e-03 0. 0. 1.59235671e-03 0.
      1.59235671e-03 1.59235671e-03 1.59235671e-03 1.59235671e-03
      4.77707013e-03 0. 1.59235671e-03 0. 0. 0. 0. 0. 0. 0. 0.
      3.18471342e-03 0. 3.18471342e-03 1.59235671e-03 0. 4.77707013e-03
      0. 1.59235671e-03 1.59235671e-03 3.18471342e-03 0. 0.
      1.59235671e-03 0. 0. 1.59235671e-03 0. 0. 0. 1.59235671e-03 0.
      1.59235671e-03 4.77707013e-03 0. 1.59235671e-03 0. 0. 0.
      1.59235671e-03 1.59235671e-03 0. 3.18471342e-03 1.59235671e-03
      1.59235671e-03 1.59235671e-03 0. 1.59235671e-03 0. 1.59235671e-03
      3.18471342e-03 1.59235671e-03 0. 0. 1.43312104e-02 0.
      1.59235671e-03 0. 0. 0. 3.18471342e-03 0. 1.59235671e-03
      1.59235671e-03 0. 1.59235671e-03 1.59235671e-03 0. 1.59235671e-03
      0. 0. 0. 0. 3.18471342e-03 1.59235671e-03 0. 3.18471342e-03 0.
      1.59235671e-03 1.59235671e-03 1.59235671e-03 6.36942685e-03 0. 0.
      0. 1.59235671e-03 0. 0. 6.36942685e-03 1.59235671e-03 0. 0. 0. 0.
      1.59235671e-03 0. 4.77707013e-03 1.59235671e-03 0. 0.
      1.59235671e-03 0. 1.59235671e-03 0. 1.59235671e-03 1.59235671e-03
      0. 0. 0. 1.59235671e-03 3.18471342e-03 0. 0. 0. 1.59235671e-03
      3.18471342e-03 0. 1.59235671e-03 0. 3.18471342e-03 0. 0. 0. 0. 0.
      1.59235671e-03 1.59235671e-03 0. 0. 0. 4.77707013e-03 0.
      4.77707013e-03 0. 0. 1.59235671e-03 0. 0. 7.96178356e-03 0. 0. 0.
      0. 3.18471342e-03 0. 6.36942685e-03 1.59235671e-03 0. 0.
      1.59235671e-03 0. 0. 0. 0. 0. 1.59235671e-03 0. 0. 1.59235671e-03
      0. 0. 0. 0. 0. 1.59235671e-03 0. 0. 1.59235671e-03 0. 0. 0. 0. 0.
      4.77707013e-03 1.59235671e-03 1.59235671e-03 0. 0. 0. 0.
      1.59235671e-03 1.59235671e-03 0. 0. 1.59235671e-03 3.18471342e-03
      1.59235671e-03 1.59235671e-03 0. 1.59235671e-03 3.18471342e-03 0.
      0. 0. 1.59235671e-03 1.59235671e-03 0. 0. 0. 0. 3.18471342e-03 0.
      0. 1.59235671e-03 0. 1.59235671e-03 0. 0. 0. 0. 0. 0.
      1.59235671e-03 0. 0. 0. 1.59235671e-03 0. 0. 1.59235671e-03 0. 0.
      0. 0. 0. 0. 0. 1.59235671e-03 3.18471342e-03 0. 0. 0. 0. 0. 0. 0.
      1.59235671e-03 0. 0. 0. 1.59235671e-03 0. 6.36942685e-03
      3.18471342e-03 0. 1.59235671e-03 6.36942685e-03 3.18471342e-03 0.
      0. 0. 0. 1.59235671e-03 0. 0. 0. 0. 1.59235671e-03 0. 0.
      1.59235671e-03 0. 1.59235671e-03 0. 1.59235671e-03 1.59235671e-03
      1.59235671e-03 0. 0. 1.59235671e-03 0. 4.77707013e-03 0. 0.
      1.59235671e-03 1.59235671e-03 0. 0. 0. 1.59235671e-03
      1.59235671e-03 0. 0. 0. 0. 0. 0. 1.59235671e-03 1.59235671e-03 0.
      0. 0. 1.59235671e-03 0. 0. 1.59235671e-03 3.18471342e-03
      1.59235671e-03 0. 1.59235671e-03 0. 0. 0. 3.18471342e-03 0.
      1.59235671e-03 1.59235671e-03 0. 0. 0. 1.59235671e-03
      1.59235671e-03 0. 0. 0. 0. 0. 0. 0. 0. 1.59235671e-03
      6.36942685e-03 3.18471342e-03 0. 0. 0. 0. 1.59235671e-03 0. 0. 0.
      0. 1.59235671e-03 0. 0. 0. 0. 0. 0. 0. 0. 0. 0. 1.59235671e-03
      1.43312104e-02 0. 0. 0. 0. 1.59235671e-03 0. 0. 3.18471342e-03 0.
      1.59235671e-03 1.59235671e-03 0. 0. 0. 0. 0. 0. 1.59235671e-03
      1.59235671e-03 0. 3.18471342e-03 0. 0. 0. 0. 1.59235671e-03
      1.59235671e-03 0. 3.18471342e-03 1.59235671e-03 0. 0.
      3.18471342e-03 0. 0. 1.59235671e-03 1.59235671e-03 0. 0.
      1.59235671e-03 1.59235671e-03 3.18471342e-03 3.18471342e-03 0.
      1.59235671e-03 0. 6.36942685e-03 1.59235671e-03 0. 0. 0. 0. 0. 0.
      0. 3.18471342e-03 1.59235671e-03 0. 0. 0. 0. 0. 0. 0. 0. 0. 0. 0.
      0. 0. 0. 1.59235671e-03 0. 0. 0. 0. 0. 0. 1.59235671e-03
      1.59235671e-03 1.59235671e-03 1.59235671e-03 0. 0. 0. 0.
      1.59235671e-03 1.59235671e-03 0. 0. 0. 0. 0. 3.18471342e-03 0. 0.
      0. 0. 0. 0. 0. 1.59235671e-03 0. 0. 0. 3.18471342e-03
      1.59235671e-03 1.59235671e-03 1.59235671e-03 0. 1.59235671e-03
      1.59235671e-03 0. 0. 0. 0. 0. 0. 0. 3.18471342e-03 1.59235671e-03
      0. 0. 0. 0. 0. 3.18471342e-03 1.59235671e-03 1.59235671e-03 0.
      1.59235671e-03 1.59235671e-03 0. 0. 0. 0. 0. 1.59235671e-03 0.
      4.77707013e-03 0. 0. 1.59235671e-03 4.77707013e-03 0. 0.
      1.59235671e-03 3.18471342e-03 0. 1.59235671e-03 0. 0. 0.
      1.27388537e-02 0. 1.59235671e-03 0. 0. 0. 0. 0. 1.59235671e-03
      1.59235671e-03 0. 1.59235671e-03 3.18471342e-03 0. 0. 0.
      3.18471342e-03 1.59235671e-03 1.59235671e-03 0. 1.59235671e-03 0.
      1.59235671e-03 0. 0. 1.59235671e-03 0. 0. 0. 0. 1.59235671e-03 0.
      1.59235671e-03 0. 1.59235671e-03 1.59235671e-03 1.59235671e-03
      1.59235671e-03 0. 0. 1.59235671e-03 0. 6.36942685e-03 0. 0. 0. 0.
      0. 0. 1.59235671e-03 1.59235671e-03 0. 0. 1.59235671e-03
      3.18471342e-03 0. 0. 1.59235671e-03 1.59235671e-03 1.59235671e-03
      0. 0. 0. 1.59235671e-03 0. 0. 1.59235671e-03 1.59235671e-03
      1.59235671e-03 0. 3.18471342e-03 3.18471342e-03 1.59235671e-03 0.
      1.59235671e-03 0. 0. 1.59235671e-03 1.59235671e-03 0.
      4.77707013e-03 3.18471342e-03 1.59235671e-03 0. 1.59235671e-03
      3.18471342e-03 0. 1.59235671e-03 0. 0. 0. 1.59235671e-03
      1.59235671e-03 0. 0.</_>
    <_>
      0. 0. 0. 1.03626947e-03 1.03626947e-03 0. 0. 8.29015579e-03 0.
      1.03626947e-03 2.07253895e-03 0. 5.18134749e-03 0. 0. 0. 0. 0. 0.
      0. 0. 1.03626947e-03 1.55440420e-02 1.03626947e-03 0. 0. 0. 0.
      1.03626947e-03 0. 0. 1.03626947e-03 1.03626947e-03 0.
      7.25388620e-03 0. 0. 0. 0. 1.03626947e-03 0. 0. 0. 0. 0. 0. 0.
      2.07253895e-03 0. 4.14507790e-03 2.07253895e-03 4.14507790e-03 0.
      0. 3.10880831e-03 0. 0. 0. 2.07253895e-03 1.03626947e-03 0. 0. 0.
      0. 0. 3.10880831e-03 2.07253895e-03 4.14507790e-03 0.
      2.07253895e-03 0. 0. 1.03626947e-03 1.03626947e-03 0. 0.
      2.07253895e-03 1.03626947e-03 0. 0. 1.03626947e-03 0. 0. 0.
      1.03626947e-03 0. 2.07253895e-03 0. 4.14507790e-03 2.07253895e-03
      0. 1.03626947e-03 0. 1.03626947e-03 0. 1.03626947e-03 0.
      1.03626947e-03 1.03626947e-03 0. 0. 2.07253895e-03 1.03626947e-03
      0. 2.07253895e-03 0. 1.03626947e-03 2.07253895e-03 1.03626947e-03
      1.03626947e-03 3.10880831e-03 3.10880831e-03 1.03626947e-03 0. 0.
      0. 3.10880831e-03 0. 0. 0. 0. 0. 1.03626947e-03 0. 0.
      1.03626947e-03 0. 0. 0. 2.07253895e-03 1.03626947e-03
      1.03626947e-03 1.03626947e-03 1.03626947e-03 0. 0. 0. 0.
      2.07253895e-03 0. 0. 1.03626947e-03 0. 1.03626947e-03 0. 0.
      1.03626947e-03 4.14507790e-03 1.03626947e-03 0. 0. 0.
      4.14507790e-03 0. 6.21761661e-03 0. 2.07253895e-03 0. 0. 0. 0.
      1.03626947e-03 0. 3.10880831e-03 4.14507790e-03 2.07253895e-03
      1.03626947e-03 0. 2.07253895e-03 0. 3.10880831e-03 0.
      1.03626947e-03 0. 0. 1.03626947e-03 0. 0. 0. 0. 0. 2.07253895e-03
      4.14507790e-03 1.03626947e-03 1.03626947e-03 0. 0. 0.
      2.07253895e-03 0. 0. 2.07253895e-03 0. 0. 1.03626947e-03 0. 0. 0.
      5.18134749e-03 0. 1.03626947e-03 0. 0. 3.10880831e-03 0. 0.
      1.03626947e-03 0. 0. 0. 0. 3.10880831e-03 1.03626947e-03
      2.07253895e-03 0. 1.03626947e-03 1.03626947e-03 0. 0.
      1.03626947e-03 0. 1.03626947e-03 1.03626947e-03 0. 0.
      2.07253895e-03 1.03626947e-03 1.03626947e-03 0. 4.14507790e-03
      1.03626947e-03 0. 0. 1.03626947e-03 0. 1.03626947e-03
      1.03626947e-03 1.03626947e-03 0. 1.03626947e-03 0. 1.03626947e-03
      2.07253895e-03 0. 0. 1.03626947e-03 2.07253895e-03 0. 0. 0. 0. 0.
      1.03626947e-03 1.03626947e-03 0. 0. 0. 2.07253895e-03
      1.03626947e-03 1.03626947e-03 0. 1.03626947e-03 0. 0.
      1.03626947e-03 1.03626947e-03 0. 4.14507790e-03 2.07253895e-03
      1.03626947e-03 0. 1.03626947e-03 1.03626947e-03 0. 0.
      4.14507790e-03 0. 1.03626947e-03 0. 0. 2.07253895e-03 0.
      1.03626947e-03 0. 0. 1.03626947e-03 1.03626947e-03 0.
      1.03626947e-03 1.03626947e-03 1.03626947e-03 0. 1.03626947e-03 0.
      0. 1.03626947e-03 0. 0. 1.03626947e-03 4.14507790e-03 0.
      2.07253895e-03 0. 0. 0. 0. 1.03626947e-03 0. 0. 2.07253895e-03
      1.03626947e-03 0. 5.18134749e-03 1.03626947e-03 0. 4.14507790e-03
      0. 0. 0. 0. 0. 0. 3.10880831e-03 0. 2.07253895e-03 2.07253895e-03
      1.03626947e-03 1.03626947e-03 0. 0. 4.14507790e-03 5.18134749e-03
      3.10880831e-03 1.03626947e-03 0. 1.03626947e-03 1.03626947e-03
      1.03626947e-03 3.10880831e-03 0. 0. 0. 0. 0. 1.03626947e-03 0.
      1.03626947e-03 1.03626947e-03 3.10880831e-03 3.10880831e-03
      1.03626947e-03 1.03626947e-03 2.07253895e-03 0. 1.03626947e-03
      2.07253895e-03 2.07253895e-03 0. 0. 0. 2.07253895e-03 0. 0. 0. 0.
      2.07253895e-03 1.34715028e-02 0. 0. 0. 3.10880831e-03 0. 0. 0. 0.
      0. 0. 1.03626947e-03 1.03626947e-03 1.03626947e-03 1.03626947e-03
      1.03626947e-03 0. 0. 2.07253895e-03 4.14507790e-03 2.07253895e-03
      0. 0. 0. 0. 3.10880831e-03 0. 2.07253895e-03 0. 3.10880831e-03
      2.07253895e-03 0. 3.10880831e-03 0. 0. 2.07253895e-03
      1.03626947e-03 1.03626947e-03 1.03626947e-03 0. 0. 0.
      4.14507790e-03 1.03626947e-03 2.07253895e-03 0. 4.14507790e-03 0.
      0. 2.07253895e-03 2.07253895e-03 0. 4.14507790e-03 0.
      1.03626947e-03 0. 2.07253895e-03 0. 0. 0. 0. 1.03626947e-03
      1.03626947e-03 1.03626947e-03 0. 1.03626947e-03 1.03626947e-03
      2.07253895e-03 1.03626947e-03 0. 2.07253895e-03 0. 0. 0. 0.
      2.07253895e-03 2.07253895e-03 1.03626947e-03 2.07253895e-03 0.
      1.03626947e-03 0. 1.03626947e-03 0. 3.10880831e-03 2.07253895e-03
      0. 0. 4.14507790e-03 3.10880831e-03 0. 3.10880831e-03
      1.03626947e-03 3.10880831e-03 1.03626947e-03 0. 0. 2.07253895e-03
      0. 0. 0. 2.07253895e-03 1.03626947e-03 1.03626947e-03 0.
      1.03626947e-03 0. 0. 4.14507790e-03 0. 0. 1.03626947e-03 0.
      1.03626947e-03 0. 0. 0. 0. 0. 2.07253895e-03 0. 1.03626947e-03
      1.03626947e-03 5.18134749e-03 0. 1.03626947e-03 0. 0.
      1.03626947e-03 0. 0. 0. 0. 1.03626947e-03 0. 0. 2.07253895e-03
      5.18134749e-03 1.03626947e-03 0. 1.03626947e-03 2.07253895e-03
      2.07253895e-03 0. 1.03626947e-03 0. 6.21761661e-03 0. 0. 0. 0.
      5.18134749e-03 0. 0. 2.07253895e-03 0. 0. 0. 1.03626947e-03
      2.07253895e-03 0. 0. 1.03626947e-03 1.03626947e-03 1.03626947e-03
      0. 1.03626947e-03 0. 3.10880831e-03 0. 2.07253895e-03 0. 0. 0. 0.
      0. 0. 0. 2.07253895e-03 2.07253895e-03 1.03626947e-03 0. 0.
      5.18134749e-03 1.03626947e-03 3.10880831e-03 4.14507790e-03
      1.03626947e-03 0. 1.03626947e-03 0. 1.03626947e-03 0. 0.
      1.03626947e-03 0. 0. 3.10880831e-03 1.03626947e-03 0.
      1.03626947e-03 0. 1.03626947e-03 1.03626947e-03 0. 0. 0.
      1.03626947e-03 0. 3.10880831e-03 1.03626947e-03 0. 1.03626947e-03
      0. 1.03626947e-03 2.07253895e-03 0. 1.03626947e-03 4.14507790e-03
      2.07253895e-03 0. 3.10880831e-03 0. 1.03626947e-03 1.03626947e-03
      1.03626947e-03 0. 1.03626947e-03 0. 3.10880831e-03 0. 0.
      1.03626947e-03 0. 1.03626947e-03 0. 0. 1.03626947e-03 0. 0. 0. 0.
      1.03626947e-03 3.10880831e-03 0. 1.03626947e-03 0. 4.14507790e-03
      3.10880831e-03 1.03626947e-03 1.03626947e-03 0. 1.03626947e-03 0.
      1.03626947e-03 2.07253895e-03 0. 0. 0. 0. 0. 2.07253895e-03 0. 0.
      0. 2.07253895e-03 0. 0. 0. 0. 0. 0. 5.18134749e-03 0. 0.
      1.03626947e-03 1.03626947e-03 0. 4.14507790e-03 0. 0.
      2.07253895e-03 1.03626947e-03 0. 1.03626947e-03 2.07253895e-03
      2.07253895e-03 3.10880831e-03 2.07253895e-03 3.10880831e-03
      2.07253895e-03 2.07253895e-03 0. 0. 2.07253895e-03 1.03626947e-03
      1.03626947e-03 0. 0. 1.03626947e-03 0. 1.03626947e-03
      1.03626947e-03 0. 1.03626947e-03 1.03626947e-03 0. 0. 0.
      1.03626947e-03 3.10880831e-03 1.03626947e-03 0. 0. 0. 0.
      1.03626947e-03 1.03626947e-03 0. 0. 1.03626947e-03 0. 0.
      1.03626947e-03 1.03626947e-03 1.03626947e-03 1.03626947e-03
      2.07253895e-03 0. 1.03626947e-03 1.03626947e-03 4.14507790e-03
      1.03626947e-03 1.03626947e-03 1.03626947e-03 1.03626947e-03 0. 0.
      2.07253895e-03 0. 1.03626947e-03 1.03626947e-03 4.14507790e-03 0.
      0. 0. 1.03626947e-03 0. 0. 0. 1.03626947e-03 0. 0. 0.
      1.03626947e-03 0. 0. 1.03626947e-03 0. 0. 0. 1.03626947e-03 0.
      2.07253895e-03 0. 0. 2.07253895e-03 1.03626947e-03 2.07253895e-03
      1.03626947e-03 0. 1.03626947e-03 0. 1.03626947e-03 0.
      1.03626947e-03 0. 0. 0. 1.03626947e-03 1.03626947e-03
      2.07253895e-03 0. 2.07253895e-03 1.03626947e-03 0. 0. 0.
      1.03626947e-03 0. 0. 5.18134749e-03 1.03626947e-03 0. 0. 0.
      1.03626947e-03 0. 3.10880831e-03 2.07253895e-03 1.03626947e-03
      2.07253895e-03 1.03626947e-03 0. 0. 2.07253895e-03 1.03626947e-03
      2.07253895e-03 1.03626947e-03 1.03626947e-03 2.07253895e-03
      2.07253895e-03 1.03626947e-03 1.03626947e-03 0. 1.03626947e-03
      3.10880831e-03 1.03626947e-03 0. 0. 0. 0. 1.03626947e-03
      4.14507790e-03 0. 1.03626947e-03 2.07253895e-03 1.03626947e-03
      1.03626947e-03 0. 1.03626947e-03 0. 0. 1.03626947e-03 0.
      6.21761661e-03 0. 0. 0. 9.32642538e-03 0. 1.03626947e-03
      4.14507790e-03 2.07253895e-03 0. 0. 0. 0. 1.03626947e-03
      2.07253895e-03 0. 1.03626947e-03 1.55440420e-02 0. 0.
      1.03626947e-03 2.07253895e-03 0. 0. 1.03626947e-03 0. 0. 0. 0. 0.
      0. 1.03626947e-03 2.07253895e-03 0. 0. 0. 1.03626947e-03 0.
      3.10880831e-03 1.03626947e-03 0. 2.07253895e-03 0. 0. 0. 0.
      6.21761661e-03 2.07253895e-03 0. 1.03626947e-03 2.07253895e-03 0.
      0. 1.03626947e-03 4.14507790e-03 2.07253895e-03 0. 1.03626947e-03
      0. 0. 0. 0. 0. 2.07253895e-03 1.03626947e-03 4.14507790e-03
      1.03626947e-03 1.03626947e-03 1.03626947e-03 0. 2.38341987e-02
      4.14507790e-03 2.07253895e-03 1.03626947e-03 0. 1.03626947e-03
      4.14507790e-03 1.03626947e-03 1.03626947e-03 2.07253895e-03
      4.14507790e-03 0. 2.07253895e-03 2.07253895e-03 0. 0. 0.
      1.03626947e-03 1.03626947e-03 0. 1.03626947e-03 1.03626947e-03 0.
      3.10880831e-03 1.03626947e-03 1.03626947e-03 1.03626947e-03 0.
      1.03626947e-03 0. 1.03626947e-03 3.10880831e-03 2.07253895e-03 0.
      0. 2.07253895e-03 1.03626947e-03 1.03626947e-03 6.21761661e-03
      1.03626947e-03 1.03626947e-03 0. 3.10880831e-03 1.03626947e-03
      1.03626947e-03 4.14507790e-03 0. 1.03626947e-03 1.03626947e-03 0.
      0. 1.03626947e-03 2.07253895e-03 1.03626947e-03 0. 1.03626947e-03
      0. 1.03626947e-03 1.03626947e-03 2.07253895e-03 2.07253895e-03
      1.03626947e-03 0. 4.14507790e-03 0. 0. 0. 0. 1.03626947e-03
      4.14507790e-03 0. 2.07253895e-03 2.07253895e-03 0. 1.03626947e-03
      1.03626947e-03 1.03626947e-03 0. 0. 0. 0. 1.03626947e-03
      1.03626947e-03 0. 1.03626947e-03 0. 1.03626947e-03 1.03626947e-03
      2.07253895e-03 1.03626947e-03 0. 1.03626947e-03 1.03626947e-03
      1.03626947e-03 1.03626947e-03 0. 0. 1.03626947e-03 1.03626947e-03
      4.14507790e-03 2.07253895e-03 0. 0. 0. 1.03626947e-03
      5.18134749e-03 0. 0. 2.07253895e-03 2.07253895e-03 0.
      1.03626947e-03 2.07253895e-03 0. 0. 0. 0. 7.25388620e-03 0.
      1.03626947e-03 2.07253895e-03 0. 0. 0. 2.07253895e-03
      2.07253895e-03 2.07253895e-03 2.07253895e-03 0.</_>
    <_>
      0. 1.68067229e-03 0. 3.36134457e-03 1.68067229e-03 0.
      1.68067229e-03 1.68067229e-03 0. 1.68067229e-03 0. 0. 0. 0. 0. 0.
      0. 0. 1.68067229e-03 0. 1.68067229e-03 0. 6.72268914e-03
      1.68067229e-03 0. 0. 0. 0. 1.68067229e-03 0. 0. 1.68067229e-03 0.
      0. 0. 0. 0. 0. 1.68067229e-03 0. 1.68067229e-03 0. 0. 0.
      5.04201697e-03 1.68067229e-03 3.36134457e-03 1.68067229e-03 0.
      6.72268914e-03 0. 3.36134457e-03 0. 0. 1.68067229e-03
      3.36134457e-03 0. 1.68067229e-03 0. 0. 1.68067229e-03 0. 0. 0.
      1.68067229e-03 1.68067229e-03 1.68067229e-03 1.17647061e-02 0.
      5.04201697e-03 0. 0. 0. 0. 0. 0. 0. 0. 0. 3.36134457e-03 0.
      1.68067229e-03 0. 0. 0. 1.68067229e-03 0. 0. 1.68067229e-03 0.
      1.68067229e-03 0. 0. 0. 0. 0. 1.68067229e-03 1.68067229e-03 0. 0.
      0. 1.68067229e-03 1.68067229e-03 0. 0. 0. 0. 6.72268914e-03 0.
      1.68067229e-03 0. 0. 0. 1.68067229e-03 0. 5.04201697e-03
      1.68067229e-03 0. 1.68067229e-03 0. 0. 1.68067229e-03
      1.68067229e-03 0. 0. 0. 0. 0. 1.68067229e-03 0. 0. 0. 0.
      1.68067229e-03 1.68067229e-03 0. 0. 1.68067229e-03 0.
      3.36134457e-03 0. 0. 0. 0. 1.68067229e-03 0. 1.68067229e-03 0. 0.
      0. 1.68067229e-03 0. 1.68067229e-03 0. 5.04201697e-03 0. 0. 0. 0.
      0. 0. 0. 0. 1.68067229e-03 0. 0. 0. 0. 0. 0. 0. 0. 0.
      1.68067229e-03 0. 0. 0. 0. 0. 0. 0. 1.68067229e-03 0. 0.
      1.68067229e-03 0. 0. 1.68067229e-03 3.36134457e-03 0.
      1.68067229e-03 1.68067229e-03 3.36134457e-03 3.36134457e-03
      1.68067229e-03 0. 0. 1.68067229e-03 3.36134457e-03 0. 0. 0. 0. 0.
      0. 5.04201697e-03 1.68067229e-03 1.68067229e-03 1.68067229e-03 0.
      0. 0. 0. 0. 0. 0. 1.68067229e-03 0. 1.68067229e-03 0. 0. 0.
      1.68067229e-03 0. 1.68067229e-03 0. 0. 0. 0. 0. 0. 0.
      1.68067229e-03 0. 1.68067229e-03 0. 0. 0. 0. 1.68067229e-03
      1.68067229e-03 1.68067229e-03 1.68067229e-03 1.68067229e-03 0. 0.
      0. 0. 3.36134457e-03 0. 1.68067229e-03 1.68067229e-03 0. 0. 0. 0.
      0. 0. 0. 3.36134457e-03 0. 0. 3.36134457e-03 1.68067229e-03 0.
      3.36134457e-03 0. 0. 0. 3.36134457e-03 0. 0. 0. 0. 0. 0. 0. 0. 0.
      0. 0. 3.36134457e-03 0. 1.68067229e-03 0. 0. 0. 0. 3.36134457e-03
      1.68067229e-03 0. 0. 0. 0. 1.68067229e-03 0. 0. 1.68067229e-03 0.
      1.68067229e-03 0. 0. 0. 0. 1.68067229e-03 0. 1.68067229e-03 0. 0.
      0. 1.68067229e-03 0. 0. 0. 1.68067229e-03 0. 1.68067229e-03
      1.68067229e-03 0. 0. 1.68067229e-03 0. 0. 0. 1.68067229e-03 0. 0.
      1.68067229e-03 0. 0. 0. 0. 0. 1.68067229e-03 1.68067229e-03 0. 0.
      1.68067229e-03 1.68067229e-03 0. 0. 0. 0. 1.68067229e-03 0.
      1.68067229e-03 3.36134457e-03 1.68067229e-03 3.36134457e-03 0. 0.
      0. 1.68067229e-03 1.68067229e-03 0. 0. 0. 0. 0. 0. 1.68067229e-03
      1.68067229e-03 0. 0. 1.68067229e-03 0. 5.04201697e-03 0.
      1.68067229e-03 0. 1.68067229e-03 0. 1.68067229e-03 3.36134457e-03
      1.68067229e-03 0. 3.36134457e-03 1.68067229e-03 1.68067229e-03
      3.36134457e-03 5.04201697e-03 0. 1.68067229e-03 0. 0.
      5.04201697e-03 0. 1.68067229e-03 1.68067229e-03 0. 0.
      1.68067229e-03 0. 0. 0. 0. 3.36134457e-03 0. 0. 1.68067229e-03
      1.68067229e-03 0. 1.68067229e-03 0. 3.36134457e-03 0.
      1.68067229e-03 1.68067229e-03 0. 0. 0. 1.68067229e-03 0.
      1.68067229e-03 1.68067229e-03 1.68067229e-03 1.68067229e-03
      1.68067229e-03 1.68067229e-03 0. 1.68067229e-03 0. 0. 0. 0. 0.
      6.72268914e-03 3.36134457e-03 0. 3.36134457e-03 0. 1.68067229e-03
      0. 1.68067229e-03 0. 1.68067229e-03 1.68067229e-03 3.36134457e-03
      1.68067229e-03 1.68067229e-03 0. 3.36134457e-03 0. 0.
      1.68067229e-03 0. 0. 0. 0. 0. 0. 0. 3.36134457e-03 0.
      6.72268914e-03 0. 3.36134457e-03 0. 0. 1.68067229e-03 0. 0. 0. 0.
      3.36134457e-03 3.36134457e-03 1.68067229e-03 0. 0. 0.
      1.68067229e-03 1.68067229e-03 1.68067229e-03 1.68067229e-03 0. 0.
      0. 0. 1.68067229e-03 1.68067229e-03 1.68067229e-03 3.36134457e-03
      0. 5.04201697e-03 0. 0. 0. 0. 1.68067229e-03 1.68067229e-03 0. 0.
      1.68067229e-03 1.68067229e-03 1.68067229e-03 3.36134457e-03
      1.68067229e-03 0. 0. 0. 1.68067229e-03 0. 1.68067229e-03
      3.36134457e-03 3.36134457e-03 0. 1.68067229e-03 0. 0. 0. 0. 0. 0.
      0. 0. 0. 1.68067229e-03 1.68067229e-03 1.68067229e-03
      1.68067229e-03 0. 1.68067229e-03 1.68067229e-03 0. 0.
      1.68067229e-03 1.68067229e-03 1.68067229e-03 0. 6.72268914e-03 0.
      1.68067229e-03 3.36134457e-03 1.68067229e-03 0. 0. 1.68067229e-03
      0. 0. 1.68067229e-03 0. 5.04201697e-03 1.68067229e-03 0.
      1.68067229e-03 1.68067229e-03 5.04201697e-03 0. 0. 3.36134457e-03
      3.36134457e-03 0. 6.72268914e-03 1.68067229e-03 5.04201697e-03
      1.68067229e-03 0. 0. 1.68067229e-03 1.68067229e-03 0. 0. 0.
      3.36134457e-03 1.68067229e-03 0. 3.36134457e-03 0. 0.
      1.68067229e-03 0. 0. 5.04201697e-03 0. 1.68067229e-03
      1.68067229e-03 3.36134457e-03 5.04201697e-03 6.72268914e-03
      1.68067229e-03 0. 0. 1.68067229e-03 0. 1.68067229e-03
      1.68067229e-03 1.68067229e-03 0. 0. 0. 1.68067229e-03 0. 0. 0.
      3.36134457e-03 0. 0. 1.68067229e-03 0. 0. 0. 0. 0. 0. 0. 0.
      1.68067229e-03 1.68067229e-03 1.68067229e-03 3.36134457e-03 0.
      3.36134457e-03 0. 0. 0. 1.68067229e-03 3.36134457e-03
      1.68067229e-03 0. 0. 1.68067229e-03 1.68067229e-03 0.
      1.68067229e-03 0. 0. 0. 3.36134457e-03 1.68067229e-03 0.
      3.36134457e-03 1.68067229e-03 1.68067229e-03 0. 1.68067229e-03 0.
      0. 1.68067229e-03 1.68067229e-03 0. 1.68067229e-03 0. 0. 0. 0.
      1.68067229e-03 1.68067229e-03 0. 0. 0. 0. 1.68067229e-03
      1.68067229e-03 3.36134457e-03 5.04201697e-03 1.68067229e-03 0. 0.
      0. 0. 3.36134457e-03 0. 0. 0. 3.36134457e-03 0. 1.68067229e-03
      1.68067229e-03 1.68067229e-03 0. 1.68067229e-03 3.36134457e-03 0.
      3.36134457e-03 1.68067229e-03 3.36134457e-03 1.68067229e-03
      1.68067229e-03 1.68067229e-03 1.68067229e-03 3.36134457e-03
      1.68067229e-03 0. 1.68067229e-03 1.68067229e-03 1.68067229e-03
      1.68067229e-03 6.72268914e-03 0. 0. 0. 0. 0. 0. 1.68067229e-03
      3.36134457e-03 0. 0. 0. 1.68067229e-03 1.68067229e-03 0.
      1.68067229e-03 0. 0. 0. 1.68067229e-03 0. 1.68067229e-03
      8.40336177e-03 0. 1.68067229e-03 0. 5.04201697e-03 0. 0. 0.
      1.68067229e-03 3.36134457e-03 1.68067229e-03 0. 3.36134457e-03 0.
      0. 0. 0. 3.36134457e-03 5.04201697e-03 3.36134457e-03
      1.68067229e-03 3.36134457e-03 5.04201697e-03 0. 0. 0.
      3.36134457e-03 0. 0. 0. 0. 0. 0. 1.68067229e-03 0. 0. 0. 0.
      1.68067229e-03 0. 1.68067229e-03 3.36134457e-03 5.04201697e-03
      1.68067229e-03 0. 0. 0. 1.68067229e-03 3.36134457e-03
      1.68067229e-03 0. 1.68067229e-03 5.04201697e-03 0. 0. 0. 0. 0. 0.
      1.68067229e-03 0. 3.36134457e-03 0. 0. 1.68067229e-03 0. 0. 0.
      3.36134457e-03 1.68067229e-03 0. 1.68067229e-03 0. 0. 0. 0. 0. 0.
      1.68067229e-03 0. 1.68067229e-03 1.68067229e-03 3.36134457e-03 0.
      0. 0. 0. 3.36134457e-03 1.68067229e-03 0. 1.68067229e-03 0.
      3.36134457e-03 3.36134457e-03 1.68067229e-03 1.68067229e-03
      3.36134457e-03 0. 0. 0. 0. 1.68067229e-03 3.36134457e-03
      1.68067229e-03 1.68067229e-03 0. 0. 1.68067229e-03 0. 0. 0.
      1.68067229e-03 0. 1.68067229e-03 3.36134457e-03 0. 0. 0.
      1.68067229e-03 0. 1.68067229e-03 0. 0. 1.68067229e-03 0. 0.
      1.68067229e-03 3.36134457e-03 0. 0. 3.36134457e-03 0.
      1.68067229e-03 0. 1.68067229e-03 0. 0. 0. 3.36134457e-03
      1.68067229e-03 0. 1.68067229e-03 3.36134457e-03 0. 1.68067229e-03
      0. 1.68067229e-03 1.68067229e-03 1.68067229e-03 1.68067229e-03
      1.68067229e-03 0. 0. 0. 0. 0. 1.68067229e-03 1.68067229e-03
      1.68067229e-03 0. 0. 0. 8.40336177e-03 1.68067229e-03 0.
      1.68067229e-03 0. 3.36134457e-03 0. 0. 0. 1.68067229e-03 0. 0.
      3.36134457e-03 0. 1.68067229e-03 0. 1.68067229e-03 0.
      3.36134457e-03 0. 1.68067229e-03 1.68067229e-03 0. 0. 0. 0. 0. 0.
      0. 0. 0. 3.36134457e-03 3.36134457e-03 0. 0. 0. 0. 0.
      1.68067229e-03 0. 0. 0. 0. 0. 6.72268914e-03 1.68067229e-03 0. 0.
      0. 0. 0. 0. 0. 0. 0. 3.36134457e-03 0. 1.68067229e-03
      6.72268914e-03 0. 0. 3.36134457e-03 0. 1.68067229e-03 0.
      1.68067229e-03 1.68067229e-03 0. 1.68067229e-03 0. 0. 0.
      1.68067229e-03 0. 0. 1.68067229e-03 1.68067229e-03 0.
      1.68067229e-03 0. 0. 0. 1.68067229e-03 0. 0. 0. 0. 0.
      5.04201697e-03 0. 0. 0. 0. 1.68067229e-03 3.36134457e-03 0. 0. 0.
      1.68067229e-03 0. 5.04201697e-03 1.68067229e-03 0. 0. 0.
      3.36134457e-03 1.68067229e-03 3.36134457e-03 1.68067229e-03
      1.68067229e-03 1.68067229e-03 1.68067229e-03 0. 0. 0.
      1.68067229e-03 1.68067229e-03 0. 0. 1.68067229e-03 1.68067229e-03
      0. 0. 0. 1.68067229e-03 0. 1.68067229e-03 3.36134457e-03
      1.68067229e-03</_>
    <_>
      0. 0. 0. 2.62467191e-03 2.62467191e-03 0. 0. 0. 0. 0. 0. 0.
      2.62467191e-03 0. 0. 0. 0. 0. 0. 0. 0. 2.62467191e-03 0. 0. 0. 0.
      0. 0. 0. 0. 0. 7.87401572e-03 2.62467191e-03 0. 2.62467191e-03
      2.62467191e-03 0. 0. 2.62467191e-03 2.62467191e-03 2.62467191e-03
      0. 2.62467191e-03 2.62467191e-03 0. 0. 5.24934381e-03 0. 0. 0. 0.
      0. 2.62467191e-03 0. 2.62467191e-03 2.62467191e-03 0.
      7.87401572e-03 2.62467191e-03 0. 0. 0. 2.62467191e-03
      2.62467191e-03 2.62467191e-03 0. 0. 2.62467191e-03 0.
      1.57480314e-02 0. 0. 0. 0. 0. 2.62467191e-03 0. 0. 0.
      2.62467191e-03 0. 0. 2.62467191e-03 0. 0. 0. 0. 0. 0. 0. 0. 0.
      7.87401572e-03 0. 0. 0. 2.62467191e-03 0. 2.62467191e-03
      2.62467191e-03 0. 2.62467191e-03 2.62467191e-03 0. 0. 0. 0. 0. 0.
      0. 0. 0. 0. 2.62467191e-03 1.57480314e-02 0. 0. 0. 5.24934381e-03
      2.62467191e-03 0. 0. 2.62467191e-03 0. 0. 2.62467191e-03 0.
      2.62467191e-03 0. 0. 0. 0. 0. 0. 0. 2.62467191e-03 0.
      2.62467191e-03 0. 5.24934381e-03 0. 0. 0. 0. 0. 0. 0. 0.
      2.62467191e-03 0. 0. 0. 5.24934381e-03 2.62467191e-03 0. 0. 0. 0.
      0. 0. 0. 0. 2.62467191e-03 0. 2.62467191e-03 0. 0. 0. 0. 0. 0. 0.
      0. 0. 2.62467191e-03 0. 0. 0. 0. 0. 0. 2.62467191e-03 0. 0. 0. 0.
      5.24934381e-03 0. 0. 0. 2.62467191e-03 0. 0. 2.62467191e-03
      2.62467191e-03 0. 0. 2.62467191e-03 0. 0. 2.62467191e-03 0. 0.
      2.62467191e-03 0. 0. 0. 0. 0. 0. 2.62467191e-03 0. 0.
      2.62467191e-03 2.62467191e-03 0. 0. 0. 0. 0. 7.87401572e-03 0. 0.
      0. 7.87401572e-03 0. 0. 0. 0. 0. 2.62467191e-03 0. 0. 0. 0. 0. 0.
      5.24934381e-03 0. 0. 0. 0. 2.62467191e-03 0. 0. 0. 0.
      2.62467191e-03 0. 5.24934381e-03 0. 0. 0. 0. 0. 0. 5.24934381e-03
      0. 0. 2.62467191e-03 0. 5.24934381e-03 0. 0. 0. 0. 2.62467191e-03
      0. 2.62467191e-03 1.04986876e-02 0. 0. 0. 0. 0. 0. 0. 0. 0. 0. 0.
      0. 2.62467191e-03 5.24934381e-03 2.62467191e-03 0. 0.
      2.62467191e-03 0. 0. 0. 2.62467191e-03 2.62467191e-03 0. 0. 0. 0.
      0. 0. 2.62467191e-03 0. 0. 0. 0. 0. 0. 0. 7.87401572e-03 0. 0.
      2.62467191e-03 0. 0. 0. 0. 0. 0. 0. 5.24934381e-03 0.
      5.24934381e-03 0. 0. 0. 0. 0. 5.24934381e-03 0. 2.62467191e-03 0.
      0. 0. 0. 0. 5.24934381e-03 0. 0. 0. 0. 0. 2.62467191e-03 0. 0. 0.
      0. 0. 1.04986876e-02 2.62467191e-03 0. 2.62467191e-03 0. 0. 0. 0.
      0. 1.04986876e-02 0. 0. 2.62467191e-03 2.62467191e-03 0.
      2.62467191e-03 2.62467191e-03 0. 0. 0. 0. 0. 2.36220472e-02 0. 0.
      0. 2.62467191e-03 0. 0. 2.62467191e-03 0. 0. 2.62467191e-03 0.
      7.87401572e-03 5.24934381e-03 2.62467191e-03 0. 2.62467191e-03
      2.62467191e-03 0. 2.62467191e-03 2.62467191e-03 0. 0. 0. 0. 0. 0.
      0. 7.87401572e-03 0. 0. 0. 0. 0. 0. 0. 0. 0. 0. 0. 0. 0. 0. 0.
      2.62467191e-03 0. 0. 0. 0. 0. 0. 0. 2.62467191e-03 0. 0. 0. 0.
      2.62467191e-03 2.62467191e-03 5.24934381e-03 2.62467191e-03 0. 0.
      0. 0. 2.62467191e-03 0. 0. 2.62467191e-03 0. 0. 0. 2.62467191e-03
      0. 0. 0. 2.62467191e-03 0. 0. 2.62467191e-03 0. 2.62467191e-03 0.
      0. 0. 2.62467191e-03 5.24934381e-03 0. 2.62467191e-03 0. 0. 0. 0.
      7.87401572e-03 2.62467191e-03 0. 0. 0. 0. 2.62467191e-03 0.
      2.62467191e-03 0. 0. 0. 0. 0. 0. 0. 0. 0. 0. 2.62467191e-03
      7.87401572e-03 0. 0. 0. 0. 0. 0. 0. 0. 0. 0. 2.62467191e-03 0.
      2.62467191e-03 0. 0. 0. 0. 0. 0. 0. 0. 0. 0. 0. 0. 0. 0. 0. 0. 0.
      0. 0. 0. 0. 2.62467191e-03 2.62467191e-03 0. 0. 0. 0. 0.
      7.87401572e-03 0. 0. 2.62467191e-03 2.62467191e-03 0. 0. 0. 0. 0.
      5.24934381e-03 0. 0. 0. 2.62467191e-03 0. 0. 0. 2.62467191e-03 0.
      0. 0. 0. 0. 0. 2.62467191e-03 2.62467191e-03 0. 0. 0.
      2.62467191e-03 5.24934381e-03 0. 0. 0. 2.62467191e-03 0. 0.
      2.62467191e-03 2.62467191e-03 0. 0. 2.62467191e-03 0. 0.
      2.62467191e-03 0. 0. 0. 0. 2.62467191e-03 2.62467191e-03 0. 0. 0.
      2.62467191e-03 0. 0. 0. 2.62467191e-03 0. 0. 0. 0. 0. 0. 0. 0. 0.
      2.62467191e-03 0. 0. 0. 0. 0. 0. 0. 0. 0. 0. 0. 0. 0.
      5.24934381e-03 2.62467191e-03 0. 0. 2.62467191e-03 2.62467191e-03
      0. 0. 0. 0. 0. 2.62467191e-03 0. 0. 0. 0. 0. 0. 0. 0. 0. 0.
      5.24934381e-03 2.62467191e-03 5.24934381e-03 0. 0. 0.
      2.62467191e-03 0. 0. 2.62467191e-03 0. 2.62467191e-03
      2.62467191e-03 0. 2.62467191e-03 0. 0. 2.62467191e-03 0.
      2.62467191e-03 0. 2.62467191e-03 2.62467191e-03 0. 0.
      5.24934381e-03 0. 0. 0. 0. 0. 0. 0. 0. 0. 0. 2.62467191e-03 0.
      2.62467191e-03 2.62467191e-03 0. 2.62467191e-03 0. 0.
      2.62467191e-03 0. 2.62467191e-03 0. 0. 0. 0. 5.24934381e-03
      2.62467191e-03 0. 0. 2.62467191e-03 0. 0. 0. 0. 0. 0. 0. 0. 0.
      5.24934381e-03 0. 0. 0. 0. 0. 0. 0. 0. 0. 0. 0. 0. 0. 0. 0. 0. 0.
      0. 2.62467191e-03 0. 0. 2.62467191e-03 0. 0. 0. 2.62467191e-03 0.
      2.62467191e-03 2.62467191e-03 0. 0. 2.62467191e-03 2.62467191e-03
      0. 0. 0. 2.62467191e-03 1.04986876e-02 0. 0. 5.24934381e-03 0.
      2.62467191e-03 0. 2.62467191e-03 0. 2.62467191e-03 0. 0. 0.
      7.87401572e-03 0. 0. 0. 0. 0. 0. 2.62467191e-03 0. 0. 0.
      2.62467191e-03 7.87401572e-03 0. 0. 0. 0. 0. 0. 0. 2.62467191e-03
      0. 0. 0. 0. 0. 0. 1.04986876e-02 0. 2.62467191e-03 0. 0. 0. 0. 0.
      0. 0. 5.24934381e-03 0. 0. 2.62467191e-03 0. 0. 0. 0. 0.
      2.62467191e-03 0. 0. 0. 2.62467191e-03 0. 0. 0. 1.31233595e-02
      2.62467191e-03 0. 2.62467191e-03 0. 0. 0. 0. 0. 2.62467191e-03 0.
      0. 2.62467191e-03 2.62467191e-03 0. 0. 2.62467191e-03
      2.62467191e-03 0. 2.62467191e-03 0. 5.24934381e-03 0. 0. 0.
      2.62467191e-03 0. 0. 2.62467191e-03 0. 0. 0. 5.24934381e-03
      5.24934381e-03 2.62467191e-03 0. 0. 0. 2.62467191e-03 0. 0. 0.
      2.62467191e-03 2.62467191e-03 0. 2.62467191e-03 2.62467191e-03
      2.62467191e-03 0. 0. 2.62467191e-03 5.24934381e-03 0. 0.
      5.24934381e-03 0. 2.62467191e-03 0. 0. 2.62467191e-03 0. 0. 0. 0.
      0. 0. 0. 2.62467191e-03 0. 2.62467191e-03 0. 0. 7.87401572e-03
      2.62467191e-03 2.62467191e-03 0. 0. 7.87401572e-03 0.
      2.62467191e-03 0. 0. 0. 2.62467191e-03 0. 0. 0. 0. 2.62467191e-03
      7.87401572e-03 0. 0. 0. 5.24934381e-03 0. 0. 0. 0. 0. 0.
      2.62467191e-03 0. 0. 0. 0. 0. 0. 0. 0. 0. 2.62467191e-03 0. 0. 0.
      0. 2.62467191e-03 0. 2.62467191e-03 0. 5.24934381e-03 0.
      5.24934381e-03 0. 2.62467191e-03 0. 0. 0. 0. 2.62467191e-03
      2.62467191e-03 0. 0. 0. 0. 0. 2.62467191e-03 0. 0. 0. 0.
      2.62467191e-03 0. 0. 0. 2.62467191e-03 5.24934381e-03 0. 0. 0.
      2.62467191e-03 0. 0. 0. 0. 0. 7.87401572e-03 0. 0. 0. 0. 0.
      2.62467191e-03 2.62467191e-03 2.62467191e-03 0. 2.62467191e-03 0.
      0. 0. 2.62467191e-03 0. 0. 0. 0. 0. 2.62467191e-03 2.62467191e-03
      0. 0. 0. 2.62467191e-03 0. 0. 0. 0. 0. 0. 5.24934381e-03
      2.62467191e-03 0. 0. 0. 0. 0. 0. 2.62467191e-03 0. 2.62467191e-03
      0. 2.62467191e-03 2.62467191e-03 5.24934381e-03</_>
    <_>
      0. 0. 0. 8.63930862e-03 0. 0. 4.31965431e-03 2.37580985e-02 0. 0.
      0. 0. 0. 0. 0. 0. 0. 0. 0. 0. 0. 0. 2.15982716e-03 2.15982716e-03
      0. 2.15982716e-03 6.47948124e-03 0. 2.15982716e-03 0. 0.
      8.63930862e-03 0. 0. 0. 0. 0. 0. 0. 0. 0. 0. 0. 0. 0.
      2.15982716e-03 0. 0. 0. 2.15982716e-03 0. 0. 0. 4.31965431e-03
      2.15982716e-03 0. 4.31965431e-03 0. 2.15982716e-03 0.
      4.31965431e-03 0. 2.15982716e-03 0. 0. 2.59179249e-02
      2.15982716e-03 2.15982716e-03 0. 0. 0. 0. 2.15982716e-03
      2.15982716e-03 2.15982716e-03 2.15982716e-03 2.15982716e-03 0. 0.
      1.07991360e-02 0. 0. 0. 0. 0. 0. 0. 0. 0. 0. 0. 0. 0. 0. 0. 0.
      2.15982716e-03 2.15982716e-03 0. 0. 0. 2.15982716e-03 0.
      6.47948124e-03 4.31965431e-03 0. 0. 0. 2.15982716e-03 0.
      2.15982716e-03 0. 0. 4.31965431e-03 0. 2.15982716e-03 0. 0. 0.
      4.31965431e-03 0. 4.31965431e-03 0. 0. 2.15982716e-03 0. 0. 0. 0.
      2.15982716e-03 2.15982716e-03 0. 0. 0. 0. 0. 0. 8.63930862e-03 0.
      0. 0. 0. 0. 4.31965431e-03 0. 2.15982716e-03 0. 2.15982716e-03
      4.31965431e-03 0. 0. 0. 0. 2.15982716e-03 0. 0. 6.47948124e-03 0.
      2.15982716e-03 0. 0. 6.47948124e-03 0. 2.15982716e-03 0. 0. 0. 0.
      0. 2.15982716e-03 0. 0. 0. 0. 2.15982716e-03 0. 2.15982716e-03 0.
      2.15982716e-03 0. 0. 4.31965431e-03 2.15982716e-03 6.47948124e-03
      0. 0. 0. 0. 0. 0. 2.15982716e-03 0. 0. 0. 0. 2.15982716e-03 0. 0.
      6.47948124e-03 0. 0. 0. 0. 4.31965431e-03 2.15982716e-03 0.
      2.15982716e-03 0. 0. 0. 0. 0. 0. 2.15982716e-03 2.15982716e-03 0.
      0. 2.15982716e-03 0. 0. 0. 2.15982716e-03 2.15982716e-03 0.
      2.15982716e-03 2.15982716e-03 0. 2.15982716e-03 0. 4.31965431e-03
      2.15982716e-03 0. 0. 0. 2.15982716e-03 2.15982716e-03 0. 0. 0. 0.
      0. 0. 0. 0. 4.31965431e-03 0. 0. 0. 2.15982716e-03 0. 0. 0. 0. 0.
      0. 0. 0. 2.15982716e-03 0. 0. 0. 0. 0. 2.15982716e-03 0. 0. 0. 0.
      0. 2.80777533e-02 0. 2.15982716e-03 0. 0. 0. 0. 0. 4.31965431e-03
      0. 0. 2.15982716e-03 0. 0. 2.15982716e-03 0. 0. 0. 0.
      6.47948124e-03 0. 2.15982716e-03 0. 0. 0. 0. 2.15982716e-03
      2.15982716e-03 0. 0. 2.15982716e-03 0. 4.31965431e-03 0. 0. 0. 0.
      0. 0. 0. 0. 0. 0. 0. 0. 0. 0. 0. 0. 0. 0. 0. 4.31965431e-03 0. 0.
      2.15982716e-03 0. 4.31965431e-03 0. 0. 4.31965431e-03
      2.15982716e-03 0. 4.31965431e-03 0. 0. 0. 0. 6.47948124e-03
      2.15982716e-03 0. 0. 0. 0. 0. 0. 0. 0. 0. 4.31965431e-03 0. 0. 0.
      0. 0. 0. 0. 0. 0. 0. 0. 0. 0. 0. 0. 0. 0. 0. 0. 8.63930862e-03 0.
      0. 0. 0. 0. 0. 0. 0. 4.31965431e-03 0. 0. 0. 0. 2.15982716e-03 0.
      0. 0. 0. 0. 2.15982716e-03 0. 0. 6.47948124e-03 6.47948124e-03 0.
      2.15982716e-03 0. 0. 0. 0. 0. 0. 0. 0. 0. 8.63930862e-03 0. 0.
      2.15982716e-03 0. 0. 0. 0. 0. 0. 6.47948124e-03 0. 0.
      4.31965431e-03 2.15982716e-03 8.63930862e-03 0. 2.15982716e-03 0.
      0. 0. 0. 0. 6.47948124e-03 0. 2.15982716e-03 0. 0. 0. 0. 0. 0.
      2.15982716e-03 0. 0. 4.31965431e-03 0. 0. 0. 0. 0. 0.
      4.31965431e-03 0. 0. 2.15982716e-03 0. 2.15982716e-03 0. 0. 0. 0.
      0. 0. 4.31965431e-03 2.15982716e-03 2.15982716e-03 2.15982716e-03
      0. 0. 0. 0. 0. 0. 0. 0. 2.15982716e-03 0. 0. 0. 6.47948124e-03
      2.15982716e-03 4.31965431e-03 0. 0. 0. 0. 2.15982716e-03
      2.15982716e-03 0. 0. 0. 0. 0. 4.31965431e-03 0. 0. 0. 0. 0. 0. 0.
      2.15982716e-03 0. 2.15982716e-03 0. 0. 4.31965431e-03 0.
      6.47948124e-03 0. 0. 2.15982716e-03 0. 0. 2.15982716e-03 0. 0. 0.
      0. 0. 0. 0. 4.31965431e-03 2.15982716e-03 0. 2.15982716e-03 0. 0.
      0. 4.31965431e-03 0. 2.15982716e-03 0. 0. 0. 6.47948124e-03 0. 0.
      2.15982716e-03 0. 0. 2.15982716e-03 0. 0. 2.15982716e-03 0. 0. 0.
      2.15982716e-03 0. 0. 2.15982716e-03 0. 0. 0. 0. 0. 2.15982716e-03
      2.15982716e-03 4.31965431e-03 0. 0. 0. 0. 0. 0. 0. 0. 0.
      2.15982716e-03 2.15982716e-03 0. 0. 0. 0. 0. 2.15982716e-03
      4.31965431e-03 4.31965431e-03 0. 0. 0. 0. 2.15982716e-03
      4.31965431e-03 0. 0. 0. 0. 0. 0. 0. 0. 2.15982716e-03 0. 0. 0.
      2.15982716e-03 2.15982716e-03 0. 0. 0. 0. 0. 2.15982716e-03 0. 0.
      0. 2.15982716e-03 0. 0. 0. 0. 0. 6.47948124e-03 0. 2.15982716e-03
      2.15982716e-03 0. 0. 2.15982716e-03 4.31965431e-03 0. 0. 0. 0.
      4.31965431e-03 0. 0. 0. 0. 0. 0. 0. 0. 2.15982716e-03 0. 0.
      2.15982716e-03 0. 0. 0. 0. 2.15982716e-03 4.31965431e-03 0.
      4.31965431e-03 0. 2.15982716e-03 2.15982716e-03 0. 2.15982716e-03
      0. 0. 0. 0. 2.15982716e-03 0. 6.47948124e-03 8.63930862e-03 0.
      2.15982716e-03 0. 2.15982716e-03 2.15982716e-03 4.31965431e-03 0.
      2.15982716e-03 2.15982716e-03 0. 2.15982716e-03 0. 0. 0. 0.
      4.31965431e-03 0. 0. 0. 0. 0. 0. 0. 0. 0. 0. 0. 0. 0. 0. 0. 0. 0.
      0. 0. 2.15982716e-03 6.47948124e-03 0. 0. 0. 0. 2.15982716e-03 0.
      0. 0. 2.15982716e-03 6.47948124e-03 0. 0. 0. 0. 0. 0. 0.
      4.31965431e-03 0. 4.31965431e-03 2.15982716e-03 0. 0. 0. 0. 0.
      2.15982716e-03 4.31965431e-03 0. 4.31965431e-03 0. 0. 0. 0. 0. 0.
      2.15982716e-03 0. 0. 0. 2.15982716e-03 0. 4.31965431e-03 0. 0. 0.
      0. 0. 0. 0. 8.63930862e-03 0. 0. 0. 0. 0. 0. 0. 0. 2.15982716e-03
      0. 0. 0. 0. 6.47948124e-03 2.15982716e-03 0. 0. 0. 0. 0. 0. 0.
      2.15982716e-03 0. 0. 0. 0. 0. 0. 0. 0. 2.15982716e-03
      2.15982716e-03 4.31965431e-03 0. 0. 0. 0. 0. 0. 0. 0. 0. 0. 0. 0.
      0. 2.15982716e-03 0. 2.15982716e-03 0. 2.15982716e-03
      2.15982716e-03 0. 0. 0. 0. 2.15982716e-03 0. 2.15982716e-03
      2.15982716e-03 0. 6.47948124e-03 0. 0. 6.47948124e-03
      2.15982716e-03 2.15982716e-03 0. 0. 2.15982716e-03 6.47948124e-03
      0. 0. 0. 0. 0. 0. 4.31965431e-03 0. 0. 0. 0. 0. 0. 4.31965431e-03
      0. 0. 2.15982716e-03 0. 2.15982716e-03 0. 4.31965431e-03
      4.31965431e-03 0. 0. 2.15982716e-03 0. 0. 2.15982716e-03
      2.15982716e-03 2.15982716e-03 0. 0. 2.15982716e-03 0. 0.
      4.31965431e-03 4.31965431e-03 2.15982716e-03 6.47948124e-03 0. 0.
      0. 0. 0. 2.15982716e-03 2.15982716e-03 0. 0. 0. 2.15982716e-03 0.
      2.15982716e-03 0. 0. 0. 0. 8.63930862e-03 2.15982716e-03
      2.59179249e-02 0. 0. 4.31965431e-03 0. 2.15982716e-03 0.
      2.15982716e-03 0. 0. 0. 0. 0. 0. 0. 0. 0. 0. 0. 4.31965431e-03
      2.15982716e-03 0. 0. 0. 0. 0. 0. 6.47948124e-03 0. 0.
      2.15982716e-03 0. 2.15982716e-03 0. 0. 0. 2.59179249e-02 0. 0.
      2.15982716e-03 0. 0. 0. 0. 0. 0. 0. 0. 0. 0. 0. 0. 0. 0. 0. 0.
      4.31965431e-03 0. 0. 2.15982716e-03 2.15982716e-03 0. 0. 0. 0. 0.
      0. 0. 2.15982716e-03 6.47948124e-03 0. 0. 0. 0. 0. 0. 0. 0. 0. 0.
      0. 2.15982716e-03 4.31965431e-03 0. 0. 0. 0. 2.15982716e-03 0. 0.
      0. 0. 0. 0. 0. 0. 0. 0. 0. 0. 0. 0. 0. 0. 0. 4.31965431e-03 0. 0.
      0. 0. 0. 0. 0. 0. 0. 4.31965431e-03 2.15982716e-03 0. 0. 0. 0. 0.
      0. 0. 0. 0. 0.</_>
    <_>
      1.20627263e-03 0. 1.20627263e-03 0. 7.23763555e-03 0.
      1.20627263e-03 0. 0. 0. 0. 1.20627265e-02 1.20627263e-03
      1.20627263e-03 0. 4.82509052e-03 0. 0. 1.08564533e-02 0. 0. 0. 0.
      1.20627263e-03 0. 1.20627263e-03 7.23763555e-03 0. 0. 0. 0. 0. 0.
      0. 0. 0. 0. 0. 0. 0. 0. 2.41254526e-03 0. 0. 0. 1.20627263e-03 0.
      1.20627263e-03 0. 1.20627263e-03 4.82509052e-03 0. 0. 0. 0. 0. 0.
      0. 0. 1.20627263e-03 1.20627263e-03 0. 0. 0. 0. 0. 0.
      1.20627263e-03 1.20627263e-03 0. 0. 0. 0. 1.20627263e-03
      3.61881778e-03 2.41254526e-03 4.82509052e-03 1.20627263e-03 0. 0.
      0. 0. 0. 0. 2.41254526e-03 0. 1.20627263e-03 0. 0. 0. 0.
      2.41254526e-03 0. 3.61881778e-03 0. 0. 0. 0. 1.20627263e-03 0. 0.
      0. 0. 0. 0. 1.20627263e-03 0. 1.20627263e-03 0. 0. 1.20627263e-03
      0. 0. 1.68878175e-02 0. 0. 0. 0. 0. 0. 0. 7.23763555e-03 0. 0.
      2.41254526e-03 0. 0. 0. 0. 0. 7.23763555e-03 0. 0. 7.23763555e-03
      1.20627263e-03 3.61881778e-03 0. 0. 0. 0. 0. 0. 0. 0. 0.
      1.20627263e-03 1.20627263e-03 0. 0. 3.61881778e-03 2.41254526e-03
      0. 3.61881778e-03 0. 0. 0. 0. 1.20627263e-03 0. 1.20627263e-03
      1.20627263e-03 0. 0. 0. 0. 6.03136327e-03 0. 0. 1.20627263e-03 0.
      0. 0. 3.61881778e-03 0. 0. 9.65018105e-03 0. 0. 0. 2.41254526e-03
      1.20627263e-03 0. 0. 0. 1.20627263e-03 0. 0. 0. 0. 1.20627263e-03
      0. 1.44752711e-02 0. 0. 0. 1.20627263e-03 0. 0. 0. 0. 0. 0. 0. 0.
      0. 0. 0. 0. 2.41254526e-03 0. 0. 1.20627263e-03 0. 1.20627263e-03
      0. 0. 0. 0. 0. 2.41254526e-03 0. 0. 0. 1.20627263e-03 0.
      4.82509052e-03 0. 3.61881778e-03 0. 2.41254526e-03 0. 0.
      1.20627263e-03 8.44390877e-03 0. 2.05066353e-02 0. 0.
      2.41254526e-03 6.39324486e-02 0. 0. 0. 1.20627263e-03
      1.20627263e-03 0. 0. 1.20627263e-03 0. 0. 0. 4.82509052e-03
      1.20627263e-03 0. 2.41254526e-03 0. 0. 8.44390877e-03
      1.20627263e-03 0. 0. 0. 1.20627263e-03 0. 2.41254526e-03
      2.41254526e-03 2.41254526e-03 0. 0. 0. 0. 0. 0. 3.61881778e-03 0.
      1.20627263e-03 0. 1.20627263e-03 0. 0. 0. 0. 0. 0. 0. 0. 0. 0.
      1.20627263e-03 0. 0. 0. 0. 0. 0. 4.82509052e-03 0. 2.41254526e-03
      2.41254526e-03 0. 1.20627263e-03 2.41254526e-03 2.53317244e-02 0.
      0. 1.20627263e-03 1.20627263e-03 0. 2.41254526e-03 0.
      1.20627263e-03 1.20627263e-03 0. 2.41254526e-03 0. 1.20627263e-03
      0. 1.20627263e-03 0. 0. 0. 1.20627263e-03 0. 0. 2.41254526e-03 0.
      0. 9.65018105e-03 0. 1.20627263e-03 0. 0. 3.61881778e-03 0. 0.
      2.41254526e-03 0. 0. 0. 0. 0. 0. 1.20627263e-03 0. 0. 0. 0.
      3.61881778e-03 2.41254526e-03 0. 0. 0. 0. 0. 0. 0. 0. 0. 0. 0. 0.
      0. 0. 0. 0. 0. 0. 0. 0. 0. 1.20627263e-03 0. 1.20627263e-03 0. 0.
      0. 0. 0. 0. 0. 2.41254526e-03 0. 0. 0. 3.61881778e-03 0. 0. 0. 0.
      1.20627263e-03 0. 0. 1.20627263e-03 9.65018105e-03 4.82509052e-03
      0. 1.20627263e-03 0. 0. 0. 1.20627263e-03 0. 0. 0. 0. 0.
      1.20627263e-03 0. 1.20627263e-03 0. 0. 1.20627263e-03 0. 0. 0.
      2.41254526e-03 0. 3.61881778e-03 0. 0. 0. 0. 0. 0. 0. 0.
      3.61881778e-03 0. 1.20627263e-03 1.56815443e-02 1.20627263e-03
      4.82509052e-03 0. 0. 0. 0. 2.41254526e-03 0. 0. 0. 0. 0.
      1.20627263e-03 1.20627263e-03 1.20627263e-03 0. 0. 0. 0. 0. 0.
      2.41254526e-03 0. 0. 1.20627263e-03 0. 0. 2.41254526e-03 0. 0.
      2.41254526e-03 1.20627263e-03 0. 0. 0. 0. 1.20627263e-03 0. 0.
      2.41254526e-03 1.20627263e-03 1.20627263e-03 0. 3.61881778e-03 0.
      0. 0. 1.20627263e-03 0. 0. 1.20627263e-03 1.20627263e-03 0. 0. 0.
      0. 0. 0. 0. 0. 0. 0. 1.20627263e-03 0. 0. 0. 0. 1.20627263e-03
      2.41254526e-03 0. 1.20627263e-03 0. 0. 0. 6.03136327e-03
      2.41254526e-03 0. 0. 2.41254526e-03 0. 1.20627263e-03 0. 0. 0. 0.
      0. 0. 0. 7.23763555e-03 0. 0. 2.41254526e-03 0. 0. 0. 0.
      1.20627263e-03 0. 0. 1.20627263e-03 0. 1.20627263e-03 0. 0.
      1.20627263e-03 0. 0. 0. 0. 0. 1.20627263e-03 0. 0. 3.61881778e-03
      0. 1.20627263e-03 1.20627263e-03 0. 0. 0. 0. 2.41254526e-03
      1.20627263e-03 0. 0. 0. 0. 0. 0. 0. 4.82509052e-03 4.82509052e-03
      0. 3.61881778e-03 0. 0. 0. 3.61881778e-03 0. 1.20627263e-03 0.
      1.20627263e-03 0. 4.82509052e-03 4.82509052e-03 4.82509052e-03 0.
      1.20627263e-03 0. 2.41254526e-03 1.20627263e-03 0. 0. 0. 0.
      1.20627263e-03 0. 2.41254526e-03 0. 0. 0. 2.41254526e-03
      1.20627263e-03 2.41254526e-03 0. 0. 0. 0. 7.23763555e-03
      1.20627263e-03 4.82509052e-03 0. 0. 0. 2.41254526e-03
      1.20627263e-03 0. 0. 0. 3.61881778e-03 0. 0. 1.20627263e-03
      2.41254526e-03 1.20627263e-03 0. 0. 0. 0. 2.41254526e-03 0.
      2.41254526e-03 0. 0. 1.20627263e-03 1.20627263e-03 0. 0. 0. 0.
      1.20627263e-03 0. 1.20627263e-03 0. 0. 9.65018105e-03 0. 0. 0.
      1.20627263e-03 0. 0. 0. 2.41254526e-03 0. 0. 0. 2.41254526e-03 0.
      0. 0. 0. 0. 0. 0. 1.20627263e-03 0. 0. 1.20627263e-03 0. 0. 0.
      2.41254526e-03 0. 0. 1.20627263e-03 0. 1.20627263e-03
      1.20627263e-03 0. 0. 0. 0. 0. 0. 0. 0. 2.41254526e-03 0. 0. 0.
      1.20627263e-03 1.20627263e-03 0. 2.05066353e-02 0. 0. 0. 0.
      1.20627263e-03 2.41254526e-03 0. 0. 0. 2.41254526e-03 0.
      1.20627263e-03 0. 0. 0. 0. 0. 0. 2.41254526e-03 0. 6.03136327e-03
      0. 1.20627263e-03 0. 0. 1.20627263e-03 0. 1.20627263e-03 0. 0. 0.
      2.41254526e-03 3.61881778e-03 0. 0. 1.20627263e-03 0. 0. 0. 0.
      3.61881778e-03 1.20627263e-03 1.20627263e-03 0. 0. 0. 0. 0. 0. 0.
      0. 0. 1.20627263e-03 0. 3.61881778e-03 0. 0. 0. 0. 0. 0. 0.
      1.20627263e-03 0. 0. 0. 0. 0. 0. 2.41254526e-03 0. 1.20627263e-03
      0. 4.82509052e-03 1.20627263e-03 3.61881778e-03 0. 1.20627263e-03
      1.93003621e-02 0. 2.41254526e-03 0. 0. 0. 0. 2.41254526e-03 0.
      1.20627263e-03 0. 2.41254526e-03 1.20627263e-03 1.20627263e-03 0.
      1.20627263e-03 0. 0. 0. 1.08564533e-02 0. 0. 0. 0. 1.20627263e-03
      0. 2.41254526e-03 0. 0. 1.20627263e-03 2.41254526e-03 0.
      3.61881778e-03 2.41254526e-03 0. 0. 2.41254526e-03 0. 0.
      2.41254526e-03 1.20627263e-03 0. 1.20627263e-03 0. 0. 0.
      1.20627263e-03 0. 0. 0. 3.61881778e-03 0. 0. 0. 1.20627263e-03 0.
      0. 0. 0. 0. 0. 0. 1.20627263e-03 0. 3.61881778e-03 0. 0. 0. 0. 0.
      0. 0. 1.20627263e-03 0. 2.41254526e-03 0. 1.20627263e-03 0. 0.
      1.20627263e-03 0. 1.20627263e-03 0. 0. 0. 2.41254526e-03 0.
      2.41254526e-03 0. 0. 0. 0. 6.03136327e-03 3.61881778e-03 0.
      3.61881778e-03 3.61881778e-03 1.20627263e-03 1.20627263e-03
      1.20627263e-03 0. 1.20627263e-03 0. 0. 0. 0. 0. 0. 0. 0. 0.
      6.03136327e-03 0. 0. 1.20627265e-02 0. 0. 0. 0. 2.41254526e-03 0.
      0. 0. 0. 0. 1.20627263e-03 0. 3.61881778e-03 0. 8.44390877e-03 0.
      2.41254526e-03 0. 1.20627263e-03 2.41254526e-03 0. 0.
      1.20627263e-03 0. 0. 1.20627263e-03 1.20627263e-03 8.44390877e-03
      0. 1.20627263e-03 0. 0. 0. 0. 1.20627263e-03 1.20627263e-03 0.
      1.20627263e-03 1.20627263e-03 0. 2.41254526e-03 0. 2.41254526e-03
      0. 4.82509052e-03 0. 0. 0. 1.20627263e-03 0. 0. 0. 1.20627263e-03
      0. 2.41254526e-03 0. 0. 0. 0. 0. 0. 2.41254526e-03 0. 0.
      3.61881778e-03 2.41254526e-03 1.20627263e-03 1.20627263e-03 0. 0.
      0. 0. 0. 3.61881778e-03 3.61881778e-03 0. 0. 6.03136327e-03
      1.20627263e-03 0. 0. 1.20627263e-03 1.20627263e-03 0.
      1.20627263e-03 2.41254526e-03 4.82509052e-03 1.20627263e-03
      1.20627263e-03 0. 0. 0. 0. 0. 3.61881778e-03 1.20627263e-03 0. 0.
      2.41254526e-03 0. 1.20627263e-03 0. 2.41254526e-03 1.20627263e-03
      7.23763555e-03 0. 0. 0. 0. 1.20627263e-03 0. 0. 0. 4.82509052e-03
      1.20627263e-03 0. 1.20627263e-03 0. 2.41254526e-03 0. 0. 0.</_>
    <_>
      0. 0. 0. 5.41516254e-03 1.80505414e-03 0. 1.08303251e-02
      7.22021656e-03 0. 0. 0. 0. 1.80505414e-03 0. 0. 0. 0. 0.
      3.61010828e-03 0. 0. 0. 0. 0. 0. 0. 5.41516254e-03 1.80505414e-03
      1.80505414e-03 0. 0. 1.80505414e-03 0. 0. 0. 0. 0. 0. 0.
      3.61010828e-03 0. 0. 0. 0. 0. 0. 3.61010828e-03 0. 0.
      3.61010828e-03 0. 3.61010828e-03 3.61010828e-03 0. 0. 0.
      1.80505414e-03 0. 0. 1.80505414e-03 0. 0. 0. 0. 0. 3.24909762e-02
      1.80505414e-03 5.41516254e-03 0. 0. 0. 0. 0. 0. 0. 7.22021656e-03
      5.41516254e-03 0. 0. 3.61010828e-03 0. 0. 0. 1.80505414e-03
      1.80505414e-03 0. 0. 1.80505414e-03 0. 0. 5.41516254e-03 0.
      3.61010828e-03 0. 0. 0. 0. 3.61010828e-03 1.80505414e-03
      1.80505414e-03 0. 1.80505414e-03 0. 0. 0. 0. 3.61010828e-03 0. 0.
      0. 0. 0. 0. 3.61010828e-03 1.80505414e-03 0. 0. 0. 0.
      3.61010828e-03 0. 3.61010828e-03 0. 0. 0. 0. 3.61010828e-03 0.
      1.80505414e-03 0. 0. 0. 0. 0. 0. 0. 0. 1.62454881e-02 0. 0. 0. 0.
      0. 0. 0. 0. 0. 1.80505414e-03 0. 0. 1.80505414e-03 3.61010828e-03
      0. 0. 0. 0. 1.80505414e-03 1.80505414e-03 0. 0. 0. 0. 0.
      7.22021656e-03 0. 0. 0. 0. 0. 0. 0. 1.80505414e-03 0. 0. 0.
      1.80505414e-03 0. 0. 0. 0. 3.61010828e-03 0. 0. 0. 0. 0. 0. 0. 0.
      1.80505414e-03 0. 0. 0. 0. 0. 0. 0. 0. 1.44404331e-02 0. 0. 0. 0.
      1.80505414e-03 0. 1.80505414e-03 5.41516254e-03 0. 0. 0. 0.
      1.44404331e-02 0. 0. 3.61010828e-03 0. 0. 0. 0. 0. 0. 0. 0. 0. 0.
      3.61010828e-03 0. 1.80505414e-03 0. 1.80505414e-03 0. 0. 0.
      1.80505414e-03 0. 1.08303251e-02 1.80505414e-03 0. 0. 0. 0. 0. 0.
      0. 3.61010828e-03 0. 0. 0. 0. 0. 0. 0. 0. 1.80505414e-03 0. 0. 0.
      0. 0. 0. 1.80505414e-03 0. 0. 0. 0. 0. 0. 0. 0. 1.80505414e-03 0.
      0. 0. 0. 0. 0. 0. 0. 0. 0. 1.80505414e-03 0. 0. 1.80505414e-03
      1.80505414e-03 5.41516254e-03 0. 0. 7.22021656e-03 3.61010828e-03
      3.97111923e-02 0. 1.80505414e-03 0. 0. 0. 0. 1.80505414e-03 0.
      1.80505414e-03 0. 0. 1.80505414e-03 0. 0. 0. 1.80505414e-03 0. 0.
      0. 0. 0. 3.61010828e-03 0. 0. 1.80505414e-03 0. 0. 0. 0. 0. 0. 0.
      0. 0. 0. 0. 0. 0. 1.08303251e-02 0. 0. 1.80505414e-03 0.
      1.80505414e-03 1.80505414e-03 0. 0. 9.02527105e-03 0. 0.
      3.61010828e-03 0. 0. 0. 0. 0. 0. 5.41516254e-03 0. 0. 0. 0.
      1.80505414e-03 0. 0. 1.80505414e-03 0. 0. 0. 0. 0. 0.
      1.80505414e-03 0. 0. 3.61010828e-03 0. 3.61010828e-03
      1.80505414e-03 1.80505414e-03 0. 0. 0. 0. 0. 1.80505414e-03 0. 0.
      1.80505414e-03 0. 1.80505414e-03 0. 0. 0. 3.61010828e-03
      3.61010828e-03 0. 0. 0. 1.80505414e-03 0. 0. 0. 9.02527105e-03 0.
      0. 0. 0. 1.80505414e-03 1.80505414e-03 1.80505414e-03
      3.61010828e-03 0. 0. 1.80505414e-03 0. 0. 5.41516254e-03
      1.80505414e-03 0. 0. 0. 0. 0. 1.80505414e-03 0. 2.34657042e-02 0.
      0. 0. 0. 0. 0. 0. 0. 0. 1.80505414e-03 0. 0. 1.80505414e-03 0. 0.
      0. 0. 0. 0. 0. 0. 0. 0. 1.80505414e-03 0. 3.61010828e-03 0. 0. 0.
      0. 0. 1.80505414e-03 1.80505414e-03 1.80505414e-03 0. 0.
      9.02527105e-03 0. 0. 0. 0. 0. 0. 0. 0. 1.80505414e-03
      1.80505414e-03 0. 0. 0. 0. 1.80505414e-03 3.61010828e-03
      1.80505414e-03 0. 3.61010828e-03 0. 0. 1.80505414e-03 0. 0.
      9.02527105e-03 0. 1.80505414e-03 0. 0. 0. 0. 0. 0. 0.
      1.80505414e-03 0. 0. 0. 0. 3.61010828e-03 1.80505414e-03 0.
      1.80505414e-03 1.80505414e-03 0. 1.80505414e-03 0. 0.
      3.61010828e-03 1.80505414e-03 0. 5.41516254e-03 1.80505414e-03 0.
      0. 0. 1.80505414e-03 1.44404331e-02 0. 0. 0. 0. 0. 0. 0.
      1.80505414e-03 0. 0. 0. 0. 0. 5.41516254e-03 9.02527105e-03 0. 0.
      3.61010828e-03 0. 0. 0. 0. 1.80505414e-03 0. 9.02527105e-03 0. 0.
      1.80505414e-03 0. 0. 0. 1.80505414e-03 0. 0. 0. 0. 0.
      1.80505414e-03 1.80505414e-03 1.80505414e-03 0. 0. 0. 0. 0. 0.
      3.61010828e-03 0. 0. 0. 0. 0. 0. 0. 0. 0. 0. 1.80505414e-03 0. 0.
      1.80505414e-03 0. 0. 0. 0. 0. 2.16606501e-02 0. 0. 0.
      1.80505414e-03 0. 0. 0. 3.61010828e-03 0. 0. 0. 0. 0. 0. 0.
      3.61010828e-03 0. 0. 1.80505414e-03 0. 0. 5.41516254e-03 0.
      1.80505414e-03 0. 0. 0. 0. 0. 1.80505414e-03 0. 3.61010828e-03
      9.02527105e-03 3.61010828e-03 1.98555961e-02 0. 7.22021656e-03 0.
      0. 0. 0. 0. 0. 0. 0. 0. 1.80505414e-03 1.80505414e-03 0. 0. 0.
      1.80505414e-03 1.80505414e-03 1.80505414e-03 1.80505414e-03 0. 0.
      0. 0. 1.08303251e-02 0. 1.80505414e-03 0. 0. 0. 0. 0. 0. 0. 0. 0.
      1.80505414e-03 0. 0. 0. 0. 1.80505414e-03 0. 3.61010828e-03 0.
      1.80505414e-03 0. 0. 0. 0. 0. 0. 0. 7.22021656e-03 0. 0. 0.
      1.80505414e-03 0. 0. 0. 0. 1.80505414e-03 1.80505414e-03 0. 0. 0.
      0. 1.80505414e-03 0. 0. 0. 1.80505414e-03 0. 0. 0. 0. 0. 0.
      1.80505414e-03 1.80505414e-03 0. 0. 0. 0. 1.80505414e-03 0. 0. 0.
      0. 0. 0. 0. 3.61010828e-03 0. 0. 0. 0. 0. 0. 0. 3.61010828e-03 0.
      0. 1.80505414e-03 0. 0. 1.80505414e-03 1.80505414e-03 0. 0. 0. 0.
      0. 0. 0. 1.80505414e-03 0. 0. 0. 0. 3.61010828e-03 0. 0.
      1.80505414e-03 0. 0. 0. 0. 0. 0. 0. 0. 0. 0. 1.80505414e-03
      3.61010828e-03 0. 0. 0. 0. 0. 3.61010828e-03 0. 0. 3.61010828e-03
      0. 1.80505414e-03 0. 7.22021656e-03 0. 0. 0. 0. 0. 1.80505414e-03
      0. 0. 3.61010828e-03 3.61010828e-03 3.61010828e-03 5.41516254e-03
      3.61010828e-03 0. 0. 0. 1.80505414e-03 0. 0. 1.80505414e-03 0. 0.
      5.41516254e-03 0. 0. 1.80505414e-03 0. 0. 0. 5.41516254e-03 0. 0.
      0. 0. 0. 0. 0. 0. 0. 0. 0. 1.80505414e-03 0. 3.61010828e-03
      3.61010828e-03 0. 0. 0. 1.80505414e-03 0. 0. 0. 1.80505414e-03
      7.22021656e-03 0. 0. 0. 0. 0. 1.80505414e-03 0. 0. 0. 0.
      1.80505414e-03 0. 1.80505414e-03 1.80505414e-03 0. 5.41516254e-03
      1.80505414e-03 0. 1.80505414e-03 0. 1.80505414e-03 0. 0.
      1.80505414e-03 1.80505414e-03 0. 0. 0. 5.41516254e-03 0. 0. 0. 0.
      1.80505414e-03 0. 1.80505414e-03 0. 1.80505414e-03 0.
      1.80505414e-03 0. 0. 0. 0. 0. 0. 0. 0. 0. 0. 0. 0. 0. 0.
      3.24909762e-02 0. 0. 3.61010828e-03 1.80505414e-03 0. 0. 0. 0. 0.
      0. 0. 0. 3.61010828e-03 1.80505414e-03 0. 1.80505414e-03 0. 0. 0.
      0. 3.61010828e-03 0. 0. 0. 1.80505414e-03 0. 0. 0. 0. 0. 0. 0. 0.
      0. 0. 1.80505414e-03 0. 1.80505414e-03 0. 0. 1.80505414e-03 0. 0.
      0. 0. 0. 0. 0. 0. 3.61010828e-03 0. 1.80505414e-03 0.
      1.80505414e-03 0. 0. 0. 0. 0. 0. 0. 0. 1.80505414e-03 0. 0. 0. 0.
      1.80505414e-03 0. 1.80505414e-03 0. 1.80505414e-03 1.80505414e-03
      1.80505414e-03 3.61010828e-03 0. 1.80505414e-03 0. 0.
      1.80505414e-03 0. 0. 5.41516254e-03 0. 1.80505414e-03
      3.61010828e-03 0. 0. 0. 0. 0. 0. 1.80505414e-03 0. 0. 0.
      1.80505414e-03 0. 0. 0. 1.80505414e-03 0. 3.61010828e-03 0.
      7.22021656e-03 1.80505414e-03 0. 0. 0. 0. 0. 0. 0. 0. 0. 0. 0. 0.
      0. 0. 0. 0. 0. 0. 5.41516254e-03 0.</_>
    <_>
      0. 0. 1.85873604e-03 1.85873604e-03 1.85873604e-03 0. 0. 0. 0.
      1.85873604e-03 1.85873604e-03 0. 0. 0. 0. 0. 1.85873604e-03 0. 0.
      1.85873604e-03 5.57620823e-03 0. 0. 0. 1.85873604e-03 0. 0. 0. 0.
      1.85873604e-03 0. 5.57620823e-03 3.71747208e-03 1.85873604e-03
      1.85873604e-03 1.85873604e-03 0. 0. 0. 0. 0. 1.85873604e-03 0.
      7.43494416e-03 0. 1.85873604e-03 0. 0. 1.85873604e-03 0. 0.
      1.85873604e-03 0. 0. 0. 1.85873604e-03 0. 1.85873604e-03
      1.85873604e-03 0. 0. 1.85873604e-03 0. 5.57620823e-03
      1.85873604e-03 0. 3.71747208e-03 3.71747208e-03 0. 1.85873604e-03
      1.85873604e-03 1.85873604e-03 0. 0. 0. 0. 0. 0. 0. 0.
      5.57620823e-03 0. 1.85873604e-03 0. 1.85873604e-03 0. 0. 0.
      3.71747208e-03 1.85873604e-03 1.85873604e-03 0. 0. 0.
      3.71747208e-03 0. 9.29368008e-03 0. 0. 1.85873604e-03 0. 0. 0. 0.
      0. 0. 0. 0. 1.85873604e-03 0. 1.85873604e-03 3.71747208e-03 0. 0.
      9.29368008e-03 0. 0. 5.57620823e-03 1.85873604e-03 1.85873604e-03
      0. 0. 0. 5.57620823e-03 0. 1.85873604e-03 1.85873604e-03
      1.85873604e-03 1.85873604e-03 1.85873604e-03 0. 0. 0. 0.
      1.85873604e-03 0. 3.71747208e-03 0. 0. 7.43494416e-03
      1.85873604e-03 1.85873604e-03 0. 0. 3.71747208e-03 0.
      1.85873604e-03 0. 0. 0. 0. 0. 0. 0. 0. 0. 0. 0. 0. 0. 0.
      5.57620823e-03 1.85873604e-03 0. 3.71747208e-03 0. 0. 0. 0. 0.
      1.85873604e-03 3.71747208e-03 0. 0. 1.85873604e-03 0.
      3.71747208e-03 0. 1.85873604e-03 1.85873604e-03 0. 1.85873604e-03
      0. 1.85873604e-03 0. 3.71747208e-03 0. 1.85873604e-03
      1.85873604e-03 1.85873604e-03 1.85873604e-03 0. 1.85873604e-03
      1.85873604e-03 0. 0. 0. 1.85873604e-03 0. 0. 0. 3.71747208e-03
      1.85873604e-03 0. 1.85873604e-03 0. 0. 3.71747208e-03 0.
      1.85873604e-03 0. 0. 0. 1.85873604e-03 0. 1.85873604e-03 0.
      1.85873604e-03 0. 0. 1.85873604e-03 0. 1.85873604e-03 0. 0. 0. 0.
      0. 0. 0. 0. 0. 0. 0. 0. 0. 1.85873604e-03 1.85873604e-03 0. 0. 0.
      1.85873604e-03 0. 0. 1.85873604e-03 0. 0. 0. 1.85873604e-03
      9.29368008e-03 0. 0. 0. 0. 0. 0. 0. 5.57620823e-03 0. 0. 0.
      1.85873604e-03 3.71747208e-03 1.85873604e-03 3.71747208e-03 0. 0.
      0. 0. 0. 0. 0. 1.85873604e-03 0. 1.85873604e-03 0. 3.71747208e-03
      0. 0. 0. 1.85873604e-03 0. 1.85873604e-03 5.57620823e-03 0. 0.
      1.85873604e-03 0. 0. 1.85873604e-03 0. 3.71747208e-03 0. 0.
      1.85873604e-03 1.85873604e-03 0. 0. 0. 0. 0. 1.85873604e-03 0. 0.
      1.85873604e-03 0. 0. 0. 0. 0. 0. 0. 1.85873604e-03 0. 0. 0. 0.
      7.43494416e-03 0. 5.57620823e-03 1.85873604e-03 0. 0.
      1.85873604e-03 1.85873604e-03 3.71747208e-03 0. 0. 1.85873604e-03
      0. 0. 1.85873604e-03 0. 0. 1.85873604e-03 0. 0. 0. 0.
      1.85873604e-03 3.71747208e-03 0. 0. 0. 0. 0. 0. 0. 1.85873604e-03
      1.85873604e-03 3.71747208e-03 0. 0. 0. 1.85873604e-03 0. 0.
      3.71747208e-03 1.85873604e-03 0. 1.85873604e-03 1.85873604e-03 0.
      1.85873604e-03 0. 0. 0. 1.85873604e-03 1.85873604e-03 0. 0.
      1.85873604e-03 1.85873604e-03 1.85873604e-03 3.71747208e-03 0.
      3.71747208e-03 0. 0. 0. 0. 5.57620823e-03 0. 1.85873604e-03 0. 0.
      0. 5.57620823e-03 1.85873604e-03 0. 0. 0. 0. 0. 0. 0. 0.
      1.85873604e-03 0. 0. 1.85873604e-03 5.57620823e-03 0.
      3.71747208e-03 3.71747208e-03 3.71747208e-03 1.85873604e-03 0. 0.
      0. 0. 1.85873604e-03 0. 1.85873604e-03 0. 0. 1.85873604e-03 0.
      1.85873604e-03 1.85873604e-03 1.85873604e-03 3.71747208e-03 0.
      1.85873604e-03 0. 1.85873604e-03 1.85873604e-03 3.71747208e-03
      1.85873604e-03 1.85873604e-03 0. 0. 1.85873604e-03 1.85873604e-03
      0. 0. 0. 0. 0. 3.71747208e-03 0. 1.85873604e-03 0. 0.
      1.85873604e-03 0. 1.85873604e-03 0. 0. 1.85873604e-03
      1.85873604e-03 0. 1.85873604e-03 3.71747208e-03 0. 0. 0. 0. 0. 0.
      0. 0. 0. 1.85873604e-03 0. 0. 0. 0. 0. 0. 0. 0. 3.71747208e-03 0.
      1.85873604e-03 3.71747208e-03 0. 0. 0. 1.85873604e-03
      1.85873604e-03 1.85873604e-03 0. 3.71747208e-03 0. 0.
      1.85873604e-03 0. 0. 0. 0. 3.71747208e-03 0. 0. 1.85873604e-03 0.
      1.85873604e-03 1.85873604e-03 0. 0. 0. 1.85873604e-03 0. 0. 0. 0.
      0. 1.85873604e-03 0. 0. 1.85873604e-03 0. 0. 0. 0. 0. 0. 0. 0.
      1.85873604e-03 0. 0. 1.85873604e-03 0. 0. 7.43494416e-03
      1.85873604e-03 0. 0. 0. 0. 0. 3.71747208e-03 1.85873604e-03 0. 0.
      0. 0. 3.71747208e-03 0. 0. 3.71747208e-03 1.85873604e-03 0.
      1.85873604e-03 1.85873604e-03 0. 3.71747208e-03 3.71747208e-03
      1.85873604e-03 0. 0. 0. 0. 1.85873604e-03 0. 1.85873604e-03
      1.85873604e-03 0. 0. 0. 0. 5.57620823e-03 0. 0. 1.85873604e-03
      5.57620823e-03 0. 0. 0. 1.85873604e-03 0. 1.85873604e-03 0. 0. 0.
      3.71747208e-03 0. 1.85873604e-03 0. 3.71747208e-03 0. 0. 0. 0. 0.
      1.85873604e-03 1.85873604e-03 0. 3.71747208e-03 0. 3.71747208e-03
      0. 3.71747208e-03 0. 0. 0. 1.85873604e-03 0. 0. 0. 0.
      5.57620823e-03 0. 0. 0. 9.29368008e-03 1.85873604e-03
      1.85873604e-03 1.85873604e-03 0. 1.85873604e-03 0. 0. 0. 0.
      1.85873604e-03 0. 0. 0. 0. 0. 0. 0. 0. 1.85873604e-03 0.
      3.71747208e-03 0. 5.57620823e-03 0. 0. 0. 0. 1.85873604e-03 0. 0.
      3.71747208e-03 0. 0. 1.85873604e-03 0. 0. 1.85873604e-03
      1.85873604e-03 1.85873604e-03 3.71747208e-03 0. 0. 0. 0. 0.
      3.71747208e-03 0. 0. 1.85873604e-03 1.85873604e-03 3.71747208e-03
      0. 0. 1.85873604e-03 0. 0. 0. 1.85873604e-03 0. 3.71747208e-03 0.
      1.85873604e-03 3.71747208e-03 0. 0. 7.43494416e-03 3.71747208e-03
      0. 0. 0. 0. 1.85873604e-03 3.71747208e-03 1.85873604e-03
      3.71747208e-03 0. 1.85873604e-03 0. 3.71747208e-03 1.85873604e-03
      0. 1.85873604e-03 0. 0. 1.85873604e-03 1.85873604e-03 0. 0. 0. 0.
      0. 0. 0. 1.85873604e-03 0. 0. 0. 0. 0. 0. 0. 0. 0. 0. 0.
      3.71747208e-03 0. 1.85873604e-03 1.85873604e-03 0. 1.85873604e-03
      3.71747208e-03 1.85873604e-03 1.85873604e-03 3.71747208e-03 0. 0.
      3.71747208e-03 0. 1.85873604e-03 1.85873604e-03 1.85873604e-03
      1.85873604e-03 0. 0. 0. 3.71747208e-03 0. 1.85873604e-03 0. 0.
      1.85873604e-03 0. 0. 1.85873604e-03 0. 1.85873604e-03 0. 0. 0. 0.
      0. 0. 1.85873604e-03 1.67286247e-02 0. 7.43494416e-03 0. 0.
      3.71747208e-03 0. 0. 0. 0. 0. 0. 0. 0. 0. 0. 0. 0. 1.85873604e-03
      0. 0. 1.85873604e-03 1.85873604e-03 0. 0. 3.71747208e-03 0. 0. 0.
      1.85873604e-03 3.71747208e-03 1.85873604e-03 1.85873604e-03
      1.85873604e-03 1.85873604e-03 0. 0. 0. 1.85873604e-03
      3.71747208e-03 0. 0. 0. 0. 0. 1.85873604e-03 0. 1.67286247e-02 0.
      0. 0. 0. 1.85873604e-03 1.85873604e-03 0. 0. 3.71747208e-03 0. 0.
      0. 0. 1.85873604e-03 0. 3.71747208e-03 3.71747208e-03 0. 0.
      1.85873604e-03 1.85873604e-03 0. 0. 0. 1.85873604e-03
      1.85873604e-03 0. 1.85873604e-03 1.85873604e-03 0. 0.
      1.85873604e-03 0. 5.57620823e-03 0. 0. 0. 0. 0. 0. 0. 0.
      3.71747208e-03 0. 0. 1.85873604e-03 1.85873604e-03 1.85873604e-03
      0. 1.85873604e-03 3.71747208e-03 0. 0. 0. 1.85873604e-03 0. 0. 0.
      1.85873604e-03 0. 0. 0. 0. 1.85873604e-03 0. 0. 0. 0.
      1.85873604e-03 0. 0. 0. 0. 0. 0. 0. 0. 0. 0. 0. 0. 0. 0. 0.
      1.85873604e-03 0. 1.85873604e-03 3.71747208e-03 0. 0.
      1.85873604e-03 0. 0. 0. 1.85873604e-03 0. 1.85873604e-03
      1.85873604e-03 0. 1.85873604e-03 1.85873604e-03 0. 0.
      1.85873604e-03 0. 3.71747208e-03 1.85873604e-03 1.85873604e-03 0.
      0. 0. 1.85873604e-03 0. 1.85873604e-03 3.71747208e-03
      3.71747208e-03 1.85873604e-03 1.85873604e-03 0. 0. 0. 0. 0. 0.
      1.85873604e-03 1.85873604e-03 1.85873604e-03 1.85873604e-03 0.
      3.71747208e-03 0. 1.85873604e-03 1.85873604e-03 0. 0. 0.
      1.85873604e-03 0. 0. 0. 0. 0. 0. 0. 0. 3.71747208e-03 0. 0.
      3.71747208e-03 0. 0. 3.71747208e-03 0. 0. 0. 3.71747208e-03 0. 0.
      3.71747208e-03 1.85873604e-03 0. 0. 0. 0. 0. 0. 1.85873604e-03 0.
      0. 0. 0. 0. 0. 0. 1.85873604e-03 0. 1.85873604e-03 0.
      7.43494416e-03 0. 0. 0. 0. 0. 3.71747208e-03 0. 0. 0. 0. 0. 0. 0.
      1.85873604e-03 0. 3.71747208e-03 0. 1.85873604e-03 1.85873604e-03
      0. 5.57620823e-03 1.85873604e-03</_>
    <_>
      0. 0. 0. 5.55555569e-03 0. 0. 0. 0. 0. 5.55555569e-03 0. 0.
      5.55555569e-03 0. 5.55555569e-03 0. 0. 0. 0. 0. 0. 0.
      5.55555569e-03 0. 0. 0. 0. 5.55555569e-03 5.55555569e-03 0. 0.
      5.55555569e-03 0. 0. 0. 0. 0. 0. 0. 5.55555569e-03 0. 0. 0.
      5.55555569e-03 0. 0. 0. 5.55555569e-03 5.55555569e-03 0. 0. 0. 0.
      0. 0. 1.66666675e-02 0. 0. 0. 5.55555569e-03 0. 0. 0. 0. 0. 0. 0.
      0. 0. 5.55555569e-03 1.11111114e-02 0. 0. 0. 0. 0. 0. 0. 0. 0. 0.
      0. 0. 0. 0. 1.11111114e-02 0. 0. 0. 1.11111114e-02 2.77777780e-02
      5.55555569e-03 5.55555569e-03 5.55555569e-03 0. 0. 0. 0. 0.
      5.55555569e-03 0. 0. 5.55555569e-03 0. 0. 0. 0. 0. 0. 0. 0. 0. 0.
      0. 0. 0. 0. 0. 0. 0. 0. 0. 0. 1.11111114e-02 0. 0. 0. 0. 0. 0. 0.
      0. 0. 0. 0. 0. 0. 0. 1.11111114e-02 0. 5.55555569e-03
      5.55555569e-03 0. 0. 0. 0. 0. 0. 0. 0. 0. 0. 0. 0. 5.55555569e-03
      0. 0. 0. 0. 0. 0. 0. 0. 0. 0. 0. 0. 0. 0. 0. 0. 1.11111114e-02 0.
      5.55555569e-03 5.55555569e-03 0. 5.55555569e-03 0. 0. 0.
      5.55555569e-03 5.55555569e-03 0. 0. 0. 5.55555569e-03 0. 0. 0. 0.
      0. 0. 0. 0. 0. 0. 0. 0. 0. 0. 0. 0. 0. 0. 0. 0. 0. 0.
      5.55555569e-03 0. 0. 0. 0. 0. 5.55555569e-03 0. 5.55555569e-03
      1.11111114e-02 0. 0. 5.55555569e-03 0. 0. 1.66666675e-02 0. 0. 0.
      0. 0. 0. 0. 0. 0. 0. 0. 0. 0. 0. 0. 0. 0. 5.55555569e-03 0. 0. 0.
      0. 0. 0. 0. 0. 0. 0. 0. 0. 5.55555569e-03 5.55555569e-03 0.
      5.55555569e-03 0. 0. 0. 0. 0. 5.55555569e-03 0. 0. 0. 0. 0.
      5.55555569e-03 0. 0. 0. 0. 0. 0. 0. 0. 0. 0. 0. 5.55555569e-03 0.
      0. 0. 0. 5.55555569e-03 0. 0. 0. 0. 0. 0. 0. 0. 0. 0. 0. 0. 0.
      5.55555569e-03 0. 0. 5.55555569e-03 0. 5.55555569e-03 0. 0. 0. 0.
      0. 0. 0. 5.55555569e-03 0. 0. 0. 0. 0. 0. 1.11111114e-02
      5.55555569e-03 0. 0. 0. 0. 0. 0. 0. 0. 0. 0. 0. 0. 0. 0. 0. 0. 0.
      0. 0. 0. 0. 0. 5.55555569e-03 0. 0. 0. 0. 0. 0. 0. 0. 0. 0. 0. 0.
      0. 5.55555569e-03 5.55555569e-03 0. 5.55555569e-03 0. 0. 0. 0. 0.
      0. 5.55555569e-03 0. 0. 0. 0. 0. 5.55555569e-03 0. 5.55555569e-03
      0. 0. 0. 5.55555569e-03 5.55555569e-03 5.55555569e-03 0. 0. 0.
      5.55555569e-03 0. 0. 0. 0. 0. 0. 0. 0. 0. 0. 5.55555569e-03 0. 0.
      0. 5.55555569e-03 0. 0. 0. 0. 0. 0. 5.55555569e-03 0. 0. 0. 0. 0.
      0. 0. 0. 0. 0. 0. 5.55555569e-03 0. 5.55555569e-03 2.22222228e-02
      0. 0. 0. 5.55555569e-03 0. 0. 0. 0. 0. 0. 1.11111114e-02
      5.55555569e-03 0. 0. 0. 0. 0. 0. 1.11111114e-02 0. 0. 0. 0. 0. 0.
      0. 5.55555569e-03 0. 0. 0. 0. 0. 5.55555569e-03 0. 0. 0.
      5.55555569e-03 0. 0. 0. 0. 0. 0. 0. 0. 0. 0. 0. 0. 0. 0. 0. 0. 0.
      0. 0. 5.55555569e-03 0. 0. 0. 0. 0. 0. 0. 0. 0. 0. 0.
      1.11111114e-02 5.55555569e-03 0. 0. 1.66666675e-02 0. 0. 0. 0. 0.
      0. 0. 0. 0. 0. 0. 0. 0. 0. 0. 0. 0. 0. 5.55555569e-03 0. 0. 0. 0.
      0. 0. 0. 0. 0. 1.11111114e-02 0. 0. 0. 0. 5.55555569e-03 0. 0. 0.
      0. 0. 0. 0. 0. 0. 0. 5.55555569e-03 0. 0. 0. 5.55555569e-03 0. 0.
      0. 0. 5.55555569e-03 0. 0. 0. 0. 0. 0. 0. 5.55555569e-03 0. 0. 0.
      5.55555569e-03 0. 0. 5.55555569e-03 0. 0. 0. 0. 0. 0. 0. 0. 0. 0.
      0. 5.55555569e-03 0. 0. 0. 5.55555569e-03 0. 0. 0. 0. 0. 0. 0. 0.
      0. 0. 5.55555569e-03 0. 5.55555569e-03 0. 0. 0. 0. 0. 0. 0. 0. 0.
      0. 0. 0. 5.55555569e-03 0. 0. 0. 0. 0. 0. 0. 0. 0. 5.55555569e-03
      0. 0. 0. 0. 0. 0. 0. 0. 0. 0. 0. 0. 0. 0. 0. 0. 0. 0. 0. 0.
      5.55555569e-03 0. 0. 0. 0. 0. 0. 0. 0. 0. 0. 0. 1.11111114e-02 0.
      0. 0. 0. 0. 0. 0. 0. 0. 0. 0. 0. 5.55555569e-03 5.55555569e-03 0.
      0. 0. 0. 0. 0. 0. 0. 0. 0. 0. 0. 0. 5.55555569e-03 0. 0. 0. 0. 0.
      0. 0. 0. 0. 0. 5.55555569e-03 0. 0. 0. 0. 5.55555569e-03 0. 0. 0.
      0. 0. 0. 0. 0. 0. 0. 0. 0. 0. 0. 0. 0. 5.55555569e-03 0. 0. 0. 0.
      0. 0. 0. 0. 0. 5.55555569e-03 0. 0. 0. 0. 0. 0. 5.55555569e-03 0.
      0. 0. 0. 0. 0. 5.55555569e-03 0. 0. 0. 0. 1.11111114e-02 0. 0. 0.
      0. 0. 0. 0. 0. 0. 0. 2.22222228e-02 0. 0. 0. 0. 0. 0. 0.
      5.55555569e-03 0. 5.55555569e-03 0. 0. 0. 0. 5.55555569e-03
      5.55555569e-03 0. 0. 0. 5.55555569e-03 0. 0. 0. 0. 0. 0. 0. 0. 0.
      5.55555569e-03 0. 0. 0. 5.55555569e-03 0. 0. 0. 0. 0. 0. 0. 0.
      5.55555569e-03 0. 0. 0. 5.55555569e-03 0. 0. 0. 0. 0.
      5.55555569e-03 0. 0. 0. 0. 0. 0. 5.55555569e-03 0. 0.
      1.11111114e-02 0. 0. 0. 0. 0. 0. 0. 0. 5.55555569e-03 0. 0. 0. 0.
      0. 0. 0. 0. 0. 0. 5.55555569e-03 0. 0. 0. 0. 0. 0. 0. 0.
      5.55555569e-03 0. 0. 0. 0. 0. 0. 0. 0. 5.55555569e-03 0. 0. 0. 0.
      5.55555569e-03 0. 0. 0. 0. 5.55555569e-03 0. 0. 0. 0. 0. 0. 0. 0.
      0. 0. 0. 0. 0. 0. 0. 5.55555569e-03 0. 0. 0. 0. 0. 0. 0. 0. 0. 0.
      0. 0. 0. 0. 5.55555569e-03 0. 0. 0. 0. 0. 5.55555569e-03 0. 0. 0.
      5.55555569e-03 0. 5.55555569e-03 0. 0. 0. 0. 0. 0. 0.
      5.55555569e-03 0. 0. 0. 0. 0. 0. 0. 0. 0. 0. 0. 0. 0. 0. 0. 0. 0.
      0. 0. 5.55555569e-03 0. 0. 0. 0. 0. 0. 0. 5.55555569e-03 0.
      5.55555569e-03 5.55555569e-03 0. 0. 0. 0. 0. 0. 0. 0. 0. 0. 0. 0.
      0. 0. 5.55555569e-03 0. 5.55555569e-03 0. 0. 0. 0. 0. 0.
      5.55555569e-03 0. 0. 0. 0. 0. 5.55555569e-03 0. 0. 5.55555569e-03
      0. 0. 5.55555569e-03 0. 0. 5.55555569e-03 0. 1.11111114e-02 0. 0.
      0. 0. 0. 0. 0. 0. 0. 0. 0. 0. 0. 0.</_>
    <_>
      0. 1.93798449e-03 9.68992244e-04 9.68992244e-04 0. 1.93798449e-03
      0. 1.93798449e-03 0. 9.68992244e-04 9.68992244e-04 9.68992244e-04
      0. 0. 9.68992244e-04 9.68992244e-04 9.68992244e-04 1.93798449e-03
      9.68992244e-04 9.68992244e-04 9.68992244e-04 0. 9.68992244e-04 0.
      9.68992244e-04 0. 9.68992244e-04 3.87596898e-03 9.68992244e-04
      1.93798449e-03 0. 0. 0. 0. 0. 9.68992244e-04 1.93798449e-03
      3.87596898e-03 0. 0. 2.90697673e-03 1.93798449e-03 9.68992244e-04
      9.68992244e-04 1.93798449e-03 9.68992244e-04 2.90697673e-03
      9.68992244e-04 4.84496122e-03 0. 1.93798449e-03 2.90697673e-03
      9.68992244e-04 0. 0. 9.68992244e-04 0. 0. 9.68992244e-04 0.
      9.68992244e-04 0. 9.68992244e-04 0. 0. 0. 0. 0. 0. 6.78294571e-03
      1.93798449e-03 9.68992244e-04 0. 1.93798449e-03 0. 1.93798449e-03
      9.68992244e-04 1.93798449e-03 0. 9.68992244e-04 0. 1.93798449e-03
      1.93798449e-03 0. 0. 9.68992244e-04 1.93798449e-03 9.68992244e-04
      0. 0. 1.93798449e-03 9.68992244e-04 0. 9.68992244e-04
      2.90697673e-03 9.68992244e-04 9.68992244e-04 3.87596898e-03
      1.93798449e-03 9.68992244e-04 0. 9.68992244e-04 2.90697673e-03 0.
      9.68992244e-04 9.68992244e-04 5.81395347e-03 9.68992244e-04 0.
      9.68992244e-04 0. 0. 9.68992244e-04 0. 9.68992244e-04
      9.68992244e-04 0. 0. 0. 1.93798449e-03 2.90697673e-03
      9.68992244e-04 0. 9.68992244e-04 1.93798449e-03 0. 9.68992244e-04
      9.68992244e-04 9.68992244e-04 0. 9.68992244e-04 0. 0. 0.
      9.68992244e-04 9.68992244e-04 0. 9.68992244e-04 0. 0. 0.
      9.68992244e-04 1.93798449e-03 0. 0. 9.68992244e-04 1.93798449e-03
      0. 0. 9.68992244e-04 0. 9.68992244e-04 0. 9.68992244e-04
      2.90697673e-03 9.68992244e-04 0. 0. 0. 9.68992244e-04 0.
      2.90697673e-03 9.68992244e-04 0. 0. 9.68992244e-04 9.68992244e-04
      0. 9.68992244e-04 0. 0. 0. 9.68992244e-04 7.75193796e-03
      9.68992244e-04 0. 9.68992244e-04 3.87596898e-03 0. 0. 0. 0. 0. 0.
      0. 1.93798449e-03 9.68992244e-04 1.93798449e-03 0. 9.68992244e-04
      9.68992244e-04 2.90697673e-03 3.87596898e-03 9.68992244e-04
      1.93798449e-03 9.68992244e-04 1.93798449e-03 9.68992244e-04
      9.68992244e-04 0. 0. 0. 0. 0. 0. 0. 9.68992244e-04 0.
      1.93798449e-03 0. 9.68992244e-04 0. 0. 0. 9.68992244e-04
      9.68992244e-04 0. 1.93798449e-03 1.93798449e-03 9.68992244e-04 0.
      1.93798449e-03 9.68992244e-04 0. 9.68992244e-04 1.93798449e-03 0.
      0. 9.68992244e-04 2.90697673e-03 0. 9.68992244e-04 0. 0.
      9.68992244e-04 9.68992244e-04 9.68992244e-04 3.87596898e-03
      9.68992244e-04 0. 1.93798449e-03 1.93798449e-03 0. 1.93798449e-03
      1.93798449e-03 0. 0. 0. 9.68992244e-04 0. 0. 1.93798449e-03
      1.93798449e-03 0. 0. 0. 0. 0. 0. 9.68992244e-04 1.93798449e-03
      2.90697673e-03 1.93798449e-03 0. 3.87596898e-03 9.68992244e-04
      9.68992244e-04 0. 0. 0. 0. 2.90697673e-03 0. 0. 0. 0. 0. 0.
      9.68992244e-04 0. 9.68992244e-04 0. 1.93798449e-03 9.68992244e-04
      0. 0. 9.68992244e-04 2.90697673e-03 0. 9.68992244e-04 0.
      1.93798449e-03 0. 0. 9.68992244e-04 0. 1.93798449e-03 0.
      1.93798449e-03 0. 9.68992244e-04 0. 9.68992244e-04 1.93798449e-03
      9.68992244e-04 2.90697673e-03 0. 0. 0. 9.68992244e-04 0.
      9.68992244e-04 0. 9.68992244e-04 0. 1.93798449e-03 1.93798449e-03
