<?xml version="1.0"?>
<opencv_storage>
<my_svm type_id="opencv-ml-svm">
  <svm_type>C_SVC</svm_type>
  <kernel><type>RBF</type>
    <gamma>5.0625000000000009e-01</gamma></kernel>
  <C>3.1250000000000000e+02</C>
  <term_criteria><epsilon>9.9999999747524271e-07</epsilon>
    <iterations>1000</iterations></term_criteria>
  <var_all>1000</var_all>
  <var_count>1000</var_count>
  <class_count>2</class_count>
  <class_labels type_id="opencv-matrix">
    <rows>1</rows>
    <cols>2</cols>
    <dt>i</dt>
    <data>
      -1 1</data></class_labels>
  <sv_total>120</sv_total>
  <support_vectors>
    <_>
      0. 9.68054228e-04 1.93610846e-03 1.93610846e-03 0. 0. 0. 0.
      1.93610846e-03 0. 9.68054228e-04 0. 0. 9.68054228e-04 0.
      9.68054228e-04 4.84027108e-03 0. 9.68054228e-04 1.93610846e-03
      1.93610846e-03 9.68054228e-04 0. 0. 1.93610846e-03 0. 0.
      3.87221691e-03 9.68054228e-04 0. 9.68054228e-04 9.68054228e-04
      2.90416274e-03 2.90416274e-03 2.90416274e-03 9.68054228e-04
      9.68054228e-04 2.90416274e-03 9.68054228e-04 1.93610846e-03 0.
      1.93610846e-03 9.68054228e-04 9.68054228e-04 0. 0. 0. 0. 0. 0.
      9.68054228e-04 0. 9.68054228e-04 1.93610846e-03 0. 9.68054228e-04
      0. 1.93610846e-03 0. 9.68054228e-04 1.93610846e-03 0.
      9.68054228e-04 0. 9.68054228e-04 0. 9.68054228e-04 9.68054228e-04
      0. 0. 0. 9.68054228e-04 0. 0. 2.90416274e-03 0. 0. 0. 0.
      9.68054228e-04 0. 1.93610846e-03 0. 0. 9.68054228e-04
      9.68054228e-04 3.87221691e-03 0. 2.90416274e-03 9.68054228e-04
      9.68054228e-04 9.68054228e-04 1.93610846e-03 3.87221691e-03 0.
      9.68054228e-04 1.93610846e-03 2.90416274e-03 2.90416274e-03
      9.68054228e-04 9.68054228e-04 0. 0. 0. 0. 3.87221691e-03
      2.90416274e-03 0. 0. 0. 0. 0. 2.90416274e-03 3.87221691e-03
      9.68054228e-04 1.93610846e-03 9.68054228e-04 0. 2.90416274e-03
      9.68054228e-04 0. 0. 0. 6.77637942e-03 0. 1.93610846e-03 0.
      1.93610846e-03 9.68054228e-04 1.93610846e-03 0. 0. 9.68054228e-04
      9.68054228e-04 1.93610846e-03 9.68054228e-04 3.87221691e-03
      2.90416274e-03 9.68054228e-04 9.68054228e-04 9.68054228e-04 0.
      9.68054228e-04 9.68054228e-04 9.68054228e-04 0. 0. 3.87221691e-03
      6.77637942e-03 0. 0. 1.93610846e-03 9.68054228e-04 9.68054228e-04
      0. 1.93610846e-03 0. 9.68054228e-04 2.90416274e-03 9.68054228e-04
      1.93610846e-03 0. 2.90416274e-03 0. 9.68054228e-04 0. 0.
      1.93610846e-03 9.68054228e-04 0. 9.68054228e-04 9.68054228e-04
      9.68054228e-04 9.68054228e-04 1.93610846e-03 0. 1.93610846e-03 0.
      9.68054228e-04 9.68054228e-04 0. 2.90416274e-03 9.68054228e-04
      1.93610846e-03 9.68054228e-04 1.93610846e-03 2.90416274e-03
      1.93610846e-03 9.68054228e-04 0. 9.68054228e-04 1.93610846e-03
      1.93610846e-03 9.68054228e-04 0. 9.68054228e-04 0. 0. 0. 0.
      9.68054228e-04 1.93610846e-03 9.68054228e-04 9.68054228e-04
      2.90416274e-03 0. 0. 0. 1.93610846e-03 9.68054228e-04
      1.93610846e-03 0. 0. 1.93610846e-03 0. 0. 0. 9.68054228e-04 0.
      9.68054228e-04 1.93610846e-03 9.68054228e-04 9.68054228e-04
      3.87221691e-03 2.90416274e-03 0. 9.68054228e-04 0. 0. 0.
      1.93610846e-03 9.68054228e-04 2.90416274e-03 0. 3.87221691e-03 0.
      0. 1.93610846e-03 0. 0. 0. 9.68054228e-04 1.93610846e-03 0. 0. 0.
      9.68054228e-04 0. 0. 0. 0. 0. 0. 9.68054228e-04 3.87221691e-03 0.
      9.68054228e-04 9.68054228e-04 9.68054228e-04 0. 0. 9.68054228e-04
      1.93610846e-03 1.93610846e-03 1.93610846e-03 0. 9.68054228e-04
      9.68054228e-04 0. 2.90416274e-03 9.68054228e-04 0. 1.93610846e-03
      2.90416274e-03 1.93610846e-03 1.93610846e-03 0. 0. 0.
      2.90416274e-03 9.68054228e-04 9.68054228e-04 0. 0. 9.68054228e-04
      0. 9.68054228e-04 1.93610846e-03 0. 9.68054228e-04 0.
      9.68054228e-04 1.93610846e-03 9.68054228e-04 0. 9.68054228e-04
      1.93610846e-03 1.93610846e-03 9.68054228e-04 0. 0. 1.93610846e-03
      0. 9.68054228e-04 0. 1.93610846e-03 0. 9.68054228e-04 0.
      9.68054228e-04 2.90416274e-03 1.93610846e-03 1.93610846e-03
      9.68054228e-04 1.93610846e-03 9.68054228e-04 1.93610846e-03
      9.68054228e-04 0. 2.90416274e-03 9.68054228e-04 0. 1.93610846e-03
      0. 0. 9.68054228e-04 0. 0. 0. 0. 0. 0. 3.87221691e-03 0.
      9.68054228e-04 0. 2.90416274e-03 2.90416274e-03 9.68054228e-04
      9.68054228e-04 3.87221691e-03 0. 0. 0. 0. 0. 1.93610846e-03
      9.68054228e-04 1.93610846e-03 9.68054228e-04 9.68054228e-04
      1.93610846e-03 1.93610846e-03 9.68054228e-04 9.68054228e-04
      9.68054228e-04 9.68054228e-04 3.87221691e-03 0. 1.93610846e-03 0.
      9.68054228e-04 2.90416274e-03 0. 1.93610846e-03 1.93610846e-03 0.
      9.68054228e-04 9.68054228e-04 1.93610846e-03 0. 1.93610846e-03 0.
      0. 0. 1.93610846e-03 9.68054228e-04 1.93610846e-03 0.
      1.93610846e-03 0. 9.68054228e-04 2.90416274e-03 2.90416274e-03 0.
      9.68054228e-04 0. 2.90416274e-03 0. 0. 0. 0. 9.68054228e-04 0.
      9.68054228e-04 1.93610846e-03 3.87221691e-03 0. 2.90416274e-03
      9.68054228e-04 0. 9.68054228e-04 0. 0. 0. 1.93610846e-03
      9.68054228e-04 0. 9.68054228e-04 0. 1.93610846e-03 1.93610846e-03
      0. 9.68054228e-04 1.93610846e-03 9.68054228e-04 3.87221691e-03 0.
      1.93610846e-03 9.68054228e-04 0. 1.93610846e-03 9.68054228e-04 0.
      0. 3.87221691e-03 1.93610846e-03 1.93610846e-03 1.93610846e-03 0.
      9.68054228e-04 9.68054228e-04 2.90416274e-03 1.93610846e-03
      1.93610846e-03 9.68054228e-04 0. 0. 9.68054228e-04 9.68054228e-04
      3.87221691e-03 9.68054228e-04 9.68054228e-04 9.68054228e-04
      9.68054228e-04 9.68054228e-04 1.93610846e-03 0. 1.93610846e-03
      1.93610846e-03 0. 3.87221691e-03 2.90416274e-03 1.93610846e-03
      3.87221691e-03 9.68054228e-04 0. 0. 0. 0. 4.84027108e-03
      2.90416274e-03 0. 1.93610846e-03 2.90416274e-03 0. 1.93610846e-03
      0. 1.93610846e-03 0. 1.93610846e-03 9.68054228e-04 9.68054228e-04
      0. 0. 9.68054228e-04 0. 1.93610846e-03 9.68054228e-04
      9.68054228e-04 9.68054228e-04 9.68054228e-04 9.68054228e-04
      9.68054228e-04 9.68054228e-04 9.68054228e-04 9.68054228e-04
      9.68054228e-04 0. 9.68054228e-04 9.68054228e-04 0. 9.68054228e-04
      9.68054228e-04 9.68054228e-04 0. 1.93610846e-03 0. 9.68054228e-04
      1.93610846e-03 0. 2.90416274e-03 0. 2.90416274e-03 9.68054228e-04
      0. 0. 0. 0. 2.90416274e-03 1.93610846e-03 1.93610846e-03 0.
      2.90416274e-03 0. 9.68054228e-04 7.74443382e-03 0. 0. 0.
      9.68054228e-04 0. 0. 9.68054228e-04 0. 1.93610846e-03
      2.90416274e-03 0. 1.93610846e-03 9.68054228e-04 9.68054228e-04
      9.68054228e-04 0. 3.87221691e-03 0. 0. 9.68054228e-04 0.
      9.68054228e-04 1.93610846e-03 1.93610846e-03 9.68054228e-04
      1.93610846e-03 0. 9.68054228e-04 1.93610846e-03 9.68054228e-04 0.
      1.93610846e-03 3.87221691e-03 0. 0. 9.68054228e-04 0. 0. 0.
      1.93610846e-03 9.68054228e-04 9.68054228e-04 9.68054228e-04
      9.68054228e-04 0. 1.93610846e-03 5.80832548e-03 0. 2.90416274e-03
      0. 9.68054228e-04 9.68054228e-04 9.68054228e-04 0. 0.
      9.68054228e-04 0. 1.93610846e-03 0. 9.68054228e-04 3.87221691e-03
      1.93610846e-03 0. 2.90416274e-03 0. 6.77637942e-03 0. 0. 0. 0. 0.
      1.93610846e-03 0. 0. 2.90416274e-03 1.93610846e-03 0.
      9.68054228e-04 0. 0. 0. 0. 1.93610846e-03 9.68054228e-04 0.
      9.68054228e-04 9.68054228e-04 0. 9.68054228e-04 9.68054228e-04
      9.68054228e-04 9.68054228e-04 9.68054228e-04 9.68054228e-04
      9.68054228e-04 0. 0. 0. 9.68054228e-04 9.68054228e-04
      1.93610846e-03 9.68054228e-04 0. 1.93610846e-03 1.93610846e-03
      1.93610846e-03 0. 9.68054228e-04 0. 9.68054228e-04 2.90416274e-03
      0. 2.90416274e-03 1.93610846e-03 0. 9.68054228e-04 9.68054228e-04
      0. 9.68054228e-04 0. 0. 1.93610846e-03 9.68054228e-04
      9.68054228e-04 9.68054228e-04 9.68054228e-04 9.68054228e-04 0. 0.
      1.93610846e-03 9.68054228e-04 0. 9.68054228e-04 9.68054228e-04
      1.93610846e-03 9.68054228e-04 1.93610846e-03 0. 0. 2.90416274e-03
      9.68054228e-04 0. 1.93610846e-03 0. 1.93610846e-03 9.68054228e-04
      0. 0. 9.68054228e-04 1.93610846e-03 9.68054228e-04 0. 0. 0. 0. 0.
      9.68054228e-04 9.68054228e-04 0. 9.68054228e-04 0. 0.
      9.68054228e-04 9.68054228e-04 9.68054228e-04 0. 4.84027108e-03 0.
      1.93610846e-03 9.68054228e-04 9.68054228e-04 0. 1.93610846e-03
      9.68054228e-04 9.68054228e-04 0. 9.68054228e-04 0. 0.
      9.68054228e-04 0. 0. 9.68054228e-04 9.68054228e-04 1.93610846e-03
      0. 9.68054228e-04 3.87221691e-03 0. 0. 0. 1.93610846e-03
      1.93610846e-03 0. 3.87221691e-03 1.93610846e-03 0. 0.
      8.71248823e-03 9.68054228e-04 0. 2.90416274e-03 0. 0. 0. 0. 0.
      1.93610846e-03 0. 2.90416274e-03 1.93610846e-03 1.93610846e-03 0.
      2.90416274e-03 1.93610846e-03 3.87221691e-03 1.93610846e-03
      9.68054228e-04 9.68054228e-04 0. 0. 1.93610846e-03 0.
      9.68054228e-04 0. 1.93610846e-03 0. 2.90416274e-03 1.93610846e-03
      1.93610846e-03 0. 9.68054228e-04 0. 0. 3.87221691e-03 0. 0. 0.
      2.90416274e-03 9.68054228e-04 0. 0. 0. 9.68054228e-04
      1.93610846e-03 0. 1.93610846e-03 2.90416274e-03 0. 1.93610846e-03
      9.68054228e-04 9.68054228e-04 0. 3.87221691e-03 2.90416274e-03
      9.68054228e-04 2.90416274e-03 0. 0. 9.68054228e-04 0.
      9.68054228e-04 9.68054228e-04 0. 2.90416274e-03 0. 9.68054228e-04
      0. 1.93610846e-03 0. 0. 1.93610846e-03 0. 0. 2.90416274e-03 0.
      1.93610846e-03 1.93610846e-03 0. 9.68054228e-04 1.93610846e-03
      1.93610846e-03 0. 9.68054228e-04 9.68054228e-04 0. 9.68054228e-04
      9.68054228e-04 0. 9.68054228e-04 1.93610846e-03 0. 0.
      9.68054228e-04 0. 1.93610846e-03 9.68054228e-04 0. 9.68054228e-04
      3.87221691e-03 1.93610846e-03 0. 9.68054228e-04 0. 9.68054228e-04
      0. 9.68054228e-04 0. 0. 2.90416274e-03 9.68054228e-04 0.
      4.84027108e-03 1.93610846e-03 1.93610846e-03 0. 9.68054228e-04 0.
      0. 9.68054228e-04 0. 9.68054228e-04 0. 2.90416274e-03 0. 0.
      9.68054228e-04 0. 1.93610846e-03 9.68054228e-04 0. 1.93610846e-03
      0. 0. 0. 0. 0. 9.68054228e-04 9.68054228e-04 0. 1.93610846e-03
      1.93610846e-03 9.68054228e-04 0. 9.68054228e-04 1.93610846e-03
      1.93610846e-03 9.68054228e-04 9.68054228e-04 0. 0. 9.68054228e-04
      0. 9.68054228e-04 0. 9.68054228e-04 0. 9.68054228e-04
      1.93610846e-03 0. 0. 0. 1.93610846e-03 0. 9.68054228e-04
      9.68054228e-04 0. 9.68054228e-04 9.68054228e-04 9.68054228e-04
      9.68054228e-04 9.68054228e-04 9.68054228e-04 9.68054228e-04 0. 0.
      1.93610846e-03 0. 9.68054228e-04 9.68054228e-04 0. 9.68054228e-04
      0. 9.68054228e-04 0. 0. 0. 1.93610846e-03 1.93610846e-03
      1.93610846e-03 0. 9.68054228e-04 2.90416274e-03 1.93610846e-03
      9.68054228e-04 0. 0. 0. 2.90416274e-03 9.68054228e-04 0.
      1.93610846e-03 9.68054228e-04 0. 9.68054228e-04 0. 0.
      9.68054228e-04 0. 0. 9.68054228e-04 0. 0. 9.68054228e-04
      1.93610846e-03 0. 1.93610846e-03 3.87221691e-03 1.93610846e-03
      9.68054228e-04 9.68054228e-04 9.68054228e-04 0. 0. 0.
      9.68054228e-04 2.90416274e-03 9.68054228e-04 0. 1.93610846e-03
      1.93610846e-03 0. 0. 2.90416274e-03 9.68054228e-04 9.68054228e-04
      0. 9.68054228e-04 9.68054228e-04 0. 9.68054228e-04 0.
      2.90416274e-03 9.68054228e-04 0. 9.68054228e-04 9.68054228e-04 0.
      0. 0. 0. 2.90416274e-03 9.68054228e-04 9.68054228e-04
      9.68054228e-04 9.68054228e-04 1.93610846e-03 0. 0. 0.
      2.90416274e-03 0. 0. 9.68054228e-04 1.93610846e-03 0. 0.
      1.93610846e-03 2.90416274e-03 9.68054228e-04 9.68054228e-04 0.
      2.90416274e-03 1.93610846e-03 9.68054228e-04 0. 0. 0. 0.
      1.93610846e-03 9.68054228e-04 0. 0.</_>
    <_>
      0. 0. 0. 0. 2.67737615e-03 2.67737615e-03 0. 0. 1.33868807e-03 0.
      0. 0. 1.33868807e-03 0. 0. 1.33868807e-03 1.33868807e-03
      5.35475230e-03 1.33868807e-03 0. 0. 1.33868807e-03 0. 0.
      4.01606411e-03 1.33868807e-03 0. 0. 1.33868807e-03 0.
      1.33868807e-03 2.67737615e-03 1.33868807e-03 1.33868807e-03
      2.67737615e-03 0. 2.67737615e-03 0. 0. 0. 0. 0. 0. 1.33868807e-03
      0. 0. 0. 0. 0. 0. 1.33868807e-03 1.33868807e-03 6.69344049e-03 0.
      0. 0. 0. 2.67737615e-03 0. 1.33868807e-03 1.33868807e-03 0. 0. 0.
      1.33868807e-03 0. 0. 2.67737615e-03 0. 6.69344049e-03 0.
      1.33868807e-03 0. 0. 0. 0. 0. 0. 0. 0. 1.33868807e-03 0. 0. 0. 0.
      1.33868807e-03 0. 1.33868807e-03 1.33868807e-03 2.67737615e-03
      4.01606411e-03 0. 1.33868807e-03 0. 1.33868807e-03 0. 0. 0. 0.
      1.33868807e-03 0. 0. 1.33868807e-03 1.33868807e-03 0.
      8.03212821e-03 0. 1.33868807e-03 0. 1.33868807e-03 1.33868807e-03
      1.33868807e-03 2.67737615e-03 6.69344049e-03 4.01606411e-03
      2.67737615e-03 1.33868807e-03 2.67737615e-03 1.33868807e-03
      1.33868807e-03 0. 1.33868807e-03 1.33868807e-03 1.33868807e-03 0.
      0. 1.33868807e-03 0. 0. 0. 0. 0. 0. 2.67737615e-03 0. 0. 0. 0.
      1.33868807e-03 0. 1.33868807e-03 1.33868807e-03 1.33868807e-03 0.
      2.67737615e-03 0. 2.67737615e-03 1.33868807e-03 1.33868807e-03 0.
      0. 0. 0. 0. 2.67737615e-03 0. 0. 0. 0. 0. 0. 1.33868807e-03 0.
      1.33868807e-03 0. 0. 0. 4.01606411e-03 0. 0. 1.33868807e-03
      1.33868807e-03 0. 0. 1.33868807e-03 0. 0. 1.33868807e-03
      1.33868807e-03 0. 0. 1.33868807e-03 0. 1.33868807e-03 0. 0. 0.
      1.33868807e-03 0. 2.67737615e-03 0. 1.33868807e-03 6.69344049e-03
      1.33868807e-03 0. 1.33868807e-03 0. 0. 0. 0. 0. 0. 0. 0.
      1.33868807e-03 0. 0. 0. 1.33868807e-03 0. 1.33868807e-03 0. 0.
      1.33868807e-03 0. 0. 0. 0. 4.01606411e-03 0. 4.01606411e-03 0. 0.
      5.35475230e-03 5.35475230e-03 4.01606411e-03 2.67737615e-03 0. 0.
      1.33868807e-03 0. 2.67737615e-03 0. 0. 0. 0. 0. 5.35475230e-03 0.
      2.67737615e-03 0. 0. 0. 1.33868807e-03 1.33868807e-03 0.
      2.67737615e-03 0. 0. 4.01606411e-03 0. 1.33868807e-03
      1.33868807e-03 0. 1.33868807e-03 0. 4.01606411e-03 5.35475230e-03
      1.33868807e-03 0. 1.33868807e-03 0. 4.01606411e-03 0. 0. 0.
      1.33868807e-03 0. 0. 2.67737615e-03 2.67737615e-03 0. 0.
      2.67737615e-03 0. 0. 0. 0. 0. 0. 1.33868807e-03 0. 0. 0. 0. 0. 0.
      1.33868807e-03 0. 2.67737615e-03 0. 0. 1.33868807e-03
      4.01606411e-03 1.33868807e-03 1.33868807e-03 0. 0. 1.33868807e-03
      2.67737615e-03 1.33868807e-03 1.33868807e-03 2.67737615e-03
      1.33868807e-03 0. 1.33868807e-03 2.67737615e-03 1.33868807e-03 0.
      0. 1.33868807e-03 0. 0. 0. 2.67737615e-03 0. 1.33868807e-03
      1.33868807e-03 0. 1.33868807e-03 2.67737615e-03 0. 1.33868807e-03
      0. 0. 0. 1.33868807e-03 0. 2.67737615e-03 0. 1.33868807e-03 0.
      1.33868807e-03 1.33868807e-03 0. 0. 2.67737615e-03 0. 0. 0. 0. 0.
      0. 1.33868807e-03 0. 1.33868807e-03 4.01606411e-03 1.33868807e-03
      0. 0. 0. 1.33868807e-03 0. 1.33868807e-03 1.33868807e-03 0.
      1.33868807e-03 2.67737615e-03 1.33868807e-03 1.33868807e-03
      1.33868807e-03 2.67737615e-03 0. 0. 4.01606411e-03 1.33868807e-03
      0. 2.67737615e-03 1.33868807e-03 0. 0. 8.03212821e-03
      1.33868807e-03 0. 1.33868807e-03 0. 1.33868807e-03 1.33868807e-03
      2.67737615e-03 0. 1.33868807e-03 2.67737615e-03 1.33868807e-03 0.
      1.33868807e-03 0. 0. 4.01606411e-03 1.33868807e-03 1.33868807e-03
      2.67737615e-03 0. 1.33868807e-03 0. 0. 0. 0. 1.33868807e-03 0. 0.
      1.33868807e-03 1.33868807e-03 1.33868807e-03 0. 0. 0. 0. 0. 0. 0.
      0. 2.67737615e-03 4.01606411e-03 0. 0. 0. 1.33868807e-03
      1.33868807e-03 0. 2.67737615e-03 0. 2.67737615e-03 1.33868807e-03
      1.33868807e-03 0. 1.33868807e-03 0. 0. 1.33868807e-03
      1.33868807e-03 0. 1.33868807e-03 4.01606411e-03 0. 0.
      1.33868807e-03 0. 0. 0. 1.33868807e-03 4.01606411e-03 0. 0. 0.
      2.67737615e-03 1.33868807e-03 0. 0. 1.33868807e-03 1.33868807e-03
      0. 1.33868807e-03 0. 0. 4.01606411e-03 1.33868807e-03
      1.33868807e-03 0. 1.33868807e-03 1.33868807e-03 0. 9.37081687e-03
      0. 1.33868807e-03 2.67737615e-03 0. 1.33868807e-03 2.67737615e-03
      0. 0. 0. 1.33868807e-03 1.33868807e-03 1.33868807e-03 0. 0. 0. 0.
      0. 0. 2.67737615e-03 1.33868807e-03 4.01606411e-03 1.33868807e-03
      1.33868807e-03 2.67737615e-03 0. 0. 1.33868807e-03 0. 0. 0.
      1.33868807e-03 0. 0. 0. 1.33868807e-03 0. 0. 1.33868807e-03 0.
      2.67737615e-03 1.33868807e-03 0. 2.67737615e-03 0. 0. 0. 0.
      6.69344049e-03 4.01606411e-03 0. 2.67737615e-03 0. 1.33868807e-03
      0. 1.47255687e-02 0. 0. 1.33868807e-03 1.33868807e-03 0. 0.
      1.33868807e-03 0. 0. 0. 0. 2.67737615e-03 1.33868807e-03
      2.67737615e-03 0. 2.67737615e-03 5.35475230e-03 0. 0.
      1.33868807e-03 0. 1.33868807e-03 0. 1.33868807e-03 2.67737615e-03
      1.33868807e-03 2.67737615e-03 0. 1.33868807e-03 1.33868807e-03 0.
      1.33868807e-03 2.67737615e-03 0. 0. 0. 0. 0. 0. 0. 0. 0. 0. 0. 0.
      4.01606411e-03 1.33868807e-03 2.67737615e-03 1.33868807e-03
      1.33868807e-03 0. 0. 0. 1.33868807e-03 0. 0. 1.33868807e-03
      2.67737615e-03 1.33868807e-03 0. 0. 0. 0. 1.33868807e-03 0.
      1.33868807e-03 1.33868807e-03 0. 0. 1.33868807e-03 0. 0. 0.
      1.33868807e-03 1.33868807e-03 2.67737615e-03 0. 0. 0. 0.
      4.01606411e-03 1.33868807e-03 0. 1.33868807e-03 0. 1.33868807e-03
      0. 0. 0. 1.33868807e-03 1.33868807e-03 0. 0. 0. 1.33868807e-03 0.
      0. 1.33868807e-03 0. 0. 0. 2.67737615e-03 1.33868807e-03 0. 0. 0.
      0. 1.33868807e-03 2.67737615e-03 2.67737615e-03 1.33868807e-03
      2.67737615e-03 0. 0. 0. 0. 1.33868807e-03 1.33868807e-03 0.
      1.33868807e-03 0. 0. 0. 0. 1.33868807e-03 1.33868807e-03 0. 0.
      8.03212821e-03 0. 2.67737615e-03 4.01606411e-03 2.67737615e-03 0.
      0. 4.01606411e-03 1.33868807e-03 0. 2.67737615e-03 0. 0. 0. 0.
      1.33868807e-03 1.33868807e-03 1.33868807e-03 1.33868807e-03
      2.67737615e-03 0. 5.35475230e-03 0. 0. 1.33868807e-03
      1.33868807e-03 0. 2.67737615e-03 0. 1.33868807e-03 0. 0.
      1.33868807e-03 0. 1.33868807e-03 1.33868807e-03 0. 0.
      1.33868807e-03 1.33868807e-03 1.33868807e-03 1.33868807e-03
      1.33868807e-03 1.33868807e-03 0. 0. 1.33868807e-03 1.33868807e-03
      1.33868807e-03 1.33868807e-03 1.33868807e-03 0. 0. 2.67737615e-03
      0. 0. 0. 0. 1.33868807e-03 4.01606411e-03 0. 0. 0. 1.33868807e-03
      1.33868807e-03 1.33868807e-03 0. 0. 0. 2.67737615e-03
      9.37081687e-03 0. 0. 1.33868807e-03 1.33868807e-03 1.33868807e-03
      0. 2.67737615e-03 0. 8.03212821e-03 0. 1.33868807e-03 0. 0. 0.
      2.67737615e-03 0. 0. 0. 1.33868807e-03 1.33868807e-03 0.
      2.67737615e-03 1.33868807e-03 0. 0. 0. 1.33868807e-03
      1.33868807e-03 1.33868807e-03 1.33868807e-03 1.33868807e-03 0.
      2.67737615e-03 4.01606411e-03 0. 1.20481923e-02 0. 0. 0.
      1.33868807e-03 1.33868807e-03 0. 2.67737615e-03 2.67737615e-03 0.
      1.33868807e-03 0. 0. 0. 0. 0. 0. 1.33868807e-03 0. 1.33868807e-03
      9.37081687e-03 0. 1.33868807e-03 0. 0. 0. 0. 1.33868807e-03 0.
      1.33868807e-03 1.33868807e-03 0. 0. 4.01606411e-03 0. 0.
      1.33868807e-03 0. 0. 0. 1.33868807e-03 1.33868807e-03 0. 0. 0. 0.
      5.35475230e-03 2.67737615e-03 0. 0. 0. 1.33868807e-03 0. 0. 0. 0.
      0. 0. 0. 0. 0. 2.67737615e-03 0. 0. 1.33868807e-03 4.01606411e-03
      1.33868807e-03 0. 4.01606411e-03 0. 1.33868807e-03 0.
      1.33868807e-03 0. 2.67737615e-03 1.33868807e-03 1.33868807e-03
      1.33868807e-03 0. 2.67737615e-03 1.33868807e-03 2.67737615e-03 0.
      1.33868807e-03 0. 0. 0. 0. 0. 0. 5.35475230e-03 1.33868807e-03
      1.33868807e-03 0. 0. 8.03212821e-03 0. 2.67737615e-03 0.
      1.33868807e-03 0. 1.33868807e-03 0. 1.33868807e-03 1.33868807e-03
      0. 5.35475230e-03 1.33868807e-03 0. 0. 1.33868807e-03 0. 0. 0. 0.
      0. 1.33868807e-03 1.33868807e-03 1.33868807e-03 5.35475230e-03 0.
      0. 0. 4.01606411e-03 1.33868807e-03 0. 0. 0. 0. 0. 1.33868807e-03
      1.33868807e-03 2.67737615e-03 0. 1.33868807e-03 1.33868807e-03
      4.01606411e-03 0. 0. 1.33868807e-03 0. 2.67737615e-03
      1.33868807e-03 1.33868807e-03 0. 0. 0. 2.67737615e-03 0.
      1.33868807e-03 2.67737615e-03 0. 0. 0. 4.01606411e-03
      2.67737615e-03 0. 2.67737615e-03 0. 5.35475230e-03 1.33868807e-03
      1.33868807e-03 0. 1.33868807e-03 2.67737615e-03 1.33868807e-03 0.
      0. 0. 1.33868807e-03 2.67737615e-03 1.33868807e-03 0. 0.
      1.33868807e-03 0. 1.33868807e-03 0. 2.67737615e-03 0. 0.
      1.33868807e-03 1.33868807e-03 1.33868807e-03 1.33868807e-03
      1.33868807e-03 1.33868807e-03 1.33868807e-03 0. 0. 0.
      1.33868807e-03 0. 2.67737615e-03 0. 2.67737615e-03 0. 0. 0.
      1.33868807e-03 2.67737615e-03 2.67737615e-03 2.67737615e-03
      1.33868807e-03 0. 0. 1.33868807e-03 0. 2.67737615e-03
      1.33868807e-03 1.33868807e-03 0. 0. 0. 0. 0. 0. 1.33868807e-03
      2.67737615e-03 0. 1.33868807e-03 4.01606411e-03 0. 2.67737615e-03
      0. 1.33868807e-03 0. 0. 0. 0. 0. 0. 1.33868807e-03 1.33868807e-03
      9.37081687e-03 0. 2.67737615e-03 0. 4.01606411e-03 0. 0. 0.
      1.33868807e-03 0. 1.33868807e-03 0. 1.33868807e-03 4.01606411e-03
      0.</_>
    <_>
      0. 0. 0. 1.49031298e-03 0. 0. 0. 0. 1.49031298e-03 0.
      1.49031298e-03 0. 2.98062596e-03 0. 1.49031298e-03 0. 0.
      1.49031298e-03 1.49031298e-03 0. 2.98062596e-03 2.98062596e-03 0.
      0. 0. 2.98062596e-03 1.49031298e-03 0. 0. 0. 1.49031298e-03
      1.49031298e-03 1.49031298e-03 0. 4.47093882e-03 2.98062596e-03 0.
      0. 1.49031298e-03 0. 0. 1.49031298e-03 0. 0. 0. 1.49031298e-03
      4.47093882e-03 0. 0. 1.49031298e-03 0. 1.49031298e-03
      1.49031298e-03 1.49031298e-03 0. 4.47093882e-03 0. 1.49031298e-03
      0. 2.98062596e-03 1.49031298e-03 2.98062596e-03 0. 0.
      1.49031298e-03 0. 0. 4.47093882e-03 0. 0. 0. 1.49031298e-03
      1.49031298e-03 1.49031298e-03 0. 0. 1.49031298e-03 1.49031298e-03
      0. 0. 0. 1.49031298e-03 0. 0. 2.98062596e-03 0. 1.49031298e-03
      1.49031298e-03 1.49031298e-03 0. 2.98062596e-03 0. 0. 0. 0. 0.
      1.49031298e-03 1.49031298e-03 1.49031298e-03 2.98062596e-03
      2.98062596e-03 1.49031298e-03 1.49031298e-03 0. 1.49031298e-03
      2.98062596e-03 0. 0. 1.49031298e-03 0. 0. 0. 2.98062596e-03
      1.19225038e-02 1.49031298e-03 0. 1.49031298e-03 0. 1.49031298e-03
      1.49031298e-03 0. 0. 0. 5.96125191e-03 0. 0. 0. 1.49031298e-03
      2.98062596e-03 1.49031298e-03 0. 0. 1.49031298e-03 1.49031298e-03
      0. 0. 2.98062596e-03 1.49031298e-03 1.49031298e-03 0.
      1.49031298e-03 0. 1.49031298e-03 0. 0. 1.49031298e-03 0.
      4.47093882e-03 1.49031298e-03 0. 0. 0. 4.47093882e-03 0. 0. 0. 0.
      0. 1.49031298e-03 0. 0. 1.49031298e-03 0. 2.98062596e-03 0.
      1.49031298e-03 0. 1.49031298e-03 0. 1.49031298e-03 0.
      1.49031298e-03 0. 1.49031298e-03 0. 1.49031298e-03 1.49031298e-03
      1.49031298e-03 0. 0. 0. 0. 0. 1.49031298e-03 1.49031298e-03 0.
      1.49031298e-03 0. 1.49031298e-03 1.49031298e-03 2.98062596e-03 0.
      2.98062596e-03 2.98062596e-03 0. 2.98062596e-03 1.49031298e-03 0.
      4.47093882e-03 1.49031298e-03 0. 7.45156500e-03 1.49031298e-03
      1.49031298e-03 2.98062596e-03 1.49031298e-03 0. 0. 0.
      1.49031298e-03 1.49031298e-03 0. 1.49031298e-03 0. 1.49031298e-03
      0. 0. 2.98062596e-03 5.96125191e-03 1.49031298e-03 1.49031298e-03
      0. 0. 2.98062596e-03 0. 0. 0. 0. 0. 0. 1.49031298e-03
      1.49031298e-03 1.49031298e-03 0. 0. 0. 1.49031298e-03
      4.47093882e-03 1.49031298e-03 0. 0. 0. 0. 1.49031298e-03 0. 0. 0.
      0. 0. 1.49031298e-03 0. 1.49031298e-03 0. 0. 0. 0. 0.
      1.49031298e-03 0. 0. 0. 1.49031298e-03 1.49031298e-03 0. 0. 0. 0.
      1.49031298e-03 1.49031298e-03 1.49031298e-03 0. 0. 0. 0.
      1.49031298e-03 0. 0. 0. 1.49031298e-03 0. 0. 2.98062596e-03 0.
      1.49031298e-03 1.49031298e-03 0. 0. 0. 1.49031298e-03
      2.98062596e-03 0. 0. 1.49031298e-03 1.04321912e-02 1.49031298e-03
      1.49031298e-03 0. 0. 1.49031298e-03 0. 0. 1.49031298e-03 0.
      2.98062596e-03 0. 0. 2.98062596e-03 8.94187763e-03 0. 0. 0. 0. 0.
      0. 1.49031298e-03 0. 1.49031298e-03 0. 0. 0. 1.49031298e-03 0. 0.
      2.98062596e-03 0. 0. 1.49031298e-03 1.49031298e-03 2.98062596e-03
      0. 0. 0. 1.49031298e-03 0. 2.98062596e-03 0. 0. 0. 0. 0.
      2.98062596e-03 1.49031298e-03 4.47093882e-03 1.49031298e-03
      4.47093882e-03 0. 4.47093882e-03 0. 1.49031298e-03 1.49031298e-03
      1.49031298e-03 4.47093882e-03 0. 0. 0. 0. 0. 0. 1.49031298e-03 0.
      0. 1.49031298e-03 0. 0. 0. 0. 1.49031298e-03 0. 2.98062596e-03 0.
      4.47093882e-03 1.49031298e-03 0. 0. 1.49031298e-03 0.
      4.47093882e-03 1.49031298e-03 1.49031298e-03 0. 0. 2.98062596e-03
      1.49031298e-03 0. 0. 1.49031298e-03 1.49031298e-03 1.49031298e-03
      0. 0. 0. 0. 0. 1.49031298e-03 1.49031298e-03 0. 5.96125191e-03
      1.49031298e-03 1.49031298e-03 1.49031298e-03 0. 0. 1.49031298e-03
      0. 1.49031298e-03 2.98062596e-03 2.98062596e-03 0. 0. 0. 0.
      2.98062596e-03 1.49031298e-03 1.49031298e-03 0. 0. 2.98062596e-03
      1.49031298e-03 0. 0. 1.49031298e-03 1.49031298e-03 1.49031298e-03
      1.49031298e-03 0. 1.49031298e-03 0. 4.47093882e-03 0. 0.
      1.49031298e-03 0. 1.49031298e-03 0. 1.49031298e-03 0. 0. 0.
      4.47093882e-03 2.98062596e-03 4.47093882e-03 1.49031298e-03 0. 0.
      0. 1.49031298e-03 0. 1.49031298e-03 0. 0. 1.49031298e-03
      4.47093882e-03 1.49031298e-03 0. 7.45156500e-03 1.49031298e-03
      4.47093882e-03 1.49031298e-03 0. 0. 0. 1.19225038e-02 0.
      1.49031298e-03 1.49031298e-03 0. 0. 0. 0. 0. 0. 0. 1.49031298e-03
      1.49031298e-03 0. 0. 0. 0. 0. 0. 1.49031298e-03 1.49031298e-03 0.
      0. 0. 1.49031298e-03 0. 1.49031298e-03 0. 0. 0. 0. 0. 0. 0.
      2.98062596e-03 1.49031298e-03 1.49031298e-03 0. 1.49031298e-03 0.
      0. 0. 1.49031298e-03 1.49031298e-03 0. 0. 0. 0. 0. 1.49031298e-03
      1.49031298e-03 0. 2.98062596e-03 2.98062596e-03 0. 1.04321912e-02
      0. 0. 1.49031298e-03 0. 1.49031298e-03 0. 1.49031298e-03
      1.49031298e-03 0. 2.98062596e-03 0. 0. 0. 1.49031298e-03 0.
      2.98062596e-03 0. 0. 0. 0. 5.96125191e-03 0. 0. 0. 2.98062596e-03
      0. 1.49031298e-03 1.49031298e-03 2.98062596e-03 0. 1.49031298e-03
      1.49031298e-03 2.98062596e-03 0. 1.49031298e-03 0. 0.
      2.98062596e-03 1.49031298e-03 1.49031298e-03 0. 0. 2.98062596e-03
      1.49031298e-03 2.98062596e-03 1.49031298e-03 4.47093882e-03 0. 0.
      0. 2.98062596e-03 0. 0. 1.49031298e-03 2.98062596e-03
      1.49031298e-03 1.49031298e-03 0. 0. 1.49031298e-03 1.49031298e-03
      1.49031298e-03 0. 0. 0. 4.47093882e-03 1.49031298e-03 0.
      1.49031298e-03 0. 1.49031298e-03 0. 0. 2.98062596e-03 0. 0. 0. 0.
      0. 1.49031298e-03 2.98062596e-03 1.49031298e-03 1.49031298e-03
      1.49031298e-03 0. 1.49031298e-03 2.98062596e-03 1.49031298e-03 0.
      0. 0. 2.98062596e-03 1.49031298e-03 1.49031298e-03 1.49031298e-03
      0. 1.49031298e-03 0. 2.98062596e-03 1.49031298e-03 1.49031298e-03
      1.49031298e-03 1.49031298e-03 0. 1.49031298e-03 0. 0. 0.
      2.98062596e-03 0. 2.98062596e-03 0. 0. 4.47093882e-03
      1.49031298e-03 1.49031298e-03 0. 0. 0. 0. 2.98062596e-03 0. 0. 0.
      1.49031298e-03 0. 1.49031298e-03 0. 0. 0. 1.49031298e-03
      4.47093882e-03 0. 0. 0. 1.49031298e-03 0. 0. 0. 1.49031298e-03 0.
      0. 1.49031298e-03 1.49031298e-03 0. 0. 0. 2.98062596e-03
      2.98062596e-03 1.49031298e-03 1.49031298e-03 0. 0. 1.49031298e-03
      0. 1.49031298e-03 0. 1.49031298e-03 1.49031298e-03 0.
      1.49031298e-03 1.49031298e-03 2.98062596e-03 1.49031298e-03 0. 0.
      1.49031298e-03 0. 0. 2.98062596e-03 2.98062596e-03 1.49031298e-03
      0. 0. 0. 0. 1.49031298e-03 1.49031298e-03 2.98062596e-03 0. 0.
      2.98062596e-03 1.49031298e-03 0. 0. 0. 0. 0. 1.49031298e-03 0. 0.
      0. 0. 4.47093882e-03 1.49031298e-03 0. 0. 0. 1.04321912e-02
      1.49031298e-03 0. 0. 0. 0. 0. 0. 0. 0. 0. 1.49031298e-03 0.
      1.49031298e-03 0. 8.94187763e-03 0. 1.49031298e-03 0. 0. 0. 0. 0.
      0. 0. 0. 1.49031298e-03 0. 1.49031298e-03 0. 0. 0. 1.49031298e-03
      1.49031298e-03 0. 2.98062596e-03 2.98062596e-03 0. 1.49031298e-03
      0. 0. 2.98062596e-03 0. 0. 0. 1.49031298e-03 2.98062596e-03
      2.98062596e-03 1.49031298e-03 0. 1.49031298e-03 0. 0. 0.
      1.49031298e-03 0. 2.98062596e-03 2.98062596e-03 0. 0.
      1.49031298e-03 0. 0. 2.98062596e-03 0. 2.98062596e-03
      1.49031298e-03 0. 0. 1.49031298e-03 1.49031298e-03 1.49031298e-03
      0. 0. 1.49031298e-03 0. 1.49031298e-03 0. 2.98062596e-03 0. 0. 0.
      2.98062596e-03 1.49031298e-03 1.49031298e-03 1.49031298e-03
      2.98062596e-03 0. 0. 1.49031298e-03 0. 0. 1.49031298e-03
      1.49031298e-03 1.49031298e-03 0. 0. 1.49031298e-03 0. 0. 0.
      2.98062596e-03 0. 2.98062596e-03 0. 1.49031298e-03 0. 0.
      2.98062596e-03 1.49031298e-03 0. 0. 0. 1.49031298e-03 0.
      1.49031298e-03 1.49031298e-03 0. 0. 0. 0. 0. 0. 0. 0.
      4.47093882e-03 0. 0. 0. 0. 1.49031298e-03 1.49031298e-03
      1.49031298e-03 0. 0. 0. 1.49031298e-03 2.98062596e-03
      2.98062596e-03 0. 0. 1.49031298e-03 1.49031298e-03 0. 0.
      2.98062596e-03 0. 0. 0. 1.49031298e-03 0. 0. 2.98062596e-03 0.
      1.49031298e-03 4.47093882e-03 2.98062596e-03 1.49031298e-03
      2.98062596e-03 0. 1.49031298e-03 0. 0. 0. 0. 0. 1.49031298e-03 0.
      2.98062596e-03 0. 2.98062596e-03 1.49031298e-03 1.49031298e-03 0.
      1.49031298e-03 0. 0. 0. 1.49031298e-03 0. 1.49031298e-03
      1.49031298e-03 0. 0. 1.49031298e-03 0. 1.49031298e-03
      2.98062596e-03 0. 1.49031298e-03 2.98062596e-03 0. 0.
      1.49031298e-03 0. 1.49031298e-03 1.49031298e-03 0. 0. 0.
      2.98062596e-03 1.49031298e-03 2.98062596e-03 0. 0. 0.
      1.49031298e-03 0. 0. 0. 1.49031298e-03 1.49031298e-03 0.
      1.49031298e-03 1.49031298e-03 1.49031298e-03 0. 0. 0.
      2.98062596e-03 0. 1.49031298e-03 0. 0. 0. 0. 0. 0. 0.
      1.49031298e-03 0. 2.98062596e-03 1.49031298e-03 1.49031298e-03 0.
      1.49031298e-03 2.98062596e-03 0. 2.98062596e-03 1.49031298e-03 0.
      0. 2.98062596e-03 1.49031298e-03 1.49031298e-03 0. 2.98062596e-03
      0. 0. 0. 1.49031298e-03 1.49031298e-03 0. 0. 1.49031298e-03 0. 0.
      2.98062596e-03 2.98062596e-03 0. 0. 1.49031298e-03 2.98062596e-03
      1.49031298e-03 1.49031298e-03 0. 0. 0. 4.47093882e-03 0.
      5.96125191e-03 0. 1.49031298e-03 0. 0. 0. 0. 0. 0. 1.49031298e-03
      0. 1.49031298e-03 0. 2.98062596e-03 0.</_>
    <_>
      0. 0. 0. 3.77002824e-03 9.42507060e-04 9.42507060e-04
      1.88501412e-03 0. 1.88501412e-03 9.42507060e-04 0. 9.42507060e-04
      0. 1.88501412e-03 2.82752118e-03 0. 9.42507060e-04 9.42507060e-04
      9.42507060e-04 9.42507060e-04 0. 0. 9.42507060e-04 9.42507060e-04
      0. 1.88501412e-03 0. 4.71253507e-03 0. 3.77002824e-03 0.
      2.82752118e-03 1.88501412e-03 9.42507060e-04 0. 0. 0.
      3.77002824e-03 0. 9.42507060e-04 1.88501412e-03 9.42507060e-04
      1.88501412e-03 9.42507060e-04 1.88501412e-03 4.71253507e-03
      4.71253507e-03 9.42507060e-04 1.88501412e-03 0. 0. 0. 0. 0. 0.
      2.82752118e-03 0. 4.71253507e-03 0. 0. 2.82752118e-03
      9.42507060e-04 9.42507060e-04 9.42507060e-04 1.88501412e-03 0. 0.
      9.42507060e-04 9.42507060e-04 9.42507060e-04 1.88501412e-03 0.
      9.42507060e-04 9.42507060e-04 0. 2.82752118e-03 1.88501412e-03
      9.42507060e-04 9.42507060e-04 0. 0. 9.42507060e-04 1.88501412e-03
      0. 9.42507060e-04 9.42507060e-04 0. 9.42507060e-04 0.
      9.42507060e-04 3.77002824e-03 9.42507060e-04 0. 0. 1.88501412e-03
      0. 0. 0. 1.88501412e-03 9.42507060e-04 9.42507060e-04
      4.71253507e-03 0. 9.42507060e-04 0. 1.88501412e-03 9.42507060e-04
      0. 0. 9.42507060e-04 1.88501412e-03 0. 0. 9.42507060e-04 0.
      9.42507060e-04 0. 1.88501412e-03 0. 0. 0. 0. 9.42507060e-04
      1.88501412e-03 0. 0. 1.88501412e-03 9.42507060e-04 2.82752118e-03
      0. 0. 0. 0. 2.82752118e-03 9.42507060e-04 0. 0. 1.88501412e-03
      9.42507060e-04 9.42507060e-04 0. 1.88501412e-03 9.42507060e-04 0.
      9.42507060e-04 0. 2.82752118e-03 0. 0. 9.42507060e-04 0.
      9.42507060e-04 0. 0. 2.82752118e-03 3.77002824e-03 0.
      1.88501412e-03 0. 0. 0. 0. 0. 0. 0. 9.42507060e-04 0. 0. 0.
      9.42507060e-04 0. 0. 1.88501412e-03 2.82752118e-03 9.42507060e-04
      0. 0. 1.88501412e-03 9.42507060e-04 9.42507060e-04 0. 0. 0.
      9.42507060e-04 0. 0. 9.42507060e-04 9.42507060e-04 3.77002824e-03
      0. 0. 0. 9.42507060e-04 2.82752118e-03 1.88501412e-03
      9.42507060e-04 9.42507060e-04 2.82752118e-03 0. 9.42507060e-04
      9.42507060e-04 0. 0. 0. 0. 0. 0. 3.77002824e-03 1.88501412e-03 0.
      9.42507060e-04 1.88501412e-03 0. 0. 1.88501412e-03 9.42507060e-04
      0. 0. 1.88501412e-03 9.42507060e-04 0. 1.88501412e-03
      1.88501412e-03 0. 0. 2.82752118e-03 0. 9.42507060e-04 0. 0.
      9.42507060e-04 9.42507060e-04 9.42507060e-04 9.42507060e-04 0.
      2.82752118e-03 1.88501412e-03 0. 9.42507060e-04 1.88501412e-03
      2.82752118e-03 9.42507060e-04 0. 9.42507060e-04 9.42507060e-04 0.
      0. 0. 0. 0. 4.71253507e-03 0. 0. 0. 9.42507060e-04 0. 0.
      9.42507060e-04 9.42507060e-04 0. 9.42507060e-04 1.88501412e-03 0.
      9.42507060e-04 1.88501412e-03 1.88501412e-03 3.77002824e-03 0. 0.
      2.82752118e-03 1.88501412e-03 0. 1.88501412e-03 1.88501412e-03 0.
      0. 1.88501412e-03 9.42507060e-04 0. 1.88501412e-03 9.42507060e-04
      2.82752118e-03 1.88501412e-03 9.42507060e-04 1.88501412e-03
      9.42507060e-04 9.42507060e-04 0. 9.42507060e-04 9.42507060e-04 0.
      9.42507060e-04 0. 0. 2.82752118e-03 9.42507060e-04 0.
      9.42507060e-04 0. 0. 9.42507060e-04 9.42507060e-04 9.42507060e-04
      2.82752118e-03 2.82752118e-03 9.42507060e-04 9.42507060e-04
      9.42507060e-04 0. 1.88501412e-03 9.42507060e-04 2.82752118e-03 0.
      9.42507060e-04 3.77002824e-03 1.88501412e-03 2.82752118e-03 0.
      4.71253507e-03 0. 1.88501412e-03 9.42507060e-04 0. 9.42507060e-04
      0. 0. 9.42507060e-04 0. 0. 0. 0. 0. 0. 1.88501412e-03 0.
      1.88501412e-03 3.77002824e-03 0. 9.42507060e-04 9.42507060e-04 0.
      1.88501412e-03 1.88501412e-03 9.42507060e-04 3.77002824e-03
      2.82752118e-03 0. 1.88501412e-03 0. 1.88501412e-03 0. 0. 0.
      1.88501412e-03 0. 9.42507060e-04 1.88501412e-03 3.77002824e-03
      3.77002824e-03 3.77002824e-03 0. 0. 4.71253507e-03 1.88501412e-03
      9.42507060e-04 0. 0. 0. 2.82752118e-03 2.82752118e-03
      1.88501412e-03 9.42507060e-04 4.71253507e-03 4.71253507e-03 0.
      1.88501412e-03 9.42507060e-04 0. 1.88501412e-03 1.88501412e-03
      3.77002824e-03 0. 1.88501412e-03 2.82752118e-03 0. 9.42507060e-04
      0. 1.88501412e-03 2.82752118e-03 0. 9.42507060e-04 0. 0. 0.
      1.88501412e-03 9.42507060e-04 9.42507060e-04 2.82752118e-03 0.
      2.82752118e-03 1.88501412e-03 0. 9.42507060e-04 0. 1.88501412e-03
      9.42507060e-04 0. 0. 1.88501412e-03 0. 9.42507060e-04
      1.88501412e-03 0. 2.82752118e-03 9.42507060e-04 1.88501412e-03 0.
      1.88501412e-03 9.42507060e-04 0. 0. 3.77002824e-03 9.42507060e-04
      1.88501412e-03 0. 9.42507060e-04 4.71253507e-03 1.88501412e-03
      1.88501412e-03 1.88501412e-03 9.42507060e-04 0. 0. 9.42507060e-04
      0. 9.42507060e-04 0. 9.42507060e-04 9.42507060e-04 9.42507060e-04
      0. 9.42507060e-04 0. 9.42507060e-04 2.82752118e-03 2.82752118e-03
      0. 1.88501412e-03 2.82752118e-03 0. 0. 0. 0. 0. 2.82752118e-03
      2.82752118e-03 3.77002824e-03 0. 9.42507060e-04 0. 0. 0. 0. 0.
      1.88501412e-03 1.88501412e-03 0. 1.88501412e-03 1.88501412e-03
      9.42507060e-04 0. 0. 1.88501412e-03 1.88501412e-03 0.
      9.42507060e-04 9.42507060e-04 2.82752118e-03 3.77002824e-03
      9.42507060e-04 0. 1.88501412e-03 0. 0. 1.88501412e-03
      9.42507060e-04 0. 0. 2.82752118e-03 9.42507060e-04 0.
      9.42507060e-04 1.88501412e-03 9.42507060e-04 0. 1.88501412e-03
      4.71253507e-03 0. 0. 9.42507060e-04 0. 0. 3.77002824e-03 0. 0. 0.
      0. 0. 9.42507060e-04 0. 9.42507060e-04 1.88501412e-03
      1.88501412e-03 0. 2.82752118e-03 0. 5.65504236e-03 0. 0.
      9.42507060e-04 0. 9.42507060e-04 9.42507060e-04 9.42507060e-04 0.
      0. 0. 9.42507060e-04 1.88501412e-03 2.82752118e-03 0.
      9.42507060e-04 1.88501412e-03 2.82752118e-03 0. 2.82752118e-03 0.
      1.88501412e-03 0. 0. 0. 9.42507060e-04 0. 9.42507060e-04 0.
      1.88501412e-03 9.42507060e-04 9.42507060e-04 0. 0. 0.
      9.42507060e-04 2.82752118e-03 9.42507060e-04 9.42507060e-04 0. 0.
      1.88501412e-03 1.88501412e-03 3.77002824e-03 9.42507060e-04 0.
      9.42507060e-04 1.88501412e-03 0. 0. 4.71253507e-03 9.42507060e-04
      9.42507060e-04 1.88501412e-03 1.88501412e-03 1.88501412e-03
      9.42507060e-04 1.88501412e-03 1.88501412e-03 0. 9.42507060e-04
      9.42507060e-04 1.88501412e-03 1.88501412e-03 0. 9.42507060e-04 0.
      0. 0. 0. 0. 1.88501412e-03 0. 0. 0. 0. 0. 0. 1.88501412e-03
      9.42507060e-04 0. 0. 0. 9.42507060e-04 1.88501412e-03 0.
      9.42507060e-04 0. 9.42507060e-04 0. 3.77002824e-03 0.
      9.42507060e-04 0. 1.88501412e-03 2.82752118e-03 0. 0. 0. 0.
      9.42507060e-04 1.88501412e-03 0. 3.77002824e-03 0. 0. 0. 0.
      9.42507060e-04 5.65504236e-03 9.42507060e-04 9.42507060e-04
      2.82752118e-03 0. 1.88501412e-03 9.42507060e-04 1.88501412e-03
      3.77002824e-03 2.82752118e-03 3.77002824e-03 1.88501412e-03 0. 0.
      0. 1.88501412e-03 0. 0. 0. 0. 2.82752118e-03 0. 1.88501412e-03 0.
      9.42507060e-04 0. 1.88501412e-03 9.42507060e-04 9.42507060e-04
      9.42507060e-04 9.42507060e-04 9.42507060e-04 9.42507060e-04
      9.42507060e-04 9.42507060e-04 9.42507060e-04 0. 0. 3.77002824e-03
      2.82752118e-03 0. 1.88501412e-03 9.42507060e-04 9.42507060e-04
      1.88501412e-03 0. 0. 9.42507060e-04 0. 9.42507060e-04
      2.82752118e-03 0. 0. 5.65504236e-03 0. 2.82752118e-03
      1.88501412e-03 9.42507060e-04 1.88501412e-03 0. 9.42507060e-04
      1.88501412e-03 9.42507060e-04 0. 2.82752118e-03 0. 9.42507060e-04
      9.42507060e-04 1.88501412e-03 2.82752118e-03 0. 1.88501412e-03
      9.42507060e-04 1.88501412e-03 9.42507060e-04 9.42507060e-04
      9.42507060e-04 0. 1.88501412e-03 0. 0. 9.42507060e-04 0.
      1.88501412e-03 1.88501412e-03 1.88501412e-03 0. 0. 9.42507060e-04
      9.42507060e-04 0. 9.42507060e-04 9.42507060e-04 2.82752118e-03
      1.88501412e-03 0. 1.88501412e-03 2.82752118e-03 0. 9.42507060e-04
      9.42507060e-04 0. 9.42507060e-04 9.42507060e-04 1.88501412e-03 0.
      9.42507060e-04 9.42507060e-04 0. 0. 9.42507060e-04 0.
      1.88501412e-03 0. 9.42507060e-04 0. 0. 9.42507060e-04 0.
      9.42507060e-04 9.42507060e-04 9.42507060e-04 9.42507060e-04
      1.88501412e-03 9.42507060e-04 1.88501412e-03 2.82752118e-03
      9.42507060e-04 0. 0. 3.77002824e-03 0. 0. 9.42507060e-04
      9.42507060e-04 2.82752118e-03 0. 0. 0. 0. 9.42507060e-04
      9.42507060e-04 9.42507060e-04 1.88501412e-03 2.82752118e-03
      9.42507060e-04 1.88501412e-03 4.71253507e-03 0. 0. 0. 0.
      9.42507060e-04 1.88501412e-03 0. 1.88501412e-03 0. 0. 0.
      1.88501412e-03 9.42507060e-04 9.42507060e-04 1.88501412e-03
      9.42507060e-04 0. 0. 9.42507060e-04 0. 0. 0. 0. 0. 0. 0. 0. 0. 0.
      0. 0. 2.82752118e-03 0. 0. 1.88501412e-03 0. 1.88501412e-03 0.
      9.42507060e-04 9.42507060e-04 9.42507060e-04 9.42507060e-04 0. 0.
      0. 0. 0. 1.88501412e-03 1.88501412e-03 9.42507060e-04
      9.42507060e-04 0. 1.88501412e-03 9.42507060e-04 3.77002824e-03
      2.82752118e-03 1.88501412e-03 0. 0. 9.42507060e-04 1.88501412e-03
      1.88501412e-03 0. 4.71253507e-03 9.42507060e-04 1.88501412e-03 0.
      9.42507060e-04 0. 9.42507060e-04 9.42507060e-04 9.42507060e-04
      2.82752118e-03 0. 0. 0. 0. 0. 0. 9.42507060e-04 2.82752118e-03 0.
      0. 0. 0. 0. 2.82752118e-03 1.88501412e-03 0. 2.82752118e-03
      1.88501412e-03 9.42507060e-04 9.42507060e-04 0. 0. 9.42507060e-04
      9.42507060e-04 1.88501412e-03 0. 0. 0. 9.42507060e-04 0.
      1.88501412e-03 9.42507060e-04 9.42507060e-04 9.42507060e-04
      1.88501412e-03 9.42507060e-04 4.71253507e-03 2.82752118e-03
      9.42507060e-04 9.42507060e-04 0. 1.88501412e-03 9.42507060e-04
      9.42507060e-04 1.88501412e-03 3.77002824e-03 9.42507060e-04
      9.42507060e-04 0. 2.82752118e-03 0. 1.88501412e-03 0. 0. 0. 0.
      9.42507060e-04 0. 0. 0. 1.88501412e-03 0. 0. 0. 9.42507060e-04
      2.82752118e-03 0. 9.42507060e-04 0. 9.42507060e-04 0.
      1.88501412e-03 0. 9.42507060e-04 9.42507060e-04 0. 9.42507060e-04
      0. 1.88501412e-03 0. 0. 0. 1.88501412e-03 9.42507060e-04
      9.42507060e-04 9.42507060e-04 0. 2.82752118e-03 9.42507060e-04
      9.42507060e-04 0. 0. 9.42507060e-04 3.77002824e-03 0. 0. 0. 0.
      9.42507060e-04 9.42507060e-04 0. 9.42507060e-04 1.88501412e-03
      9.42507060e-04 1.88501412e-03 0. 2.82752118e-03 0. 2.82752118e-03
      0. 1.88501412e-03 9.42507060e-04 9.42507060e-04 2.82752118e-03 0.
      9.42507060e-04 0. 1.88501412e-03 9.42507060e-04 9.42507060e-04 0.
      0. 0. 0. 0. 9.42507060e-04 9.42507060e-04 3.77002824e-03
      9.42507060e-04 0. 1.88501412e-03 7.54005648e-03 3.77002824e-03 0.
      9.42507060e-04 1.88501412e-03 0. 1.88501412e-03 2.82752118e-03 0.
      0. 0. 0. 9.42507060e-04 1.88501412e-03 0. 1.88501412e-03 0.
      1.88501412e-03 0. 1.88501412e-03 2.82752118e-03 4.71253507e-03
      1.88501412e-03</_>
    <_>
      0. 0. 1.08225108e-03 0. 0. 1.08225108e-03 5.41125517e-03
      9.74025950e-03 0. 1.08225108e-03 1.08225108e-03 0. 1.08225108e-03
      4.32900432e-03 2.16450216e-03 2.16450216e-03 0. 0. 1.08225108e-03
      3.24675324e-03 0. 1.08225108e-03 0. 1.08225103e-02 0. 0.
      1.08225108e-03 1.08225108e-03 0. 1.08225108e-03 1.08225108e-03 0.
      2.16450216e-03 0. 0. 1.08225108e-03 0. 0. 0. 1.08225108e-03
      1.08225108e-03 0. 0. 0. 0. 0. 0. 2.16450216e-03 0. 0. 0.
      1.08225108e-03 4.32900432e-03 0. 3.24675324e-03 0. 0.
      3.24675324e-03 1.08225108e-03 0. 1.08225108e-03 0. 0. 0. 0.
      4.32900432e-03 1.08225108e-03 2.16450216e-03 0. 0. 0.
      1.08225108e-03 2.16450216e-03 0. 0. 1.08225108e-03 5.41125517e-03
      2.16450216e-03 0. 0. 0. 0. 1.08225108e-03 0. 2.16450216e-03
      2.16450216e-03 1.08225108e-03 0. 0. 1.08225108e-03 0. 0.
      3.24675324e-03 0. 0. 2.16450216e-03 0. 0. 0. 0. 0. 0. 0. 0. 0. 0.
      1.08225108e-03 4.32900432e-03 5.41125517e-03 1.08225108e-03
      5.41125517e-03 1.08225108e-03 0. 0. 1.08225108e-03 0.
      2.16450216e-03 0. 3.24675324e-03 1.08225108e-03 0. 0. 0. 0. 0.
      1.08225108e-03 0. 0. 1.08225108e-03 2.16450216e-03 0.
      1.08225108e-03 3.24675324e-03 0. 0. 6.49350649e-03 1.08225108e-03
      2.16450216e-03 0. 0. 0. 0. 2.16450216e-03 0. 2.16450216e-03 0.
      2.16450216e-03 1.08225108e-03 0. 1.08225108e-03 2.16450216e-03
      2.16450216e-03 2.16450216e-03 0. 0. 0. 0. 1.08225108e-03 0.
      3.24675324e-03 1.08225108e-03 0. 0. 1.08225108e-03 2.16450216e-03
      7.57575780e-03 0. 0. 1.08225108e-03 0. 0. 1.08225108e-03
      6.49350649e-03 0. 0. 2.16450216e-03 0. 0. 0. 4.32900432e-03 0.
      1.08225108e-03 0. 1.08225108e-03 1.08225108e-03 0. 3.24675324e-03
      0. 3.24675324e-03 1.08225108e-03 1.08225108e-03 2.16450216e-03 0.
      0. 0. 1.08225108e-03 0. 0. 4.32900432e-03 4.32900432e-03
      1.08225108e-03 0. 1.08225108e-03 0. 0. 0. 0. 1.08225108e-03 0.
      1.08225108e-03 5.41125517e-03 4.32900432e-03 1.08225108e-03
      2.16450216e-03 1.08225108e-03 1.08225108e-03 1.08225108e-03
      1.08225108e-03 0. 3.24675324e-03 0. 1.08225108e-03 0.
      1.08225108e-03 0. 1.08225108e-03 1.08225108e-03 1.08225108e-03 0.
      1.08225108e-03 6.49350649e-03 1.08225108e-03 1.08225108e-03 0.
      1.08225108e-03 0. 0. 0. 1.08225108e-03 1.08225108e-03 0. 0.
      3.24675324e-03 0. 0. 2.16450216e-03 2.16450216e-03 1.08225108e-03
      0. 0. 0. 1.08225108e-03 0. 0. 1.08225108e-03 0. 0. 0.
      1.08225108e-03 0. 2.16450216e-03 0. 0. 0. 0. 0. 1.08225108e-03 0.
      2.16450216e-03 2.16450216e-03 0. 0. 1.08225108e-03 2.16450216e-03
      2.16450216e-03 0. 0. 0. 0. 1.08225108e-03 0. 1.08225108e-03 0. 0.
      0. 1.08225108e-03 0. 0. 2.16450216e-03 0. 0. 0. 1.08225108e-03 0.
      5.41125517e-03 1.08225108e-03 0. 1.08225108e-03 4.32900432e-03
      1.08225108e-03 2.16450216e-03 0. 2.16450216e-03 0. 1.08225108e-03
      2.16450216e-03 6.49350649e-03 0. 1.08225108e-03 1.08225108e-03
      2.16450216e-03 9.74025950e-03 0. 1.08225108e-03 0. 3.24675324e-03
      0. 2.16450216e-03 0. 0. 0. 0. 0. 2.16450216e-03 1.08225108e-03
      2.16450216e-03 1.08225108e-03 0. 1.08225108e-03 1.08225108e-03
      1.08225108e-03 1.08225108e-03 0. 0. 0. 1.08225108e-03
      1.08225108e-03 0. 3.24675324e-03 0. 1.08225108e-03 0.
      1.08225108e-03 0. 1.08225108e-03 0. 0. 1.08225108e-03
      1.08225108e-03 1.08225108e-03 1.08225108e-03 0. 0. 0.
      2.16450216e-03 0. 2.16450216e-03 0. 1.08225108e-03 0.
      2.16450216e-03 0. 1.08225108e-03 0. 0. 4.32900432e-03 0. 0.
      1.08225108e-03 1.08225108e-03 1.08225108e-03 0. 3.24675324e-03 0.
      0. 2.16450216e-03 0. 1.08225108e-03 0. 0. 0. 0. 0. 0.
      3.24675324e-03 1.08225108e-03 1.08225108e-03 1.08225108e-03 0.
      1.08225108e-03 1.08225108e-03 0. 4.32900432e-03 1.08225108e-03
      3.24675324e-03 0. 3.24675324e-03 0. 0. 0. 4.32900432e-03 0. 0.
      1.08225108e-03 1.08225108e-03 1.08225108e-03 0. 0. 1.08225108e-03
      0. 0. 0. 2.16450216e-03 0. 3.24675324e-03 1.08225108e-03
      1.08225108e-03 0. 5.41125517e-03 2.16450216e-03 0. 0. 0. 0.
      1.08225108e-03 1.08225108e-03 0. 2.16450216e-03 0. 0. 0.
      1.08225108e-03 2.16450216e-03 1.08225108e-03 2.16450216e-03 0.
      2.16450216e-03 5.41125517e-03 1.08225108e-03 0. 0. 0.
      3.24675324e-03 0. 3.24675324e-03 1.08225108e-03 2.16450216e-03
      1.08225108e-03 0. 1.08225108e-03 1.08225108e-03 1.08225108e-03
      1.08225108e-03 0. 0. 3.24675324e-03 0. 0. 6.49350649e-03 0. 0. 0.
      0. 0. 3.24675324e-03 0. 0. 2.16450216e-03 1.08225108e-03
      3.24675324e-03 2.16450216e-03 0. 2.16450216e-03 3.24675324e-03 0.
      0. 1.08225108e-03 0. 0. 0. 0. 0. 0. 0. 1.08225108e-03 0. 0. 0.
      1.08225108e-03 0. 0. 1.08225108e-03 0. 1.08225108e-03
      2.16450216e-03 0. 0. 1.08225108e-03 0. 0. 0. 0. 0. 1.08225108e-03
      1.08225108e-03 1.08225108e-03 1.08225108e-03 0. 0. 0.
      4.32900432e-03 1.08225108e-03 0. 1.08225108e-03 2.16450216e-03 0.
      0. 1.08225108e-03 0. 0. 0. 0. 0. 1.08225108e-03 0. 0.
      1.08225108e-03 0. 0. 1.08225108e-03 0. 0. 0. 0. 0. 0.
      1.08225108e-03 1.08225108e-03 4.32900432e-03 1.08225108e-03
      2.16450216e-03 0. 0. 1.08225108e-03 1.08225108e-03 2.16450216e-03
      0. 1.08225108e-03 0. 2.16450216e-03 1.08225108e-03 1.08225108e-03
      3.24675324e-03 2.16450216e-03 0. 1.08225108e-03 5.41125517e-03 0.
      0. 0. 0. 3.24675324e-03 0. 3.24675324e-03 0. 0. 0. 0. 0.
      3.24675324e-03 0. 2.16450216e-03 1.08225108e-03 3.24675324e-03 0.
      2.16450216e-03 0. 2.16450216e-03 0. 0. 1.08225108e-03
      4.32900432e-03 1.08225108e-03 3.24675324e-03 0. 0. 1.08225108e-03
      2.16450216e-03 0. 1.08225108e-03 0. 0. 0. 2.16450216e-03 0.
      1.08225108e-03 0. 1.08225108e-03 5.41125517e-03 0. 1.08225108e-03
      0. 0. 1.08225108e-03 1.08225108e-03 0. 0. 0. 0. 0. 0. 0. 0.
      2.16450216e-03 0. 1.08225108e-03 1.08225108e-03 0. 1.08225108e-03
      1.08225108e-03 0. 3.24675324e-03 1.08225108e-03 1.08225108e-03 0.
      1.08225108e-03 1.08225108e-03 0. 1.08225108e-03 0. 6.49350649e-03
      3.24675324e-03 1.08225108e-03 0. 0. 0. 8.65800865e-03 0.
      1.08225108e-03 1.08225108e-03 1.08225108e-03 4.32900432e-03
      1.08225108e-03 5.41125517e-03 0. 0. 1.08225108e-03 1.08225108e-03
      1.08225108e-03 1.08225108e-03 0. 0. 0. 1.08225108e-03 0.
      2.16450216e-03 0. 0. 0. 1.08225108e-03 1.08225108e-03
      2.16450216e-03 2.16450216e-03 0. 2.16450216e-03 0. 0.
      4.32900432e-03 1.08225108e-03 1.08225108e-03 2.16450216e-03
      5.41125517e-03 0. 1.08225108e-03 0. 1.08225108e-03 0.
      3.24675324e-03 0. 0. 0. 2.16450216e-03 2.16450216e-03
      2.16450216e-03 2.16450216e-03 0. 2.16450216e-03 0. 1.08225108e-03
      0. 2.16450216e-03 0. 0. 2.16450216e-03 0. 0. 0. 0. 0. 0. 0. 0. 0.
      0. 0. 3.24675324e-03 0. 1.08225108e-03 1.08225108e-03 0. 0. 0. 0.
      0. 0. 2.16450216e-03 1.08225108e-03 0. 0. 0. 3.24675324e-03 0. 0.
      0. 0. 1.08225108e-03 2.16450216e-03 1.08225108e-03 0.
      3.24675324e-03 2.16450216e-03 0. 5.41125517e-03 1.08225108e-03 0.
      1.08225108e-03 3.24675324e-03 0. 0. 5.41125517e-03 0. 0. 0. 0. 0.
      4.32900432e-03 0. 0. 0. 1.08225108e-03 0. 1.08225108e-03
      2.16450216e-03 0. 0. 1.08225108e-03 2.16450216e-03 1.08225108e-03
      1.08225108e-03 0. 1.08225108e-03 0. 0. 2.16450216e-03 0.
      2.16450216e-03 0. 0. 0. 5.41125517e-03 0. 0. 0. 0. 0. 0.
      3.24675324e-03 1.08225108e-03 0. 0. 0. 0. 0. 0. 2.16450216e-03
      1.08225108e-03 0. 4.32900432e-03 6.49350649e-03 2.16450216e-03
      1.08225108e-03 0. 0. 2.16450216e-03 0. 1.08225108e-03
      2.16450216e-03 0. 0. 0. 0. 1.08225108e-03 0. 0. 2.16450216e-03
      2.16450216e-03 2.16450216e-03 0. 3.24675324e-03 0. 0. 0. 0.
      1.08225108e-03 0. 1.08225108e-03 0. 0. 0. 1.08225108e-03 0. 0. 0.
      0. 2.16450216e-03 0. 2.16450216e-03 1.08225108e-03 0. 0. 0. 0.
      1.08225108e-03 1.08225108e-03 2.16450216e-03 0. 2.16450216e-03 0.
      1.08225108e-03 4.32900432e-03 2.16450216e-03 2.16450216e-03 0. 0.
      6.49350649e-03 0. 1.08225108e-03 1.08225108e-03 2.16450216e-03
      2.16450216e-03 1.08225108e-03 1.08225108e-03 0. 0. 0. 0.
      2.16450216e-03 1.08225108e-03 1.08225108e-03 1.08225108e-03
      4.32900432e-03 1.08225108e-03 0. 1.08225108e-03 2.16450216e-03 0.
      5.41125517e-03 0. 5.41125517e-03 0. 1.08225108e-03 0. 0.
      5.41125517e-03 2.16450216e-03 1.08225108e-03 2.16450216e-03 0.
      1.08225108e-03 0. 1.08225108e-03 2.16450216e-03 9.74025950e-03 0.
      1.08225108e-03 1.08225108e-03 0. 1.08225108e-03 1.08225108e-03 0.
      3.24675324e-03 0. 0. 0. 1.08225108e-03 0. 0. 0. 0. 0. 0. 0. 0. 0.
      3.24675324e-03 0. 1.08225108e-03 0. 0. 2.16450216e-03 0. 0.
      3.24675324e-03 0. 3.24675324e-03 0. 3.24675324e-03 0.
      2.16450216e-03 1.08225108e-03 2.16450216e-03 0. 2.16450216e-03
      1.08225108e-03 0. 0. 0. 1.08225108e-03 0. 0. 2.16450216e-03 0.
      1.08225108e-03 1.08225108e-03 0. 0. 0. 0. 0. 1.08225108e-03
      5.41125517e-03 0. 3.24675324e-03 3.24675324e-03 0. 0.
      1.08225108e-03 3.24675324e-03 0. 0. 0. 4.32900432e-03
      7.57575780e-03 0. 0. 1.08225108e-03 0. 2.16450216e-03 0. 0.
      1.08225108e-03 0. 0. 3.24675324e-03 2.16450216e-03 1.08225108e-03
      0. 0. 1.08225108e-03 2.16450216e-03 1.08225108e-03 1.08225108e-03
      2.16450216e-03 0. 0. 1.08225108e-03 1.08225108e-03 0.
      1.08225108e-03 0. 2.16450216e-03 1.08225108e-03 1.08225108e-03 0.
      1.08225108e-03 1.08225108e-03 3.24675324e-03 0. 1.08225108e-03
      2.16450216e-03 0. 1.08225108e-03 1.08225108e-03 0. 1.08225108e-03
      0. 1.08225108e-03 0. 2.16450216e-03 0.</_>
    <_>
      0. 1.68067229e-03 0. 3.36134457e-03 1.68067229e-03 0.
      1.68067229e-03 1.68067229e-03 0. 1.68067229e-03 0. 0. 0. 0. 0. 0.
      0. 0. 1.68067229e-03 0. 1.68067229e-03 0. 6.72268914e-03
      1.68067229e-03 0. 0. 0. 0. 1.68067229e-03 0. 0. 1.68067229e-03 0.
      0. 0. 0. 0. 0. 1.68067229e-03 0. 1.68067229e-03 0. 0. 0.
      5.04201697e-03 1.68067229e-03 3.36134457e-03 1.68067229e-03 0.
      6.72268914e-03 0. 3.36134457e-03 0. 0. 1.68067229e-03
      3.36134457e-03 0. 1.68067229e-03 0. 0. 1.68067229e-03 0. 0. 0.
      1.68067229e-03 1.68067229e-03 1.68067229e-03 1.17647061e-02 0.
      5.04201697e-03 0. 0. 0. 0. 0. 0. 0. 0. 0. 3.36134457e-03 0.
      1.68067229e-03 0. 0. 0. 1.68067229e-03 0. 0. 1.68067229e-03 0.
      1.68067229e-03 0. 0. 0. 0. 0. 1.68067229e-03 1.68067229e-03 0. 0.
      0. 1.68067229e-03 1.68067229e-03 0. 0. 0. 0. 6.72268914e-03 0.
      1.68067229e-03 0. 0. 0. 1.68067229e-03 0. 5.04201697e-03
      1.68067229e-03 0. 1.68067229e-03 0. 0. 1.68067229e-03
      1.68067229e-03 0. 0. 0. 0. 0. 1.68067229e-03 0. 0. 0. 0.
      1.68067229e-03 1.68067229e-03 0. 0. 1.68067229e-03 0.
      3.36134457e-03 0. 0. 0. 0. 1.68067229e-03 0. 1.68067229e-03 0. 0.
      0. 1.68067229e-03 0. 1.68067229e-03 0. 5.04201697e-03 0. 0. 0. 0.
      0. 0. 0. 0. 1.68067229e-03 0. 0. 0. 0. 0. 0. 0. 0. 0.
      1.68067229e-03 0. 0. 0. 0. 0. 0. 0. 1.68067229e-03 0. 0.
      1.68067229e-03 0. 0. 1.68067229e-03 3.36134457e-03 0.
      1.68067229e-03 1.68067229e-03 3.36134457e-03 3.36134457e-03
      1.68067229e-03 0. 0. 1.68067229e-03 3.36134457e-03 0. 0. 0. 0. 0.
      0. 5.04201697e-03 1.68067229e-03 1.68067229e-03 1.68067229e-03 0.
      0. 0. 0. 0. 0. 0. 1.68067229e-03 0. 1.68067229e-03 0. 0. 0.
      1.68067229e-03 0. 1.68067229e-03 0. 0. 0. 0. 0. 0. 0.
      1.68067229e-03 0. 1.68067229e-03 0. 0. 0. 0. 1.68067229e-03
      1.68067229e-03 1.68067229e-03 1.68067229e-03 1.68067229e-03 0. 0.
      0. 0. 3.36134457e-03 0. 1.68067229e-03 1.68067229e-03 0. 0. 0. 0.
      0. 0. 0. 3.36134457e-03 0. 0. 3.36134457e-03 1.68067229e-03 0.
      3.36134457e-03 0. 0. 0. 3.36134457e-03 0. 0. 0. 0. 0. 0. 0. 0. 0.
      0. 0. 3.36134457e-03 0. 1.68067229e-03 0. 0. 0. 0. 3.36134457e-03
      1.68067229e-03 0. 0. 0. 0. 1.68067229e-03 0. 0. 1.68067229e-03 0.
      1.68067229e-03 0. 0. 0. 0. 1.68067229e-03 0. 1.68067229e-03 0. 0.
      0. 1.68067229e-03 0. 0. 0. 1.68067229e-03 0. 1.68067229e-03
      1.68067229e-03 0. 0. 1.68067229e-03 0. 0. 0. 1.68067229e-03 0. 0.
      1.68067229e-03 0. 0. 0. 0. 0. 1.68067229e-03 1.68067229e-03 0. 0.
      1.68067229e-03 1.68067229e-03 0. 0. 0. 0. 1.68067229e-03 0.
      1.68067229e-03 3.36134457e-03 1.68067229e-03 3.36134457e-03 0. 0.
      0. 1.68067229e-03 1.68067229e-03 0. 0. 0. 0. 0. 0. 1.68067229e-03
      1.68067229e-03 0. 0. 1.68067229e-03 0. 5.04201697e-03 0.
      1.68067229e-03 0. 1.68067229e-03 0. 1.68067229e-03 3.36134457e-03
      1.68067229e-03 0. 3.36134457e-03 1.68067229e-03 1.68067229e-03
      3.36134457e-03 5.04201697e-03 0. 1.68067229e-03 0. 0.
      5.04201697e-03 0. 1.68067229e-03 1.68067229e-03 0. 0.
      1.68067229e-03 0. 0. 0. 0. 3.36134457e-03 0. 0. 1.68067229e-03
      1.68067229e-03 0. 1.68067229e-03 0. 3.36134457e-03 0.
      1.68067229e-03 1.68067229e-03 0. 0. 0. 1.68067229e-03 0.
      1.68067229e-03 1.68067229e-03 1.68067229e-03 1.68067229e-03
      1.68067229e-03 1.68067229e-03 0. 1.68067229e-03 0. 0. 0. 0. 0.
      6.72268914e-03 3.36134457e-03 0. 3.36134457e-03 0. 1.68067229e-03
      0. 1.68067229e-03 0. 1.68067229e-03 1.68067229e-03 3.36134457e-03
      1.68067229e-03 1.68067229e-03 0. 3.36134457e-03 0. 0.
      1.68067229e-03 0. 0. 0. 0. 0. 0. 0. 3.36134457e-03 0.
      6.72268914e-03 0. 3.36134457e-03 0. 0. 1.68067229e-03 0. 0. 0. 0.
      3.36134457e-03 3.36134457e-03 1.68067229e-03 0. 0. 0.
      1.68067229e-03 1.68067229e-03 1.68067229e-03 1.68067229e-03 0. 0.
      0. 0. 1.68067229e-03 1.68067229e-03 1.68067229e-03 3.36134457e-03
      0. 5.04201697e-03 0. 0. 0. 0. 1.68067229e-03 1.68067229e-03 0. 0.
      1.68067229e-03 1.68067229e-03 1.68067229e-03 3.36134457e-03
      1.68067229e-03 0. 0. 0. 1.68067229e-03 0. 1.68067229e-03
      3.36134457e-03 3.36134457e-03 0. 1.68067229e-03 0. 0. 0. 0. 0. 0.
      0. 0. 0. 1.68067229e-03 1.68067229e-03 1.68067229e-03
      1.68067229e-03 0. 1.68067229e-03 1.68067229e-03 0. 0.
      1.68067229e-03 1.68067229e-03 1.68067229e-03 0. 6.72268914e-03 0.
      1.68067229e-03 3.36134457e-03 1.68067229e-03 0. 0. 1.68067229e-03
      0. 0. 1.68067229e-03 0. 5.04201697e-03 1.68067229e-03 0.
      1.68067229e-03 1.68067229e-03 5.04201697e-03 0. 0. 3.36134457e-03
      3.36134457e-03 0. 6.72268914e-03 1.68067229e-03 5.04201697e-03
      1.68067229e-03 0. 0. 1.68067229e-03 1.68067229e-03 0. 0. 0.
      3.36134457e-03 1.68067229e-03 0. 3.36134457e-03 0. 0.
      1.68067229e-03 0. 0. 5.04201697e-03 0. 1.68067229e-03
      1.68067229e-03 3.36134457e-03 5.04201697e-03 6.72268914e-03
      1.68067229e-03 0. 0. 1.68067229e-03 0. 1.68067229e-03
      1.68067229e-03 1.68067229e-03 0. 0. 0. 1.68067229e-03 0. 0. 0.
      3.36134457e-03 0. 0. 1.68067229e-03 0. 0. 0. 0. 0. 0. 0. 0.
      1.68067229e-03 1.68067229e-03 1.68067229e-03 3.36134457e-03 0.
      3.36134457e-03 0. 0. 0. 1.68067229e-03 3.36134457e-03
      1.68067229e-03 0. 0. 1.68067229e-03 1.68067229e-03 0.
      1.68067229e-03 0. 0. 0. 3.36134457e-03 1.68067229e-03 0.
      3.36134457e-03 1.68067229e-03 1.68067229e-03 0. 1.68067229e-03 0.
      0. 1.68067229e-03 1.68067229e-03 0. 1.68067229e-03 0. 0. 0. 0.
      1.68067229e-03 1.68067229e-03 0. 0. 0. 0. 1.68067229e-03
      1.68067229e-03 3.36134457e-03 5.04201697e-03 1.68067229e-03 0. 0.
      0. 0. 3.36134457e-03 0. 0. 0. 3.36134457e-03 0. 1.68067229e-03
      1.68067229e-03 1.68067229e-03 0. 1.68067229e-03 3.36134457e-03 0.
      3.36134457e-03 1.68067229e-03 3.36134457e-03 1.68067229e-03
      1.68067229e-03 1.68067229e-03 1.68067229e-03 3.36134457e-03
      1.68067229e-03 0. 1.68067229e-03 1.68067229e-03 1.68067229e-03
      1.68067229e-03 6.72268914e-03 0. 0. 0. 0. 0. 0. 1.68067229e-03
      3.36134457e-03 0. 0. 0. 1.68067229e-03 1.68067229e-03 0.
      1.68067229e-03 0. 0. 0. 1.68067229e-03 0. 1.68067229e-03
      8.40336177e-03 0. 1.68067229e-03 0. 5.04201697e-03 0. 0. 0.
      1.68067229e-03 3.36134457e-03 1.68067229e-03 0. 3.36134457e-03 0.
      0. 0. 0. 3.36134457e-03 5.04201697e-03 3.36134457e-03
      1.68067229e-03 3.36134457e-03 5.04201697e-03 0. 0. 0.
      3.36134457e-03 0. 0. 0. 0. 0. 0. 1.68067229e-03 0. 0. 0. 0.
      1.68067229e-03 0. 1.68067229e-03 3.36134457e-03 5.04201697e-03
      1.68067229e-03 0. 0. 0. 1.68067229e-03 3.36134457e-03
      1.68067229e-03 0. 1.68067229e-03 5.04201697e-03 0. 0. 0. 0. 0. 0.
      1.68067229e-03 0. 3.36134457e-03 0. 0. 1.68067229e-03 0. 0. 0.
      3.36134457e-03 1.68067229e-03 0. 1.68067229e-03 0. 0. 0. 0. 0. 0.
      1.68067229e-03 0. 1.68067229e-03 1.68067229e-03 3.36134457e-03 0.
      0. 0. 0. 3.36134457e-03 1.68067229e-03 0. 1.68067229e-03 0.
      3.36134457e-03 3.36134457e-03 1.68067229e-03 1.68067229e-03
      3.36134457e-03 0. 0. 0. 0. 1.68067229e-03 3.36134457e-03
      1.68067229e-03 1.68067229e-03 0. 0. 1.68067229e-03 0. 0. 0.
      1.68067229e-03 0. 1.68067229e-03 3.36134457e-03 0. 0. 0.
      1.68067229e-03 0. 1.68067229e-03 0. 0. 1.68067229e-03 0. 0.
      1.68067229e-03 3.36134457e-03 0. 0. 3.36134457e-03 0.
      1.68067229e-03 0. 1.68067229e-03 0. 0. 0. 3.36134457e-03
      1.68067229e-03 0. 1.68067229e-03 3.36134457e-03 0. 1.68067229e-03
      0. 1.68067229e-03 1.68067229e-03 1.68067229e-03 1.68067229e-03
      1.68067229e-03 0. 0. 0. 0. 0. 1.68067229e-03 1.68067229e-03
      1.68067229e-03 0. 0. 0. 8.40336177e-03 1.68067229e-03 0.
      1.68067229e-03 0. 3.36134457e-03 0. 0. 0. 1.68067229e-03 0. 0.
      3.36134457e-03 0. 1.68067229e-03 0. 1.68067229e-03 0.
      3.36134457e-03 0. 1.68067229e-03 1.68067229e-03 0. 0. 0. 0. 0. 0.
      0. 0. 0. 3.36134457e-03 3.36134457e-03 0. 0. 0. 0. 0.
      1.68067229e-03 0. 0. 0. 0. 0. 6.72268914e-03 1.68067229e-03 0. 0.
      0. 0. 0. 0. 0. 0. 0. 3.36134457e-03 0. 1.68067229e-03
      6.72268914e-03 0. 0. 3.36134457e-03 0. 1.68067229e-03 0.
      1.68067229e-03 1.68067229e-03 0. 1.68067229e-03 0. 0. 0.
      1.68067229e-03 0. 0. 1.68067229e-03 1.68067229e-03 0.
      1.68067229e-03 0. 0. 0. 1.68067229e-03 0. 0. 0. 0. 0.
      5.04201697e-03 0. 0. 0. 0. 1.68067229e-03 3.36134457e-03 0. 0. 0.
      1.68067229e-03 0. 5.04201697e-03 1.68067229e-03 0. 0. 0.
      3.36134457e-03 1.68067229e-03 3.36134457e-03 1.68067229e-03
      1.68067229e-03 1.68067229e-03 1.68067229e-03 0. 0. 0.
      1.68067229e-03 1.68067229e-03 0. 0. 1.68067229e-03 1.68067229e-03
      0. 0. 0. 1.68067229e-03 0. 1.68067229e-03 3.36134457e-03
      1.68067229e-03</_>
    <_>
      1.59235671e-03 0. 3.18471342e-03 7.96178356e-03 0. 0. 0.
      3.18471342e-03 4.77707013e-03 1.59235671e-03 0. 0. 0. 0. 0. 0. 0.
      0. 1.59235671e-03 1.59235671e-03 3.18471342e-03 0. 0. 0. 0. 0. 0.
      0. 0. 1.59235671e-03 4.77707013e-03 0. 1.59235671e-03
      1.59235671e-03 4.77707013e-03 0. 0. 0. 1.59235671e-03 0. 0. 0.
      6.36942685e-03 1.59235671e-03 0. 0. 1.59235671e-03 0. 0. 0. 0. 0.
      3.18471342e-03 1.59235671e-03 0. 0. 0. 1.59235671e-03
      1.59235671e-03 1.59235671e-03 3.18471342e-03 1.59235671e-03 0. 0.
      3.18471342e-03 0. 0. 1.59235671e-03 3.18471342e-03 1.59235671e-03
      3.18471342e-03 0. 0. 0. 1.59235671e-03 0. 1.59235671e-03
      3.18471342e-03 0. 0. 0. 0. 0. 1.59235671e-03 6.36942685e-03
      1.59235671e-03 0. 3.18471342e-03 0. 0. 7.96178356e-03
      1.59235671e-03 0. 1.59235671e-03 0. 0. 4.77707013e-03
      1.59235671e-03 1.59235671e-03 0. 1.59235671e-03 1.59235671e-03
      1.59235671e-03 1.59235671e-03 0. 1.59235671e-03 1.59235671e-03 0.
      1.59235671e-03 1.59235671e-03 6.36942685e-03 1.59235671e-03
      3.18471342e-03 0. 7.96178356e-03 0. 0. 0. 0. 0. 0. 0. 0.
      4.77707013e-03 0. 0. 1.59235671e-03 0. 0. 3.18471342e-03
      1.59235671e-03 0. 0. 0. 1.59235671e-03 3.18471342e-03 0. 0.
      1.59235671e-03 0. 0. 1.43312104e-02 0. 0. 0. 0. 1.59235671e-03
      3.18471342e-03 0. 0. 0. 1.59235671e-03 1.59235671e-03 0. 0. 0. 0.
      1.59235671e-03 0. 1.59235671e-03 0. 0. 0. 0. 1.59235671e-03
      1.59235671e-03 0. 1.59235671e-03 0. 0. 1.59235671e-03 0.
      1.59235671e-03 0. 0. 1.59235671e-03 0. 0. 0. 1.59235671e-03 0. 0.
      1.59235671e-03 1.59235671e-03 1.59235671e-03 0. 0. 1.59235671e-03
      3.18471342e-03 1.59235671e-03 6.36942685e-03 0. 0. 3.18471342e-03
      0. 0. 3.18471342e-03 4.77707013e-03 1.59235671e-03 1.59235671e-03
      4.77707013e-03 6.36942685e-03 0. 0. 1.59235671e-03 0. 0. 0.
      1.59235671e-03 0. 6.36942685e-03 0. 0. 0. 0. 3.18471342e-03
      1.59235671e-03 1.59235671e-03 0. 0. 0. 0. 0. 9.55414027e-03
      1.59235671e-03 3.18471342e-03 1.59235671e-03 3.18471342e-03 0.
      1.59235671e-03 1.59235671e-03 4.77707013e-03 1.59235671e-03 0.
      1.59235671e-03 0. 3.18471342e-03 3.18471342e-03 0. 0. 0. 0.
      1.59235671e-03 1.59235671e-03 0. 0. 1.59235671e-03 1.59235671e-03
      0. 0. 0. 0. 0. 0. 0. 0. 0. 7.96178356e-03 0. 0. 3.18471342e-03 0.
      0. 0. 3.18471342e-03 0. 1.59235671e-03 3.18471342e-03 0.
      4.77707013e-03 1.59235671e-03 0. 0. 0. 1.59235671e-03 0.
      4.77707013e-03 0. 0. 0. 3.18471342e-03 1.59235671e-03 0.
      1.59235671e-03 0. 4.77707013e-03 0. 0. 1.59235671e-03 0. 0. 0. 0.
      0. 0. 0. 1.59235671e-03 0. 1.59235671e-03 0. 1.59235671e-03 0.
      1.59235671e-03 0. 0. 0. 0. 1.59235671e-03 1.59235671e-03 0. 0. 0.
      0. 0. 0. 1.59235671e-03 0. 0. 3.18471342e-03 3.18471342e-03
      1.59235671e-03 0. 1.59235671e-03 1.59235671e-03 3.18471342e-03 0.
      0. 0. 0. 0. 0. 0. 0. 0. 1.59235671e-03 1.59235671e-03 0.
      1.59235671e-03 1.59235671e-03 1.59235671e-03 0. 1.59235671e-03
      1.59235671e-03 0. 0. 0. 0. 0. 3.18471342e-03 0. 0. 3.18471342e-03
      0. 1.59235671e-03 0. 0. 0. 0. 0. 0. 0. 0. 1.59235671e-03 0. 0.
      1.59235671e-03 0. 1.59235671e-03 9.55414027e-03 0. 0. 0. 0. 0.
      1.59235671e-03 3.18471342e-03 0. 3.18471342e-03 1.59235671e-03 0.
      1.59235671e-03 7.96178356e-03 1.59235671e-03 3.18471342e-03 0. 0.
      3.18471342e-03 0. 0. 0. 0. 0. 1.59235671e-03 1.59235671e-03 0. 0.
      6.36942685e-03 0. 3.18471342e-03 0. 0. 1.59235671e-03 0.
      1.59235671e-03 1.59235671e-03 1.59235671e-03 1.59235671e-03
      4.77707013e-03 0. 1.59235671e-03 0. 0. 0. 0. 0. 0. 0. 0.
      3.18471342e-03 0. 3.18471342e-03 1.59235671e-03 0. 4.77707013e-03
      0. 1.59235671e-03 1.59235671e-03 3.18471342e-03 0. 0.
      1.59235671e-03 0. 0. 1.59235671e-03 0. 0. 0. 1.59235671e-03 0.
      1.59235671e-03 4.77707013e-03 0. 1.59235671e-03 0. 0. 0.
      1.59235671e-03 1.59235671e-03 0. 3.18471342e-03 1.59235671e-03
      1.59235671e-03 1.59235671e-03 0. 1.59235671e-03 0. 1.59235671e-03
      3.18471342e-03 1.59235671e-03 0. 0. 1.43312104e-02 0.
      1.59235671e-03 0. 0. 0. 3.18471342e-03 0. 1.59235671e-03
      1.59235671e-03 0. 1.59235671e-03 1.59235671e-03 0. 1.59235671e-03
      0. 0. 0. 0. 3.18471342e-03 1.59235671e-03 0. 3.18471342e-03 0.
      1.59235671e-03 1.59235671e-03 1.59235671e-03 6.36942685e-03 0. 0.
      0. 1.59235671e-03 0. 0. 6.36942685e-03 1.59235671e-03 0. 0. 0. 0.
      1.59235671e-03 0. 4.77707013e-03 1.59235671e-03 0. 0.
      1.59235671e-03 0. 1.59235671e-03 0. 1.59235671e-03 1.59235671e-03
      0. 0. 0. 1.59235671e-03 3.18471342e-03 0. 0. 0. 1.59235671e-03
      3.18471342e-03 0. 1.59235671e-03 0. 3.18471342e-03 0. 0. 0. 0. 0.
      1.59235671e-03 1.59235671e-03 0. 0. 0. 4.77707013e-03 0.
      4.77707013e-03 0. 0. 1.59235671e-03 0. 0. 7.96178356e-03 0. 0. 0.
      0. 3.18471342e-03 0. 6.36942685e-03 1.59235671e-03 0. 0.
      1.59235671e-03 0. 0. 0. 0. 0. 1.59235671e-03 0. 0. 1.59235671e-03
      0. 0. 0. 0. 0. 1.59235671e-03 0. 0. 1.59235671e-03 0. 0. 0. 0. 0.
      4.77707013e-03 1.59235671e-03 1.59235671e-03 0. 0. 0. 0.
      1.59235671e-03 1.59235671e-03 0. 0. 1.59235671e-03 3.18471342e-03
      1.59235671e-03 1.59235671e-03 0. 1.59235671e-03 3.18471342e-03 0.
      0. 0. 1.59235671e-03 1.59235671e-03 0. 0. 0. 0. 3.18471342e-03 0.
      0. 1.59235671e-03 0. 1.59235671e-03 0. 0. 0. 0. 0. 0.
      1.59235671e-03 0. 0. 0. 1.59235671e-03 0. 0. 1.59235671e-03 0. 0.
      0. 0. 0. 0. 0. 1.59235671e-03 3.18471342e-03 0. 0. 0. 0. 0. 0. 0.
      1.59235671e-03 0. 0. 0. 1.59235671e-03 0. 6.36942685e-03
      3.18471342e-03 0. 1.59235671e-03 6.36942685e-03 3.18471342e-03 0.
      0. 0. 0. 1.59235671e-03 0. 0. 0. 0. 1.59235671e-03 0. 0.
      1.59235671e-03 0. 1.59235671e-03 0. 1.59235671e-03 1.59235671e-03
      1.59235671e-03 0. 0. 1.59235671e-03 0. 4.77707013e-03 0. 0.
      1.59235671e-03 1.59235671e-03 0. 0. 0. 1.59235671e-03
      1.59235671e-03 0. 0. 0. 0. 0. 0. 1.59235671e-03 1.59235671e-03 0.
      0. 0. 1.59235671e-03 0. 0. 1.59235671e-03 3.18471342e-03
      1.59235671e-03 0. 1.59235671e-03 0. 0. 0. 3.18471342e-03 0.
      1.59235671e-03 1.59235671e-03 0. 0. 0. 1.59235671e-03
      1.59235671e-03 0. 0. 0. 0. 0. 0. 0. 0. 1.59235671e-03
      6.36942685e-03 3.18471342e-03 0. 0. 0. 0. 1.59235671e-03 0. 0. 0.
      0. 1.59235671e-03 0. 0. 0. 0. 0. 0. 0. 0. 0. 0. 1.59235671e-03
      1.43312104e-02 0. 0. 0. 0. 1.59235671e-03 0. 0. 3.18471342e-03 0.
      1.59235671e-03 1.59235671e-03 0. 0. 0. 0. 0. 0. 1.59235671e-03
      1.59235671e-03 0. 3.18471342e-03 0. 0. 0. 0. 1.59235671e-03
      1.59235671e-03 0. 3.18471342e-03 1.59235671e-03 0. 0.
      3.18471342e-03 0. 0. 1.59235671e-03 1.59235671e-03 0. 0.
      1.59235671e-03 1.59235671e-03 3.18471342e-03 3.18471342e-03 0.
      1.59235671e-03 0. 6.36942685e-03 1.59235671e-03 0. 0. 0. 0. 0. 0.
      0. 3.18471342e-03 1.59235671e-03 0. 0. 0. 0. 0. 0. 0. 0. 0. 0. 0.
      0. 0. 0. 1.59235671e-03 0. 0. 0. 0. 0. 0. 1.59235671e-03
      1.59235671e-03 1.59235671e-03 1.59235671e-03 0. 0. 0. 0.
      1.59235671e-03 1.59235671e-03 0. 0. 0. 0. 0. 3.18471342e-03 0. 0.
      0. 0. 0. 0. 0. 1.59235671e-03 0. 0. 0. 3.18471342e-03
      1.59235671e-03 1.59235671e-03 1.59235671e-03 0. 1.59235671e-03
      1.59235671e-03 0. 0. 0. 0. 0. 0. 0. 3.18471342e-03 1.59235671e-03
      0. 0. 0. 0. 0. 3.18471342e-03 1.59235671e-03 1.59235671e-03 0.
      1.59235671e-03 1.59235671e-03 0. 0. 0. 0. 0. 1.59235671e-03 0.
      4.77707013e-03 0. 0. 1.59235671e-03 4.77707013e-03 0. 0.
      1.59235671e-03 3.18471342e-03 0. 1.59235671e-03 0. 0. 0.
      1.27388537e-02 0. 1.59235671e-03 0. 0. 0. 0. 0. 1.59235671e-03
      1.59235671e-03 0. 1.59235671e-03 3.18471342e-03 0. 0. 0.
      3.18471342e-03 1.59235671e-03 1.59235671e-03 0. 1.59235671e-03 0.
      1.59235671e-03 0. 0. 1.59235671e-03 0. 0. 0. 0. 1.59235671e-03 0.
      1.59235671e-03 0. 1.59235671e-03 1.59235671e-03 1.59235671e-03
      1.59235671e-03 0. 0. 1.59235671e-03 0. 6.36942685e-03 0. 0. 0. 0.
      0. 0. 1.59235671e-03 1.59235671e-03 0. 0. 1.59235671e-03
      3.18471342e-03 0. 0. 1.59235671e-03 1.59235671e-03 1.59235671e-03
      0. 0. 0. 1.59235671e-03 0. 0. 1.59235671e-03 1.59235671e-03
      1.59235671e-03 0. 3.18471342e-03 3.18471342e-03 1.59235671e-03 0.
      1.59235671e-03 0. 0. 1.59235671e-03 1.59235671e-03 0.
      4.77707013e-03 3.18471342e-03 1.59235671e-03 0. 1.59235671e-03
      3.18471342e-03 0. 1.59235671e-03 0. 0. 0. 1.59235671e-03
      1.59235671e-03 0. 0.</_>
    <_>
      0. 0. 1.72413792e-03 0. 1.72413792e-03 1.72413792e-03 0. 0. 0. 0.
      0. 0. 0. 0. 0. 0. 0. 6.89655170e-03 0. 0. 0. 0. 1.72413792e-03
      1.72413792e-03 5.17241377e-03 2.05172420e-01 0. 0. 0. 0. 0.
      3.44827585e-03 1.72413792e-03 0. 0. 0. 0. 0. 1.72413792e-03 0.
      1.72413792e-03 0. 1.72413792e-03 0. 0. 0. 0. 0. 0. 0.
      1.72413792e-03 0. 3.44827585e-03 0. 0. 0. 1.72413792e-03 0. 0.
      1.72413792e-03 0. 0. 0. 1.72413792e-03 0. 0. 0. 0. 0. 0. 0. 0.
      1.72413792e-03 0. 0. 0. 0. 0. 0. 0. 0. 0. 0. 0. 0. 0. 0.
      1.72413792e-03 0. 0. 3.44827585e-03 1.72413792e-03 0. 0.
      5.17241377e-03 0. 1.72413792e-03 0. 0. 1.72413792e-03 0. 0. 0. 0.
      0. 1.72413792e-03 0. 0. 0. 1.72413792e-03 0. 0. 1.72413792e-03 0.
      3.44827585e-03 1.72413792e-03 0. 0. 0. 0. 0. 0. 0. 1.72413792e-03
      0. 0. 0. 1.72413792e-03 0. 5.17241377e-03 0. 0. 0. 0. 0. 0.
      1.72413792e-03 0. 0. 3.44827585e-03 5.17241377e-03 0.
      1.72413792e-03 0. 0. 0. 0. 0. 0. 0. 0. 0. 0. 0. 1.72413792e-03 0.
      0. 0. 0. 0. 0. 0. 5.17241377e-03 0. 0. 0. 0. 3.44827585e-03 0.
      1.72413792e-03 0. 0. 0. 0. 1.72413792e-03 1.72413792e-03 0.
      5.17241377e-03 0. 0. 0. 1.72413792e-03 1.72413792e-03 0.
      1.72413792e-03 0. 1.72413792e-03 3.44827585e-03 0. 0. 0. 0.
      3.44827585e-03 0. 0. 0. 0. 1.72413792e-03 0. 0. 0. 3.44827585e-03
      0. 0. 0. 1.72413792e-03 0. 0. 1.72413792e-03 0. 3.44827585e-03 0.
      0. 0. 0. 0. 0. 0. 0. 0. 0. 1.72413792e-03 1.72413792e-03 0. 0. 0.
      3.44827585e-03 0. 0. 0. 0. 0. 0. 0. 0. 1.72413792e-03
      1.72413792e-03 1.72413792e-03 0. 0. 0. 0. 0. 1.72413792e-03 0. 0.
      0. 3.44827585e-03 1.72413792e-03 3.44827585e-03 1.72413792e-03 0.
      0. 0. 0. 1.72413792e-03 6.89655170e-03 1.72413792e-03 0.
      1.72413792e-03 0. 1.72413792e-03 1.72413792e-03 0. 1.72413792e-03
      0. 0. 1.72413792e-03 0. 1.72413792e-03 3.44827585e-03 0. 0. 0. 0.
      0. 0. 0. 0. 0. 3.44827585e-03 0. 0. 0. 0. 0. 1.72413792e-03 0. 0.
      0. 0. 0. 0. 6.89655170e-03 0. 0. 0. 0. 0. 0. 1.72413792e-03 0. 0.
      1.72413792e-03 0. 1.72413792e-03 0. 0. 0. 1.72413792e-03 0. 0. 0.
      0. 0. 0. 3.44827585e-03 0. 5.17241377e-03 3.44827585e-03
      1.72413792e-03 0. 0. 1.72413792e-03 0. 0. 0. 0. 0. 0. 0. 0. 0. 0.
      0. 0. 0. 0. 0. 0. 0. 0. 0. 0. 0. 0. 0. 0. 1.72413792e-03 0.
      1.20689655e-02 0. 0. 0. 0. 0. 0. 3.44827585e-03 0. 1.72413792e-03
      0. 1.72413792e-03 1.72413792e-03 0. 1.72413792e-03 0. 0. 0.
      1.20689655e-02 0. 0. 6.89655170e-03 0. 1.72413792e-03
      3.44827585e-03 0. 5.17241377e-03 1.72413792e-03 0. 0. 0.
      1.72413792e-03 0. 0. 0. 0. 0. 3.44827585e-03 0. 1.72413792e-03 0.
      0. 0. 0. 0. 0. 0. 0. 0. 0. 1.72413792e-03 0. 0. 0. 0. 0. 0.
      1.03448275e-02 0. 0. 3.44827585e-03 0. 0. 3.44827585e-03 0. 0. 0.
      0. 0. 3.44827585e-03 0. 0. 1.72413792e-03 1.72413792e-03 0. 0. 0.
      0. 1.72413792e-03 1.72413792e-03 3.44827585e-03 0. 1.72413792e-03
      3.44827585e-03 0. 1.72413792e-03 0. 0. 0. 1.72413792e-03
      1.03448275e-02 1.72413792e-03 3.44827585e-03 0. 0. 0. 0. 0. 0.
      5.17241377e-03 0. 0. 1.72413792e-03 3.44827585e-03 1.72413792e-03
      0. 0. 0. 0. 0. 0. 5.17241377e-03 0. 0. 1.72413792e-03
      1.72413792e-03 0. 1.72413792e-03 0. 0. 0. 0. 0. 0. 0. 0. 0. 0. 0.
      0. 1.72413792e-03 1.72413792e-03 3.44827585e-03 0. 1.72413792e-03
      3.44827585e-03 1.72413792e-03 0. 0. 5.17241377e-03 0. 0. 0. 0. 0.
      0. 0. 0. 1.72413792e-03 0. 1.72413792e-03 0. 0. 0. 0. 0. 0. 0. 0.
      0. 0. 0. 0. 0. 0. 0. 2.58620679e-02 0. 1.72413792e-03 0. 0. 0. 0.
      1.72413792e-03 0. 1.72413792e-03 1.72413792e-03 0. 0.
      1.72413792e-03 0. 0. 3.44827585e-03 3.44827585e-03 0.
      3.44827585e-03 0. 1.72413792e-03 0. 0. 0. 3.44827585e-03 0. 0. 0.
      0. 0. 5.17241377e-03 1.72413792e-03 1.72413792e-03 0. 0. 0.
      1.72413792e-03 0. 0. 1.72413792e-03 0. 0. 0. 0. 0. 1.72413792e-03
      1.72413792e-03 0. 3.44827585e-03 0. 0. 1.72413792e-03 0. 0. 0. 0.
      0. 1.72413792e-03 0. 0. 0. 3.44827585e-03 0. 1.72413792e-03 0. 0.
      0. 0. 0. 0. 0. 1.72413792e-03 0. 0. 1.72413792e-03 0. 0. 0. 0.
      1.72413792e-03 1.72413792e-03 0. 3.44827585e-03 0. 0. 0. 0. 0.
      1.72413792e-03 1.72413792e-03 0. 0. 0. 1.72413792e-03
      1.72413792e-03 0. 0. 0. 0. 0. 0. 0. 0. 0. 0. 0. 0. 0. 0. 0. 0. 0.
      1.72413792e-03 0. 0. 0. 1.72413792e-03 1.72413792e-03 0.
      1.72413792e-03 0. 0. 0. 0. 0. 0. 1.72413792e-03 0. 0. 0. 0. 0. 0.
      1.72413792e-03 0. 0. 0. 0. 0. 0. 0. 0. 1.72413792e-03
      1.72413792e-03 0. 0. 0. 1.72413792e-03 1.72413792e-03 0. 0. 0. 0.
      0. 0. 5.17241377e-03 0. 0. 0. 0. 0. 0. 1.72413792e-03 0. 0.
      1.72413792e-03 1.72413792e-03 1.72413792e-03 1.72413792e-03 0. 0.
      0. 1.72413792e-03 0. 0. 3.44827585e-03 3.44827585e-03
      1.72413792e-03 0. 1.72413792e-03 0. 0. 2.75862068e-02
      1.72413792e-03 0. 0. 0. 0. 0. 3.44827585e-03 0. 0. 0. 0.
      1.72413792e-03 0. 6.89655170e-03 0. 6.89655170e-03 0.
      1.72413792e-03 3.44827585e-03 0. 0. 0. 0. 0. 1.72413792e-03 0. 0.
      0. 0. 0. 0. 5.17241377e-03 0. 0. 0. 0. 0. 0. 1.72413792e-03 0. 0.
      1.55172413e-02 0. 0. 1.72413792e-03 0. 1.72413792e-03 0. 0. 0. 0.
      1.03448275e-02 0. 0. 0. 0. 0. 0. 5.17241377e-03 0. 0.
      1.72413792e-03 8.62068962e-03 0. 1.72413792e-03 0. 0. 0. 0. 0.
      1.72413792e-03 0. 0. 0. 0. 0. 0. 1.72413792e-03 0. 0.
      1.72413792e-03 3.44827585e-03 0. 1.72413792e-03 1.72413792e-03 0.
      1.72413792e-03 0. 0. 0. 1.72413792e-03 0. 1.72413792e-03 0. 0. 0.
      0. 0. 1.72413792e-03 0. 0. 3.44827585e-03 0. 0. 0. 0.
      1.72413792e-03 0. 0. 0. 0. 0. 0. 0. 0. 1.72413792e-03
      1.72413792e-03 0. 0. 5.17241377e-03 1.72413792e-03 0. 0. 0. 0. 0.
      1.72413792e-03 0. 0. 3.44827585e-03 2.41379309e-02 3.44827585e-03
      0. 0. 0. 0. 0. 0. 0. 0. 0. 1.72413792e-03 0. 0. 0. 0.
      1.72413792e-03 0. 0. 0. 0. 0. 0. 1.72413792e-03 0. 0. 0. 0. 0. 0.
      0. 0. 0. 0. 3.44827585e-03 1.72413792e-03 0. 1.72413792e-03 0.
      1.72413792e-03 3.44827585e-03 0. 0. 0. 0. 0. 0. 1.72413792e-03
      1.72413792e-03 1.72413792e-03 0. 0. 0. 0. 0. 0. 0. 0. 0. 0. 0.
      1.72413792e-03 0. 0. 0. 0. 0. 0. 6.89655170e-03 0. 0.
      1.72413792e-03 1.72413792e-03 1.72413792e-03 1.72413792e-03
      1.72413792e-03 0. 0. 1.72413792e-03 0. 1.72413792e-03 0. 0. 0. 0.
      0. 0. 0. 0. 1.72413792e-03 0. 0. 1.72413792e-03 0. 1.72413792e-03
      0. 0. 0. 0. 0. 0. 1.72413792e-03 0. 1.72413792e-03 0. 0. 0. 0. 0.
      0. 0. 0. 0. 0. 6.89655170e-03 0. 1.72413792e-03 0. 0. 0. 0. 0. 0.
      0. 1.72413792e-03 0. 1.72413792e-03 1.72413792e-03 0.
      1.72413792e-03 0. 0. 0. 0. 0. 0. 0. 1.72413792e-03 0. 0. 0. 0.
      3.44827585e-03 0. 6.89655170e-03 1.72413792e-03 0. 1.72413792e-03
      0. 0. 0. 0. 0. 0. 1.72413792e-03 0. 1.72413792e-03 0. 0. 0. 0. 0.
      0. 5.17241377e-03 1.72413792e-03 0. 0. 0. 1.72413792e-03
      3.44827585e-03</_>
    <_>
      0. 3.60360369e-03 1.80180185e-03 1.80180185e-03 0. 0. 0. 0. 0. 0.
      1.80180185e-03 0. 0. 0. 0. 0. 0. 0. 0. 0. 0. 0. 0. 0. 0. 0. 0.
      1.80180185e-03 0. 3.60360369e-03 0. 0. 1.80180185e-03 0.
      1.80180185e-03 0. 3.60360369e-03 0. 1.80180185e-03 0. 0. 0.
      3.60360369e-03 0. 0. 0. 0. 3.60360369e-03 0. 1.80180185e-03
      3.60360369e-03 3.60360369e-03 1.80180185e-03 0. 0. 0. 0.
      1.80180185e-03 0. 0. 0. 1.80180185e-03 1.80180185e-03
      1.80180185e-03 0. 0. 0. 7.20720738e-03 0. 0. 0. 1.80180185e-03 0.
      1.80180185e-03 0. 0. 0. 0. 0. 1.80180185e-03 0. 0. 1.80180185e-03
      0. 0. 0. 0. 0. 0. 1.80180185e-03 1.80180185e-03 0. 3.60360369e-03
      0. 0. 0. 1.80180185e-03 0. 3.60360369e-03 0. 0. 1.80180185e-03 0.
      0. 0. 0. 1.80180185e-03 1.80180185e-03 0. 0. 1.80180185e-03 0.
      3.60360369e-03 0. 0. 0. 0. 1.80180185e-03 0. 0. 5.40540554e-03
      1.80180185e-03 0. 0. 1.80180185e-03 0. 0. 1.80180185e-03
      3.60360369e-03 1.80180185e-03 0. 0. 3.60360369e-03 1.80180185e-03
      1.80180185e-03 5.40540554e-03 1.80180185e-03 0. 0. 0. 0. 0. 0. 0.
      1.80180185e-03 1.80180185e-03 1.80180185e-03 0. 1.80180185e-03 0.
      0. 0. 0. 0. 0. 0. 1.80180185e-03 3.60360369e-03 0. 0.
      3.60360369e-03 1.80180185e-03 0. 0. 3.60360369e-03 1.80180185e-03
      0. 3.60360369e-03 0. 1.80180185e-03 0. 0. 0. 0. 1.80180185e-03 0.
      1.80180185e-03 0. 3.60360369e-03 0. 0. 0. 0. 1.80180185e-03
      1.80180185e-03 1.80180185e-03 0. 1.80180185e-03 0. 3.60360369e-03
      0. 0. 0. 1.26126129e-02 0. 1.80180185e-03 0. 0. 0. 0. 0. 0.
      5.40540554e-03 0. 0. 1.80180185e-03 0. 0. 1.80180185e-03 0.
      3.60360369e-03 1.80180185e-03 0. 0. 3.60360369e-03 0. 0. 0. 0.
      1.80180185e-03 0. 0. 1.80180185e-03 0. 1.80180185e-03 0.
      3.60360369e-03 0. 1.80180185e-03 0. 0. 0. 0. 0. 1.80180185e-03 0.
      3.60360369e-03 1.80180185e-03 0. 0. 1.80180185e-03 1.80180185e-03
      0. 0. 0. 3.60360369e-03 1.80180185e-03 1.80180185e-03
      1.80180185e-03 0. 0. 0. 3.60360369e-03 0. 3.60360369e-03
      5.40540554e-03 0. 1.08108111e-02 0. 0. 1.80180185e-03
      1.80180185e-03 0. 0. 0. 0. 0. 0. 0. 3.60360369e-03 0. 0.
      1.80180185e-03 1.80180185e-03 1.80180185e-03 1.80180185e-03 0.
      1.80180185e-03 0. 3.60360369e-03 1.80180185e-03 0. 0. 0.
      3.60360369e-03 0. 0. 0. 0. 0. 0. 0. 1.80180185e-03 0. 0.
      1.80180185e-03 1.80180185e-03 0. 1.80180185e-03 0. 1.80180185e-03
      0. 0. 3.60360369e-03 0. 1.80180185e-03 0. 3.60360369e-03 0. 0. 0.
      0. 0. 0. 0. 1.80180185e-03 0. 0. 0. 0. 0. 1.80180185e-03 0.
      1.80180185e-03 0. 0. 0. 0. 1.80180185e-03 0. 1.80180185e-03
      1.80180185e-03 1.80180185e-03 1.80180185e-03 3.60360369e-03 0. 0.
      0. 0. 0. 3.60360369e-03 0. 1.80180185e-03 0. 1.80180185e-03
      1.80180185e-03 3.60360369e-03 0. 3.60360369e-03 0. 1.80180185e-03
      0. 0. 0. 0. 0. 1.80180185e-03 0. 3.60360369e-03 0. 0.
      1.80180185e-03 3.60360369e-03 0. 0. 5.40540554e-03 0.
      1.80180185e-03 3.60360369e-03 0. 0. 0. 0. 3.60360369e-03
      3.60360369e-03 0. 0. 0. 1.80180185e-03 3.60360369e-03 0. 0.
      1.80180185e-03 3.60360369e-03 0. 1.80180185e-03 0. 1.80180185e-03
      0. 0. 1.80180185e-03 0. 0. 0. 0. 0. 1.26126129e-02 0.
      1.80180185e-03 0. 1.80180185e-03 0. 3.60360369e-03 0. 0.
      1.80180185e-03 0. 0. 0. 0. 1.80180185e-03 1.80180185e-03 0. 0. 0.
      0. 0. 0. 0. 1.80180185e-03 0. 1.80180185e-03 0. 0. 1.80180185e-03
      1.80180185e-03 1.80180185e-03 0. 3.60360369e-03 0. 1.80180185e-03
      0. 1.80180185e-03 1.80180185e-03 0. 0. 7.20720738e-03
      3.60360369e-03 3.60360369e-03 5.40540554e-03 3.60360369e-03 0. 0.
      0. 1.80180185e-03 1.80180185e-03 0. 0. 0. 1.80180185e-03 0. 0. 0.
      0. 0. 0. 1.80180185e-03 0. 0. 1.80180185e-03 0. 5.40540554e-03 0.
      1.80180185e-03 0. 0. 0. 0. 0. 0. 0. 0. 1.80180185e-03
      1.80180185e-03 0. 1.80180185e-03 0. 1.80180185e-03 0. 0.
      1.80180185e-03 1.80180185e-03 5.40540554e-03 5.40540554e-03 0.
      5.40540554e-03 0. 0. 5.40540554e-03 0. 1.80180185e-03
      1.80180185e-03 1.80180185e-03 0. 0. 1.80180185e-03 0. 0. 0. 0.
      1.80180185e-03 1.80180185e-03 1.80180185e-03 0. 5.40540554e-03
      1.80180185e-03 3.60360369e-03 0. 0. 1.80180185e-03 1.80180185e-03
      0. 0. 0. 1.80180185e-03 1.80180185e-03 9.00900923e-03 0.
      1.80180185e-03 1.80180185e-03 0. 1.80180185e-03 1.80180185e-03
      3.60360369e-03 0. 0. 3.60360369e-03 1.80180185e-03 1.80180185e-03
      0. 1.80180185e-03 0. 0. 0. 0. 1.80180185e-03 0. 0. 0. 0.
      1.80180185e-03 0. 1.80180185e-03 0. 0. 3.60360369e-03 0. 0. 0. 0.
      0. 1.80180185e-03 0. 0. 5.40540554e-03 0. 0. 1.80180185e-03
      3.60360369e-03 0. 0. 0. 1.80180185e-03 0. 3.60360369e-03 0.
      3.60360369e-03 1.80180185e-03 1.80180185e-03 0. 0. 0.
      1.80180185e-03 0. 3.60360369e-03 0. 0. 0. 3.60360369e-03
      1.80180185e-03 0. 1.80180185e-03 0. 1.80180185e-03 0. 0.
      5.40540554e-03 0. 0. 0. 0. 0. 1.80180185e-03 0. 0. 1.80180185e-03
      1.80180185e-03 0. 1.80180185e-03 0. 0. 0. 0. 0. 0. 0.
      1.80180185e-03 0. 3.60360369e-03 0. 1.80180185e-03 1.80180185e-03
      0. 0. 0. 0. 1.80180185e-03 1.80180185e-03 0. 0. 1.80180185e-03
      1.80180185e-03 1.80180185e-03 0. 0. 3.60360369e-03 0. 0. 0. 0.
      1.80180185e-03 0. 0. 1.80180185e-03 1.80180185e-03 1.80180185e-03
      0. 0. 1.80180185e-03 0. 0. 0. 1.80180185e-03 1.80180185e-03 0.
      3.60360369e-03 3.60360369e-03 5.40540554e-03 0. 1.80180185e-03 0.
      1.80180185e-03 0. 1.80180185e-03 0. 1.80180185e-03 0. 0. 0. 0. 0.
      3.60360369e-03 0. 3.60360369e-03 0. 1.80180185e-03 1.80180185e-03
      0. 1.80180185e-03 0. 3.60360369e-03 0. 0. 1.80180185e-03
      1.80180185e-03 0. 0. 0. 1.80180185e-03 1.80180185e-03 0.
      1.80180185e-03 1.80180185e-03 3.60360369e-03 1.80180185e-03
      3.60360369e-03 0. 0. 0. 1.80180185e-03 0. 0. 1.80180185e-03
      5.40540554e-03 0. 1.80180185e-03 0. 0. 0. 3.60360369e-03
      1.80180185e-03 1.80180185e-03 0. 0. 0. 0. 0. 0. 0. 1.80180185e-03
      0. 3.60360369e-03 1.80180185e-03 0. 1.80180185e-03 1.80180185e-03
      1.80180185e-03 0. 0. 5.40540554e-03 1.80180185e-03 0.
      3.60360369e-03 0. 1.80180185e-03 0. 0. 0. 0. 0. 0. 1.80180185e-03
      1.80180185e-03 0. 0. 3.60360369e-03 0. 1.80180185e-03
      1.80180185e-03 0. 0. 1.80180185e-03 0. 0. 0. 1.80180185e-03
      1.80180185e-03 1.80180185e-03 1.80180185e-03 0. 1.80180185e-03 0.
      0. 0. 1.80180185e-03 3.60360369e-03 0. 1.80180185e-03
      1.80180185e-03 0. 0. 0. 1.80180185e-03 0. 0. 0. 1.80180185e-03
      3.60360369e-03 0. 0. 0. 0. 0. 0. 0. 0. 0. 1.80180185e-03
      1.80180185e-03 0. 0. 0. 1.80180185e-03 0. 5.40540554e-03 0. 0. 0.
      0. 1.80180185e-03 1.80180185e-03 0. 3.60360369e-03 1.80180185e-03
      3.60360369e-03 0. 5.40540554e-03 3.60360369e-03 1.80180185e-03 0.
      0. 1.80180185e-03 0. 0. 0. 1.80180185e-03 1.80180185e-03
      1.80180185e-03 3.60360369e-03 1.80180185e-03 1.80180185e-03
      1.80180185e-03 0. 0. 0. 0. 0. 3.60360369e-03 3.60360369e-03
      1.80180185e-03 3.60360369e-03 1.80180185e-03 0. 0. 0. 0. 0.
      1.80180185e-03 0. 1.80180185e-03 1.26126129e-02 5.40540554e-03
      1.80180185e-03 1.80180185e-03 1.80180185e-03 0. 0. 1.80180185e-03
      1.80180185e-03 0. 0. 0. 0. 0. 0. 0. 1.80180185e-03 0. 0. 0. 0.
      1.80180185e-03 0. 0. 0. 0. 1.80180185e-03 0. 0. 0. 0. 0. 0. 0. 0.
      3.60360369e-03 0. 1.80180185e-03 0. 0. 0. 0. 1.80180185e-03 0.
      1.80180185e-03 1.80180185e-03 0. 1.80180185e-03 1.80180185e-03 0.
      0. 1.80180185e-03 0. 1.80180185e-03 3.60360369e-03 0. 0. 0. 0.
      3.60360369e-03 0. 0. 0. 1.80180185e-03 0. 0. 0. 0. 1.80180185e-03
      0. 3.60360369e-03 0. 0. 0. 0. 0. 0. 0. 0. 1.80180185e-03
      1.80180185e-03 1.80180185e-03 0. 0. 1.80180185e-03 1.80180185e-03
      1.80180185e-03 1.80180185e-03 0. 0. 0. 0. 3.60360369e-03
      3.60360369e-03 0. 1.80180185e-03 1.80180185e-03 0. 1.80180185e-03
      0. 1.80180185e-03 0. 1.80180185e-03 0. 1.80180185e-03
      1.80180185e-03 0. 0. 1.80180185e-03 0. 0. 1.80180185e-03
      1.80180185e-03 0. 1.80180185e-03 0. 0. 1.80180185e-03
      1.80180185e-03 1.80180185e-03 1.80180185e-03 0. 0. 0. 0. 0. 0.
      5.40540554e-03 3.60360369e-03 1.80180185e-03 0. 1.80180185e-03 0.
      1.80180185e-03 1.80180185e-03 0. 0. 0. 0. 0. 0. 0. 0.
      1.80180185e-03 1.80180185e-03 0. 0. 3.60360369e-03 0. 0. 0. 0. 0.
      0. 0. 3.60360369e-03 0. 0. 0. 0. 1.80180185e-03 3.60360369e-03 0.
      0. 0. 0. 0. 1.80180185e-03 0. 1.80180185e-03</_>
    <_>
      1.20336947e-03 0. 1.20336947e-03 0. 0. 0. 4.81347786e-03
      6.01684721e-03 0. 1.20336947e-03 1.20336947e-03 1.20336947e-03
      6.01684721e-03 0. 0. 0. 0. 0. 0. 1.20336947e-03 0. 1.20336947e-03
      7.22021703e-03 2.40673893e-03 0. 0. 2.40673893e-03 0. 0. 0. 0. 0.
      1.20336947e-03 2.40673893e-03 0. 0. 0. 1.20336947e-03 0. 0.
      2.40673893e-03 0. 1.20336947e-03 0. 0. 0. 1.20336947e-03 0. 0.
      1.20336947e-03 1.20336947e-03 2.40673893e-03 1.20336947e-03 0.
      2.40673893e-03 0. 0. 0. 1.20336947e-03 1.20336947e-03 0.
      1.20336947e-03 0. 0. 0. 2.40673893e-03 3.61010851e-03 0. 0. 0. 0.
      1.20336947e-03 0. 0. 1.20336947e-03 0. 1.20336947e-03
      1.20336947e-03 0. 1.20336947e-03 3.61010851e-03 0. 0. 0. 0.
      1.20336947e-03 0. 0. 1.20336947e-03 0. 0. 0. 0. 0. 0.
      6.01684721e-03 0. 1.20336947e-03 0. 0. 0. 0. 2.40673893e-03 0.
      1.20336947e-03 0. 1.20336947e-03 0. 1.20336947e-03 0.
      1.20336947e-03 1.20336947e-03 6.01684721e-03 1.20336947e-03 0. 0.
      2.40673893e-03 0. 1.20336947e-03 2.40673893e-03 0. 0. 0. 0. 0. 0.
      1.20336947e-03 2.40673893e-03 0. 1.20336947e-03 4.81347786e-03 0.
      1.20336947e-03 1.20336947e-03 0. 0. 0. 1.20336947e-03 0. 0. 0. 0.
      0. 2.40673893e-03 0. 0. 0. 1.20336947e-03 0. 2.40673893e-03
      1.20336947e-03 0. 2.40673893e-03 0. 1.20336947e-03 0.
      2.40673893e-03 0. 0. 2.40673893e-03 0. 0. 0. 4.81347786e-03
      1.20336947e-03 0. 2.40673893e-03 1.20336947e-03 0. 0.
      2.40673893e-03 1.20336947e-03 0. 0. 0. 0. 1.20336947e-03
      1.20336947e-03 1.20336947e-03 2.40673893e-03 0. 2.40673893e-03
      2.40673893e-03 0. 0. 3.61010851e-03 0. 0. 0. 0. 0. 1.20336947e-03
      0. 2.40673893e-03 0. 0. 0. 0. 2.40673893e-03 0. 4.81347786e-03
      1.20336947e-03 0. 3.61010851e-03 0. 0. 0. 0. 1.20336947e-03
      1.20336947e-03 0. 4.81347786e-03 3.61010851e-03 1.20336947e-03 0.
      0. 0. 1.20336947e-03 0. 1.20336947e-03 0. 1.20336947e-03 0. 0.
      2.40673893e-03 0. 0. 3.61010851e-03 0. 1.20336947e-03
      1.20336947e-03 1.20336947e-03 1.20336947e-03 3.61010851e-03 0. 0.
      0. 0. 0. 1.20336947e-03 0. 1.20336947e-03 0. 0. 0. 1.20336947e-03
      4.81347786e-03 0. 0. 1.20336947e-03 0. 0. 0. 1.20336947e-03 0.
      2.40673893e-03 0. 1.20336947e-03 0. 6.01684721e-03 0.
      2.40673893e-03 0. 0. 0. 1.20336947e-03 1.20336947e-03 0.
      1.20336947e-03 4.81347786e-03 1.20336947e-03 1.20336947e-03 0.
      2.40673893e-03 0. 1.20336947e-03 1.20336947e-03 1.20336947e-03 0.
      0. 1.20336947e-03 0. 0. 0. 0. 4.81347786e-03 2.40673893e-03 0.
      4.81347786e-03 0. 6.01684721e-03 0. 4.81347786e-03 0. 0.
      2.40673893e-03 1.20336947e-03 3.61010851e-03 2.40673893e-03
      1.20336947e-03 1.20336947e-03 3.61010851e-03 1.20336947e-03 0. 0.
      0. 0. 0. 1.20336947e-03 0. 2.40673893e-03 0. 2.40673893e-03
      2.40673893e-03 0. 2.40673893e-03 0. 0. 0. 0. 0. 0. 0. 0. 0.
      1.20336947e-03 0. 0. 0. 3.61010851e-03 6.01684721e-03
      1.20336947e-03 4.81347786e-03 3.61010851e-03 1.20336947e-03 0. 0.
      3.61010851e-03 2.40673893e-03 0. 1.20336947e-03 0. 1.20336947e-03
      0. 1.20336947e-03 0. 2.40673893e-03 0. 3.61010851e-03 0. 0.
      1.20336947e-03 2.40673893e-03 0. 2.40673893e-03 0. 0. 0. 0. 0.
      1.20336947e-03 0. 0. 0. 0. 1.20336947e-03 2.40673893e-03 0. 0.
      2.40673893e-03 0. 0. 0. 1.20336947e-03 1.20336947e-03
      2.40673893e-03 0. 4.81347786e-03 0. 1.20336947e-03 0. 0. 0.
      2.40673893e-03 1.20336947e-03 7.22021703e-03 6.01684721e-03 0. 0.
      1.20336947e-03 0. 4.81347786e-03 0. 3.61010851e-03 0.
      2.40673893e-03 1.20336947e-03 0. 1.20336947e-03 0. 1.20336947e-03
      0. 0. 1.20336947e-03 0. 1.20336947e-03 1.20336947e-03 0.
      4.81347786e-03 0. 0. 0. 2.40673893e-03 1.20336947e-03
      1.20336947e-03 0. 3.61010851e-03 0. 0. 1.20336947e-03 0. 0. 0. 0.
      1.20336947e-03 1.20336947e-03 0. 0. 0. 2.40673893e-03 0. 0. 0.
      1.20336947e-03 4.81347786e-03 1.20336947e-03 0. 6.01684721e-03
      1.20336947e-03 0. 0. 0. 0. 0. 2.40673893e-03 0. 0. 0.
      1.20336947e-03 0. 6.01684721e-03 1.20336947e-03 0. 0. 0. 0. 0.
      2.40673893e-03 1.20336947e-03 2.40673893e-03 2.40673893e-03
      2.40673893e-03 0. 1.20336947e-03 2.40673893e-03 0. 2.40673893e-03
      0. 0. 1.20336947e-03 3.61010851e-03 0. 0. 1.20336947e-03
      1.20336947e-03 1.20336947e-03 0. 3.61010851e-03 1.20336947e-03
      1.20336944e-02 2.40673893e-03 0. 0. 0. 0. 0. 0. 7.22021703e-03
      2.40673893e-03 0. 0. 2.40673893e-03 0. 0. 3.61010851e-03 0. 0. 0.
      2.40673893e-03 1.20336947e-03 0. 0. 0. 7.22021703e-03 0. 0.
      4.81347786e-03 1.20336947e-03 0. 0. 0. 0. 0. 0. 1.20336947e-03 0.
      0. 1.20336947e-03 0. 0. 1.20336947e-03 0. 1.20336947e-03
      1.20336947e-03 0. 1.20336947e-03 1.20336947e-03 2.40673893e-03 0.
      1.20336947e-03 1.20336947e-03 0. 0. 0. 4.81347786e-03 0. 0.
      3.61010851e-03 1.20336947e-03 0. 1.20336947e-03 0. 2.40673893e-03
      0. 0. 1.20336947e-03 0. 1.20336947e-03 0. 1.20336947e-03 0.
      1.20336947e-03 4.81347786e-03 1.20336947e-03 0. 2.40673893e-03 0.
      0. 0. 0. 1.20336947e-03 0. 0. 2.40673893e-03 2.40673893e-03 0. 0.
      1.20336947e-03 0. 1.20336947e-03 0. 0. 0. 0. 0. 1.20336947e-03 0.
      1.20336947e-03 0. 0. 2.40673893e-03 3.61010851e-03 3.61010851e-03
      0. 2.40673893e-03 2.40673893e-03 2.40673893e-03 3.61010851e-03
      1.20336947e-03 1.20336947e-03 0. 0. 0. 6.01684721e-03 0.
      4.81347786e-03 0. 0. 0. 0. 3.61010851e-03 3.61010851e-03 0.
      1.20336947e-03 0. 0. 1.20336947e-03 0. 0. 2.40673893e-03
      3.61010851e-03 0. 1.20336947e-03 1.20336947e-03 0. 2.40673893e-03
      1.20336947e-03 0. 0. 0. 1.20336947e-03 4.81347786e-03
      1.20336947e-03 1.20336947e-03 2.40673893e-03 0. 0. 0. 0. 0.
      3.61010851e-03 2.40673893e-03 0. 0. 0. 1.20336947e-03
      2.40673893e-03 0. 0. 3.61010851e-03 0. 1.20336947e-03
      1.20336947e-03 3.61010851e-03 1.20336947e-03 1.20336947e-03 0.
      2.40673893e-03 0. 2.40673893e-03 0. 3.61010851e-03 0. 0.
      1.20336947e-03 0. 0. 0. 1.20336947e-03 0. 1.20336947e-03 0.
      2.40673893e-03 0. 1.20336947e-03 0. 0. 1.20336947e-03
      2.40673893e-03 2.40673893e-03 0. 0. 0. 1.20336947e-03
      1.20336947e-03 0. 0. 0. 1.20336947e-03 0. 0. 1.20336947e-03
      1.20336947e-03 0. 0. 0. 0. 1.20336947e-03 2.40673893e-03 0. 0. 0.
      0. 1.20336947e-03 0. 6.01684721e-03 1.20336947e-03 2.40673893e-03
      0. 4.81347786e-03 1.20336947e-03 2.40673893e-03 2.40673893e-03 0.
      0. 2.40673893e-03 1.20336947e-03 2.40673893e-03 1.20336947e-03 0.
      0. 0. 0. 1.20336947e-03 0. 1.20336947e-03 1.20336947e-03 0. 0.
      1.20336947e-03 0. 0. 0. 2.40673893e-03 1.20336947e-03
      1.20336947e-03 1.20336947e-03 0. 0. 1.20336947e-03 2.40673893e-03
      0. 1.20336947e-03 1.20336947e-03 0. 0. 1.20336947e-03 0. 0.
      2.40673893e-03 1.20336947e-03 1.20336947e-03 0. 0. 0. 0. 0.
      2.40673893e-03 0. 0. 0. 1.20336947e-03 1.20336947e-03 0.
      8.42358638e-03 1.20336947e-03 0. 2.40673893e-03 0. 1.20336947e-03
      1.20336947e-03 0. 0. 0. 1.20336947e-03 2.40673893e-03 0.
      2.40673893e-03 1.20336947e-03 0. 1.20336947e-03 1.20336947e-03 0.
      3.61010851e-03 4.81347786e-03 2.40673893e-03 3.61010851e-03
      1.20336947e-03 2.40673893e-03 1.20336947e-03 0. 0. 1.20336947e-03
      2.40673893e-03 0. 0. 0. 2.40673893e-03 1.20336947e-03
      1.20336947e-03 0. 0. 0. 2.40673893e-03 1.20336947e-03
      4.81347786e-03 1.20336947e-03 0. 0. 1.20336947e-03 0.
      1.20336947e-03 0. 0. 2.40673893e-03 6.01684721e-03 0.
      3.61010851e-03 1.20336947e-03 0. 0. 0. 0. 1.20336947e-03 0. 0. 0.
      1.20336947e-03 0. 1.20336947e-03 0. 0. 0. 0. 0. 0. 1.20336947e-03
      0. 0. 0. 0. 0. 0. 2.40673893e-03 0. 3.61010851e-03 0. 0. 0.
      1.20336947e-03 2.40673893e-03 2.40673893e-03 0. 0. 0. 0.
      1.20336947e-03 6.01684721e-03 0. 0. 2.40673893e-03 1.20336947e-03
      0. 0. 0. 4.81347786e-03 1.20336947e-03 0. 0. 2.40673893e-03
      1.20336947e-03 0. 0. 1.20336947e-03 0. 0. 4.81347786e-03 0.
      3.61010851e-03 0. 0. 2.40673893e-03 6.01684721e-03 1.20336947e-03
      1.20336947e-03 0. 2.40673893e-03 2.40673893e-03 0. 1.20336947e-03
      1.20336947e-03 2.40673893e-03 0. 0. 1.20336947e-03 0. 0. 0. 0. 0.
      0. 1.20336947e-03 2.40673893e-03 0. 4.81347786e-03 0.
      1.20336947e-03 0. 2.40673893e-03 0. 0. 0. 2.40673893e-03
      1.20336947e-03 0. 0. 0. 1.20336947e-03 0. 6.01684721e-03 0. 0.
      7.22021703e-03 2.40673893e-03 1.20336947e-03 0. 2.40673893e-03 0.
      0. 0. 0. 2.40673893e-03 1.20336947e-03 3.61010851e-03 0. 0.
      1.20336947e-03 6.01684721e-03 0. 0. 1.20336947e-03 0.
      1.20336947e-03 0. 1.20336947e-03 0. 2.40673893e-03 2.40673893e-03
      2.40673893e-03 1.20336947e-03 4.81347786e-03 1.20336947e-03 0. 0.
      0. 1.20336947e-03 0. 2.40673893e-03 1.20336947e-03 0. 0.
      2.40673893e-03 0. 1.20336947e-03 0. 0. 0. 1.20336947e-03
      1.20336947e-03 1.20336947e-03 1.20336947e-03 0. 0. 0. 0. 0.
      1.20336947e-03 0. 1.20336947e-03 0. 1.20336947e-03 0. 0.
      1.20336947e-03 1.20336947e-03 0. 0. 1.20336947e-03 0.
      9.62695573e-03 2.40673893e-03 1.20336947e-03 0. 0. 0. 0. 0. 0.
      3.61010851e-03 0. 1.20336947e-03 0. 0. 0. 0. 1.20336947e-03
      1.20336947e-03 0. 0. 0.</_>
    <_>
      0. 2.45098048e-03 2.45098048e-03 1.71568636e-02 0. 0. 0. 0. 0.
      2.45098048e-03 0. 0. 4.90196096e-03 0. 0. 0. 0. 0. 0. 0.
      2.45098048e-03 9.80392192e-03 2.45098048e-03 0. 0. 0.
      2.45098048e-03 2.45098048e-03 0. 0. 0. 2.45098048e-03
      4.90196096e-03 0. 0. 0. 0. 0. 0. 2.45098048e-03 4.90196096e-03
      4.90196096e-03 0. 0. 0. 2.45098048e-03 0. 2.45098048e-03 0.
      2.45098048e-03 0. 0. 2.45098048e-03 0. 2.45098048e-03
      2.45098048e-03 0. 0. 0. 0. 4.90196096e-03 2.45098048e-03
      4.90196096e-03 2.45098048e-03 4.90196096e-03 0. 0. 2.45098048e-03
      0. 2.45098048e-03 0. 0. 0. 0. 0. 2.45098048e-03 0. 0. 0. 0. 0.
      2.45098048e-03 0. 0. 0. 0. 0. 2.45098048e-03 0. 0. 7.35294167e-03
      0. 2.45098048e-03 0. 2.45098048e-03 0. 2.45098048e-03 0. 0. 0. 0.
      4.90196096e-03 0. 0. 0. 1.22549022e-02 0. 2.45098048e-03 0. 0. 0.
      2.45098048e-03 0. 2.45098048e-03 0. 0. 0. 2.45098048e-03 0. 0. 0.
      0. 2.45098048e-03 0. 0. 0. 0. 0. 0. 0. 4.90196096e-03 0. 0. 0. 0.
      4.90196096e-03 0. 0. 0. 0. 0. 0. 0. 4.90196096e-03 0.
      4.90196096e-03 0. 0. 2.45098048e-03 0. 0. 2.45098048e-03
      7.35294167e-03 0. 0. 2.45098048e-03 0. 0. 0. 0. 0. 0. 0. 0. 0. 0.
      0. 2.45098048e-03 0. 2.45098048e-03 0. 0. 0. 2.45098048e-03 0. 0.
      0. 0. 2.45098048e-03 0. 0. 0. 0. 2.45098048e-03 2.45098048e-03 0.
      0. 0. 0. 0. 0. 0. 0. 2.45098048e-03 2.45098048e-03 0. 0. 0. 0.
      2.45098048e-03 0. 2.45098048e-03 0. 0. 0. 2.45098048e-03 0. 0. 0.
      0. 0. 2.45098048e-03 0. 2.45098048e-03 0. 0. 0. 0. 0.
      2.45098048e-03 2.45098048e-03 0. 0. 0. 2.45098048e-03
      2.45098048e-03 0. 0. 0. 0. 0. 0. 0. 2.45098048e-03 0. 0. 0.
      2.45098048e-03 2.45098048e-03 0. 0. 2.45098048e-03 0. 0.
      2.45098048e-03 0. 0. 0. 0. 2.45098048e-03 0. 0. 0. 0.
      2.45098048e-03 0. 0. 2.45098048e-03 0. 2.45098048e-03 0. 0. 0. 0.
      2.45098048e-03 0. 0. 0. 0. 1.22549022e-02 0. 0. 2.45098048e-03 0.
      0. 0. 2.45098048e-03 0. 0. 0. 0. 2.45098048e-03 0. 2.45098048e-03
      0. 0. 0. 2.45098048e-03 2.45098048e-03 2.45098048e-03 0. 0.
      4.90196096e-03 0. 0. 0. 0. 0. 0. 0. 0. 0. 0. 2.45098048e-03
      2.45098048e-03 0. 0. 2.45098048e-03 0. 0. 0. 2.45098048e-03 0. 0.
      4.90196096e-03 0. 0. 0. 0. 0. 0. 0. 0. 2.45098048e-03 0. 0. 0. 0.
      2.45098048e-03 0. 0. 0. 0. 0. 0. 2.45098048e-03 0. 0.
      2.45098048e-03 0. 4.90196096e-03 0. 0. 0. 0. 0. 0. 2.45098048e-03
      0. 2.45098048e-03 0. 0. 0. 0. 0. 0. 2.45098048e-03 0. 0.
      2.45098048e-03 0. 9.80392192e-03 0. 4.90196096e-03 0. 0. 0. 0.
      1.71568636e-02 0. 0. 0. 0. 0. 2.45098048e-03 0. 2.45098048e-03
      7.35294167e-03 0. 0. 4.90196096e-03 2.45098048e-03 0. 0.
      2.45098048e-03 2.45098048e-03 2.45098048e-03 0. 2.45098048e-03
      2.45098048e-03 0. 0. 0. 2.45098048e-03 0. 0. 0. 0. 0.
      2.45098048e-03 0. 0. 0. 0. 0. 2.45098048e-03 0. 0. 0. 0. 0. 0. 0.
      4.90196096e-03 0. 2.45098048e-03 2.45098048e-03 0. 0. 0.
      4.90196096e-03 0. 0. 2.45098048e-03 0. 0. 0. 2.45098048e-03 0.
      4.90196096e-03 0. 2.45098048e-03 0. 0. 2.45098048e-03 0. 0. 0. 0.
      0. 0. 2.45098048e-03 0. 0. 2.45098048e-03 4.90196096e-03 0.
      2.45098048e-03 0. 2.45098048e-03 2.45098048e-03 0. 0. 0. 0. 0. 0.
      0. 0. 0. 0. 7.35294167e-03 0. 0. 4.90196096e-03 0. 0. 0. 0. 0. 0.
      0. 0. 0. 2.45098048e-03 0. 0. 0. 2.45098048e-03 0. 2.45098048e-03
      2.45098048e-03 0. 4.90196096e-03 0. 0. 0. 2.45098048e-03
      2.45098048e-03 0. 0. 0. 0. 0. 0. 2.45098048e-03 2.45098048e-03 0.
      0. 0. 0. 0. 4.90196096e-03 9.80392192e-03 0. 0. 0. 0. 0. 0.
      2.45098048e-03 2.45098048e-03 0. 2.45098048e-03 0. 0.
      4.90196096e-03 0. 0. 0. 0. 0. 0. 0. 0. 0. 2.45098048e-03 0.
      7.35294167e-03 0. 2.45098048e-03 2.45098048e-03 7.35294167e-03 0.
      0. 0. 2.45098048e-03 4.90196096e-03 2.45098048e-03 0. 0. 0.
      2.45098048e-03 0. 0. 0. 0. 0. 0. 4.90196096e-03 2.45098048e-03 0.
      0. 0. 0. 0. 0. 0. 2.45098048e-03 0. 0. 2.45098048e-03 0. 0. 0. 0.
      0. 0. 2.45098048e-03 2.45098048e-03 0. 4.90196096e-03 0.
      2.45098048e-03 0. 0. 0. 4.90196096e-03 0. 0. 9.80392192e-03 0. 0.
      0. 0. 2.45098048e-03 0. 4.90196096e-03 2.45098048e-03 0. 0. 0.
      2.45098048e-03 0. 0. 2.45098048e-03 0. 4.90196096e-03 0. 0. 0. 0.
      0. 0. 0. 0. 0. 0. 0. 0. 0. 2.45098048e-03 0. 2.45098048e-03 0. 0.
      4.90196096e-03 2.45098048e-03 0. 0. 0. 2.45098048e-03
      7.35294167e-03 0. 0. 0. 0. 0. 0. 2.45098048e-03 2.45098048e-03 0.
      2.45098048e-03 0. 0. 0. 0. 0. 2.45098048e-03 0. 0. 2.45098048e-03
      0. 0. 0. 2.45098048e-03 0. 0. 0. 9.80392192e-03 2.45098048e-03
      7.35294167e-03 2.45098048e-03 0. 0. 0. 0. 0. 0. 0. 2.45098048e-03
      2.45098048e-03 0. 0. 0. 0. 2.45098048e-03 2.45098048e-03 0. 0. 0.
      2.45098048e-03 0. 0. 0. 2.45098048e-03 0. 2.45098048e-03 0.
      2.45098048e-03 0. 0. 0. 0. 0. 0. 2.45098048e-03 0. 0. 0. 0. 0. 0.
      0. 9.80392192e-03 0. 0. 2.45098048e-03 0. 0. 0. 0. 0. 0.
      2.45098048e-03 0. 4.90196096e-03 0. 0. 0. 2.45098048e-03
      2.45098048e-03 0. 0. 0. 9.80392192e-03 0. 0. 0. 0. 2.45098048e-03
      0. 2.45098048e-03 0. 0. 0. 0. 0. 0. 0. 2.45098048e-03 0. 0. 0. 0.
      0. 0. 2.45098048e-03 0. 0. 0. 0. 0. 0. 2.45098048e-03 0.
      2.45098048e-03 0. 2.45098048e-03 0. 4.90196096e-03 4.90196096e-03
      0. 0. 0. 0. 0. 2.45098048e-03 2.45098048e-03 2.45098048e-03 0.
      2.45098048e-03 0. 2.45098048e-03 2.45098048e-03 0. 2.45098048e-03
      0. 0. 2.45098048e-03 0. 2.45098048e-03 0. 0. 0. 0. 0. 0. 0. 0.
      2.45098048e-03 2.45098048e-03 0. 0. 2.45098048e-03 0. 0. 0. 0. 0.
      0. 2.45098048e-03 0. 0. 0. 0. 0. 0. 7.35294167e-03 2.45098048e-03
      0. 2.45098048e-03 0. 2.45098048e-03 0. 9.80392192e-03 0. 0. 0. 0.
      0. 0. 2.45098048e-03 0. 0. 0. 7.35294167e-03 4.90196096e-03
      2.45098048e-03 0. 2.45098048e-03 0. 0. 0. 0. 2.45098048e-03 0. 0.
      2.45098048e-03 2.45098048e-03 0. 2.45098048e-03 0. 0. 0. 0. 0. 0.
      0. 0. 0. 0. 0. 2.45098048e-03 0. 0. 2.45098048e-03 0. 0. 0. 0.
      2.45098048e-03 0. 0. 0. 0. 2.45098048e-03 0. 0. 0. 2.45098048e-03
      2.45098048e-03 0. 0. 0. 0. 0. 0. 2.45098048e-03 0. 0. 0. 0.
      9.80392192e-03 0. 2.45098048e-03 0. 2.45098048e-03 0. 0.
      2.45098048e-03 0. 0. 0. 0. 0. 0. 2.45098048e-03 0. 0.
      2.45098048e-03 7.35294167e-03 0. 0. 0. 2.45098048e-03
      4.90196096e-03 0. 2.45098048e-03 0. 0. 0. 0. 0. 0. 0. 0. 0. 0.
      2.45098048e-03 2.45098048e-03 2.45098048e-03 4.90196096e-03
      2.45098048e-03 0. 4.90196096e-03 0. 0. 4.90196096e-03 0.
      2.45098048e-03 0. 0. 0. 4.90196096e-03 4.90196096e-03
      2.45098048e-03 0. 0. 0. 0. 0. 0. 0. 0. 0. 0. 0. 0. 0. 0. 0. 0. 0.
      0. 0. 0. 4.90196096e-03 0. 0. 0. 0. 2.45098048e-03 0.
      2.45098048e-03 0. 0. 0. 0. 0. 4.90196096e-03 0. 4.90196096e-03 0.
      0. 2.45098048e-03 0. 4.90196096e-03 2.45098048e-03 0. 0. 0. 0.
      2.45098048e-03 0. 0. 0. 7.35294167e-03 2.45098048e-03 0. 0.
      2.45098048e-03 0. 4.90196096e-03 0. 4.90196096e-03 0. 0. 0. 0. 0.
      0. 2.45098048e-03 0. 0. 0. 4.90196096e-03 4.90196096e-03
      2.45098048e-03 0.</_>
    <_>
      3.94477323e-03 3.94477323e-03 0. 0. 1.97238661e-03 1.97238661e-03
      3.94477323e-03 3.94477323e-03 0. 0. 0. 0. 0. 3.94477323e-03 0. 0.
      1.97238661e-03 0. 1.97238661e-03 1.97238661e-03 0. 0. 0. 0. 0. 0.
      0. 0. 1.97238661e-03 1.97238661e-03 0. 3.94477323e-03 0.
      3.94477323e-03 0. 0. 0. 0. 0. 5.91715984e-03 0. 1.97238661e-03 0.
      0. 0. 0. 0. 3.94477323e-03 0. 1.97238661e-03 0. 0. 0.
